Nombre del Parámetro: module.0.module.0.0.weight
Pesos:
[[0.1268100142478943, 0.01430690847337246, 0.006916288286447525, 0.11093370616436005, 0.050184473395347595, 0.03210745006799698, 0.06659846752882004, -0.08905112743377686, 0.27553799748420715, -0.04387018829584122, 0.03958871588110924, 0.113534115254879, -0.1604224294424057, -0.079642653465271, -0.09571093320846558, 0.10048075765371323, 0.172833651304245, -0.1606663167476654, 0.17654895782470703, -0.019335171207785606, -0.2239600270986557, 0.04388074204325676, -0.026653341948986053, 0.1603727787733078, 0.12050727009773254, 0.06299330294132233, 0.03812849894165993, -0.0020902161486446857, -0.09766590595245361, 0.12321199476718903, -0.008098381571471691, 0.01784384809434414, -0.11573176085948944, 0.017959248274564743, -0.39551419019699097, -0.008836556226015091, 0.09926868975162506, -0.0702967494726181, 0.21181230247020721, 0.11863350868225098, 0.194978266954422, -0.0702848955988884, -0.09445858746767044, 0.10787742584943771, -0.043970737606287, 0.054901886731386185, -0.01621495559811592, 0.0753151997923851, -0.039653487503528595, -0.002959305187687278, 0.21539419889450073, -0.031920675188302994, 0.06409000605344772, 0.17649570107460022, 0.0836828425526619, -0.007448631338775158, -0.030583124607801437, -0.046002671122550964, -0.28261953592300415, 0.1591540277004242, -0.014390313997864723, 0.15776367485523224, -0.11723507195711136, -0.005452023819088936, 0.10588148981332779, 0.10824242234230042], [0.18553663790225983, 0.1909567415714264, 0.09219668060541153, 0.0374566912651062, 0.03257543221116066, 0.17434529960155487, -0.04571674019098282, 0.0607735738158226, -0.09171042591333389, -0.18025505542755127, 0.10114425420761108, 0.11547096073627472, -0.024932051077485085, -0.08698579668998718, -0.04657771438360214, 0.16365894675254822, -0.011908888816833496, 0.1936454176902771, 0.15692155063152313, -0.014259394258260727, -0.10605061799287796, -0.03555963188409805, -0.08596780151128769, 0.2029874473810196, -0.07456142455339432, 0.20228227972984314, 0.03412213921546936, -0.04906604439020157, -0.12420285493135452, -0.1603263020515442, -0.004424055106937885, 0.14085787534713745, -0.2315785437822342, 0.1814674586057663, -0.013784649781882763, 0.06171903386712074, 0.1271212249994278, 0.1861068159341812, -0.07818875461816788, -0.046173784881830215, 0.041220784187316895, 0.0915379747748375, -0.006269897799938917, 0.02341330796480179, 0.0024275195319205523, 0.03717941418290138, 0.11029475182294846, -0.08360181748867035, 0.020028648898005486, -0.281605064868927, -0.34278416633605957, -0.0055433595553040504, 0.20403218269348145, -0.10510126501321793, -0.036440160125494, -0.08617085218429565, -0.015039397403597832, 0.06338503211736679, 0.04007131606340408, 0.051340699195861816, 0.23936572670936584, -0.12309931963682175, 0.02189059369266033, 0.06274770200252533, -0.2456316351890564, 0.08657330274581909], [-0.0888160690665245, 0.11798925697803497, 0.03281845152378082, -0.024192098528146744, -0.04598245769739151, -0.3074488043785095, -0.05501626431941986, 0.05781279131770134, 0.05823809653520584, -0.09149675816297531, -0.11114603281021118, 0.052761562168598175, -0.23300732672214508, 0.11634112894535065, -0.19164811074733734, 0.08504021912813187, -0.06784181296825409, -0.13067397475242615, -0.018503770232200623, -0.2095540314912796, -0.0830039530992508, -0.08170513808727264, 0.054666172713041306, 0.10959786921739578, -0.1530648022890091, 0.14026771485805511, -0.07628654688596725, -0.02048639766871929, -0.059750594198703766, 0.18494679033756256, 0.19792264699935913, -0.10178744047880173, 0.008813492953777313, 0.058299485594034195, 0.20114019513130188, -0.03463016077876091, 0.04211321100592613, 0.1404121369123459, 0.10243065655231476, -0.10000064969062805, 0.05629183351993561, -0.12302663922309875, 0.2844151258468628, -0.005396827589720488, -0.15236790478229523, -0.07494936883449554, 0.1677432656288147, -0.019499342888593674, -0.11778654903173447, 0.03635063394904137, -0.17496225237846375, 0.012893946841359138, -0.2718663513660431, 0.22856569290161133, -0.05544006824493408, 0.02572874166071415, -0.06117047742009163, 0.05228967219591141, -0.12320856750011444, 0.1079440638422966, 0.015105895698070526, -0.18428470194339752, -0.012501140125095844, 0.19111981987953186, -0.2387220561504364, -0.13145966827869415], [0.258937269449234, -0.09887070208787918, 0.03872385621070862, 0.18807917833328247, 0.13706833124160767, 0.22777590155601501, 0.010952208191156387, -0.04645969346165657, 0.21880389750003815, 0.0062430910766124725, -0.1069425418972969, -0.08686525374650955, 0.09978428483009338, 0.3200138509273529, -0.18491944670677185, 0.18232375383377075, -0.11708953231573105, 0.026770975440740585, -0.20595942437648773, -0.00872850976884365, 0.1905117779970169, -0.03986812010407448, 0.02988598868250847, 0.055817726999521255, -0.21901296079158783, 0.21079786121845245, 0.060709867626428604, -0.13502396643161774, -0.09071265161037445, 0.044470034539699554, 0.0768316388130188, 0.03692774102091789, -0.045476075261831284, -0.00022217420337256044, -0.1503036916255951, -0.1288994997739792, 0.030479973182082176, 0.09843581914901733, 0.0793968215584755, 0.049290139228105545, -0.12059210985898972, -0.056565843522548676, 0.029852120205760002, -0.07769320160150528, 0.03599017113447189, -0.19715754687786102, 0.0792412981390953, 0.13684481382369995, -0.16641876101493835, -0.007135884836316109, 0.0034491661936044693, 0.14306505024433136, -0.009703567251563072, -0.03306388854980469, 0.018823500722646713, 0.06234290078282356, 0.12022478878498077, -0.07575760781764984, -0.02705054171383381, -0.06658267229795456, -0.012265138328075409, -0.14500318467617035, 0.2256314605474472, -0.18011422455310822, -0.1225675418972969, -0.22515521943569183], [-0.05257255584001541, -0.0949135273694992, 0.1789863109588623, 0.02837633714079857, 0.08845213800668716, 0.18444165587425232, 0.14344939589500427, 0.1433981955051422, 0.23302426934242249, 0.19956307113170624, 0.04837389290332794, -0.06331326067447662, -0.0005510194459930062, -0.07091475278139114, 0.031064331531524658, 0.032333359122276306, 0.1917148381471634, 0.2189738154411316, 0.03260425105690956, -0.2050096094608307, 0.10093024373054504, -0.2510681450366974, 0.13051874935626984, -0.06076686084270477, 0.09903004765510559, -0.03576266020536423, 0.053273554891347885, -0.04839729145169258, -0.03432568162679672, -0.015412362292408943, -0.06845464557409286, -0.18685676157474518, 0.09409233182668686, 0.21907588839530945, -0.08853378146886826, -0.051104698330163956, -0.13555783033370972, -0.11310027539730072, -0.08821751177310944, -0.06128846853971481, 0.13798649609088898, -0.1897159069776535, 0.11794817447662354, -0.1133262887597084, -0.005576973780989647, 0.0627557560801506, -0.1421821564435959, 0.15967395901679993, -0.11637429147958755, 0.07496079802513123, -0.1879579871892929, -0.21785424649715424, -0.10465040802955627, -0.06578600406646729, 0.03810141608119011, 0.02924087643623352, 0.11507397145032883, -0.0346856415271759, -0.09767051786184311, 0.06405529379844666, 0.1837543249130249, -0.09296486526727676, 0.03326008841395378, 0.14051657915115356, -0.06551339477300644, 0.04218602925539017], [-0.1272687464952469, -0.08175774663686752, -0.15959423780441284, 0.08114457130432129, -0.12252295017242432, -0.0050070383585989475, 0.20139256119728088, 0.12548141181468964, -0.08343102037906647, -0.15558041632175446, 0.11962277442216873, 0.10486254841089249, 0.2767381966114044, 0.11599460244178772, 0.3025268614292145, -0.002941049635410309, 0.00882243923842907, 0.028957024216651917, 0.24139387905597687, 0.02564510516822338, 0.019683364778757095, -0.032838910818099976, -0.23501810431480408, -0.1698998063802719, 0.1226964071393013, -0.2671980857849121, -0.14458557963371277, -0.2519576847553253, -0.09034358710050583, -0.007019737735390663, 0.06692350655794144, 0.09015358239412308, 0.059059999883174896, -0.05415176600217819, -0.04197438061237335, 0.13877668976783752, 0.15473254024982452, -0.08648047596216202, 0.35334086418151855, 0.015953369438648224, 0.12686309218406677, -0.11920323222875595, 0.24339652061462402, 0.06219800189137459, 0.09391995519399643, -0.08676718920469284, 0.011323515325784683, 0.11694084107875824, -0.08567974716424942, 0.05334445834159851, 0.008385584689676762, 0.06922276318073273, 0.04481948912143707, 0.032364919781684875, 0.039767757058143616, -0.013983413577079773, -0.1333368420600891, 0.15829530358314514, -0.00729665532708168, -0.04540465027093887, -0.02219071052968502, 0.14524082839488983, 0.09773659706115723, -0.07882966101169586, -0.05469541624188423, -0.035322774201631546], [-0.20381899178028107, 0.08194206655025482, 0.06857054680585861, -0.12268241494894028, 0.04012877866625786, 0.14085492491722107, 0.1135193258523941, 0.006848630029708147, 0.11519839614629745, -0.0541534498333931, 0.025287561118602753, -0.19882246851921082, 0.07237542420625687, -0.26937758922576904, 0.023830628022551537, -0.08903171867132187, -0.15044036507606506, -0.22198982536792755, -0.1756688803434372, 0.06078796088695526, -0.12702584266662598, -0.07959172874689102, -0.01449902169406414, 0.11279868334531784, 0.24977241456508636, 0.21593323349952698, -0.016248639672994614, 0.2681235671043396, -0.10399162024259567, -0.05616586655378342, 0.16900399327278137, -0.20944342017173767, 0.0711856409907341, 0.0038065908011049032, -0.006489001680165529, 0.18245857954025269, -0.02066946215927601, 0.02699185349047184, 0.05622048303484917, 0.08958129584789276, -0.12649554014205933, 0.06881725043058395, 0.18259155750274658, 0.007133420091122389, 0.05984510853886604, -0.18315115571022034, -0.07515402138233185, -0.1166006550192833, -0.13318534195423126, 0.05768514797091484, -0.12402066588401794, 0.15603524446487427, 0.22145786881446838, 0.03463808447122574, 0.12011795490980148, 0.03391479700803757, -0.0987711027264595, -0.034511443227529526, -0.027374137192964554, 0.016959501430392265, 0.04011612758040428, 0.060142189264297485, 0.2529021203517914, -0.08032619208097458, 0.0357857309281826, 0.04729555919766426], [-0.02946116216480732, -0.19292058050632477, -0.21293558180332184, 0.11571519821882248, -0.2683054506778717, -0.00916696060448885, -0.06811024248600006, -0.01398142147809267, 0.14508385956287384, 0.021865565329790115, 0.058011654764413834, -0.0015636777970939875, 0.13093414902687073, -0.022086288779973984, 0.10002006590366364, -0.1804105043411255, 0.010960462503135204, -0.2614312171936035, 0.11514585465192795, 0.2136225551366806, 0.0006364508881233633, -0.08304648846387863, -0.07793034613132477, -0.047057729214429855, 0.02767188660800457, 0.009925974532961845, 0.06252357363700867, 0.04483601823449135, -0.20505820214748383, -0.15617236495018005, -0.020646855235099792, -0.03384413570165634, -0.18569599092006683, 0.03313595801591873, -0.22052216529846191, 0.043280430138111115, -0.2564134895801544, -0.008646195754408836, -0.17440573871135712, -0.09392578899860382, 0.12761038541793823, 0.05815953388810158, 0.0795213058590889, -0.021171793341636658, 0.23337294161319733, -0.25339275598526, 0.24096663296222687, -0.0276308786123991, 0.08170110732316971, 0.08584056794643402, -0.08968796581029892, -0.09837187081575394, -0.0446067713201046, -0.04329083859920502, -0.008828321471810341, -0.054830435663461685, -0.0038636247627437115, -0.10306493192911148, 0.03650384768843651, -0.030846688896417618, -0.13301019370555878, -0.08382726460695267, -0.2311185747385025, 0.16181258857250214, -0.052147842943668365, -0.12296508252620697], [-0.04867328330874443, -0.1263052225112915, 0.08045864850282669, 0.15767423808574677, 0.14742499589920044, -0.16732686758041382, 0.10715150088071823, -0.21725130081176758, -0.06368698179721832, -0.14152544736862183, -0.009793882258236408, -0.23808728158473969, -0.061256345361471176, -0.014002889394760132, -0.01796877011656761, -0.028294416144490242, 0.005167646333575249, 0.10730450600385666, 0.06511245667934418, 0.06285646557807922, -0.008892638608813286, 0.08780046552419662, 0.06658481061458588, 0.2287956029176712, -0.3027215301990509, -0.04567291587591171, 0.10722719877958298, -0.20203039050102234, 0.0800592377781868, 0.09063079208135605, 0.0061243996024131775, -0.2105453908443451, -0.19142012298107147, 0.07645536214113235, -0.015360449440777302, -0.14037612080574036, 0.05480412393808365, -0.1759124994277954, 0.10846368968486786, -0.024013405665755272, -0.11950978636741638, -0.015868693590164185, 0.03763922303915024, 0.132065087556839, 0.019621415063738823, 0.027249585837125778, -0.0012074554106220603, -0.14260992407798767, -0.10530228167772293, 0.12101385742425919, -0.3804875612258911, -0.08451979607343674, -0.036472611129283905, -0.07022079825401306, 0.11844126135110855, 0.022399190813302994, 0.01003766804933548, -0.07864780724048615, 0.25281551480293274, 0.26167619228363037, -0.011291134171187878, 0.13828252255916595, 0.0028723597060889006, 0.02373230829834938, 0.11562346667051315, -0.018373167142271996], [-0.04933595657348633, -0.04037442430853844, 0.09506959468126297, 0.06799604743719101, -0.09609086811542511, 0.10595958679914474, -0.06992777436971664, -0.020175430923700333, -0.050836872309446335, -0.13866741955280304, -0.11041022837162018, 0.049362871795892715, 0.24074289202690125, -0.14485237002372742, 0.11245855689048767, -0.05672601982951164, 0.0721190944314003, -0.13269072771072388, 0.283294141292572, 0.028347685933113098, -0.10196977108716965, -0.3409273326396942, -0.01810280978679657, 0.0547865554690361, 0.032222017645835876, -0.1317214071750641, -0.33479610085487366, -0.1075463816523552, 0.16919301450252533, 0.15706786513328552, 0.07808714359998703, 0.06375320255756378, 0.023336630314588547, 0.19961072504520416, -0.12418288737535477, -0.1679200530052185, -0.19362887740135193, 0.06385517120361328, -0.023514019325375557, -0.06608572602272034, -0.1797790825366974, 0.08197955787181854, -0.15422363579273224, -0.20555126667022705, -0.023289797827601433, 0.002647611778229475, 0.08022850751876831, -0.13958126306533813, 0.046435460448265076, -0.0832882970571518, 0.10464280098676682, 0.09939275681972504, 0.014984735287725925, 0.18438850343227386, -0.0036584974732249975, 0.1309463381767273, 0.1106213629245758, 0.1638183295726776, -0.0222739577293396, -0.0884496197104454, -0.1273317039012909, 0.008250786922872066, 0.15416504442691803, 0.10095761716365814, 0.2557526230812073, -0.00841761939227581], [0.12371088564395905, -0.10551837831735611, 0.10736078768968582, 0.10442312061786652, 0.1323401778936386, 0.020826606079936028, 0.17440064251422882, 0.032512079924345016, 0.12899869680404663, -0.11566022038459778, -0.0006537955487146974, 0.07754626125097275, -0.14470911026000977, -0.15221889317035675, -0.19507275521755219, -0.1946684569120407, 0.05843677371740341, -0.08674903213977814, -0.09276334196329117, 0.06943675875663757, -0.15959833562374115, -0.13303746283054352, -0.3024139404296875, -0.09866596758365631, -0.11887762695550919, -0.4430457651615143, 0.10479369759559631, 0.028296852484345436, -0.021010058000683784, 0.1153675764799118, -0.1054736077785492, 0.1248471587896347, 0.2454719990491867, 0.06718844920396805, 0.10704325139522552, 0.11420179903507233, 0.02985597960650921, 0.11671409755945206, -0.0597933754324913, -0.010026386938989162, -0.16623006761074066, 0.00551822641864419, -0.02771824039518833, -0.05349462106823921, 0.16336503624916077, -0.15506330132484436, 0.024748090654611588, 0.07070337235927582, 0.20068314671516418, 0.02992013283073902, 0.0005651596584357321, -0.16991592943668365, 0.12109336256980896, 0.06261839717626572, 0.04534189775586128, -0.1227484717965126, -0.12663449347019196, 0.11671938002109528, -0.013206364586949348, 0.10091325640678406, -0.10406169295310974, -0.06729626655578613, 0.033579010516405106, -0.05867260694503784, -0.04099256545305252, -0.010823550634086132], [-0.0010033787693828344, 0.04096274450421333, -0.148232564330101, -0.037580493837594986, -0.10880027711391449, -0.1409265100955963, 0.09037474542856216, 0.008491692133247852, 0.1698942482471466, -0.1445688009262085, 0.11678852140903473, -0.21156011521816254, -0.1613234132528305, 0.1743907332420349, 0.18626415729522705, 0.16934418678283691, -0.01359016727656126, 0.02736082673072815, -0.24017995595932007, 0.046879883855581284, 0.11301586776971817, -0.11117325723171234, 0.09393644332885742, 0.2093239575624466, -0.15929006040096283, -0.12003658711910248, -0.3044840693473816, 0.0959923267364502, 0.06273354589939117, -0.16599741578102112, 0.10978034883737564, 0.001135359168983996, -0.11464755237102509, 8.810498547973111e-05, -0.032973624765872955, -0.028472431004047394, 0.026364007964730263, -0.061684396117925644, -0.05580911785364151, -0.02537694200873375, 0.008525475859642029, -0.23051966726779938, 0.014197288081049919, 0.033112719655036926, -0.07380464673042297, 0.004170320928096771, -0.1305219829082489, -0.055243514478206635, 0.13688434660434723, -0.2105020433664322, 0.129739910364151, -0.21200978755950928, 0.23383161425590515, -0.008329230360686779, -0.1330263316631317, -0.1307157725095749, 0.16460750997066498, 0.050878655165433884, -0.04704872518777847, 0.2411838322877884, 0.07632455974817276, -0.08478271216154099, 0.027048250660300255, -0.09852861613035202, -0.026818465441465378, -0.15458092093467712], [0.06205185875296593, 0.011592310853302479, -0.03125237300992012, 0.1485937237739563, -0.018404606729745865, -0.15066587924957275, 0.03746400400996208, 0.08449545502662659, -0.17408357560634613, 0.0050306194461882114, -0.1764037013053894, -0.09408876299858093, 0.06399552524089813, -0.18901382386684418, -0.04664791747927666, -0.0012973089469596744, 0.19962254166603088, 0.24585887789726257, -0.02866707183420658, -0.116843082010746, -0.10536675900220871, 0.1279287338256836, 0.013964117504656315, 0.08832006901502609, 0.025483697652816772, 0.13986048102378845, 0.0043877107091248035, 0.1539553999900818, -0.06233450397849083, -0.08604104816913605, -0.0793013796210289, -0.14528706669807434, 0.12930402159690857, -0.039001721888780594, -0.14866572618484497, 0.041956957429647446, 0.17888382077217102, 0.1192275732755661, 0.033705126494169235, -0.20131400227546692, -0.0025548008270561695, -0.10271824896335602, -0.014898136258125305, 0.023800289258360863, 0.24189355969429016, -0.10384233295917511, 0.19660890102386475, -0.021743763238191605, -0.03559309244155884, -0.17681056261062622, 0.16845053434371948, 0.02540636993944645, -0.2220083326101303, -0.0022374573163688183, -0.0892370417714119, 0.1693333387374878, 0.17287038266658783, -0.037136856466531754, 0.09546219557523727, 0.3424312472343445, 0.11409599334001541, -0.07076160609722137, 0.04592009261250496, -0.14982062578201294, -0.02571924589574337, -0.16387133300304413], [-0.016527248546481133, -0.2608877122402191, -0.06974314898252487, -0.07143541425466537, -0.11249670386314392, -0.1521768420934677, -0.02429848164319992, -0.0515478141605854, -0.1922835111618042, 0.1534053385257721, 0.10958829522132874, -0.01747051067650318, 0.021275781095027924, -0.010870982892811298, -0.11455190181732178, -0.09941968321800232, 0.15126867592334747, -0.17746008932590485, 0.1600504219532013, 0.28377261757850647, -0.016377335414290428, 0.05942295864224434, 0.019596703350543976, 0.06641528010368347, -0.04936281964182854, 0.021245885640382767, -0.09160781651735306, -0.0834101140499115, 0.0006111518596298993, -0.01777307130396366, 0.12425358593463898, -0.07030761241912842, 0.32013678550720215, 0.07306648045778275, -0.11056561022996902, 0.1319396048784256, 0.12673784792423248, 0.10687089711427689, 0.003423022571951151, 0.1897551268339157, -0.050630707293748856, 0.07309312373399734, -0.13436798751354218, -0.2635786533355713, -0.01390765979886055, 0.050946347415447235, -0.07488296180963516, -0.0065681240521371365, -0.06876560300588608, 0.03934970870614052, -0.016853390261530876, -0.07689869403839111, -0.0932328850030899, -0.3378904461860657, -0.004083362873643637, -0.16983285546302795, -0.007093400694429874, 0.13143116235733032, -0.26398321986198425, -0.022468391805887222, 0.1405734121799469, 0.06229403242468834, 0.18843397498130798, 0.048082467168569565, -0.030590899288654327, -0.011940724216401577], [0.10933838039636612, 0.07569659501314163, 0.049515772610902786, -0.015797339379787445, 0.06521102041006088, 0.0498926006257534, -0.14927378296852112, 0.007420227862894535, -0.06245024874806404, -0.0033506937325000763, 0.021925801411271095, -0.06728889793157578, 0.1514737457036972, 0.04384865239262581, -0.0334450863301754, 0.1211981400847435, 0.1404104381799698, -0.15574917197227478, 0.021494906395673752, -0.0404646173119545, 0.06263407319784164, -0.061947714537382126, 0.07230833172798157, 0.23190681636333466, 0.27401816844940186, -0.0038575970102101564, -0.017580803483724594, -0.050886623561382294, 0.0343107134103775, 0.21898029744625092, -0.11515603214502335, -0.061068713665008545, -0.1056058406829834, 0.14825035631656647, 0.18218635022640228, 0.009186496958136559, 0.2163156121969223, -0.07478981465101242, 0.09260765463113785, 0.04391823709011078, -0.07832429558038712, -0.11408117413520813, -0.1300184577703476, 0.0016940877540037036, -0.05987882614135742, -0.2463468760251999, 0.14441414177417755, 0.0035306750796735287, 0.020334921777248383, 0.07201531529426575, 0.10747777670621872, -0.14039431512355804, -0.010318576358258724, -0.034237973392009735, 0.032393038272857666, -0.33618542551994324, 0.040296830236911774, -0.31780609488487244, 0.16133105754852295, -0.054507866501808167, -0.1145237535238266, 0.05370186269283295, -0.04318605735898018, -0.10778424143791199, -0.23333247005939484, -0.010346833616495132], [-0.059364162385463715, -0.004631517454981804, -0.015564276836812496, -0.13183052837848663, 0.1380658596754074, -0.040823377668857574, 0.0873907282948494, -0.046704698354005814, -0.008720144629478455, 0.23198576271533966, 0.30660104751586914, -0.25666120648384094, -0.005703756585717201, -0.10358141362667084, 0.029709435999393463, 0.0227309949696064, -0.0952383428812027, -0.10387400537729263, 0.20145881175994873, 0.07720223814249039, 0.018123723566532135, -0.11823219060897827, -0.08229593932628632, -0.1618635058403015, -0.03600369393825531, 0.050943877547979355, 0.20983414351940155, -0.020762285217642784, 0.07548348605632782, 0.005412870552390814, -0.027065766975283623, 0.28167033195495605, 0.10170503705739975, 0.1400420069694519, -0.1464303880929947, 0.08038024604320526, -0.11266211420297623, 0.21470031142234802, 0.3648378551006317, -0.14188526570796967, 0.0034726916346699, -0.15908746421337128, 0.0021159076131880283, 0.11524034291505814, -0.07019379734992981, -0.09106945991516113, 0.003904474899172783, -0.3011518716812134, 0.12935197353363037, -0.033831462264060974, 0.17729921638965607, -0.03775278478860855, -0.05011214315891266, -0.13199454545974731, -0.03830574080348015, 0.054841719567775726, -0.06612953543663025, 0.04158258065581322, 0.05788728594779968, -0.15770915150642395, -0.1086462140083313, -0.10764524340629578, 0.009846704080700874, 0.07339806109666824, 0.14612074196338654, 0.029052719473838806], [-0.1729707270860672, 0.0028529444243758917, 0.057662300765514374, -0.07002303004264832, -0.2495761215686798, 0.15394099056720734, -0.037259720265865326, -0.13971814513206482, -0.09251125901937485, 0.21286159753799438, 0.07592082768678665, -0.05258611589670181, -0.1309444159269333, -0.13206012547016144, -0.24867494404315948, -0.02929447405040264, 0.09947536140680313, -0.14680872857570648, -0.08249346911907196, -0.10355221480131149, 0.04059280455112457, 0.03989443928003311, -0.1841660439968109, -0.015330541878938675, 0.04414231330156326, -0.13595706224441528, -0.22005140781402588, -0.0693519189953804, 0.09187261760234833, -0.08217091113328934, -0.014355313032865524, 0.1820801943540573, -0.03460207208991051, -0.11679432541131973, -0.005904079880565405, -0.15249322354793549, 0.1342800110578537, -0.05830014869570732, 0.08417259901762009, -0.14370138943195343, -0.02233872562646866, -0.020954109728336334, 0.13044437766075134, 0.05229679495096207, 0.08667149394750595, 0.0054808068089187145, 0.13809023797512054, 0.07854168862104416, 0.1129859983921051, -0.02610630728304386, 0.05685993283987045, -0.010072408244013786, 0.10911740362644196, -0.09298529475927353, 0.3340434432029724, 0.1472340226173401, 0.09462526440620422, -0.14365322887897491, 0.027907906100153923, -0.13555864989757538, 0.2251196801662445, 0.10690697282552719, 0.08766433596611023, 0.2396557480096817, 0.0004046511894557625, -0.08036515861749649], [0.04297264292836189, -0.2903923988342285, -0.014090083539485931, -0.21181859076023102, -0.10017020255327225, 0.0058379280380904675, 0.07268782705068588, -0.06847482919692993, -0.07349977642297745, 0.20005246996879578, -0.0806068629026413, 0.09194500744342804, -0.07607400417327881, 0.050007063895463943, 0.31001442670822144, 0.21826863288879395, 0.06493634730577469, 0.024979570880532265, -0.021750256419181824, -0.01185302622616291, -0.32335609197616577, 0.10981247574090958, 0.05270743742585182, 0.05480425804853439, 0.03620956838130951, -0.033790141344070435, 0.10772058367729187, -0.030195213854312897, 0.2662849426269531, 0.0034984019584953785, -0.0357724092900753, 0.09376514703035355, 0.007324555888772011, 0.08512695878744125, -0.014960812404751778, -0.008426710963249207, 0.16368432343006134, -0.06752586364746094, -0.10205790400505066, -0.15779447555541992, -0.03457723557949066, 0.06472339481115341, 0.04216029495000839, -0.06442194432020187, -0.03667895123362541, -0.43220216035842896, -0.07376109063625336, 0.03799861669540405, -0.06169307976961136, -0.08349333703517914, -0.13211895525455475, -0.10292953252792358, 0.05834139883518219, 0.07506915181875229, 0.007945946417748928, 0.11988749355077744, -0.11918146908283234, 0.05133434757590294, -0.12740837037563324, -0.15290996432304382, -0.0642819032073021, -0.07546668499708176, -0.022519534453749657, -0.0271441787481308, 0.08244866877794266, 0.006325320340692997], [-0.19033677875995636, -0.12014253437519073, -0.18078269064426422, 0.20696698129177094, 0.0030173163395375013, 0.04666140675544739, 0.13385769724845886, 0.1782894730567932, -0.12974803149700165, 0.069771409034729, 0.05171358585357666, -0.1430612951517105, -0.08767266571521759, 0.133662149310112, -0.09864767640829086, 0.021285491064190865, 0.1264321357011795, -0.05169309675693512, -0.15530547499656677, 0.0972544401884079, -0.01652912236750126, 0.08608747273683548, 0.17013806104660034, 0.05869099497795105, 0.04706926271319389, -0.040121275931596756, 0.2182488739490509, 0.017816446721553802, -0.051837146282196045, 0.11725853383541107, 0.129684180021286, 0.11220601946115494, -0.1517496556043625, -0.005503632593899965, 0.055217355489730835, -0.18932145833969116, -0.03694147989153862, 0.014742547646164894, 0.03413870930671692, 0.003416093997657299, 0.04909580573439598, 0.16778109967708588, 0.015237802639603615, -0.22686553001403809, 0.11668583005666733, 0.01638943701982498, -0.08503670245409012, -0.05740087106823921, 0.09885788708925247, -0.166151762008667, 0.10470074415206909, 0.06991815567016602, 0.004747004248201847, 0.21428632736206055, 0.039263542741537094, 0.09788592904806137, -0.005484038032591343, -0.013235964812338352, 0.08625737577676773, 0.10554328560829163, 0.01904701068997383, -0.018436765298247337, 0.11892372369766235, 0.06873530894517899, -0.1942991018295288, 0.4160420894622803], [-0.03875690698623657, 0.026207026094198227, -0.10243680328130722, 0.17667989432811737, 0.07184812426567078, -0.18462972342967987, 0.005317525938153267, 0.30421605706214905, -0.05422209948301315, -0.16156436502933502, -0.10075609385967255, 0.21723449230194092, -0.12564057111740112, -0.026395320892333984, -0.011674781329929829, 0.14312277734279633, 0.0957232192158699, -0.005736052989959717, -0.19813506305217743, 0.07943074405193329, 0.06527701765298843, -0.08703670650720596, -0.10615947097539902, 0.020694637671113014, 0.0280197374522686, 0.06188088655471802, -0.059022098779678345, 0.02294391207396984, 0.10144177824258804, -0.1637844294309616, 0.18915307521820068, 0.008357048965990543, 0.04026442766189575, 0.17563697695732117, -0.044787224382162094, -0.14257201552391052, -0.00594672653824091, 0.16345182061195374, 0.049609553068876266, 0.03385114297270775, -0.1190442368388176, -0.18164442479610443, 0.10849833488464355, 0.04587562382221222, 0.03049521893262863, -0.030504349619150162, 0.04874169081449509, 0.08385034650564194, -0.04286932945251465, 0.013063532300293446, -0.11920475214719772, -0.06025008484721184, -0.057789891958236694, -0.25029024481773376, 0.05673635005950928, -0.003159069921821356, 0.06946997344493866, -0.2203952670097351, -0.015393989160656929, -0.2016041874885559, -0.08319969475269318, 0.06154605746269226, -0.15268740057945251, -0.08944912254810333, 0.27571746706962585, 0.2801826000213623], [0.07794445008039474, 0.08200662583112717, 0.0681668221950531, 0.008535760454833508, -0.2148158997297287, -0.02007777988910675, 0.19107185304164886, 0.14218316972255707, 0.11442888528108597, -0.1078484058380127, 0.17445090413093567, -0.188480406999588, 0.10359471291303635, -0.08759824931621552, -0.024508967995643616, -0.014251378364861012, 0.07372026145458221, 0.004278342705219984, 0.12202727049589157, 0.3616427183151245, -0.22755159437656403, -0.13362009823322296, 0.15287715196609497, -0.3274489641189575, -0.01166468020528555, -0.055870991200208664, 0.11901326477527618, -0.09997737407684326, 0.04456128925085068, -0.06912480294704437, 0.1908491551876068, -0.0293793473392725, 0.14659778773784637, -0.10458208620548248, -0.02816663682460785, 0.023452283814549446, 0.175683856010437, -0.12059789896011353, -0.093612439930439, -0.1573350876569748, -0.21269294619560242, 0.05131115764379501, -0.1202712282538414, 0.20102337002754211, -0.22053398191928864, -0.12072145193815231, 0.08156172931194305, 0.2036515474319458, 0.13664500415325165, 0.01466783881187439, 0.11437530070543289, 0.18075202405452728, -0.052034057676792145, 0.05285974219441414, 0.08642694354057312, -0.05467890202999115, 0.09129737317562103, 0.10862366855144501, -0.040902819484472275, -0.1907183825969696, 0.04714024439454079, 0.13224419951438904, -0.12269322574138641, 0.19397008419036865, 0.04466685652732849, 0.027732333168387413], [-0.20259104669094086, -0.13698646426200867, 0.05356786027550697, 0.05291412025690079, -0.08094745874404907, 0.0271567702293396, -0.08497089892625809, -0.1697193682193756, -0.1920998990535736, 0.15588028728961945, 0.14456695318222046, 0.16180334985256195, 0.025562778115272522, 0.028863590210676193, -0.07248072326183319, -0.05756238475441933, 0.0909719467163086, 0.04980328306555748, 0.03524716943502426, 0.07705645263195038, -0.06540048122406006, -0.17435386776924133, -0.21709653735160828, 0.027738403528928757, -0.06242832541465759, 0.15492329001426697, 0.016338637098670006, 0.14520393311977386, -0.1925927698612213, -0.05992167070508003, -0.09561963379383087, -0.07788035273551941, -0.1605905145406723, 0.03974158689379692, -0.041981711983680725, -0.11276240646839142, 0.004668528214097023, -0.047643814235925674, -0.0008129354100674391, -0.1862614005804062, -0.29378679394721985, -0.03480421006679535, 0.13338032364845276, 0.1866263449192047, -0.10824092477560043, 0.02477525919675827, -0.17221668362617493, 0.16941414773464203, -0.07436259090900421, 0.17996938526630402, 0.1635821908712387, 0.026170454919338226, 0.004809326957911253, 0.13076232373714447, -0.2000683844089508, -0.21221783757209778, 0.07878290116786957, 0.11974169313907623, 0.04924904555082321, -0.03989914059638977, 0.022132815793156624, -0.15049627423286438, 0.12299275398254395, -0.13764643669128418, -0.02008243091404438, 0.18386118113994598], [0.12149432301521301, -0.061754778027534485, 0.19567546248435974, -0.0022453302517533302, -0.0822216272354126, -0.16158808767795563, 0.163065567612648, -0.08985523879528046, 0.22800537943840027, -0.10359782725572586, -0.10625582933425903, -0.051594484597444534, -0.01045234128832817, 0.16153152287006378, 0.038256965577602386, 0.0708390325307846, 0.0424712635576725, 0.009098520502448082, -0.05721956491470337, 0.11255093663930893, -0.10126668214797974, 0.03729759156703949, -0.09727299213409424, 0.24235425889492035, -0.14164090156555176, -0.01153131015598774, -0.1548476368188858, 0.19865354895591736, -0.08158602565526962, 0.07515633851289749, -0.24364887177944183, -0.18999327719211578, 0.031736597418785095, -0.052859269082546234, 0.019385963678359985, 0.06832907348871231, -0.13819573819637299, -0.07151956856250763, 0.11533588916063309, -0.09402398020029068, 0.1751808524131775, -0.09040161222219467, -0.10986168682575226, -0.07280952483415604, -0.085852712392807, 0.09247533231973648, 0.13038760423660278, 0.05648847669363022, -0.04362763464450836, -0.12523476779460907, -0.03255274519324303, -0.014155668206512928, -0.0999438688158989, -0.08866088092327118, -0.09766001254320145, 0.17015835642814636, -0.10700216144323349, -0.1427825540304184, 0.2649037539958954, -0.2969610095024109, 0.10921590775251389, -0.06276562809944153, 0.15787124633789062, -0.08306223154067993, -0.15637058019638062, 0.22692397236824036], [0.12071124464273453, 0.13283337652683258, -0.00339929829351604, 0.18543323874473572, 0.07403095066547394, -0.04984159767627716, 0.0017604758031666279, -0.014736413024365902, -0.0712006539106369, 0.005813668016344309, -0.04956047981977463, 0.03691350668668747, -0.11505385488271713, 0.10550127923488617, 0.13096493482589722, -0.12490451335906982, 0.13618645071983337, -0.001017610658891499, -0.07578200101852417, 0.07873904705047607, 0.03451121598482132, -0.12219371646642685, -0.048438504338264465, 0.2310824990272522, -0.06950071454048157, -0.0702928975224495, 0.16891224682331085, -0.15518440306186676, 0.04418226704001427, 0.032071858644485474, -0.14635182917118073, -0.2387143224477768, 0.057525139302015305, -0.041704654693603516, 0.02937636338174343, -0.005828829016536474, 0.014024383388459682, 0.21437294781208038, -0.1640079766511917, -0.07698434591293335, 0.33966749906539917, 0.09088198095560074, 0.22037720680236816, 0.05513230711221695, -0.26279544830322266, -0.1256653368473053, -0.022531455382704735, -0.256094366312027, -0.06448820233345032, 0.058024171739816666, 0.15928451716899872, 0.055508892983198166, 0.12320712208747864, -0.042466938495635986, 0.09183644503355026, -0.04505700618028641, 0.28573060035705566, 0.03227963671088219, -0.061504755169153214, -0.06067998334765434, -0.03186905011534691, 0.12159071117639542, 0.0934709832072258, 0.06474456936120987, -0.10096019506454468, -0.0357554592192173], [0.19272655248641968, 0.10045840591192245, 0.1406487375497818, 0.38396820425987244, -0.1604165881872177, -0.05547648295760155, -0.14877279102802277, 0.017434891313314438, -0.05631095916032791, 0.00770491873845458, 0.08385815471410751, -0.03330951929092407, -0.10572385042905807, -0.030145665630698204, 0.035631418228149414, -0.060343824326992035, -0.03256191313266754, 0.0937722846865654, 0.1708538830280304, -0.001813038601540029, -0.05955503135919571, 0.08411125093698502, 0.09101978689432144, -0.13498251140117645, 0.03906382620334625, 0.08526110649108887, 0.01195983961224556, 0.10441546142101288, 0.08305846899747849, -0.13677248358726501, 0.03373141214251518, -0.016288522630929947, 0.025770580396056175, 0.08091644942760468, 0.011556589975953102, -0.027508161962032318, -0.007350642699748278, -0.16152521967887878, 0.09669478982686996, 0.29377254843711853, -0.09676473587751389, -0.002357689430937171, 0.2609407305717468, -0.1430058628320694, -0.10018502175807953, -0.1250126212835312, -0.0004587422008626163, -0.0024452153593301773, 0.2510813772678375, 0.11907794326543808, 0.07763729989528656, -0.3121848404407501, 0.07973618060350418, 0.026965070515871048, -0.14737550914287567, 0.2214372307062149, -0.09080573916435242, 0.006255481392145157, 0.045949503779411316, -0.09833763539791107, -0.05252799019217491, 0.12083186954259872, 0.19306500256061554, 0.024588104337453842, -0.0534055233001709, -0.07859781384468079], [0.026823177933692932, -0.1281479448080063, 0.03633827343583107, -0.00401809997856617, 0.07937993109226227, -0.2148621678352356, -0.16727177798748016, 0.03970104828476906, -0.0969998762011528, -0.23401667177677155, -0.0950891301035881, -0.21068443357944489, -0.13320359587669373, 0.020383523777127266, 0.06696321070194244, -0.0023847876582294703, 0.08581595867872238, -0.10228557139635086, -0.0858234167098999, -0.043458759784698486, -0.0605786107480526, -0.04631055146455765, -0.0073956591077148914, -0.1401955932378769, 0.12263212352991104, 0.13853101432323456, 0.08200234919786453, -0.13108260929584503, -0.14667975902557373, 0.015332462266087532, -0.03609636053442955, 0.15593457221984863, 0.0331508107483387, 0.07581403106451035, 0.0032065564300864935, -0.19589605927467346, -0.11915294080972672, -0.10802754014730453, -0.2176314741373062, 0.04992331564426422, 0.07255372405052185, -0.13064450025558472, -0.1392837017774582, 0.17728853225708008, -0.013614806346595287, 0.026987235993146896, 0.1781211495399475, -0.05441467836499214, -0.2568475604057312, 0.1264902949333191, 0.11870362609624863, -0.1985863298177719, 0.1431434601545334, 0.03259272500872612, 0.15649478137493134, 0.04723987728357315, -0.15712934732437134, 0.17818482220172882, 0.04824002832174301, -0.09337598830461502, 0.27531588077545166, -0.09926825761795044, 0.07380008697509766, -0.17621715366840363, -0.01218197401612997, -0.05736171826720238], [0.09776969999074936, 0.04429011046886444, 0.09587655961513519, -0.08005574345588684, -0.13518576323986053, -0.05783065780997276, -0.2024126648902893, -0.21408765017986298, 0.02103351056575775, -0.03452299162745476, 0.07687032967805862, -0.15169177949428558, -0.24451003968715668, 0.12313638627529144, -0.00756855821236968, 0.18314464390277863, 0.0010019600158557296, 0.0690080001950264, 0.1042676493525505, 0.1343221515417099, -0.1271139532327652, -0.13075029850006104, 0.0319431908428669, -0.0853361114859581, 0.1769292801618576, -0.21266330778598785, -0.07108522951602936, -0.07509958744049072, 0.007436580024659634, -0.18479640781879425, 0.10417290776968002, -0.06823822855949402, 0.1716674268245697, -0.04968442767858505, -0.19780981540679932, -0.08741574734449387, 0.1676296442747116, 0.22825434803962708, -0.04090892896056175, 0.05157265439629555, 0.13628347218036652, 0.0688391700387001, 0.020207040011882782, 0.07751448452472687, 0.24147845804691315, 0.14829912781715393, -0.056219059973955154, 0.08208726346492767, -0.0868268609046936, 0.15931640565395355, -0.09286943078041077, -0.002642373787239194, 0.028885314241051674, 0.08948197960853577, 0.09960397332906723, 0.046152226626873016, 0.05216636881232262, -0.02330215647816658, 0.1540849208831787, -0.03564206138253212, -0.39047881960868835, -0.17323385179042816, 0.07846687734127045, -0.060130730271339417, -0.07761916518211365, 0.060304056853055954], [0.17117665708065033, -0.1086309626698494, 0.06649716198444366, 0.01309731975197792, -0.03361855074763298, 0.12384238839149475, -0.0694512277841568, 0.11906396597623825, 0.009523032233119011, 0.12414678931236267, -0.028406504541635513, -0.09760518372058868, 0.08577267080545425, 0.2954772114753723, 0.0034757410176098347, 0.040739063173532486, 0.2219361662864685, -0.04161398485302925, 0.13435395061969757, -0.12858466804027557, -0.15473388135433197, -0.042581707239151, 0.1499498337507248, -0.025930367410182953, -0.13277395069599152, -0.05457489192485809, -0.0798187255859375, 0.07767472416162491, 0.08052729070186615, -0.05741161108016968, 0.17002874612808228, -0.055333588272333145, -0.1210562139749527, 0.1085207611322403, 0.20175056159496307, 0.26538822054862976, -0.05251682922244072, 0.14950034022331238, -0.09962604194879532, -0.16323795914649963, 0.0016354204853996634, -0.008959784172475338, 0.15783880650997162, 0.10415545850992203, 0.16242319345474243, 0.14531949162483215, 0.07331112027168274, -0.08043564110994339, 0.022954674437642097, 0.16203664243221283, 0.19400529563426971, 0.0824543759226799, 0.06181158870458603, -0.09174152463674545, 0.11593092232942581, -0.093883216381073, -0.28382608294487, -0.03171185404062271, 0.05107472091913223, 0.07990729808807373, 0.07288104295730591, 0.148105651140213, 0.029606401920318604, -0.012065435759723186, 0.1806361973285675, 0.06280867010354996], [0.022692829370498657, -0.05631382018327713, -0.04609869420528412, 0.03174653649330139, -0.25599318742752075, 0.016571294516324997, -0.014093413017690182, 0.039406824856996536, 0.0567752942442894, -0.15864485502243042, 0.04845809191465378, 0.0040879384614527225, 0.03739715367555618, -0.12273945659399033, -0.04686965420842171, 0.054654937237501144, 0.15217941999435425, 0.06575669348239899, 0.030253330245614052, 0.12363068759441376, 0.1846838891506195, 0.02236318774521351, 0.16626577079296112, 0.07506539672613144, 0.15066251158714294, -0.1104547306895256, 0.15191268920898438, -0.052586231380701065, 0.08738525956869125, -0.12561236321926117, -0.18196095526218414, 0.03969419375061989, 0.08952192962169647, -0.14768773317337036, 0.17039841413497925, 0.04369445517659187, -0.0637083351612091, 0.1193123310804367, 0.35727864503860474, -0.011566086672246456, -0.014079621061682701, 0.19553916156291962, -0.004767467267811298, -0.059982459992170334, 0.00811914075165987, -0.04940628260374069, 0.09798475354909897, 0.13531853258609772, -0.19405607879161835, 0.1738705188035965, 0.06069816276431084, -0.014090214855968952, 0.22273917496204376, 0.054320432245731354, -0.026027612388134003, -0.0687953308224678, -0.053372398018836975, 0.168919175863266, 0.0028444435447454453, -0.07784328609704971, 0.0650387853384018, -0.32035762071609497, -0.007749112322926521, 0.19804450869560242, 0.37823575735092163, -0.012535029090940952], [-0.11292709410190582, -0.06085928902029991, -0.013997961767017841, -0.13284669816493988, 0.04137842357158661, -0.024666834622621536, -0.1219664141535759, -0.06256642192602158, 0.1363556683063507, -0.026301462203264236, -0.2806302309036255, -0.08656999468803406, 0.2816668450832367, 0.031406987458467484, 0.10659155994653702, -0.06560365855693817, 0.043039802461862564, 0.007956243120133877, -0.08624397963285446, 0.185760959982872, -0.24541933834552765, 0.023919446393847466, -0.07194282114505768, -0.05485470965504646, 0.08521706610918045, -0.17770721018314362, 0.1351037472486496, -0.04305064678192139, -0.11295542865991592, -0.1360267698764801, -0.10035189986228943, 0.22114363312721252, -0.12596817314624786, 0.17652206122875214, 0.10928858071565628, 0.13507308065891266, 0.05115138739347458, 0.15788446366786957, 0.07580651342868805, 0.2101714015007019, -0.14432969689369202, 0.06507840752601624, 0.13678666949272156, 0.17108862102031708, -0.09265275299549103, 0.16987596452236176, -0.0949903056025505, 0.06147570163011551, -0.0001020170166157186, -0.07911241799592972, 0.09285838901996613, -0.1319805532693863, -0.14522136747837067, -0.03580348566174507, 0.02574402280151844, 0.15683771669864655, 0.21004946529865265, -0.06693022698163986, -0.1114019975066185, -0.005048942752182484, 0.006781687028706074, 0.06135116517543793, 0.1206803247332573, 0.2747010290622711, 0.01531648077070713, 0.00467125466093421], [0.21808961033821106, 0.06418438255786896, -0.17745757102966309, 0.11193272471427917, 0.04281691089272499, -0.048476677387952805, -0.01595565490424633, 0.04066538065671921, -0.11289238184690475, -0.041361816227436066, -0.14565818011760712, -0.17830553650856018, -0.21257290244102478, 0.009548635222017765, -0.011394623667001724, -0.06948229670524597, 0.08589909970760345, 0.047407668083906174, -0.12835310399532318, -0.1053653284907341, 0.01963178627192974, 0.020948735997080803, -0.12431870400905609, -0.18080414831638336, -0.01754419319331646, 0.18922020494937897, -0.1990385502576828, -0.13293322920799255, -0.09167329221963882, -0.0766805037856102, -0.1021658256649971, -0.3712388873100281, -0.19588690996170044, 0.2502776086330414, 0.1689338982105255, 0.06157142296433449, -0.052745938301086426, -0.09421856701374054, 0.23145976662635803, -0.14842736721038818, -0.00045676459558308125, 0.0579252652823925, -0.23293054103851318, 0.0006051369127817452, 0.06593959033489227, 0.01586509868502617, -0.3295237720012665, -0.05698959529399872, -0.05677365884184837, -0.15809741616249084, -0.05651770904660225, 0.07888909429311752, 0.041076432913541794, 0.056327495723962784, 0.09445071220397949, 0.02156229317188263, -0.036210544407367706, -0.15382538735866547, -0.12795087695121765, -0.06858180463314056, -0.0686645358800888, -0.17831283807754517, -0.02816258743405342, 0.03084901161491871, -0.19391392171382904, -0.08290689438581467], [-0.06508446484804153, -0.13085761666297913, -0.04687110707163811, -0.0927622839808464, 0.20215147733688354, -0.013497780077159405, 0.08049332350492477, 0.23831461369991302, -0.09739771485328674, 0.09516269713640213, 0.06845899671316147, -0.09078799188137054, -0.05493685603141785, 0.03724687173962593, -0.02547060139477253, 0.20075125992298126, 0.0801708921790123, -0.1982489824295044, 0.06062382087111473, -0.17906953394412994, 0.012482846155762672, -0.08437950164079666, 0.08646098524332047, -0.009547755122184753, -0.0347258597612381, 0.034521203488111496, -0.13181708753108978, -0.053157955408096313, -0.3593204915523529, -0.18739692866802216, -0.1941055804491043, -0.0037097446620464325, 0.02794669382274151, -0.08504379540681839, 0.04443105310201645, 0.16114777326583862, 0.04599224776029587, -0.0218653567135334, 0.004269493278115988, 0.009158649481832981, -0.109716035425663, 0.11302246898412704, -0.07198397815227509, -0.1382027268409729, -0.24823839962482452, 0.038120318204164505, 0.20342494547367096, 0.09715237468481064, 0.06831392645835876, 0.07425963133573532, -0.09875194728374481, -0.05764934793114662, 0.13880175352096558, 0.011764045804738998, 0.050653934478759766, 0.20172905921936035, 0.1712130606174469, 0.12309056520462036, 0.13653159141540527, 0.08029210567474365, -0.25366640090942383, 0.10911723226308823, -0.05016646161675453, -0.043180741369724274, 0.011001423001289368, 0.020512426272034645], [-0.11433114856481552, -0.06865998357534409, -0.109496109187603, 0.1384059339761734, 0.14756329357624054, 0.1993720680475235, -0.10925925523042679, -0.18121212720870972, -0.09565616399049759, -0.35539644956588745, 0.2475655972957611, 0.02024691179394722, -0.03423619642853737, -0.06924403458833694, -0.028331603854894638, -0.04946187883615494, -0.03964950144290924, -0.018239881843328476, -0.25546491146087646, -0.07939242571592331, 0.03880895674228668, 0.012744288891553879, 0.32881540060043335, 0.07909242808818817, -0.1528368443250656, 0.13361580669879913, -0.1779596209526062, 0.030853865668177605, 0.1487698256969452, 0.010195036418735981, -0.2090577632188797, -0.0023407423868775368, 0.02949685789644718, 0.15251217782497406, -0.019943084567785263, 0.17523105442523956, 0.021969182416796684, 0.09972894191741943, -0.020216045901179314, -0.166603222489357, 0.15694782137870789, 0.06586751341819763, 0.01965571939945221, 0.1655549257993698, 0.01401708647608757, -0.008992833085358143, -0.02259594015777111, 0.21863730251789093, 0.04296456277370453, 0.005059573333710432, 0.015671230852603912, -0.10457251965999603, -0.22850628197193146, -0.011491039767861366, 0.041779302060604095, 0.145633727312088, -0.07728444039821625, 0.06905218213796616, -0.08431633561849594, -0.06950217485427856, -0.05129467695951462, 0.07815452665090561, 0.011585954576730728, -0.07127919048070908, -0.11458468437194824, 0.048338159918785095], [0.09322575479745865, 0.041294559836387634, 0.04955344647169113, 0.02944374829530716, -0.11530749499797821, -0.0959232896566391, -0.02066469006240368, 0.14125867187976837, -0.15080250799655914, 0.05925995483994484, 0.15682141482830048, -0.10175880044698715, -0.12635168433189392, 0.08318503201007843, 0.27041512727737427, 0.026924407109618187, -0.25473442673683167, -0.14425356686115265, 0.14544618129730225, 0.05477007478475571, -0.05746397003531456, -0.183426171541214, 0.026473337784409523, 0.013154587708413601, -0.0004128415312152356, -0.08186571300029755, 0.10541278123855591, 0.2155419886112213, 0.030873944982886314, 0.07363192737102509, -0.44409507513046265, 0.09004461765289307, 0.028864389285445213, 0.062304772436618805, 0.010016627609729767, -0.12570902705192566, -0.06252424418926239, -0.01578199304640293, 0.04638546705245972, 0.12934166193008423, -0.16441814601421356, 0.0662495493888855, 0.10211187601089478, -0.034519780427217484, 0.17162998020648956, 0.05268895998597145, 0.04170387238264084, 0.19700609147548676, 0.002967320615425706, -0.08264227956533432, 0.0013703589793294668, 0.26055091619491577, -0.12294061481952667, -0.02494250237941742, 0.26696452498435974, -0.13346311450004578, 0.055086370557546616, -0.025001153349876404, -0.1766430288553238, 0.08108390867710114, 0.09777175635099411, 0.0770668014883995, 0.009234040044248104, 0.023165196180343628, 0.09551791846752167, -0.05579524487257004], [0.032179608941078186, 0.232315793633461, 0.02030184678733349, 0.03810667246580124, -0.1523500233888626, 0.030839432030916214, 0.10456977784633636, -0.11322764307260513, 0.04308726266026497, 0.14635112881660461, -0.1451573520898819, 0.06715824455022812, -0.007357479073107243, -0.0978979840874672, 0.10062534362077713, 0.058897167444229126, 0.06450070440769196, 0.053805090487003326, -0.13631708920001984, -0.1116827055811882, -0.033923204988241196, 0.26426634192466736, 0.22956979274749756, 0.018205828964710236, -0.08257545530796051, 0.14607921242713928, -0.035777829587459564, -0.09294641762971878, -0.18221382796764374, 0.1011737734079361, -0.010097574442625046, -0.009706979617476463, 0.003021065378561616, 0.00019941202481277287, 0.08035240322351456, -0.08880079537630081, -0.23573826253414154, 0.028395114466547966, 0.04897816479206085, -0.00900784507393837, -0.09029856324195862, -0.23170477151870728, -0.009775890037417412, 0.11707523465156555, 0.1296011507511139, 0.05158127099275589, 0.11915779113769531, 0.021999185904860497, 0.07128985971212387, -0.05755702778697014, -0.10691722482442856, -0.08459387719631195, 0.022834669798612595, -0.14367632567882538, 0.1692734807729721, -0.2726461589336395, 0.037005357444286346, 0.2822568118572235, -0.08806218206882477, 0.03241962194442749, -0.32818615436553955, 0.004788839723914862, 0.17852340638637543, 0.03698935732245445, -0.12427979707717896, 0.15799148380756378], [-0.033477164804935455, -0.15751460194587708, 0.07666678726673126, -0.0138705438002944, -0.10910505056381226, 0.03825480863451958, 0.17367945611476898, -0.1250859797000885, -0.03764291852712631, -0.25622934103012085, -0.14875581860542297, -0.06184627488255501, -0.02478364109992981, 0.191447913646698, -0.12378514558076859, -0.0906882956624031, -0.37906816601753235, -0.016010727733373642, 0.16772513091564178, -0.26349103450775146, -0.03309229761362076, 0.0840132087469101, 0.07631853967905045, -0.03131571784615517, 0.06822503358125687, 0.08774647861719131, -0.0007273469818755984, -0.11565645784139633, -0.1572696715593338, -0.012084513902664185, -0.09877397865056992, -0.11341171711683273, 0.07007499784231186, -0.03309473395347595, 0.0624784454703331, -0.12374353408813477, 0.07305744290351868, 0.11236290633678436, -0.029838401824235916, -0.15493828058242798, -0.0661611557006836, -0.027954716235399246, 0.03489179536700249, -0.01292978972196579, 0.14086434245109558, -0.07591647654771805, -0.04219977557659149, -0.05897722393274307, 0.030880248174071312, -0.021304605528712273, 0.1528313308954239, -0.13089607656002045, 0.2200709581375122, -0.17116938531398773, -0.1575162708759308, 0.020295768976211548, 0.1592148393392563, -0.0850355327129364, -0.19829989969730377, -0.034033987671136856, 0.03787658363580704, 0.0734613686800003, -0.12737725675106049, 0.059858109802007675, 0.05319732427597046, 0.21911801397800446], [0.06444375216960907, 0.019982654601335526, 0.05988656356930733, 0.014795990660786629, -0.13627441227436066, 0.02029269188642502, -0.2393430769443512, -0.08841320872306824, 0.06344465166330338, 0.06196170300245285, 0.09106690436601639, 0.036585282534360886, 0.1400531828403473, 0.1524253487586975, 0.012820649892091751, -0.22402000427246094, 0.038125477731227875, -0.27634045481681824, 0.014477546326816082, -0.07833559811115265, -0.03680412471294403, -0.06164689362049103, -0.14008384943008423, -0.06535448133945465, -0.009003483690321445, 0.06814584136009216, 0.0418531559407711, -0.17321893572807312, 0.19641929864883423, -0.1589283049106598, -0.010685752145946026, 0.05561668053269386, 0.24728849530220032, 0.031594377011060715, 0.044835414737463, 0.12605032324790955, -0.020589817315340042, -0.1581442952156067, 0.03192167729139328, 0.19162802398204803, 0.04786452651023865, -0.13297690451145172, -0.02898980863392353, 0.05076390877366066, -0.05921458080410957, -0.21165569126605988, -0.056733470410108566, 0.11475804448127747, -0.020651938393712044, -0.18713636696338654, -0.01782248355448246, 0.17411983013153076, 0.02694716490805149, -0.04121668264269829, 0.05048332363367081, 0.08649518340826035, 0.08477559685707092, 0.17024922370910645, 0.19784250855445862, 0.286526083946228, 0.012426979839801788, -0.08492667227983475, -0.1195041760802269, 0.09227517247200012, 0.11620433628559113, 0.35129696130752563], [0.03899265453219414, 0.002384863095358014, -0.2455381453037262, -0.09108758717775345, 0.11857105046510696, 0.1112678274512291, -0.35402441024780273, 0.037764761596918106, 0.15857872366905212, -0.06822680681943893, -0.22785359621047974, 0.10796637088060379, -0.03016768768429756, -0.017487607896327972, -0.1281437873840332, 0.04768615588545799, 0.06109120324254036, -0.14070311188697815, 0.04549321532249451, -0.030968915671110153, -0.0442948155105114, -0.11544770002365112, 0.23383304476737976, -0.0989951342344284, -0.046434905380010605, -0.17392365634441376, 0.08231142908334732, 0.08134090155363083, -0.047931209206581116, -0.08570021390914917, -0.1359633505344391, -0.2534617483615875, 0.0024212028365582228, -0.1685393899679184, -0.10736967623233795, -0.2627793550491333, 0.07910539954900742, -0.0995059534907341, 0.1996718943119049, -0.14960087835788727, -0.06481342762708664, -0.01353598665446043, 0.1390412300825119, 0.04805722087621689, -0.07395660132169724, -0.02021738700568676, -0.050368532538414, -0.18083681166172028, 0.10625849664211273, -0.18929705023765564, -0.14581917226314545, -0.020728357136249542, -0.0205960925668478, -0.1571434587240219, -0.06520409137010574, -0.062411386519670486, -0.13741916418075562, 0.10280740261077881, 0.031133579090237617, 0.0009271466988138855, 0.09617332369089127, 0.04800169914960861, 0.08472304046154022, -0.15964630246162415, -0.06669963896274567, -0.005877778399735689], [0.06866717338562012, -0.09770902991294861, -0.043332960456609726, 0.1410001814365387, -0.023876747116446495, 0.07206617295742035, 0.03757790848612785, -0.08438660204410553, -0.049295756965875626, -0.0058243912644684315, -0.019022632390260696, -0.010865983553230762, 0.017353268340229988, 0.12042384594678879, 0.14353318512439728, -0.13849316537380219, 0.018878694623708725, -0.15607930719852448, -0.11016250401735306, 0.09715878218412399, -0.15967652201652527, 0.18176622688770294, 0.026599062606692314, -0.12000539153814316, 0.29459884762763977, -0.06883648037910461, -0.00047056135372258723, 0.1497792899608612, 0.058745916932821274, 0.15967009961605072, 0.005186120979487896, 0.13505008816719055, 0.1969764530658722, 0.253208726644516, -0.18501345813274384, -0.03534349426627159, 0.08605127036571503, 0.0656021237373352, 0.0964948982000351, -0.1976950466632843, -0.05299908295273781, -0.10071232169866562, 0.1027020514011383, -0.13335327804088593, -0.23653623461723328, 0.2796627879142761, 0.05030064657330513, 0.08904606103897095, 0.039055563509464264, 0.09934788942337036, -0.09520973265171051, 0.17304727435112, 0.2395482361316681, -0.06427834182977676, -0.1264539659023285, -0.07997793704271317, 0.02388223074376583, 0.06762833148241043, 0.21309828758239746, 0.04038132727146149, 0.006617432460188866, -0.014066366478800774, -0.19108381867408752, 0.17400439083576202, 0.00526006706058979, -0.1834731549024582], [-0.08185560256242752, -0.12308324873447418, 0.23317141830921173, 0.12472518533468246, -0.17563752830028534, 0.036980316042900085, -0.07212041318416595, 0.029386578127741814, 0.08572161197662354, 0.007100134156644344, -0.09830551594495773, 0.04303058609366417, -0.03654175251722336, 0.029928652569651604, 0.09038282185792923, 0.0794677808880806, -0.05822272598743439, 0.052232567220926285, -0.0482223816215992, 0.1966955065727234, 0.22402244806289673, 0.03488946706056595, -0.009078609757125378, -0.06938499957323074, 0.17116962373256683, 0.04228546842932701, -0.07241988182067871, -0.2416311651468277, -0.03671139106154442, -0.07172272354364395, -0.16807101666927338, 0.1247471272945404, 0.2197360247373581, -0.04075771942734718, -0.17954212427139282, 0.2585560083389282, 0.03922124579548836, -0.05375656485557556, -0.04725565016269684, -0.1576278656721115, -0.21832403540611267, 0.06927892565727234, 0.1498938798904419, -0.04531797021627426, -0.1318291276693344, 0.10141576081514359, 0.026770148426294327, -0.3379157781600952, 0.11839792877435684, -0.03703544661402702, 0.011610576882958412, -0.008821075782179832, -0.15247087180614471, 0.20140008628368378, 0.18442775309085846, -0.11257985234260559, -0.15864406526088715, -0.10356038808822632, -0.09113454073667526, 0.08864343911409378, 0.02818314917385578, -0.0506148524582386, -0.059346187859773636, -0.08537019789218903, 0.034792277961969376, 0.14605113863945007], [0.07997067272663116, 0.05379987508058548, 0.26014256477355957, -0.12409475445747375, 0.1905398815870285, -0.18487033247947693, 0.046922601759433746, -0.08332306891679764, -0.06484831124544144, -0.13209043443202972, -0.24803099036216736, -0.045539699494838715, -0.06643864512443542, 0.11565806716680527, -0.12481982260942459, 0.2061694860458374, 0.1242913082242012, -0.08996041119098663, -0.06618567556142807, 0.1075768917798996, 0.2904268205165863, 0.03715356066823006, -0.0829852744936943, -0.026352427899837494, 0.13003169000148773, 0.06692346930503845, 0.044748760759830475, 0.06316182762384415, 0.2141021490097046, -0.09731623530387878, -0.02229197323322296, -0.05642849951982498, -0.24551554024219513, 0.13499656319618225, -0.026333408430218697, 0.019493304193019867, -0.1351338028907776, -0.1647663414478302, 0.06031159684062004, -0.19333477318286896, 0.1705041378736496, 0.07561337947845459, 0.017877444624900818, 0.0383756123483181, 0.1002398133277893, -0.0777830109000206, 0.12455598264932632, 0.09103669971227646, 0.20446330308914185, 0.13381080329418182, -0.10418207198381424, 0.08977490663528442, -0.005979206878691912, -0.0890159010887146, -0.1932663768529892, 0.029108505696058273, 0.09253012388944626, 0.16291259229183197, -0.20913511514663696, 0.2023000717163086, -0.010020512156188488, 0.09720373898744583, 0.1609445959329605, -0.059872549027204514, -0.1976996213197708, 0.03521354869008064], [-0.16659820079803467, -0.042823441326618195, 0.32941651344299316, 0.20978817343711853, 0.29068589210510254, 0.06153170019388199, -0.08510873466730118, 0.1513359546661377, 0.06711670756340027, 0.19615986943244934, -0.12104043364524841, -0.054645419120788574, -0.15884393453598022, 0.017081480473279953, 0.10889995098114014, -0.27220481634140015, 0.024604324251413345, -0.06770073622465134, 0.07919760048389435, 0.04152824357151985, 0.08676744997501373, 0.1407019942998886, 0.07969343662261963, -0.026479624211788177, -0.1712205857038498, 0.10142551362514496, -0.1382996141910553, 0.1433793008327484, 0.16025225818157196, -0.09537623822689056, 0.04845285788178444, -0.03730762377381325, -0.11944755911827087, -0.16152599453926086, 0.10646012425422668, -0.03836888447403908, 0.08911173045635223, 0.0445159412920475, 0.10864275693893433, -0.076340451836586, 0.06551280617713928, 0.022776979953050613, -0.04936749488115311, 0.12014979124069214, 0.08104025572538376, 0.05450161173939705, 0.15193705260753632, 0.016897445544600487, -0.29564595222473145, -0.262220174074173, -0.12681430578231812, -0.11390314996242523, 0.1293058842420578, 0.09888472408056259, -0.10900788009166718, -0.10931827872991562, 0.12915949523448944, -0.022277964279055595, -0.14353661239147186, -0.09486031532287598, -0.09193672239780426, 0.0056984866969287395, -0.05937772989273071, -0.10000810772180557, -0.1547735035419464, -0.0089938435703516], [-0.1692260205745697, -0.08442626893520355, 0.03939415514469147, -0.06592629104852676, -0.16135495901107788, 0.3193683326244354, -0.124893419444561, 0.11896435171365738, -0.07859878987073898, -0.006407291162759066, -0.14351043105125427, -0.15091969072818756, 0.01039857603609562, 0.008464224636554718, -0.03450678661465645, 0.053560372442007065, -0.04009466618299484, 0.1683957427740097, -0.06848178058862686, 0.194205179810524, -0.14729753136634827, 0.06024424731731415, -0.14635293185710907, -0.14312206208705902, -0.24888987839221954, 0.1321549117565155, -0.1320406049489975, 0.1569516360759735, -0.024018149822950363, 0.0732334703207016, -0.11733163148164749, -0.04708816111087799, -0.0575464628636837, 0.036783844232559204, 0.10123375058174133, -0.10756812244653702, 0.0712805688381195, 0.11068285256624222, 0.1565340906381607, 0.1911724954843521, 0.26867300271987915, -0.11882877349853516, -0.1071268767118454, -0.0903853178024292, -0.13165368139743805, -0.09724190831184387, 0.08081495761871338, -0.11314300447702408, 0.15805263817310333, 0.26369214057922363, -0.10032740980386734, -0.014570309780538082, -0.018177127465605736, 0.07059582322835922, 0.09796777367591858, -0.05498833954334259, 0.07091681659221649, 0.06208490580320358, -0.11768952757120132, 0.1197580099105835, 0.04194589704275131, -0.016667885705828667, -0.1436687856912613, -0.10144099593162537, 0.07628889381885529, 0.06580860912799835], [-0.16868212819099426, -0.11708607524633408, 0.03731848672032356, 0.15895219147205353, 0.06498759239912033, 0.045245248824357986, -0.015341966412961483, 0.1507221907377243, 0.1281868815422058, -0.16559036076068878, 0.026584263890981674, -0.11077504605054855, -0.219601571559906, 0.025902779772877693, -0.030696198344230652, 0.12070313841104507, 0.1654975265264511, 0.078164242208004, 0.07190430909395218, -0.22053411602973938, -0.20419839024543762, 0.14073745906352997, 0.02120603621006012, 0.1795683652162552, 0.06084544211626053, -0.033912766724824905, -0.1360052227973938, -0.05809734761714935, 0.08333747088909149, -0.002069453475996852, -0.04172678664326668, 0.021724233403801918, 0.005196494981646538, -0.09936755895614624, 0.0045738620683550835, -0.02399294450879097, -0.21091169118881226, -0.10163047909736633, -0.01939822919666767, 0.19779014587402344, -0.046766247600317, 0.11237620562314987, -0.010066939517855644, 0.24568960070610046, 0.010394656099379063, -0.05448788031935692, -0.02478574775159359, -0.153196319937706, 0.07820264250040054, 0.09143400192260742, 0.0033679751213639975, 0.30564478039741516, -0.09318755567073822, -0.29530149698257446, -0.22855740785598755, -0.05686230584979057, 0.07963509857654572, -0.07975496351718903, -0.05225587636232376, -0.03355288878083229, -0.022147804498672485, -0.22480590641498566, -0.030420325696468353, -0.051408801227808, -0.2456713169813156, -0.09676266461610794], [0.15250729024410248, 0.09961068630218506, 0.09114012867212296, -0.1914551854133606, -0.1365746557712555, 0.12761791050434113, 0.04430580884218216, 0.05492401123046875, -0.16194428503513336, -0.05328512191772461, 0.10866201668977737, 0.02337380312383175, -0.017189161852002144, 0.1560393124818802, 0.14772720634937286, -0.37883397936820984, 0.2340134233236313, -0.06103319674730301, -0.11448966711759567, -0.09913322329521179, 0.11311031132936478, 0.009646479971706867, 0.08910682797431946, 0.20306825637817383, -0.06688716262578964, -0.10465680807828903, 0.11726512014865875, -0.037285368889570236, -0.16404029726982117, -0.10279194265604019, 0.09359142184257507, 0.059102579951286316, 0.006135755218565464, -0.04524657130241394, -0.0738140270113945, -0.1397276669740677, -0.010421104729175568, 0.033129602670669556, 0.11477558314800262, -0.016844414174556732, -0.15386033058166504, -0.07731134444475174, -0.14586423337459564, 0.1185731589794159, -0.07307073473930359, 0.04953606426715851, 0.08530770242214203, -0.05620922893285751, 0.09362218528985977, 0.17272955179214478, -0.19452998042106628, 0.018497293815016747, -0.017077608034014702, 0.05971696600317955, -0.05547425150871277, 0.2518450915813446, -0.11163025349378586, -0.1793723851442337, -0.2864431142807007, -0.0014188472414389253, -0.018743712455034256, -0.09115305542945862, 0.020661400631070137, -0.14470945298671722, -0.035823870450258255, 0.001749992137774825], [0.28690558671951294, -0.22200804948806763, -0.10469520837068558, 0.00882361363619566, -0.04509628191590309, -0.19531360268592834, -0.1838352531194687, 0.10966401547193527, 0.05862605199217796, 0.08661013841629028, -0.0916760042309761, -0.3037884533405304, 0.060749299824237823, -0.10019004344940186, -0.18207988142967224, -0.12448039650917053, -0.030956635251641273, 0.28191518783569336, -0.08936556428670883, -0.08152978122234344, 0.1565321534872055, -0.14434701204299927, -0.038946524262428284, 0.2683103084564209, 0.04765566438436508, 0.08064739406108856, -0.16829437017440796, 0.12007953971624374, -0.01671062782406807, 0.22164776921272278, 0.013719082809984684, 0.19576036930084229, -0.07019757479429245, -0.13301722705364227, -0.020001288503408432, 0.022131646052002907, 0.024874603375792503, -0.04446115344762802, 0.020358173176646233, -0.03971787169575691, -0.015174108557403088, 0.033335186541080475, 0.12403584271669388, 0.14143848419189453, -0.04678927734494209, -0.002451986540108919, -0.0873352438211441, 0.056729577481746674, -0.055746350437402725, -0.045016732066869736, -0.1302586793899536, -0.007724807132035494, 0.07043963670730591, -0.053632866591215134, -0.0431702621281147, 0.05441470071673393, -0.09010420739650726, 0.1436956822872162, -0.12513872981071472, -0.036515917629003525, -0.13283269107341766, 0.12286306917667389, -0.1596783697605133, 0.022026438266038895, -0.1397949904203415, 0.13258609175682068], [0.08329328894615173, 0.1415744572877884, -0.03787897899746895, -0.08828351646661758, 0.08680257201194763, -0.0986255332827568, 0.17681774497032166, -0.10207970440387726, 0.0032360409386456013, 0.1518535166978836, 0.24204720556735992, 0.06592664867639542, 0.26955029368400574, 0.025415748357772827, -0.13166281580924988, -0.026186052709817886, 0.1551247537136078, -0.0527205765247345, 0.0775604173541069, 0.27871963381767273, -0.1210724487900734, 0.07143577933311462, 0.07992319762706757, -0.2525157630443573, 0.06298099458217621, -0.08235621452331543, -0.350969135761261, -0.04183059185743332, -0.13637328147888184, -0.023098686710000038, -0.22874341905117035, 0.2285573035478592, 0.24495413899421692, 0.1111227348446846, 0.051916055381298065, -0.248702734708786, -0.0634530633687973, -0.03463836759328842, -0.08701439201831818, 0.07163766771554947, 0.029547013342380524, 0.20691297948360443, 0.2464326024055481, 0.08921139687299728, -0.027073519304394722, -0.1814185380935669, 0.002755339490249753, -0.08572748303413391, -0.09864698350429535, 0.010919800028204918, -0.0033644824288785458, 0.0711953267455101, 0.10968891531229019, 0.08442135900259018, -0.082659050822258, -0.008408073335886002, -0.11414384841918945, -0.15805479884147644, -0.06598567217588425, 0.08964117616415024, -0.016082704067230225, 0.005775876343250275, -0.03634541854262352, 0.05110778287053108, 0.24560348689556122, 0.04903640225529671], [-0.09518854320049286, 0.06730721145868301, -0.09101220965385437, -0.10036750137805939, -0.10204111039638519, -0.029404746368527412, 0.03900773450732231, -0.014035291969776154, -0.06787406653165817, -0.22031664848327637, -0.09419796615839005, -0.18823939561843872, -0.059361476451158524, 0.0041101910173892975, -0.22987397015094757, -0.03086644411087036, 0.24699589610099792, 0.054813213646411896, 0.009579724632203579, -0.21217745542526245, 0.1067604050040245, 0.095868781208992, 0.016508255153894424, -0.1208803653717041, -0.24771519005298615, 0.01721976138651371, 0.1438019722700119, 0.07054593414068222, 0.12266147136688232, 0.03505735844373703, -0.18792051076889038, -0.01443137601017952, -0.1477041393518448, 0.08137798309326172, -0.22109219431877136, 0.21206940710544586, 0.08852145820856094, -0.10629792511463165, -0.2041059136390686, 0.1500389277935028, 0.006274478044360876, -0.22202689945697784, 0.19926345348358154, -0.137470543384552, -0.01625497080385685, 0.07462387531995773, 0.0638444647192955, -0.05757052078843117, -0.15328578650951385, -0.18027906119823456, -0.1023101732134819, 0.1551770269870758, 0.11429597437381744, 0.11123275756835938, -0.1059308648109436, -0.12119249254465103, 0.05381450057029724, -0.10212957859039307, -0.07241945713758469, -0.19839157164096832, -0.18435093760490417, -0.024714116007089615, 0.10646754503250122, -0.0647338479757309, 0.011124075390398502, 0.007138002663850784], [-0.23718099296092987, 0.030361883342266083, -0.017932333052158356, 0.02273675613105297, 0.22506803274154663, 0.020519118756055832, -0.08558162301778793, 0.07664377242326736, -0.1563308835029602, 0.15979257225990295, -0.1529449075460434, -0.09663067758083344, -0.016582872718572617, 0.09036331623792648, -0.09957097470760345, -0.013876576907932758, -0.10136355459690094, 0.13104495406150818, -0.0013047115644440055, 0.12738727033138275, 0.009000378660857677, 0.021670939400792122, 0.009233024902641773, 0.26414772868156433, 0.03611144796013832, 0.05310539901256561, 0.0015157645102590322, -0.2382364273071289, -0.004238605499267578, -0.03720991685986519, -0.09450950473546982, -0.25798097252845764, 0.0421702116727829, -0.009658090770244598, -0.08338399976491928, 0.007970907725393772, -0.10785650461912155, 0.11666673421859741, -0.10294294357299805, 0.09753993898630142, 0.019660113379359245, -0.2356860637664795, -0.040136512368917465, 0.13183562457561493, 0.0020790938287973404, -0.026289040222764015, 0.06770236790180206, 0.2897377610206604, 0.2678058445453644, -0.16813766956329346, -0.016936322674155235, 0.08389278501272202, 0.17454907298088074, 0.13777336478233337, -0.10465933382511139, 0.004396009258925915, -0.34349367022514343, -0.07461652904748917, -0.05062321573495865, -0.023487122729420662, 0.0037943082861602306, -0.026706837117671967, 0.03368009254336357, 0.1594126671552658, 0.06890605390071869, -0.11057550460100174], [0.07595352828502655, 0.15707352757453918, 0.05249220132827759, 0.16154512763023376, 0.14512191712856293, 0.18995578587055206, 0.19395416975021362, -0.2462465763092041, -0.15049059689044952, 0.01137369591742754, -0.21347616612911224, -0.18120458722114563, -0.04715579375624657, -0.027024948969483376, -0.04120554029941559, 0.10671810805797577, 0.09042666107416153, -0.1697910875082016, 0.04614665359258652, 0.09074705839157104, 0.02702721208333969, -0.15702219307422638, 0.05742999166250229, 0.25167909264564514, 0.034281421452760696, 0.025873538106679916, -0.008362517692148685, 0.020620493218302727, -0.061356913298368454, -0.17165522277355194, -0.04717127978801727, 0.00916708167642355, -0.0917515978217125, -0.10644504427909851, 0.2210455983877182, -0.020790277048945427, 0.11521691083908081, -0.11097650974988937, -0.06092962622642517, 0.09263645112514496, -0.03490679711103439, -0.2557433247566223, 0.12875956296920776, -0.12294270843267441, 0.13706998527050018, 0.071235790848732, -0.0947188287973404, -0.09465926885604858, -0.06275118142366409, 0.04270187020301819, -0.01337446365505457, 0.0435396209359169, -0.18116974830627441, -0.030616093426942825, -0.0855310782790184, 0.11408329755067825, -0.06467839330434799, 0.17591127753257751, -0.08420015126466751, -0.08999981731176376, -0.0223544891923666, -0.12104292958974838, -0.399931401014328, -0.1124323233962059, -0.12218546867370605, -0.01592257060110569], [-0.09749777615070343, -0.18790538609027863, 0.05785023793578148, -0.08965198695659637, -0.1751878559589386, -0.19849035143852234, 0.012383916415274143, 0.10466771572828293, 0.18073832988739014, 0.0760599672794342, 0.2611801326274872, 0.18778373301029205, 0.28315386176109314, 0.003477569902315736, -0.20879584550857544, -0.04705757647752762, -0.02554170973598957, -0.00031454171403311193, 0.019599171355366707, 0.07874184846878052, -0.11863891035318375, -0.021941693499684334, 0.08647993206977844, 0.072572261095047, 0.11460363119840622, 0.07012005895376205, 0.156677708029747, -0.05359271541237831, 0.14191840589046478, -0.12041838467121124, -0.12226147204637527, -0.040782053023576736, 0.10228658467531204, 0.19651907682418823, 0.20558814704418182, -0.07524476200342178, 0.007727033458650112, 0.014932211488485336, 0.07959529757499695, 0.01682289130985737, -0.0017545396694913507, -0.12746545672416687, -0.01710118167102337, 0.020490754395723343, 0.17766188085079193, 0.18885934352874756, -0.03099132515490055, -0.14946730434894562, 0.15068133175373077, 0.00943751446902752, -0.02874184586107731, 0.08465684950351715, 0.17734086513519287, 0.19658786058425903, 0.10378134995698929, 0.12284079939126968, 0.1335047334432602, 0.08171878755092621, -0.045875728130340576, -0.12063968181610107, -0.04869772121310234, 0.08233863115310669, -0.11665281653404236, -0.22598221898078918, -0.04698288068175316, -0.14231762290000916], [0.026496605947613716, 0.11198150366544724, -0.15774504840373993, 0.3127409815788269, -0.11137168854475021, -0.0742761641740799, 0.056183233857154846, -0.06886224448680878, 0.06512672454118729, 0.1380740851163864, -0.07866707444190979, -0.2611736059188843, 0.1989702582359314, -0.11668983846902847, 0.010183840990066528, 0.16456899046897888, -0.043598853051662445, -0.22224514186382294, -0.003523549297824502, -0.26323840022087097, -0.043794356286525726, 0.06656169891357422, -0.21295228600502014, 0.03078577108681202, -0.0298872459679842, 0.0023480956442654133, 0.08935829252004623, -0.055759456008672714, 0.1307162195444107, -0.031073499470949173, 0.013235664926469326, -0.05181959643959999, 0.03620978072285652, -0.05431742966175079, 0.06548582762479782, -0.05083741247653961, 0.024094000458717346, 0.11007992178201675, -0.11267003417015076, -0.10867848992347717, 0.12938866019248962, 0.1780625581741333, -0.017630314454436302, 0.09651397913694382, -0.18035323917865753, 0.18519148230552673, 0.0054154470562934875, 0.1339242160320282, 0.14668959379196167, 0.004207852762192488, -0.2219475358724594, -0.08569245040416718, -0.04339982569217682, 0.044556811451911926, -0.09380418807268143, -0.06248042359948158, 0.0015781401889398694, -0.08673105388879776, -0.16161109507083893, -0.011450687423348427, 0.06452223658561707, -0.10554656386375427, 0.1171720027923584, -0.30105316638946533, 0.11520847678184509, 0.043850239366292953], [-0.12319375574588776, 0.123782679438591, 0.10522457212209702, -0.11027329415082932, -0.058875758200883865, -0.024515848606824875, 0.072905033826828, -0.06840457022190094, -0.07123415917158127, 0.032968513667583466, -0.2505974769592285, -0.11776650696992874, -0.1376488357782364, 0.03411345183849335, -0.13393720984458923, -0.16112267971038818, -0.02999323047697544, 0.16678769886493683, -0.13022635877132416, -0.15931524336338043, -0.12038332223892212, -0.10085971653461456, 0.1539510190486908, 0.14071962237358093, -0.13522560894489288, 0.03546185791492462, 0.034186869859695435, -0.16271351277828217, -0.027047334238886833, -0.17677325010299683, 0.13774731755256653, 0.07270365208387375, -0.03702682629227638, 0.17166286706924438, -0.09553230553865433, 0.0030523277819156647, -0.23471374809741974, -0.02845725044608116, 0.2228895127773285, 0.02384781278669834, 0.11769279837608337, 0.29916486144065857, 0.09263980388641357, -0.14606092870235443, -0.0724746435880661, -0.013980128802359104, 0.02434973232448101, 0.1900377720594406, -0.03667788580060005, -0.13388673961162567, 0.05201754346489906, -0.06096840649843216, -0.05745600908994675, -0.032512228935956955, -0.011661560274660587, -0.22583188116550446, -0.025274766609072685, -0.03334742784500122, 0.11067207902669907, -0.009225758723914623, 0.05612225830554962, 0.11171925812959671, -0.21891258656978607, -0.360658198595047, -0.10519426316022873, -0.10015525668859482], [-0.10786600410938263, -0.024374470114707947, -0.1556645929813385, -0.03401166945695877, -0.20480097830295563, 0.0066894483752548695, 0.1486719697713852, -0.11171149462461472, 0.06350433826446533, 0.060011763125658035, -0.17586620151996613, 0.1490391492843628, -0.10310958325862885, -0.13863304257392883, 0.10552921891212463, -0.04094577580690384, 0.0800829753279686, -0.05578990280628204, 0.2733229398727417, 0.21444402635097504, 0.0665035992860794, -0.2933189272880554, 0.13736942410469055, -0.21227797865867615, -0.01663617603480816, 0.13997462391853333, 0.04054468497633934, -0.03428773209452629, 0.14256183803081512, 0.1866910606622696, -0.08539298921823502, 0.1498556286096573, 0.062301959842443466, -0.04248172044754028, 0.12521663308143616, 0.063530333340168, -0.0006295779021456838, 0.1603449285030365, -0.018054209649562836, 0.06375591456890106, -0.08387058973312378, -0.015993276610970497, -0.01760896109044552, 0.1042637825012207, -0.08027339726686478, 0.03112456575036049, 0.0007668333128094673, 0.12679512798786163, -0.009025952778756618, 0.06455487757921219, 0.0633784830570221, 0.042882613837718964, 0.2353144735097885, -0.14043568074703217, -0.011047927662730217, 0.2248540073633194, -0.07224801927804947, -0.2659437656402588, 0.04550231993198395, 0.25841182470321655, -0.04591543972492218, -0.03519202396273613, 0.03253490477800369, -0.1258619725704193, -0.1631118506193161, 0.025728726759552956], [0.005231998395174742, -0.0035413678269833326, -0.057789646089076996, 0.05642542243003845, -0.21412813663482666, 0.156138077378273, -0.026357978582382202, -0.07670946419239044, -0.2046573907136917, 0.08644954115152359, 0.0853087529540062, 0.04325571656227112, 0.042321909219026566, 0.0662069171667099, -0.026706093922257423, 0.33974507451057434, 0.03808994218707085, -0.03446003422141075, -0.08759260177612305, 0.04883404076099396, -0.03667370229959488, -0.11540426313877106, -0.1337326169013977, -0.10952353477478027, -0.022712120786309242, -0.16767564415931702, 0.11391301453113556, 0.058375027030706406, 0.045959845185279846, 0.05954384431242943, 0.014601752161979675, -0.05874805897474289, 0.30883219838142395, -0.005007337313145399, -0.05116764456033707, 0.10770897567272186, -0.3041718602180481, 0.010319449007511139, 0.10383303463459015, 0.07782842218875885, -0.15227651596069336, 0.05170556530356407, -0.09059334546327591, 0.205949068069458, 0.05550834909081459, 0.01783730648458004, 0.0837177038192749, -0.12642069160938263, -0.22528469562530518, -0.06038174405694008, -0.03422670066356659, -0.10024791210889816, 0.12083578109741211, 0.14010870456695557, -0.18626341223716736, 0.08738022297620773, 0.04248775914311409, 0.0003305948048364371, -0.05311902239918709, 0.015300831757485867, 0.050864383578300476, 0.37616950273513794, -0.16546539962291718, 0.15083813667297363, -0.09268254786729813, -0.024298977106809616], [0.04409586638212204, 0.040322136133909225, -0.1267339587211609, -0.13514085114002228, 0.11153241991996765, 0.02632022276520729, 0.07977937906980515, 0.012877351604402065, 0.12616395950317383, 0.1281738430261612, -0.09389227628707886, -0.06782468408346176, -0.11805647611618042, -0.0411628782749176, 0.1709502935409546, -0.05012284219264984, -0.010822760872542858, 0.035337574779987335, -0.25716665387153625, -0.15251362323760986, 0.14324259757995605, -0.05507052689790726, 0.006074005737900734, 0.03906336426734924, -0.16669365763664246, 0.18679140508174896, -0.08762449771165848, -0.14702768623828888, 0.08052431046962738, 0.12858392298221588, -0.025933781638741493, -0.27584168314933777, -0.06987442076206207, 0.17570769786834717, -0.0812159851193428, -0.06544210016727448, 0.29225295782089233, -0.03316044807434082, 0.02574799209833145, 0.23848605155944824, -0.06644831597805023, 0.2397841215133667, 0.09581899642944336, 0.10903513431549072, 0.2669583261013031, 0.1716211587190628, 0.3173701763153076, -0.06502572447061539, 0.11331596225500107, 0.04991641268134117, 0.048299990594387054, -0.034717630594968796, -0.018555114045739174, 0.049348752945661545, -0.23656289279460907, -0.010034176521003246, 0.016352441161870956, 0.1335597038269043, 0.05299493297934532, -0.11124739050865173, 0.1690656691789627, -0.09679892659187317, -0.09463775902986526, 0.007583581376820803, -0.10552570968866348, 0.15887528657913208], [0.026813345029950142, 0.15001557767391205, 0.008197036571800709, -0.08730445802211761, 0.21756599843502045, -0.11791835725307465, -0.18710529804229736, -0.05101762339472771, 0.045372359454631805, -0.13524527847766876, -0.10470368713140488, -0.1387195587158203, -0.051154974848032, 0.04523448646068573, 0.15266290307044983, 0.05507548525929451, 0.2848457098007202, 0.01867007277905941, 0.06417649239301682, -0.08759260177612305, 0.05124405771493912, 0.14681455492973328, 0.023602379485964775, 0.06467588245868683, -0.15097464621067047, 0.19740356504917145, -0.053318772464990616, -0.03028610534965992, -0.06554529070854187, 0.21061812341213226, 0.023922333493828773, -0.018869487568736076, 0.06507973372936249, -0.192197784781456, -0.05700266733765602, 0.07230708003044128, -0.15898054838180542, 0.18269699811935425, 0.04431188479065895, -0.06871320307254791, -0.07140503078699112, -0.03298632428050041, 0.1314689666032791, -0.0993335172533989, 0.22337470948696136, -0.10889436304569244, -0.2648811340332031, 0.11682070791721344, 0.23801907896995544, 0.07549694925546646, -0.14838911592960358, -0.038249723613262177, 0.07485473901033401, 0.17245720326900482, 0.019186021760106087, -0.026233287528157234, 0.25782251358032227, -0.04444387927651405, 0.08349748700857162, -0.1515798419713974, 0.28067365288734436, 0.01661577820777893, -0.1363380402326584, -0.10722866654396057, -0.08989300578832626, 0.01967133954167366], [0.01580365002155304, 0.08010218292474747, 0.21137934923171997, 0.02354687638580799, 0.012842527590692043, -0.15320070087909698, 0.16207367181777954, 0.13776171207427979, -0.13596126437187195, -0.0029224574100226164, -0.004919061437249184, 0.06466976553201675, 0.21555885672569275, 0.09838008880615234, -0.07552718371152878, -0.003405989846214652, 0.022404203191399574, -0.10526090115308762, -0.29151055216789246, -0.11561862379312515, -0.1999901384115219, -0.12200222164392471, 0.0402010977268219, -0.10123725235462189, -0.022413108497858047, 0.14310234785079956, -0.07493450492620468, -0.0793980285525322, 0.25005149841308594, 0.026358744129538536, -0.19345413148403168, -0.09706241637468338, -0.31108587980270386, -0.35049107670783997, -0.2762799859046936, 0.0070645869709551334, -0.016676554456353188, 0.20576877892017365, 0.047593314200639725, 0.09971116483211517, -0.06481244415044785, 0.009973810985684395, -0.02424291893839836, -0.06931324303150177, 0.009735618717968464, 0.056111086159944534, -0.152571901679039, -0.055370211601257324, -0.03245236724615097, 0.03174130618572235, -0.028401056304574013, -0.19199751317501068, 0.0050357491709291935, -0.09438673406839371, 0.03300022706389427, -0.03943644091486931, -0.1314474195241928, 0.03569720312952995, 0.05014529451727867, 0.05584413558244705, 0.014163567684590816, -0.08618848770856857, -0.07544694095849991, 0.09974169731140137, -0.13635008037090302, -0.040192972868680954], [0.0018583079800009727, 0.050745610147714615, -0.3463985025882721, -0.0030733493622392416, 0.1497936099767685, 0.029870467260479927, 0.1086496040225029, -0.07319760322570801, 0.11322816461324692, -0.016134975478053093, -0.04208718240261078, -0.03296569362282753, 0.009697508998215199, 0.12863492965698242, 0.030860600993037224, -0.1426185518503189, 0.005415186285972595, 0.14439691603183746, 0.060442861169576645, -0.017712540924549103, -0.19351227581501007, -0.16108299791812897, -0.10066209733486176, 0.056949432939291, 0.10112322866916656, 0.1991226077079773, -0.009338087402284145, 0.019835995510220528, 0.25968116521835327, -0.3123200833797455, -0.12586741149425507, 0.2201593518257141, 0.18782192468643188, -0.1463235318660736, 0.031935494393110275, -0.0714421272277832, -0.03124617412686348, -0.060605525970458984, 0.022337578237056732, -0.08877125382423401, -0.05379750207066536, -0.08815645426511765, -0.13963373005390167, -0.14851811528205872, 0.032423220574855804, 0.031590379774570465, 0.1388559639453888, -0.07692885398864746, -0.033194392919540405, 0.2006460577249527, -0.06184713914990425, -0.01671123504638672, -0.06611853092908859, 0.16961124539375305, 0.01586092635989189, -0.20045293867588043, -0.0061425380408763885, -0.06869399547576904, -0.002502876566722989, 0.012735184282064438, -0.00016188633162528276, 0.20971666276454926, 0.19376343488693237, 0.1815766990184784, -0.1293642520904541, 0.07348527759313583], [0.2903631329536438, -0.19212470948696136, -0.017795894294977188, -0.010389115661382675, -0.062290772795677185, 0.057259321212768555, 0.05363915115594864, -0.002685993444174528, 0.05624910816550255, 0.0647638812661171, 0.001740552019327879, -0.0035716905258595943, -0.3096762001514435, -0.2163890153169632, -0.019967246800661087, -0.04216330125927925, -0.01906949281692505, -0.08454140275716782, -0.09878271073102951, 0.026124194264411926, -0.002345751039683819, 0.10878944396972656, 0.06864141672849655, -0.020717160776257515, 0.09521171450614929, -0.02340572513639927, -0.11355581134557724, -0.27620619535446167, 0.009855598211288452, -0.08991523832082748, -0.07480525970458984, -0.021936709061264992, -0.28517311811447144, -0.052182912826538086, 0.08780284970998764, 0.009639384225010872, -0.1281367540359497, 0.2745036482810974, -0.044875361025333405, 0.06256348639726639, 0.013103428296744823, -0.22446849942207336, 0.0532100610435009, -0.01076333224773407, -0.03335753083229065, -0.02887829579412937, -0.0259697325527668, 0.01056869700551033, -0.06797744333744049, -0.007453099824488163, -0.08520454913377762, 0.15930619835853577, -0.1852368414402008, 0.12671689689159393, -0.24573060870170593, -0.023218654096126556, 0.09153492003679276, 0.066922627389431, 0.14600907266139984, 0.003937097266316414, 0.14462396502494812, 0.2436067759990692, 0.10922331362962723, -0.16311867535114288, 0.03313355892896652, -0.036272983998060226], [0.21928155422210693, -0.29329121112823486, -0.043149176985025406, -0.0708969458937645, 0.17677940428256989, -0.0016338732093572617, 0.2350340485572815, -0.13856670260429382, -0.16288423538208008, -0.11977791786193848, -0.16445809602737427, 0.022949660196900368, 0.0387834869325161, -0.03796392306685448, -0.034967344254255295, 0.022251658141613007, 0.0028589400462806225, 0.026251517236232758, 0.11102118343114853, -0.18737702071666718, 0.20790399610996246, 0.11663275212049484, 0.055796921253204346, 0.047787364572286606, -0.00964466854929924, 0.0156901516020298, -0.07839464396238327, 0.2730930745601654, 0.12233223021030426, -0.15563388168811798, 0.12612931430339813, -0.23259153962135315, -0.04328934848308563, -0.008833802305161953, -0.05103720352053642, -0.08008044213056564, -0.15320660173892975, 0.12762700021266937, 0.024281473830342293, 0.23646944761276245, 0.015008075162768364, -0.012331281788647175, 0.1029827743768692, 0.20924557745456696, -0.20815607905387878, -0.01737816259264946, 0.06521262973546982, -0.0018490026704967022, 0.12135642021894455, -0.14042262732982635, -0.015568180941045284, -0.048654139041900635, -0.07350800931453705, 0.1977408528327942, 0.2588798403739929, -0.1530640423297882, 0.07667824625968933, -0.04249328002333641, 0.07097012549638748, -0.019860265776515007, 0.07608071714639664, -0.19413220882415771, -0.05628499016165733, -0.013002772815525532, -0.2374449521303177, 0.038361694663763046], [-0.06284062564373016, -0.0009306313004344702, 0.11489009112119675, -0.012179301120340824, 0.04178043082356453, -0.14151500165462494, -0.16774716973304749, -0.04070967808365822, 0.18218208849430084, -0.10912027209997177, 0.03858558088541031, -0.1575433313846588, 0.07078460603952408, -0.22566628456115723, 0.15636734664440155, 0.1469620317220688, 0.034456927329301834, 0.01928100921213627, -0.03469933196902275, -0.21574066579341888, 0.20510953664779663, 0.20204199850559235, -0.030398104339838028, 0.0371616967022419, -0.25811582803726196, -0.09967440366744995, -0.003057169960811734, -0.007847949862480164, -0.016517097130417824, -0.2509125769138336, -0.006444110535085201, -0.12339403480291367, -0.07713666558265686, 0.11802062392234802, -0.005031142383813858, -0.2501989006996155, 0.04130355268716812, 0.24144046008586884, -0.02085884101688862, -0.026440031826496124, -0.09335307031869888, -0.05056242272257805, -0.059388693422079086, -0.22133134305477142, -0.06677896529436111, -0.053764164447784424, -0.040872640907764435, 0.07453271746635437, -0.1395905315876007, 0.08352776616811752, 0.15721923112869263, 0.13789084553718567, 0.03867797926068306, 0.006918133236467838, -0.09737607091665268, -0.018464457243680954, -0.27640730142593384, -0.06646092236042023, -0.06288173794746399, 0.09257575869560242, 0.01595994271337986, 0.12628696858882904, -0.153418630361557, 0.052378375083208084, -0.3218432366847992, 0.10387468338012695], [-0.010812893509864807, 0.0015715645859017968, -0.03966975957155228, -0.11676864326000214, 0.08881549537181854, 0.08456704765558243, -0.04868077114224434, -0.1607252061367035, 0.1127866581082344, -0.1497552990913391, 0.2522280514240265, -0.11604651063680649, -0.1244669035077095, 0.1456761360168457, 0.03805500268936157, -0.03441204875707626, 0.17157259583473206, 0.20261575281620026, 0.002106046536937356, 0.004577461630105972, -0.03081395849585533, 0.08151854574680328, -0.266149640083313, -0.01843578740954399, 0.20067809522151947, 0.12861233949661255, 0.024767830967903137, -0.06379726529121399, 0.08832870423793793, 0.12952587008476257, 0.023864902555942535, -0.2744753956794739, -0.16341587901115417, -0.1489875316619873, 0.15359057486057281, -0.08854739367961884, -0.14461420476436615, 0.09602969884872437, -0.028639694675803185, -0.01800953596830368, -0.16596099734306335, 0.033989496529102325, 0.16667917370796204, -0.19933731853961945, -0.11281527578830719, 0.08060944080352783, 0.26212966442108154, 0.07567768543958664, -0.02863355167210102, -0.24264764785766602, 0.03146011009812355, -0.11978936195373535, -0.09212101250886917, -0.13938488066196442, 0.0543074905872345, 0.08308062702417374, -0.030373618006706238, 0.0507335364818573, -0.12365511059761047, 0.0928274393081665, -0.10368654876947403, 0.005821574479341507, -0.11943209916353226, -0.17243194580078125, -0.0067387716844677925, -0.01815267652273178], [0.12753871083259583, 0.03323975205421448, -0.14634989202022552, -0.04709658771753311, 0.12063685059547424, -0.01585819013416767, -0.14897629618644714, 0.04102039709687233, -0.12329205870628357, 0.10784339904785156, 0.09653628617525101, 0.06548896431922913, 0.15214800834655762, -0.20378220081329346, -0.03477520868182182, 0.016648968681693077, -0.2723632752895355, -0.020634740591049194, 0.019109902903437614, 0.21725395321846008, -0.2545076608657837, 0.08110056072473526, 0.08245589584112167, -0.02956686168909073, -0.07626304030418396, -0.22450652718544006, -0.03170444816350937, -0.1451939195394516, 0.1305423378944397, 0.022727277129888535, 0.07603666931390762, 0.007182171102613211, 0.004396538250148296, -0.03784400224685669, -0.063688725233078, 0.1950334906578064, -0.1959671676158905, -0.20189714431762695, 0.039687152951955795, -0.10168859362602234, -0.08433663845062256, -0.10685164481401443, 0.1360810399055481, -0.1516256034374237, -0.014827243983745575, 0.11699121445417404, 0.18790759146213531, 0.042911116033792496, -0.10801535099744797, 0.19311022758483887, 0.12003616243600845, 0.006069726776331663, 0.1820032298564911, 0.007047873456031084, 0.09470980614423752, 0.09381648153066635, 0.16301459074020386, -0.13594384491443634, -0.17748558521270752, 0.04282313212752342, 0.08752218633890152, -0.23606044054031372, -0.028433693572878838, -0.05828522518277168, -0.07901954650878906, 0.18759341537952423]]

Nombre del Parámetro: module.0.module.0.0.bias
Pesos:
[-0.0081456508487463, 0.003126998897641897, -0.014200127683579922, -0.01263513509184122, -0.0018135569989681244, 0.006852635182440281, -0.00039384927367791533, -0.0023578815162181854, 0.0030993937980383635, 0.007784419227391481, -0.005998171865940094, 0.004601168446242809, 0.016052544116973877, -0.021676644682884216, -0.008976513519883156, -0.005716180894523859, 0.009473912417888641, 0.0006047082715667784, -0.003890281543135643, 0.015541376546025276, 0.0008072068449109793, 0.00385099439881742, 0.0017949269386008382, 0.0035475592594593763, -0.005347594618797302, -0.01734236255288124, -0.0455506294965744, -0.007495534140616655, -0.0022370810620486736, -0.007968496531248093, 0.0035533965565264225, -0.011307313106954098, 0.0012540839379653335, -0.00592393521219492, -0.01604725793004036, -0.002710802247747779, 0.002625070745125413, 0.0013771754456683993, 0.0003506949869915843, 0.0012734223855659366, 0.005421911831945181, -0.017651773989200592, 0.0034732262138277292, 0.014957884326577187, -0.01626320369541645, 0.012984762899577618, -2.4284905521199107e-05, 0.012254387140274048, 0.007462691515684128, 0.0011068979511037469, -0.001563017489388585, -0.002015995793044567, -0.0019757221452891827, -0.0007873827125877142, -0.006781931035220623, 0.004170824307948351, -0.006420874502509832, 0.006848358549177647, 0.007239955011755228, 0.0013524654787033796, 0.0012636822648346424, -0.0013110390864312649, -0.005378089379519224, -7.561669917777181e-06]

Nombre del Parámetro: module.0.module.0.2.weight
Pesos:
