Nombre del Parámetro: module.0.module.0.0.weight
Pesos:
[[-0.13722960650920868, -0.045189812779426575, -0.053166184574365616, -0.044468723237514496, 0.20895667374134064, -0.09308486431837082, 0.18773989379405975, -0.11076700687408447, 0.04172245040535927, -0.0961725041270256, -0.0035128488671034575, -0.0009450624929741025, 0.04721325263381004, -0.1455765664577484, -0.1347162127494812, 0.2071601301431656, 0.10247935354709625, 0.11649789661169052, -0.05699441581964493, -0.11345139890909195, 0.21314264833927155, -0.09687875211238861, -0.04168093949556351, 0.04573557898402214, 0.08344735950231552, 0.06661491096019745, 0.16412021219730377, -0.006773884873837233, 0.05847930163145065, 0.03302997350692749, -0.2076795995235443, -0.014761511236429214, -0.007405210752040148, 0.014753758907318115, -0.24291814863681793, 0.1635752022266388, 0.11946656554937363, 0.2997819781303406, 0.06132742762565613, 0.10060837119817734, 0.02839032933115959, 0.03228770196437836, 0.019870342686772346, 0.28401991724967957, 0.16468603909015656, -0.025070618838071823, -0.018320364877581596, 0.06478110700845718, 0.03958076611161232, 0.2818079888820648, 0.02047618292272091, 0.016753867268562317, -0.16612042486667633, 0.016739973798394203, -0.005618681665509939, -0.12402261793613434, -0.020058678463101387, 0.05691327899694443, 0.17675624787807465, -0.01662112958729267, 0.1355375498533249, -0.003733644261956215, 0.06671053916215897, -0.17646130919456482, 0.3234008848667145, -0.14157728850841522], [-0.11349916458129883, 0.1887531280517578, 0.08455347269773483, 0.08065997809171677, 0.060620639473199844, -0.006485859397798777, -0.3070380687713623, 0.1257917881011963, -0.12394935637712479, -0.08819994330406189, -0.05767308175563812, -0.06261129677295685, 0.1519235521554947, 0.19237585365772247, 0.1581047922372818, 0.04916414991021156, -0.09774181246757507, -0.00993299763649702, 0.09997760504484177, -0.13402490317821503, 0.019281910732388496, -0.01815669797360897, -0.04099487140774727, 0.09262914210557938, 0.03120676800608635, -0.32084378600120544, 0.05142339691519737, -0.03628474101424217, 0.00032762004411779344, -0.005976527463644743, 0.051789868623018265, 0.07866981625556946, 0.06258589774370193, -0.057802457362413406, 0.05406671389937401, 0.2552374601364136, -0.1860460340976715, 0.09218192845582962, -0.17904788255691528, 0.13048946857452393, 0.21769361197948456, 0.1217966377735138, -0.022924596443772316, 0.006884651258587837, -0.046828173100948334, -0.015124231576919556, -0.09896211326122284, 0.15888862311840057, 0.1424781233072281, 0.08375176787376404, -0.15960560739040375, -0.264318585395813, -0.005605963058769703, 0.25755518674850464, 0.11061344295740128, 0.061665572226047516, -0.10709958523511887, 0.17325223982334137, -0.0955701693892479, 0.0015560181345790625, 0.04765844717621803, 0.0881519615650177, -0.016529306769371033, -0.01854465901851654, -0.026704398915171623, 0.0038194104563444853], [-0.19580630958080292, 0.013718832284212112, 0.11400198936462402, -0.02270505018532276, -0.10316582769155502, 0.01293601468205452, -0.008616754785180092, 0.16608865559101105, -0.09786628931760788, -0.08850378543138504, 0.03260548785328865, -0.1119324266910553, -0.05761505663394928, -0.09432032704353333, -0.0397501066327095, -0.1349959671497345, -0.23103398084640503, 0.20153801143169403, 0.08950261771678925, -0.05530698224902153, -0.006639800500124693, -0.13999761641025543, 0.08235307037830353, -0.08042720705270767, -0.21952314674854279, 0.1575496941804886, -0.12028046697378159, -0.3821086287498474, 0.12440077215433121, -0.1605178266763687, -0.1049068421125412, -0.04603872820734978, 0.05637647956609726, -0.11622806638479233, -0.138340026140213, 0.046377990394830704, -0.03354940190911293, -0.0968068465590477, -0.057213347405195236, 0.10346601158380508, 0.03872699290513992, -0.13222229480743408, 0.1413668394088745, 0.08036398142576218, -0.0742059201002121, 0.12968860566616058, 0.12684141099452972, -0.15777000784873962, -0.12437064200639725, 0.13654069602489471, 0.11908300220966339, -0.10157348215579987, -0.11319632828235626, 0.06192178279161453, 0.020777292549610138, 0.23599551618099213, -0.031465206295251846, -0.022892320528626442, -0.3033115565776825, -0.08387038111686707, 0.005002752877771854, -0.21117721498012543, -0.007866154424846172, -0.10623184591531754, 0.0902220606803894, -0.04029570519924164], [-0.24730241298675537, -0.022896284237504005, -0.00510784424841404, 0.024827778339385986, 0.04437260702252388, -0.0002685420331545174, 0.06399327516555786, 0.06043650582432747, 0.030615679919719696, 0.03856336325407028, -0.06614843755960464, 0.1431281864643097, -0.09240077435970306, -0.07796616852283478, -0.18199358880519867, -0.32471179962158203, 0.1468949317932129, -0.12225868552923203, 0.2902219593524933, 0.07386785000562668, 0.01849536970257759, 0.09217725694179535, -0.044985562562942505, -0.0038418485783040524, 0.005844516679644585, 0.07240494340658188, -0.01597806252539158, 0.21256770193576813, 0.2027062326669693, -0.09532158821821213, -0.017534442245960236, -0.0021812510676681995, -0.21093466877937317, -0.02142925187945366, -0.03712742030620575, 0.04949690029025078, -0.23556381464004517, 0.011735956184566021, 0.14499220252037048, 0.11045628786087036, -0.0893390104174614, 0.15662316977977753, 0.04564566910266876, -0.23637250065803528, 0.08531981706619263, -0.1756366491317749, -0.10846559703350067, -0.14531853795051575, -0.03348406404256821, 0.40227341651916504, -0.03909903019666672, 0.027802683413028717, 0.1846325397491455, 0.08676321804523468, 0.053493279963731766, 0.14239397644996643, 0.0003401293943170458, -0.04113021492958069, 0.07684767246246338, 0.1162455826997757, -0.09128864854574203, 0.025808043777942657, 0.16613540053367615, -0.04782295599579811, 0.02869029901921749, -0.12805792689323425], [0.09114936739206314, 0.08075176924467087, -0.14005275070667267, 0.11323174834251404, 0.1807512491941452, -0.00015177347813732922, 0.22440317273139954, -0.02825058624148369, 0.13178564608097076, 0.07112587988376617, 0.2576757073402405, -0.03335365653038025, -0.27544498443603516, 0.00011564872693270445, 0.14917787909507751, 0.03372621163725853, 0.017988556995987892, -0.018545815721154213, 0.15131674706935883, -0.055780138820409775, 0.050948843359947205, -0.19992603361606598, -0.0580986849963665, -0.024155529215931892, -0.0919376090168953, -0.06149441748857498, 0.06409604102373123, -0.22411726415157318, -0.14512403309345245, 0.1036880612373352, -0.040396034717559814, -0.3379332721233368, 0.05231089890003204, 0.08890032023191452, 0.021841129288077354, -0.17040008306503296, -0.1100747212767601, -0.006694253999739885, 0.045903563499450684, -0.10909317433834076, 0.002780987648293376, 0.23327262699604034, -0.01704731583595276, 0.012456114403903484, -0.29978886246681213, -0.1273246705532074, -0.1877841353416443, 0.08603527396917343, -0.04826487600803375, 0.1196802407503128, 0.022603340446949005, -0.02737930230796337, 0.01358491089195013, -0.010605909861624241, -0.056745585054159164, -0.11197750270366669, 0.005489596631377935, 0.08378269523382187, -0.21582339704036713, -0.002184494398534298, -0.017317749559879303, -0.025502877309918404, 0.05012433975934982, 0.07833288609981537, -0.09894786775112152, -0.1737166792154312], [-0.15465331077575684, 0.10264969617128372, -0.007313097827136517, 0.023626485839486122, 0.06493670493364334, 0.054455600678920746, -0.11369716376066208, -0.2236461043357849, 0.10186533629894257, 0.2444712221622467, 0.22731120884418488, -0.11762824654579163, 0.15541431307792664, -0.11162912100553513, 0.17173393070697784, -0.1772577166557312, 0.014667495153844357, -0.014697501435875893, -0.21674607694149017, -0.004742336925119162, -0.026375852525234222, 0.21187567710876465, 0.14347009360790253, -0.07095471024513245, 0.0009512928081676364, -0.006718923803418875, -0.1782999038696289, -0.023912206292152405, -0.1649923026561737, 0.00885007157921791, -0.06504715234041214, 0.06097650155425072, 0.12154407054185867, 0.0907929539680481, -0.13351188600063324, -0.014514981769025326, -0.15795078873634338, 0.11559484153985977, -0.05514352396130562, 0.08603175729513168, -0.25302359461784363, -0.0978812724351883, -0.15530230104923248, 0.21972818672657013, -0.05870160087943077, 0.09295235574245453, -0.0359518937766552, 0.22088144719600677, -0.051980119198560715, 0.13305158913135529, 0.14664489030838013, -0.12775684893131256, 0.1698426902294159, -0.04179470241069794, 0.09960184246301651, -0.03923473134636879, -0.18296927213668823, -0.14348584413528442, 0.020866502076387405, -0.06483501195907593, -0.02588660828769207, 0.03668024390935898, -0.04378863796591759, -0.10726220905780792, -0.0012047105701640248, -0.07554683089256287], [0.1465972512960434, -0.17006108164787292, 0.023803584277629852, 0.21469345688819885, -0.05983555689454079, 0.1783653348684311, -0.04206071048974991, 0.11914107203483582, -0.22311758995056152, -0.017920423299074173, 0.11797181516885757, -0.1494980901479721, -0.19658981263637543, 0.008564828895032406, -0.13278831541538239, 0.01540938951075077, -0.22810329496860504, 0.3049231767654419, -0.22904832661151886, 0.02108745276927948, 0.11789466440677643, 0.04108339548110962, -0.10760901123285294, 0.06601713597774506, -0.09902998805046082, 0.1933709979057312, 0.015425926074385643, -0.07182546705007553, -0.08795786648988724, 0.1821727603673935, 0.010669435374438763, 0.18832267820835114, -0.09774716198444366, 0.08327821642160416, -0.05129971727728844, 0.09530015289783478, -0.19736291468143463, 0.09350140392780304, 0.054388366639614105, -0.002702241763472557, -0.06561888009309769, -0.0008662522304803133, 0.029832789674401283, -0.10731609910726547, 0.0730680301785469, -0.021380258724093437, -0.08255670219659805, 0.0827631950378418, 0.048455238342285156, 0.011773111298680305, -0.16874562203884125, 0.029520954936742783, -0.11938551813364029, -0.38265037536621094, 0.3749450445175171, 0.09921638667583466, 0.09565190970897675, 0.12184064090251923, 0.03903628885746002, -0.070311538875103, -0.10839258134365082, 0.1347385197877884, -0.06862509250640869, 0.1222725436091423, -0.08500713855028152, -0.05528227612376213], [-0.032092221081256866, 0.10367529094219208, 0.16429604589939117, -0.007614391855895519, -0.10725690424442291, -0.08618783950805664, -0.05396450683474541, 0.0710482969880104, -0.24629446864128113, 0.279849112033844, -0.021147610619664192, -0.09338530153036118, -0.2608102858066559, -0.022199338302016258, 0.05267644673585892, -0.19971448183059692, 0.041889943182468414, 0.08748260885477066, -0.010216561146080494, 0.019559981301426888, 0.08728882670402527, 0.13780535757541656, -0.043624311685562134, 0.14839480817317963, 0.12375489622354507, -0.19622454047203064, -0.055101435631513596, 0.13675498962402344, 0.04704860597848892, 0.13559970259666443, -0.18774594366550446, 0.07389102131128311, 0.02049863524734974, -0.022365141659975052, -0.27709460258483887, -0.099147729575634, 0.09095229208469391, -0.13477014005184174, 0.22841782867908478, 0.21126788854599, -0.11171244084835052, 0.11160939186811447, -0.09504130482673645, -0.013288297690451145, -0.0016384149203076959, -0.0029845568351447582, 0.2148195058107376, -0.2276914119720459, -0.0692976862192154, -0.13301552832126617, -0.1748032420873642, 0.00576941529288888, -0.16881251335144043, 0.17012298107147217, -0.16951030492782593, 0.11462823301553726, -0.05482206121087074, 0.0819714292883873, -0.014333588071167469, 0.11209549009799957, -0.11480675637722015, 0.12189259380102158, -0.12485608458518982, 0.2551213800907135, 0.016969341784715652, -0.05335872247815132], [0.08105333894491196, -0.114935502409935, 0.09785526245832443, -0.02233641780912876, -0.03209831565618515, -0.21606343984603882, -0.08482580631971359, -0.08104253560304642, 0.36762872338294983, -0.04449712112545967, -0.17297224700450897, 0.08531014621257782, -0.027198441326618195, -0.1317150592803955, 0.007589684333652258, 0.05214777961373329, -0.022281821817159653, -0.013770157471299171, -0.15648844838142395, -0.2414034605026245, 0.11146244406700134, -0.15335576236248016, -0.17002736032009125, 0.1437990665435791, -0.1575997769832611, 0.023708384484052658, -0.025004271417856216, 0.1633816808462143, 0.009727906435728073, 0.09079062193632126, 0.2631676495075226, 0.3521448075771332, -0.0742616206407547, -0.025805804878473282, -0.13677559792995453, -0.09399738907814026, -0.15271960198879242, -0.0510023757815361, -0.17695744335651398, -0.05980288237333298, -0.018062947317957878, -0.006249758880585432, -0.049657322466373444, 0.16341114044189453, -0.08912768214941025, -0.022853249683976173, -0.1293959766626358, 0.01822473295032978, -0.12628288567066193, 0.00434084190055728, -0.1150519996881485, 0.03035152144730091, 0.032850537449121475, -0.27954310178756714, -0.07734138518571854, 0.08753720670938492, -0.10096215456724167, -0.020966272801160812, -0.2371620535850525, -0.017152467742562294, -0.21531511843204498, -0.21519817411899567, -0.028940822929143906, -0.10420674085617065, -0.030195344239473343, -8.135620737448335e-05], [0.1027430072426796, 0.14587366580963135, 0.0508272610604763, -0.004887340124696493, 0.07943227887153625, -0.06148728355765343, -0.06629373133182526, -0.06653713434934616, 0.04749641939997673, 0.03819926828145981, 0.09191550314426422, 0.1767560988664627, -0.16777633130550385, 0.16331319510936737, 0.06724106520414352, 0.002817039377987385, -0.14076398313045502, 0.11639626324176788, 0.034344494342803955, 0.07419919222593307, 0.06727900356054306, -0.12490744143724442, 0.19110983610153198, -0.1981123387813568, -0.18018342554569244, -0.1085730791091919, -0.0591946616768837, -0.004530492704361677, 0.06063397228717804, 0.005346067249774933, -0.11248462647199631, 0.09546804428100586, 0.27510151267051697, -0.08866138011217117, 0.23479045927524567, 0.02591310627758503, -0.13630782067775726, -0.17883212864398956, 0.020195387303829193, 0.14434708654880524, -0.05155566334724426, 0.01812000572681427, -0.11514265835285187, 0.19346871972084045, 0.17718911170959473, 0.029053188860416412, 0.15228167176246643, 0.09858224540948868, 0.17794561386108398, -0.020298205316066742, -0.2702106237411499, 0.18945200741291046, -0.2155768722295761, -0.06410656124353409, -0.014641176909208298, -0.0702887699007988, 0.24629200994968414, -0.23652327060699463, 0.15655817091464996, 0.2380315065383911, -0.2607417702674866, 0.05951534956693649, -0.004730294458568096, -0.05270760506391525, 0.1886613965034485, -0.07436569035053253], [-0.1398693174123764, 0.029107460752129555, -0.1272885948419571, 0.1696736216545105, 0.14650842547416687, -0.11602972447872162, 0.20358389616012573, 0.11877965182065964, 0.0068037440069019794, 0.023130541667342186, -0.15306998789310455, 0.025495633482933044, 0.09729454666376114, -0.16746565699577332, 0.24334225058555603, 0.03534316644072533, 0.26706430315971375, 0.08201340585947037, 0.10005806386470795, -0.07390839606523514, -0.033119261264801025, 0.10980629920959473, -0.16446712613105774, -0.025021249428391457, -0.08734475821256638, -0.14270147681236267, 0.10748036205768585, -0.15038761496543884, 0.015617870725691319, -0.07240177690982819, 0.1447024941444397, 0.07887730002403259, 0.2089012861251831, 0.13021646440029144, 0.06299348175525665, -0.010117714293301105, -0.005765541922301054, -0.11406544595956802, 0.0674743503332138, -0.048333540558815, 0.0982147827744484, -0.19723571836948395, -0.15602248907089233, -0.17305372655391693, 0.06736847758293152, -0.028116991743445396, -0.10457521677017212, -0.06934777647256851, 0.12173821032047272, -0.08148232847452164, 0.17933183908462524, 0.045712415128946304, -0.22914306819438934, -0.04751542955636978, 0.12622234225273132, -0.038371000438928604, -0.07603079825639725, -0.15261322259902954, -0.07571666687726974, -0.16519573330879211, -0.17015160620212555, 0.03317301347851753, 0.11432405561208725, -0.3091813325881958, -0.12357836216688156, -0.20855914056301117], [0.06971577554941177, -0.08873120695352554, -0.06519509851932526, 0.18514013290405273, -0.042619045823812485, 0.11873144656419754, -0.1695958971977234, -0.01367396954447031, -0.004368538502603769, 0.09484999626874924, -0.14542542397975922, -0.04682890698313713, -0.03407594934105873, 0.09589792042970657, 0.050874337553977966, 0.2019253373146057, -0.10344649851322174, 0.017253365367650986, -0.07390956580638885, 0.15768550336360931, -0.12146703898906708, -0.04033272713422775, -0.12019076198339462, 0.021726367995142937, 0.26309338212013245, 0.04669396951794624, 0.16436156630516052, 0.061507586389780045, 0.20098496973514557, -0.18816490471363068, -0.2066240906715393, 0.1877032369375229, 0.0705580934882164, -0.058188680559396744, 0.03939776495099068, -0.06544502079486847, -0.01964387483894825, -0.09628207236528397, 0.1567455530166626, -0.020276343449950218, -0.22305910289287567, 0.0142748998478055, -0.059193193912506104, -0.07618645578622818, -0.11874023824930191, -0.02793145179748535, 0.07681824266910553, 0.048394639045000076, -0.07197805494070053, 0.306095153093338, -0.16294504702091217, 0.019255464896559715, -0.10855519026517868, 0.24950535595417023, 0.03331446647644043, -0.08342970162630081, 0.06819279491901398, -0.057429198175668716, -0.08690737932920456, 0.06309334188699722, 0.43687140941619873, -0.2658696174621582, -0.07615292817354202, -0.17947137355804443, -0.00610476965084672, -0.0722825899720192], [0.05709712952375412, 0.016228454187512398, 0.08976496756076813, 0.02603556215763092, 0.026102477684617043, -0.017880186438560486, 0.225863978266716, -0.12173552066087723, 0.023663414642214775, -0.002723004901781678, -0.2653876841068268, -0.1751175969839096, 0.16739784181118011, -0.0018531163223087788, 0.14461353421211243, -0.0475463941693306, -0.09126922488212585, 0.03520619124174118, 0.16363470256328583, 0.053111352026462555, 0.021512160077691078, -0.13258793950080872, 0.02772434987127781, 0.024759836494922638, -0.001664831186644733, -0.03645649924874306, -0.23252874612808228, -0.05171732231974602, -0.2549285888671875, 0.12494631856679916, 0.006203135941177607, 0.1613699197769165, -0.029655613005161285, 0.052843909710645676, 0.1424640417098999, 0.08527050167322159, -0.0308421328663826, -0.01749025285243988, 0.2004147469997406, 0.0940382182598114, -0.14494271576404572, 0.1625305563211441, -0.07407072931528091, 0.04457014426589012, -0.32221025228500366, -0.024849968031048775, -0.03623891621828079, -0.2656669616699219, 0.049653615802526474, 0.02845493145287037, -0.015346246771514416, 0.05222829803824425, -0.04664617404341698, 0.013649762608110905, 0.04083048552274704, 0.0005311598069965839, 0.009699215181171894, 0.08585609495639801, 0.15041211247444153, -0.08894824236631393, 0.15679728984832764, -0.06444394588470459, 0.06952108442783356, -0.047929923981428146, 0.18100842833518982, 0.2336134910583496], [0.08552560210227966, 0.12451691925525665, 0.011528600007295609, -0.3160882294178009, -0.10115807503461838, 0.27009183168411255, -0.06169360503554344, 0.1448291838169098, 0.06486285477876663, 0.025299282744526863, 0.003800519509240985, 0.15914373099803925, 0.12523402273654938, 0.06780316680669785, 0.10293836146593094, -0.01792933978140354, -0.08401500433683395, 0.2504116892814636, -0.04347434639930725, 0.0318087637424469, 0.10281746834516525, -0.054271090775728226, -0.08502212911844254, 0.020496027544140816, -0.0022227009758353233, 0.06555502861738205, 0.2732739746570587, -0.005303750745952129, -0.15188540518283844, 0.010401551611721516, 0.24625670909881592, -0.006156107410788536, -0.057582587003707886, -0.16866837441921234, -0.08058580011129379, 0.06920933723449707, -0.11013037711381912, -0.03564628213644028, 0.13619187474250793, 0.17932970821857452, -0.13452161848545074, -0.09490068256855011, -0.03021402284502983, -0.08108049631118774, -0.14815425872802734, 0.033926740288734436, -0.03402306139469147, -0.04484451934695244, -0.1318165808916092, 0.03480972722172737, 0.010440114885568619, -0.08494633436203003, -0.0197963435202837, -0.03284461796283722, -0.06415211409330368, -0.1682126671075821, -0.029847605153918266, -0.004713984206318855, 0.052412811666727066, 0.11860975623130798, -0.061553359031677246, 0.09222722053527832, 0.39069342613220215, 0.05616576224565506, 0.0975177213549614, -0.07704126834869385], [-0.15394164621829987, 0.15374097228050232, -0.08055721968412399, -0.10732239484786987, 0.02970300428569317, 0.03195537254214287, -0.02137177623808384, -0.1473107933998108, 0.008517651818692684, 0.007737340405583382, 0.05506978556513786, 0.2501039206981659, -0.23923945426940918, -0.07051148265600204, 0.0554521419107914, 0.06295870244503021, 0.02696923166513443, -0.10349766165018082, 0.06148921698331833, 0.15319512784481049, 0.008375835604965687, -0.37711620330810547, 0.16690565645694733, -0.20522595942020416, 0.04689660668373108, -0.1247638538479805, -0.11094453930854797, -0.03841439262032509, -0.02682330831885338, 0.07580634951591492, -0.026145676150918007, 0.20211978256702423, -0.1754089742898941, -0.032215047627687454, -0.12860998511314392, 0.09453556686639786, -0.08947531878948212, -0.009053889662027359, -0.007321988232433796, 0.008571060374379158, -0.012446153908967972, 0.16912895441055298, -0.06040416657924652, -0.2565450072288513, 0.13389438390731812, 0.1452537626028061, 0.06525347381830215, 0.10033738613128662, -0.10693633556365967, -0.1688796877861023, 0.20938219130039215, 0.14352759718894958, 0.034816306084394455, -0.08181974291801453, -0.025395315140485764, 0.08717602491378784, -0.12878085672855377, 0.1607753336429596, 0.06835445016622543, -0.1142517626285553, 0.12989895045757294, -0.05574470013380051, -0.09645604342222214, -0.08487602323293686, -0.1285289227962494, -0.03640861436724663], [0.14072109758853912, 0.09325443208217621, 0.017552698031067848, 0.10887151211500168, -0.01367819495499134, -0.013198478147387505, -0.032603099942207336, 0.16389228403568268, -0.07148483395576477, -0.029508104547858238, 0.080197274684906, -0.03066995181143284, 0.06110613793134689, -0.13420745730400085, -0.011059390380978584, -0.08388521522283554, -0.1761275678873062, -0.24781474471092224, -0.2382228970527649, -0.14464373886585236, 0.08915837854146957, -0.1562795341014862, -0.1505230814218521, -0.14180442690849304, 0.007672769017517567, -0.0772639587521553, -0.21204005181789398, 0.17925742268562317, 0.09429332613945007, 0.01537780649960041, 0.023298230022192, -0.003633516374975443, 0.14816005527973175, -0.25005248188972473, 0.048275161534547806, -0.06833068281412125, -0.06378937512636185, 0.03761962428689003, 0.00866013579070568, 0.17411060631275177, 0.027474600821733475, -0.17296499013900757, -0.16980522871017456, -0.17284029722213745, 0.016759110614657402, -0.04901948943734169, -0.06916585564613342, 0.02909068949520588, -0.06712459772825241, 0.13845090568065643, 0.2000272274017334, 0.18731851875782013, -0.2194332629442215, -0.01820678450167179, -0.03127440810203552, -0.002812388353049755, 0.11279278248548508, -0.02976127527654171, -0.006594618316739798, -0.08959376066923141, 0.10637445002794266, 0.05581573396921158, 0.06274402141571045, 0.36718907952308655, 0.18568788468837738, -0.04490050673484802], [-0.0865696594119072, -0.2550807297229767, 0.1067250594496727, 0.0848306193947792, 0.10694149881601334, -0.02028685249388218, 0.03230482339859009, 0.04718717932701111, -0.042952824383974075, -0.1386682093143463, 0.0421898290514946, -0.027408840134739876, 0.12830959260463715, 0.07232581824064255, -0.00102823821362108, 0.024581734091043472, 0.12025625258684158, 0.1815824955701828, 0.029499100521206856, 0.07633108645677567, -0.16592079401016235, -0.09883903712034225, 0.10719510912895203, -0.16083286702632904, -0.152619868516922, 0.1727791130542755, -0.020690741017460823, 0.20375415682792664, -0.08659276366233826, -0.1449192613363266, -0.029988093301653862, 0.12689538300037384, -0.028032910078763962, -0.2491636425256729, 0.008668501861393452, -0.15425129234790802, 0.06994618475437164, -0.06962453573942184, 0.09586434066295624, -0.06672348827123642, -0.11441599577665329, 0.05526704713702202, -0.2611021101474762, 0.23607763648033142, 0.16158151626586914, -0.25704142451286316, -0.058873746544122696, 0.03566479682922363, 0.08099167048931122, -0.0082210972905159, 0.1429722160100937, -0.10047654062509537, 0.012872009538114071, 0.21452365815639496, 0.05304085090756416, 0.026653805747628212, -0.06430588662624359, 0.33659636974334717, -0.19572103023529053, 0.09402964264154434, -0.10551692545413971, 0.09557541459798813, 0.0426822267472744, 0.14116138219833374, -0.04683123156428337, -0.024053771048784256], [-0.011450805701315403, 0.03636322543025017, 0.21408072113990784, 0.060918278992176056, 0.1412971168756485, 0.29483601450920105, 0.08049962669610977, -0.047727540135383606, -0.24924805760383606, 0.12498042732477188, -0.024214427918195724, 0.08667309582233429, -0.13122548162937164, -0.01204560324549675, -0.02912645787000656, -0.23872601985931396, -0.07606406509876251, 0.09636235237121582, 0.07390601187944412, -0.07781344652175903, -0.054620739072561264, 0.06512340158224106, 0.05534534156322479, 0.1386856585741043, -0.20218093693256378, -0.10295010358095169, 0.21174442768096924, 0.20697282254695892, 0.03178418055176735, 0.11581997573375702, 0.03540812060236931, 0.007116258144378662, -0.040462467819452286, -0.17675575613975525, 0.023380324244499207, -0.042492836713790894, 0.1383601576089859, -0.02806727960705757, -0.1837184876203537, -0.08645553886890411, 0.15247449278831482, 0.034240975975990295, 0.02397860400378704, -0.00769144669175148, -0.15834608674049377, -0.1597003936767578, 0.11720599979162216, -0.01796838268637657, 0.14589644968509674, 0.03595257177948952, 0.14083607494831085, 0.18535718321800232, 0.12100924551486969, -0.19092249870300293, 0.05076121166348457, 0.18377839028835297, -0.19754277169704437, -0.0375489816069603, -0.022108668461441994, -0.13509909808635712, 0.08032994717359543, -0.1559751331806183, -0.11644723266363144, 0.10001271963119507, 0.29311639070510864, -0.0024520964361727238], [-0.22372972965240479, 0.017752690240740776, -0.008960937149822712, 0.020574534311890602, -0.09978380054235458, 0.03922213613986969, 0.07287296652793884, 0.04164371266961098, -0.05414780601859093, 0.0028759632259607315, 0.027114970609545708, -0.18194393813610077, -0.13715913891792297, -0.006621780805289745, -0.07403213530778885, 0.12093933671712875, -0.1028955951333046, 0.026707736775279045, -0.08325524628162384, 0.03143198415637016, 0.001511421287432313, 0.05531223863363266, 0.23184415698051453, -0.06416956335306168, -0.19349674880504608, -0.13798989355564117, 0.12253273278474808, 0.35625770688056946, 0.14165425300598145, -0.028079867362976074, -0.12660562992095947, -0.0825008749961853, 0.14422595500946045, -0.1907917857170105, 0.029898179695010185, 0.17713114619255066, -0.08189410716295242, 0.038308579474687576, 0.06075504422187805, 0.06613373011350632, -0.15326140820980072, -0.002744885627180338, -0.025501389056444168, -0.2107265442609787, -0.06714572757482529, -0.15989325940608978, -0.08828630298376083, -0.08756215125322342, -0.1738859862089157, -0.08777644485235214, -0.15599872171878815, -0.010790328495204449, -0.04219398275017738, -0.09532731026411057, 0.0606391541659832, -0.2654327154159546, -0.09907389432191849, -0.012177894823253155, -0.16793237626552582, -0.042835116386413574, -0.024934733286499977, 0.11611172556877136, -0.07887210696935654, -0.12906613945960999, 0.040232058614492416, 0.3681800067424774], [0.30415695905685425, 0.16657564043998718, -0.03703870624303818, 0.16457167267799377, -0.053668949753046036, -0.15541160106658936, 0.1479901522397995, 0.07758894562721252, -0.06999887526035309, -0.03954758867621422, 0.0546439103782177, -0.03242725506424904, -0.03304295614361763, 0.19826918840408325, 0.2057405710220337, 0.02376158908009529, -0.06552855670452118, 0.010447846725583076, -0.1012977585196495, -0.2258649468421936, -0.05412468686699867, -0.11010723561048508, 0.07736173272132874, 0.046487826853990555, -0.054207704961299896, -0.09006929397583008, -0.04553135484457016, -0.06149767339229584, 0.003182090586051345, -0.2247123271226883, 0.09495364129543304, -0.04984680563211441, 0.09738244116306305, -0.19193896651268005, -0.22849580645561218, -0.03351380676031113, 0.08420180529356003, 0.0747804269194603, 0.04768950864672661, -0.1370127648115158, -0.11193881183862686, -5.415386112872511e-05, 0.18115703761577606, 0.022458184510469437, 0.10716091841459274, -0.027767175808548927, -0.09577827155590057, 0.028560854494571686, -0.20701739192008972, 0.08965008705854416, -0.06274314969778061, 0.09372849762439728, 0.04961037635803223, -0.18179450929164886, 0.06719112396240234, 0.17985938489437103, -0.3079945147037506, 0.011210182681679726, 0.24918119609355927, 0.2529290020465851, -0.06075267493724823, -0.01478002592921257, 0.002991862129420042, -0.09630224853754044, -0.09826121479272842, 0.12401438504457474], [0.06384634226560593, 0.10727941989898682, 0.31880712509155273, 0.10918564349412918, 0.035214778035879135, -0.22982999682426453, -0.16375644505023956, -0.08127161860466003, -0.09428621828556061, 0.027694478631019592, 0.23842531442642212, -0.22442065179347992, 0.002072820672765374, 0.1341189742088318, -0.04809382185339928, -0.2099478542804718, 0.021822664886713028, 0.08411911875009537, -0.048032913357019424, -0.1827482134103775, -0.02484266646206379, -0.20425206422805786, 0.0006692244205623865, 0.16237618029117584, -0.20229822397232056, 0.06742385774850845, 0.1476975381374359, 0.1486877202987671, -0.06384243071079254, -0.13799388706684113, 0.018434247002005577, 0.07289592176675797, -0.17013056576251984, 0.16915369033813477, 0.021097376942634583, 0.16989733278751373, 0.07241534441709518, -0.17004379630088806, 0.1841983050107956, 0.0599055290222168, 0.10221461206674576, -0.08790435642004013, 0.025605611503124237, -0.04849619418382645, 0.019291814416646957, 0.07242722809314728, -0.10485445708036423, 0.02413073182106018, 0.07411365211009979, 0.04675641655921936, 0.2053748220205307, 0.02636050246655941, -0.07013387233018875, 0.0009746869327500463, -0.062144141644239426, -0.26161423325538635, 0.06847096234560013, -0.00027642628992907703, 0.0777009129524231, -0.029811786487698555, 0.052780259400606155, -0.037271127104759216, 0.06279469281435013, -0.03085944429039955, -0.22905929386615753, 0.07071670144796371], [-0.03285791724920273, 0.12574069201946259, -0.06511715054512024, -0.01428924035280943, 0.2538158595561981, 0.005628203507512808, 0.012984068132936954, 0.20504939556121826, -0.15955626964569092, -0.11484340578317642, -0.13506662845611572, 0.03080766648054123, -0.12733110785484314, 0.1544230431318283, 0.05745413154363632, -0.001063285511918366, -0.014547591097652912, -0.13315147161483765, -0.15651436150074005, 0.09387540817260742, 0.02357505075633526, 0.030417345464229584, 0.020078051835298538, 0.10277600586414337, -0.1355871558189392, -0.04911318048834801, -0.09604210406541824, 0.048371490091085434, -0.11930277943611145, 0.1447620838880539, -0.32118239998817444, 0.13948021829128265, -0.11511776596307755, 0.09263740479946136, -0.0748869925737381, -0.35797590017318726, 0.03378462418913841, 0.05790369585156441, -0.03778129816055298, 0.08483728766441345, 0.1482096165418625, -0.08139829337596893, -0.07541385293006897, -0.0007287744665518403, 0.12006931006908417, 0.2032279521226883, -0.2074519842863083, -0.13666652143001556, -0.05389842018485069, -0.08294476568698883, -0.009479418396949768, -0.08186323940753937, 0.17520657181739807, -0.19760265946388245, 0.03584493696689606, -0.10348545759916306, -0.05832556262612343, 0.06233365461230278, -0.12668104469776154, 0.1759885996580124, 0.11357669532299042, -0.041927918791770935, 0.18896931409835815, -0.14520928263664246, 0.051982712000608444, -0.020651768893003464], [-0.03235100954771042, -0.28301793336868286, 0.12867724895477295, -0.08012966811656952, -0.23775643110275269, -0.13814173638820648, 0.14576111733913422, 0.0535791739821434, -0.20347200334072113, 0.1552029550075531, 0.20516370236873627, 0.0031292482744902372, -0.04387875646352768, -0.28894877433776855, 0.025141943246126175, -0.050253964960575104, -0.11455435305833817, -0.20545443892478943, 0.22782716155052185, 0.06663274019956589, 0.20997612178325653, 0.15665578842163086, 0.21202045679092407, 0.05857463181018829, -0.07196150720119476, -0.07209867984056473, -0.024243056774139404, -0.019261619076132774, -0.17994634807109833, -0.14630573987960815, -0.08886878937482834, 0.10044515132904053, -0.02496149390935898, -0.09172646701335907, 0.11633957922458649, 0.04797068238258362, 0.0033893364015966654, -0.0088712302967906, -0.17430061101913452, -0.10282010585069656, -0.015085787512362003, -0.005948513280600309, -0.09223014116287231, -0.16862238943576813, -0.0035305372439324856, 0.08622429519891739, -0.15310077369213104, 0.07841447740793228, -0.02196546643972397, -0.1413710117340088, -0.11182466894388199, 0.05313000828027725, -0.07149004191160202, 0.325480580329895, 0.0661936029791832, -0.019008327275514603, -0.03536393865942955, 0.05251558870077133, 0.08960463851690292, 0.20339521765708923, 0.1676616072654724, -0.12265577912330627, 0.20381809771060944, 0.01493467390537262, 0.10130975395441055, -0.08407009392976761], [0.2657293379306793, -0.12823127210140228, -0.013303980231285095, -0.02704271674156189, -0.23516130447387695, 0.027908310294151306, -0.029379695653915405, -0.23360611498355865, 0.08241093158721924, -0.09093600511550903, 0.08497174829244614, 0.14452435076236725, -0.03914380818605423, -0.11979518085718155, 0.04278555512428284, -0.16213388741016388, -0.186009019613266, 0.048483677208423615, 0.04194965213537216, -0.1691637635231018, 0.07517065852880478, -0.028289824724197388, 0.0017978642135858536, 0.07285330444574356, -0.06816219538450241, -0.23160716891288757, 0.07185855507850647, -0.09167006611824036, -0.006271698046475649, -0.12490813434123993, -0.05633571371436119, 0.18003392219543457, 0.012409339658915997, -0.05501967668533325, -0.15711237490177155, -0.23418273031711578, 0.156471848487854, 0.09780800342559814, 0.02357073314487934, 0.01224747858941555, 0.04155253991484642, 0.04494301974773407, 0.022671744227409363, -0.10646503418684006, 0.08389560133218765, -0.03643304482102394, 0.012325727380812168, -0.1610366553068161, 0.20307892560958862, 0.18745233118534088, 0.12566082179546356, -0.07262880355119705, 0.14025698602199554, -0.06534704566001892, 0.12171288579702377, -0.11828579753637314, 0.07706216722726822, 0.09487675130367279, -0.17269141972064972, -0.1274302899837494, -0.07860961556434631, 0.3691587448120117, -0.1306229829788208, -0.1643000692129135, -0.001718158251605928, 0.11103547364473343], [0.006957984529435635, -0.04086169973015785, 0.1497911512851715, 0.057840730994939804, -0.03743986040353775, -0.08793780952692032, -0.12242371588945389, -0.035628411918878555, -0.01650872267782688, 0.1925458312034607, -0.20145434141159058, 0.050944238901138306, -0.005474566947668791, -0.004361608996987343, -0.06535627692937851, -0.003545174840837717, 0.21810218691825867, 0.28750079870224, -0.07300392538309097, 0.031551919877529144, 0.12640927731990814, -0.00886924471706152, -0.05854926258325577, 0.12556831538677216, -0.09675468504428864, -0.20570045709609985, -0.10960467904806137, -0.1484847217798233, 0.21833132207393646, -0.11568914353847504, -0.03626555949449539, -0.14639857411384583, -0.13402174413204193, 0.00024440354900434613, 0.09871188551187515, -0.01890461891889572, -0.02992197498679161, 0.13057588040828705, -0.1635754257440567, -0.11166069656610489, -0.0603262223303318, 0.030585287138819695, -0.10889462381601334, 0.03812185674905777, -0.09291932731866837, 0.1333952099084854, 0.10721234977245331, 0.1262204945087433, -0.11059819161891937, 0.14512678980827332, 0.06599321216344833, 0.31809788942337036, 0.06288479268550873, -0.05391364544630051, 0.18602362275123596, -0.16723285615444183, 0.053784146904945374, 0.18618571758270264, -0.17975717782974243, 0.10864199697971344, -0.11034663766622543, 0.07007595151662827, 0.13399024307727814, 0.1184598058462143, 0.05907000973820686, 0.13715672492980957], [0.060897473245859146, -0.01382914837449789, 0.021922912448644638, -0.11117789894342422, 0.05906209722161293, 0.004163974896073341, 0.03791066259145737, 0.03592899441719055, -0.13845601677894592, -0.10656439512968063, -0.04556979984045029, 0.12073298543691635, -0.009470379911363125, 0.1921071708202362, 0.0987929105758667, -0.08221856504678726, -0.0017617056146264076, -0.09769733995199203, -0.15549179911613464, -0.2589191198348999, 0.17097707092761993, 0.010977762751281261, -0.02670860104262829, -0.02189544215798378, -0.22299239039421082, 0.019263198599219322, 0.11227374523878098, -0.129477858543396, 0.14475767314434052, 0.0030482218135148287, -0.021353507414460182, 0.0030656217131763697, -0.110995352268219, 0.1327541321516037, -0.047966066747903824, -0.06500234454870224, -0.08611618727445602, -0.2503887712955475, 0.05060421675443649, -0.035027556121349335, -0.21654066443443298, -0.06192782521247864, 0.023262489587068558, -0.0030672005377709866, -0.10935700684785843, 0.0035264920443296432, -0.10382560640573502, 0.04495478421449661, -0.12668225169181824, -0.25959932804107666, 0.11171647906303406, 0.06590777635574341, 0.4439082741737366, -0.02723911963403225, 0.1697298288345337, -0.04870142042636871, 0.22080646455287933, 0.009729824960231781, 0.11267681419849396, -0.09227971732616425, -0.22052007913589478, -0.022363193333148956, -0.31759172677993774, -0.05459475889801979, 0.17713695764541626, -0.13889330625534058], [0.1883464753627777, -0.2232038974761963, -0.1870276778936386, -0.18686679005622864, 0.1437152475118637, -0.002748878439888358, 0.14501146972179413, -0.012355213053524494, -0.07538245618343353, -0.1394394487142563, 0.11863476783037186, -0.032946161925792694, -0.15211884677410126, 0.0746900662779808, 0.03226960077881813, -0.1813374161720276, 0.002032003365457058, 0.26912885904312134, -0.08185596764087677, 0.010330918245017529, -0.0010755202965810895, -0.10944899916648865, 0.07726538926362991, 0.28347137570381165, 0.23987938463687897, -0.06830722838640213, -0.06630776077508926, 0.070309579372406, 0.19523973762989044, -0.049489088356494904, 0.05829453468322754, 0.07910604774951935, 0.1281357854604721, 0.10929315537214279, 0.2561678886413574, 0.15563583374023438, -0.08932159096002579, 0.07646748423576355, -0.23542748391628265, 0.16033188998699188, -0.023959457874298096, -0.049744147807359695, -0.11035407334566116, 0.08297065645456314, 0.14119242131710052, -0.1321592777967453, 0.03328653797507286, -0.18268123269081116, -0.20495668053627014, 0.13894790410995483, 0.0176717396825552, -0.08718127757310867, 0.03953653573989868, 0.06608913093805313, -0.08325819671154022, -0.07607651501893997, -0.0046159629710018635, 0.0040070428512990475, 0.009507515467703342, -0.1648472398519516, 0.039874352514743805, -0.14151465892791748, 0.0007210781914182007, 0.004113248083740473, -0.159440279006958, -0.07410392165184021], [-0.15635204315185547, 0.03854389116168022, 0.019784322008490562, -0.16556820273399353, 0.05952731519937515, 0.0644969567656517, -0.09504589438438416, -0.05871018394827843, 0.08163338154554367, -0.2293437123298645, -0.16806097328662872, 0.05179041624069214, 0.0025581414811313152, 0.010672050528228283, 0.14782321453094482, -0.04042184725403786, 0.08394499123096466, -0.07010120898485184, -0.22228756546974182, -0.10873936861753464, 0.13594934344291687, -0.08159270882606506, 0.06326180696487427, 0.16027404367923737, 0.0004748671199195087, 0.07173682749271393, -0.0003513794799800962, -0.2634222209453583, -0.07739225029945374, 0.02379111386835575, -0.029651183634996414, -0.04981546476483345, -0.03433261066675186, -0.1662871390581131, 0.08188798278570175, 0.0029454363975673914, 0.37388375401496887, -0.04905346781015396, -0.09112407267093658, 0.06698448956012726, -0.22335760295391083, 0.11093245446681976, -0.15523046255111694, -0.16703231632709503, -0.0007419515168294311, -0.17679060995578766, -0.12637625634670258, 0.12630431354045868, 0.07836318761110306, -0.01971394754946232, -0.05512312054634094, -0.031423356384038925, -0.06416953355073929, -0.17026889324188232, 0.10647257417440414, -0.0362594835460186, -0.11489801853895187, -0.1571514755487442, 0.054272376000881195, 0.058333802968263626, -0.043607763946056366, -0.015439585782587528, -0.16388992965221405, 0.06606823951005936, -0.21687006950378418, -0.1515459567308426], [0.17968885600566864, -0.14790485799312592, 0.15450647473335266, -0.3146604597568512, -0.12974795699119568, 0.12568342685699463, -0.019106067717075348, 0.08928374946117401, 0.1943434774875641, 0.10348906368017197, -0.15945692360401154, -0.4948781430721283, -0.011359324678778648, 0.09421779215335846, -0.12514884769916534, -0.12926363945007324, 0.08007410913705826, 0.051567383110523224, 0.15596412122249603, 0.027662811800837517, -0.13521160185337067, -0.09775150567293167, -0.0514412485063076, -0.1818370372056961, -0.2480335384607315, -0.11696156859397888, -0.0052125295624136925, 0.03991717845201492, 0.10356448590755463, -0.08746954798698425, -0.06234598532319069, -0.06110316514968872, 0.06143110245466232, 0.12277740240097046, -0.0026276344433426857, 0.001453258330002427, -0.006012990139424801, 0.15444906055927277, -0.02145358920097351, 0.08413612842559814, 0.03769344463944435, -0.09005595743656158, -0.11652949452400208, -0.16281403601169586, 0.08965644240379333, -0.024546224623918533, 0.09724963456392288, 0.06352917850017548, 0.03489493206143379, 0.03815152868628502, -0.2392885386943817, 0.02451726607978344, -0.053189508616924286, -0.08174619823694229, -0.0831017792224884, -0.028430864214897156, -0.07899795472621918, 0.0852530375123024, 0.037539709359407425, 0.10358445346355438, 0.14413675665855408, 0.061179738491773605, -0.1185404509305954, 0.0204766858369112, 0.09991444647312164, -0.19555462896823883], [-0.013476517051458359, 0.022336071357131004, 0.056483883410692215, -0.26279643177986145, 0.06603336334228516, 0.021992171183228493, -0.22180867195129395, 0.010905756615102291, -0.28817784786224365, -0.05417253449559212, -0.03542878106236458, 0.016729574650526047, 0.12526822090148926, -0.1544824242591858, -0.1055842787027359, -0.1502058506011963, -0.08082174509763718, 0.027985865250229836, 0.2710861563682556, -0.052618518471717834, 0.12860701978206635, 0.009123099967837334, 0.011047949083149433, 0.1355791687965393, 0.19818539917469025, 0.022040056064724922, 0.013755396008491516, 0.05384941026568413, 0.12667828798294067, 0.1467917114496231, -0.1297800987958908, -0.02570657804608345, 0.20686078071594238, 0.03540489822626114, 0.0603036992251873, -0.057278573513031006, -0.08324697613716125, 0.10024106502532959, 0.35162538290023804, -0.1501319408416748, -0.02837631106376648, 0.01602987013757229, -0.07399702817201614, 0.14732375741004944, -0.06804236024618149, -0.08018031716346741, -0.24969246983528137, 0.18828408420085907, -0.042615581303834915, -0.10429979860782623, 0.1841052621603012, 0.10480449348688126, -0.06883630901575089, -0.12336023896932602, -0.03899378329515457, 0.18260957300662994, -0.046626217663288116, -0.01742543652653694, -0.11328958719968796, 0.1635926216840744, 0.14152070879936218, -0.049089450389146805, -0.09991931170225143, -0.08944067358970642, -0.08568514883518219, 0.10083771497011185], [-0.15288667380809784, -0.11967649310827255, 0.11533655226230621, -0.16080623865127563, -0.2753028869628906, -0.054933130741119385, 0.09065528213977814, 0.19615794718265533, -0.06182239204645157, 0.074336938560009, 0.1826317310333252, 0.04023106023669243, 0.06766267865896225, 0.1838061511516571, 0.004163865000009537, 0.014937550760805607, 0.0003136833547614515, -0.21968814730644226, 0.0367775559425354, 0.22744855284690857, -0.157399982213974, -0.014568786136806011, -0.07724611461162567, 0.26239585876464844, 0.04836048185825348, 0.07083539664745331, 0.00028891905094496906, -0.1600237637758255, 0.24653582274913788, 0.09983449429273605, 0.04713163152337074, -0.047899987548589706, 0.13590411841869354, 0.05823853239417076, -0.16232706606388092, -0.0034944612998515368, -0.17485839128494263, -0.25170639157295227, -0.025517689064145088, 0.13408289849758148, -0.05115106329321861, 0.026011373847723007, -0.01904919371008873, 0.11813230067491531, 0.08998826146125793, -0.11546937376260757, -0.045622628182172775, -0.0023068131413310766, 0.21753336489200592, 0.0344449058175087, -0.12941886484622955, 0.19838587939739227, -0.11705461144447327, 0.03544614091515541, 0.000658651813864708, -0.16622181236743927, -0.2159392386674881, 0.10992757230997086, -0.02800225280225277, -0.013380015268921852, 0.17851920425891876, 0.03613818436861038, 0.0015339830424636602, 0.11570251733064651, 0.1718202531337738, 0.1958457976579666], [-0.12417356669902802, 0.29358237981796265, -0.09178206324577332, -0.0678214505314827, -0.049580447375774384, 0.03111431561410427, -0.2041623443365097, -0.14775803685188293, 0.06677113473415375, -0.02962036058306694, 0.0640566349029541, -0.05050696060061455, 0.07244715094566345, -0.22562527656555176, 0.07583179324865341, -0.026381967589259148, -0.07704610377550125, -0.0021004206500947475, 0.09375256299972534, 0.07843209058046341, 0.05165635049343109, -0.0798390582203865, -0.2500430941581726, 0.0054782480001449585, -0.0591418594121933, -0.02306796796619892, 0.21458284556865692, 0.08707275241613388, -0.1256226748228073, -0.1513771414756775, -0.1998586654663086, -0.10487478226423264, 0.05649816617369652, 0.12060661613941193, 0.03944776579737663, -0.2128586620092392, -0.08115168660879135, 0.0037149405106902122, -0.19765765964984894, 0.04426084831357002, -0.06291865557432175, 0.0994841530919075, 0.1799028366804123, 0.09250494092702866, 0.1743990033864975, -0.26314523816108704, -0.013006596826016903, -0.21603311598300934, -0.05889871343970299, -0.311501145362854, -0.03835801035165787, 0.12599651515483856, -0.09921187162399292, 0.20770762860774994, 0.1110902726650238, -0.024862658232450485, -0.01400959026068449, -0.024870600551366806, 0.07209236919879913, 0.011283020488917828, 0.12369216233491898, -0.1409231722354889, 0.1105782762169838, 0.06806085258722305, -0.023910310119390488, -0.0014115015510469675], [0.0909980833530426, 0.15562650561332703, -0.08431064337491989, -0.12902039289474487, 0.08353255689144135, -0.2181413620710373, 0.0502522736787796, 0.26483747363090515, -0.0719643086194992, 0.2353171408176422, -0.0646415576338768, 0.056361839175224304, 0.09155209362506866, -0.11337941884994507, 0.05877374857664108, -0.05540769547224045, -0.13264892995357513, 0.0706915333867073, 0.2810666561126709, 0.053525231778621674, -0.3569401502609253, -0.0905994102358818, 0.03170987591147423, -0.07131879776716232, 0.10207699984312057, 0.0032789213582873344, -0.006161200348287821, 0.03876305744051933, 0.1758671998977661, -0.015342393890023232, -0.03874409571290016, 0.09304632246494293, -0.19138942658901215, 0.0735759288072586, -0.0755518451333046, 0.10436765104532242, 0.19730499386787415, 0.059913504868745804, -0.09655836224555969, 0.014963272027671337, -0.15462075173854828, -0.05488501116633415, 0.03351669758558273, 0.11587769538164139, -0.020085304975509644, -0.029605399817228317, -0.18996936082839966, 0.06070983037352562, -0.09210171550512314, 0.048063937574625015, -0.28283223509788513, -0.06837399303913116, -0.1315140724182129, 0.1205228939652443, 0.18313489854335785, -0.11376675963401794, 0.12384063750505447, -0.11302196979522705, -0.023446543142199516, -0.21684128046035767, 0.1460195928812027, 0.05911319702863693, -0.07889281958341599, 0.22251729667186737, 0.06936907768249512, -0.020604444667696953], [-0.17430587112903595, -0.1939990371465683, -0.28980782628059387, 0.07777553796768188, 0.17878423631191254, 0.18924303352832794, 0.016765911132097244, -0.16441810131072998, -0.04306117445230484, 0.22613656520843506, 0.11373371630907059, 0.007078738417476416, 0.18434183299541473, 0.08289749175310135, 0.04363759234547615, -0.06645925343036652, -0.02065761387348175, -0.07315089553594589, 0.030896585434675217, -0.017893316224217415, 0.023976154625415802, 0.01650749333202839, -0.25571030378341675, -0.20025280117988586, -0.055351048707962036, -0.11524130403995514, 0.0944451242685318, -0.13760964572429657, 0.04622070863842964, -0.18053115904331207, 0.08382315188646317, 0.22119244933128357, 0.15161100029945374, 0.002368458779528737, -0.009103690274059772, 0.19423916935920715, 0.14287106692790985, -0.20398998260498047, -0.056845277547836304, 0.05948444455862045, 0.06791313737630844, 0.10319571942090988, -0.009486120194196701, 0.1141490638256073, 0.07828962057828903, 0.17890210449695587, -0.10278844088315964, -0.10073602199554443, -0.15009750425815582, 0.012639672495424747, -0.1864808201789856, 0.0006898048450239003, -0.11080620437860489, -0.2436840832233429, -0.13240405917167664, -0.10258904099464417, 0.09347480535507202, 0.0254663173109293, -0.0029131127521395683, 0.3392202854156494, 0.04760412871837616, 0.005868883337825537, -0.09053444117307663, 0.17620441317558289, -0.04164237529039383, 0.09028865396976471], [-3.903391188941896e-06, -0.013224192894995213, -0.259899765253067, -0.07963615655899048, -0.05746249482035637, 0.1632193624973297, 0.0849098190665245, 0.009907507337629795, -0.05548221245408058, 0.0493784099817276, -0.07659978419542313, -0.06744801998138428, 0.31262218952178955, 0.08945465832948685, 0.14337138831615448, 0.13418857753276825, -0.019947079941630363, 0.05792856216430664, -0.07124568521976471, -0.06561767309904099, 0.07427553832530975, -0.04722152277827263, 0.19414082169532776, 0.20279596745967865, -0.19039203226566315, -0.03787108138203621, -0.024515464901924133, 0.1470181792974472, 0.019803889095783234, 0.0915035828948021, -0.24556051194667816, 0.11326668411493301, -0.14046362042427063, 0.1240200325846672, -0.08731551468372345, 0.1280830204486847, -0.06671611964702606, -0.09107626974582672, -0.06729917973279953, -0.22292794287204742, 0.030314406380057335, -0.011365418322384357, 0.17241914570331573, 0.03003598563373089, -0.04122839868068695, -0.14607404172420502, 0.07027553021907806, 0.051514796912670135, -0.07366062700748444, 0.11630502343177795, 0.14751654863357544, 0.1397421807050705, -0.1508193463087082, 0.06478898227214813, -0.24982529878616333, 0.042331013828516006, 0.01209367997944355, -0.07164005935192108, -0.1436135470867157, -0.10039690881967545, -0.06867287307977676, 0.16565772891044617, 0.10502544045448303, 0.023426154628396034, -0.18607759475708008, -0.24210794270038605], [-0.1058117151260376, 0.1067722737789154, 0.25156208872795105, -0.05409779027104378, 0.08383168280124664, -0.07302754372358322, 0.21862497925758362, -0.16665291786193848, 0.04835513234138489, -0.3012491464614868, 0.12571710348129272, -0.06995020806789398, 0.07478753477334976, -0.08666110783815384, -0.0408937968313694, 0.1988855004310608, -0.17706482112407684, 0.20017066597938538, 0.18476948142051697, 0.03598722070455551, -0.1277308315038681, 0.17838254570960999, -0.18474863469600677, -0.014325601980090141, -0.013966389000415802, -0.051892802119255066, 0.006057123187929392, 0.0016264471923932433, 0.24607598781585693, 0.0700305625796318, -0.18786241114139557, 0.05608449876308441, 0.11249049007892609, 0.03414760157465935, 0.0717771053314209, 0.10659768432378769, 0.040717046707868576, -0.07296623289585114, -0.0819181278347969, 0.013086545281112194, -0.12672072649002075, -0.13378176093101501, -0.08372464030981064, -0.09209015220403671, -0.018260832875967026, 0.12524914741516113, 0.012115757912397385, -0.03902364522218704, -0.04400778189301491, 0.23974253237247467, -0.2253311425447464, 0.1382310539484024, 0.19363224506378174, 0.11292019486427307, -0.16411028802394867, 0.1325417011976242, 0.020094800740480423, 0.026319457218050957, 0.004901800770312548, 0.0018589766696095467, 0.23312290012836456, 0.19869892299175262, 0.19174733757972717, 0.19391900300979614, -0.07821647822856903, 0.039425551891326904], [0.02145286090672016, -0.1514042317867279, -0.06997306644916534, 0.18041659891605377, 0.18201132118701935, 0.22187791764736176, -0.2047058641910553, 0.026696493849158287, 0.15199750661849976, -0.13563518226146698, 0.11995941400527954, 0.11298084259033203, 0.03412169590592384, -0.034498024731874466, 0.1290375292301178, -0.06743927299976349, 0.12082434445619583, 0.003950899932533503, 0.14460569620132446, -0.15316255390644073, -0.17029505968093872, -0.012314405292272568, -0.1582525670528412, 0.2505863904953003, 0.00890990998595953, 0.18363070487976074, -0.2874225974082947, -0.012432417832314968, -0.06057954952120781, -0.16891586780548096, -0.17418022453784943, -0.08598334342241287, -0.053212374448776245, 0.05240609496831894, 0.0623912550508976, 0.006418038159608841, 0.05671590566635132, 0.027773110195994377, -0.07200638204813004, 0.15118840336799622, -0.07141178101301193, 0.04501396790146828, 0.15369853377342224, -0.11485566198825836, -0.13403630256652832, 0.09605979919433594, -0.08392250537872314, 0.15416660904884338, -0.10329806059598923, -0.2604654133319855, 0.0620555616915226, 0.08334528654813766, -0.11887169629335403, -0.025378551334142685, -0.13485366106033325, -0.015291926451027393, -0.12621408700942993, 0.12376759201288223, 0.07666102796792984, -0.08385005593299866, -0.14523789286613464, 0.1216401681303978, -0.02040596306324005, -0.20404866337776184, 0.20346590876579285, -0.016300197690725327], [0.07005429267883301, -0.07140473276376724, 0.13330096006393433, -0.13131289184093475, 0.12274529039859772, 0.0030831608455628157, -0.020207440480589867, 0.0020038685761392117, -0.012996543198823929, -0.10212439298629761, 0.08149535953998566, 0.15594911575317383, -0.12773497402668, 0.10483440011739731, 0.08156856149435043, 0.05930719152092934, 0.05775906518101692, -0.24795061349868774, 0.04593714326620102, 0.08534258604049683, -0.012313985265791416, 0.11546435207128525, -0.07917562872171402, 0.036908891052007675, -0.2078249752521515, -0.12896594405174255, 0.19347991049289703, -0.023005858063697815, -0.08609768748283386, -0.2067405730485916, -0.041765108704566956, -0.04802767559885979, -0.25082576274871826, 0.1009015291929245, 0.025854315608739853, -0.06325822323560715, -0.2562326192855835, 0.1855294108390808, 0.03502871096134186, -0.09512510895729065, -0.14232346415519714, -0.1257738620042801, -0.19250814616680145, 0.060888729989528656, -0.06600606441497803, 0.0769389420747757, 0.08263260871171951, -0.1316455751657486, -0.09776639938354492, 0.014307468198239803, 0.10375338792800903, -0.127070352435112, -0.30381008982658386, -0.12214222550392151, 0.037795860320329666, 0.21156397461891174, -0.06971980631351471, -0.13334865868091583, 0.0642494484782219, -0.08027589321136475, -0.04227197542786598, 0.048353761434555054, -0.19496332108974457, 0.16242824494838715, -0.012426252476871014, 0.22459518909454346], [0.11565373837947845, 0.3493940830230713, -0.11025923490524292, -0.07123641669750214, 0.16187573969364166, 0.06870895624160767, 0.12051139771938324, -0.07492271065711975, 0.285301148891449, -0.03713640943169594, 0.1402362734079361, 0.014669940806925297, 0.12025470286607742, 0.045773375779390335, -0.12493409961462021, 0.12169541418552399, 0.00837885495275259, -0.02857905626296997, 0.04860954359173775, 0.02153945155441761, 0.13529138267040253, 0.17663708329200745, 0.008261442184448242, 0.1458837389945984, 0.15403799712657928, -0.06002417951822281, -0.0928066298365593, -0.11148390918970108, -0.25979238748550415, -0.14332206547260284, -0.015939002856612206, -0.0008514432120136917, -0.24851003289222717, -0.1037420779466629, 0.18766063451766968, 0.06926654279232025, 0.07852018624544144, -0.06385846436023712, 0.263317734003067, -0.011465799994766712, 0.02507568709552288, -0.06808558851480484, 0.12498574703931808, -0.03580382093787193, 0.19617432355880737, 0.18872013688087463, -0.12675103545188904, -0.0042144255712628365, -0.00550478883087635, -0.08148542791604996, 0.15349403023719788, 0.15861773490905762, 0.06274102628231049, -0.003098449669778347, 0.13212046027183533, -0.05121155455708504, -0.22711950540542603, -0.05978959798812866, -0.34829169511795044, 0.04161376506090164, -0.18499743938446045, -0.09821441024541855, -0.2674410343170166, 0.013521470129489899, 0.0346347838640213, -0.17331798374652863], [-0.3651764988899231, -0.24465365707874298, -0.0763431042432785, -0.09405573457479477, -0.11082839965820312, -0.14051216840744019, 0.04319228231906891, 0.09829498827457428, 0.09149014949798584, -0.174359530210495, 0.10917285829782486, 0.0660507008433342, 0.01829056814312935, -0.009437954053282738, 0.05615170672535896, -0.19320370256900787, -0.09209592640399933, 0.1378789097070694, -0.06452087312936783, -0.12677891552448273, -0.07419461756944656, 0.0010233779903501272, -0.03541731461882591, -0.07595355063676834, 0.04929553344845772, -0.13067805767059326, -0.06441870331764221, 0.1472819298505783, 0.020600324496626854, 0.014855384826660156, -0.04388841986656189, 0.08928455412387848, -0.08952545374631882, 0.0011002729879692197, 0.12730072438716888, -0.13988998532295227, 0.00027368724113330245, 0.08558569103479385, 0.34096670150756836, -0.026930609717965126, 0.3173389434814453, -0.02253287099301815, 0.07441945374011993, 0.10299724340438843, -0.14504088461399078, -0.1323564350605011, 0.29821377992630005, 0.1250508427619934, -0.16436703503131866, 0.11808385699987411, -0.3150603175163269, 0.13719595968723297, 0.040920644998550415, 0.035705506801605225, 0.16800597310066223, -0.09139111638069153, -0.06239303573966026, -0.08604996651411057, 0.02672073431313038, -0.022971348837018013, 0.13723453879356384, -0.01898949034512043, 0.06589239835739136, 0.07196494936943054, 0.003086596494540572, -0.0021206673700362444], [0.1430884748697281, 0.09258154779672623, -0.06598330289125443, -0.20227162539958954, 0.09250862151384354, -0.01766776666045189, 0.1458747237920761, -0.19148047268390656, -0.11757506430149078, 0.1939537078142166, 0.08667980134487152, 0.033350247889757156, -0.0007488507544621825, 0.15695875883102417, -0.3324965536594391, 0.07225518673658371, -0.05432886257767677, -0.0447288379073143, -0.2772537171840668, -0.031515754759311676, -0.028876839205622673, -0.05530710890889168, -0.21003447473049164, -0.08659424632787704, -0.0116347661241889, 0.03841302543878555, -0.023727795109152794, -0.2101902961730957, 0.0049003916792571545, -0.14566215872764587, -0.12184279412031174, 0.10965733975172043, -0.07308515161275864, -0.08820682764053345, -0.062104057520627975, -0.0009752131882123649, 0.0144567945972085, 0.07242938876152039, 0.01086744200438261, 0.07396231591701508, 0.25332197546958923, 0.007396703120321035, -0.21732431650161743, -0.08832680433988571, -0.27972325682640076, -0.14889737963676453, -0.1408018171787262, 0.06720633804798126, 0.002848271746188402, -0.11350562423467636, -0.08963960409164429, 0.08538277447223663, 0.013489359989762306, 0.14071567356586456, -0.0405411422252655, 0.13225185871124268, -0.09281235933303833, -0.04111237823963165, 0.05996061861515045, -0.1061033383011818, -0.30801576375961304, 0.06742197275161743, 0.04176412895321846, -0.1632714718580246, -0.04586261510848999, 0.04130564257502556], [0.08593583106994629, -0.09162089228630066, 0.14376665651798248, 0.004309776704758406, 0.11760960519313812, -0.16211391985416412, -0.23186105489730835, 0.02167767845094204, -0.0781378224492073, -0.09568045288324356, 0.04386001080274582, -0.07780507951974869, 0.09166925400495529, -0.11424261331558228, 0.14077088236808777, -0.06599631160497665, -0.19377796351909637, -0.11991851776838303, -0.07394491136074066, 0.4538792371749878, -0.11388828605413437, 0.17879945039749146, 0.004252732265740633, -0.02823188528418541, -0.2073969542980194, 0.009091810323297977, 0.06005127355456352, -0.04619254544377327, 0.1633603870868683, 0.12633280456066132, 0.20723313093185425, -0.023627275601029396, 0.07418492436408997, -0.10286004096269608, -0.041170720010995865, 0.08963992446660995, 0.10619744658470154, 0.16941097378730774, 0.03948346897959709, -0.042912326753139496, 0.10798881202936172, 0.19525332748889923, 0.03360588848590851, 0.05559663474559784, -0.09554927796125412, 0.010602274909615517, -0.009654887951910496, -0.22459253668785095, -0.1778465211391449, 0.007316311821341515, 0.02650598995387554, 0.18547318875789642, -0.05608924478292465, 0.05077666416764259, -0.012709060683846474, -0.2106417715549469, -0.04251479357481003, 0.10934247076511383, 0.07159911096096039, -0.045928165316581726, -0.1879022717475891, 0.007932663895189762, -0.08874411880970001, -0.11181309074163437, -0.045559097081422806, -0.22355890274047852], [0.030757972970604897, 0.18794967234134674, -0.09589151293039322, -0.07224754989147186, 0.07739552855491638, -0.07963535934686661, 0.17144189774990082, 0.012201639823615551, 0.11279495060443878, -0.13013531267642975, 0.11449432373046875, -0.02510155364871025, 0.05909379944205284, -0.05089616775512695, -0.03950626030564308, -0.162494495511055, 0.10004439949989319, -0.11658616364002228, -0.22298945486545563, -0.13179732859134674, -0.15406131744384766, 0.1494804173707962, 0.26870596408843994, -0.04661896824836731, 0.13087713718414307, 0.1227804645895958, 0.248500257730484, -0.018393592908978462, 0.08362505584955215, -0.053748391568660736, -0.0022437924053519964, 0.17487695813179016, -0.018487894907593727, 0.1487337052822113, 0.038705699145793915, 0.02416805922985077, -0.029517607763409615, 0.08711652457714081, -0.08300281316041946, 0.19222725927829742, -0.09578432142734528, 0.20383571088314056, 0.03724558651447296, -0.05869258567690849, -0.20559373497962952, 0.08331272006034851, 0.10964925587177277, 0.01993873529136181, 0.18742439150810242, -0.0278118085116148, -0.03254866600036621, 0.1386488676071167, -0.20022617280483246, -0.05485301464796066, 0.07436715811491013, 0.14235247671604156, 0.14894479513168335, 0.17090792953968048, -0.18934768438339233, 0.29166555404663086, -0.06988149881362915, -0.053958892822265625, 0.045547004789114, -0.020173802971839905, 0.06379951536655426, 0.004083344247192144], [-0.07979092001914978, -0.06898511946201324, 0.19112832844257355, -0.1803012192249298, 0.07688108086585999, -0.023135412484407425, 0.06809088587760925, 0.015658458694815636, -0.13192816078662872, -0.007085636258125305, -0.04555794969201088, -0.03078283742070198, -0.03527095913887024, 0.03119318187236786, 0.14756299555301666, -0.23440931737422943, -0.003982024732977152, 0.023262767121195793, -0.25703710317611694, 0.109610915184021, 0.14039020240306854, -0.17531651258468628, -0.16043001413345337, -0.10874567925930023, 0.11315754055976868, 0.08063657581806183, -0.03837185353040695, 0.17270399630069733, 0.010916551575064659, -0.11496979743242264, 0.020110026001930237, -0.07365928590297699, 0.07204050570726395, -0.019918156787753105, 0.05458280071616173, 0.1362994909286499, -0.08925144374370575, -0.04363882169127464, 0.008194740861654282, -0.3779434561729431, -0.07279419898986816, 0.17821495234966278, 0.18018385767936707, -0.027644196525216103, 0.07230865210294724, 0.2073129564523697, -0.06944727897644043, -0.08530417829751968, 0.1022477000951767, 0.01954994723200798, -0.21026641130447388, -0.04342350363731384, -0.15975144505500793, 0.17814725637435913, 0.017652977257966995, 0.06463520973920822, -0.03897206112742424, -0.056568700820207596, -0.12386834621429443, 0.022396152839064598, 0.09950002282857895, 0.28663957118988037, -0.021058816462755203, -0.028888646513223648, 0.2007012814283371, 0.022434422746300697], [0.013905515894293785, -0.15988650918006897, -0.15972448885440826, 0.05586579814553261, 0.1614435315132141, -0.22831884026527405, -0.03673902899026871, 0.07458461821079254, 0.19761501252651215, 0.03005596250295639, 0.02673586644232273, -0.14430294930934906, 0.046561349183321, 0.06938447058200836, -0.17990709841251373, -0.2641037702560425, -0.18232427537441254, 0.1332145482301712, 0.0580228716135025, 0.003790814895182848, -0.040533095598220825, -0.00016452331328764558, -0.04047461226582527, -0.08811718970537186, 0.1909436732530594, -0.1415981948375702, 0.3034380376338959, -0.04704849421977997, 0.06168699637055397, 0.2903464436531067, -0.16435183584690094, -0.0034194542095065117, -0.08153411746025085, -0.3007180094718933, 0.017981085926294327, -0.07011290639638901, -0.15346668660640717, -0.13600850105285645, -0.12308261543512344, -0.13613659143447876, -0.16560500860214233, -0.17240077257156372, 0.006529924925416708, -0.04840882122516632, -0.02526097744703293, 0.11292535066604614, 0.09102098643779755, 0.041683096438646317, 0.10650322586297989, 0.026683053001761436, -0.10744325071573257, -0.0032125560101121664, -0.05145588144659996, -0.04139282926917076, -0.20297150313854218, -0.04779257997870445, -0.07689458131790161, 0.13980062305927277, 0.12761253118515015, -0.05707864835858345, 0.017795559018850327, 0.08293823152780533, -0.03918277099728584, -0.06976945698261261, 0.031111227348446846, -0.010439747013151646], [0.06935176253318787, -0.292843759059906, 0.09565999358892441, 0.06738714873790741, -0.10257009416818619, 0.01160299964249134, -0.11918894946575165, 0.0848158597946167, -0.012745535001158714, -0.008661273866891861, -0.05026477575302124, -0.05547405779361725, 0.012994400225579739, 0.13930743932724, 0.02884962595999241, -0.09704600274562836, -0.12488379329442978, 0.2208237498998642, -0.23762455582618713, -0.037778448313474655, -0.2613142430782318, -0.015692908316850662, 0.021144969388842583, -0.15536998212337494, 0.012526921927928925, -0.28168660402297974, 0.02092055417597294, -0.0715949535369873, 0.01998596452176571, 0.0652938038110733, -0.10873330384492874, -0.043020039796829224, -0.05065340921282768, 0.07099064439535141, -0.07791045308113098, 0.1406935751438141, -0.07735157757997513, 0.14998888969421387, 0.05311809852719307, 0.023168163374066353, -0.11623046547174454, 0.18482695519924164, 0.04886193946003914, 0.009619727730751038, 0.2127530574798584, -0.08748208731412888, -0.2840988039970398, -0.07404601573944092, 0.1960722655057907, 0.0380956269800663, -0.09266439825296402, 0.2075144201517105, 0.07841575145721436, -0.030765075236558914, -0.15114901959896088, 0.07582705467939377, 0.05308559164404869, -0.26895925402641296, -0.06771156936883926, -0.11745452135801315, -0.11361895501613617, -0.1790679693222046, 0.1921839416027069, 0.12097904086112976, 0.039575837552547455, 0.09627097100019455], [0.11897923052310944, 0.010542736388742924, 0.03369144722819328, -0.09923287481069565, 0.0004874829319305718, 0.21049846708774567, 0.030480576679110527, 0.19570598006248474, -0.2017935961484909, -0.20343676209449768, 0.003908385988324881, -0.023763302713632584, -0.2752903997898102, -0.14332056045532227, 0.018350791186094284, -0.16186532378196716, -0.006186431273818016, -0.02500249072909355, 0.04029469937086105, 0.0920703113079071, 0.13520662486553192, 0.10664008557796478, -0.11927484720945358, -0.30683887004852295, 0.01501787081360817, -0.1665298491716385, -0.026664959266781807, 0.11583614349365234, -0.0548294298350811, 0.01780671626329422, 0.09385552257299423, 0.10938722640275955, -0.0607447624206543, 0.15229983627796173, -0.1842760145664215, 0.07394517213106155, 0.08664706349372864, -0.06461553275585175, -0.006368179805576801, 0.0037538879550993443, -0.15392211079597473, -0.19067643582820892, 0.04716108366847038, 0.08349393308162689, -0.03442591056227684, -0.09611035138368607, 0.0373808890581131, 0.19462406635284424, 0.14141812920570374, 0.1107042133808136, -0.1736292690038681, 0.21584995090961456, -0.06709586083889008, 0.18572589755058289, -0.22742030024528503, -0.15714088082313538, -0.031074363738298416, 0.15432347357273102, -0.030964836478233337, -0.020151404663920403, -0.061931390315294266, -0.14992599189281464, -0.06627016514539719, 0.0110670430585742, 0.03114759922027588, 0.2524091303348541], [0.1454988420009613, 0.17444166541099548, -0.08086589723825455, 0.07670360803604126, 0.045001208782196045, -0.05772702023386955, 0.16960400342941284, 0.05987706035375595, 0.2260143905878067, -0.08109088987112045, -0.033466774970293045, 0.22598223388195038, 0.22197775542736053, 0.18869705498218536, 0.04704340174794197, -0.2144162654876709, 0.09776897728443146, 0.09478665888309479, 0.05953572690486908, 0.08195678144693375, 0.2270219475030899, 0.11880914866924286, -0.10336031764745712, 0.006409534718841314, -0.08828981965780258, 0.2597043216228485, -0.030997183173894882, 0.02525421231985092, -0.0628589391708374, -0.050935372710227966, -0.19516995549201965, 0.05300398916006088, 0.267495334148407, -0.03602990880608559, -0.2510881721973419, 0.05341750383377075, -0.06404122710227966, 0.21976913511753082, -0.0072107622399926186, -0.06724008172750473, 0.07242957502603531, 0.15256768465042114, -0.07733079046010971, -0.18594254553318024, 0.009815526194870472, 0.09951876103878021, 0.0734524205327034, 0.17139960825443268, 0.006317565683275461, -0.13220535218715668, 0.02969341352581978, -0.03634724020957947, 0.01917926035821438, 0.04953352361917496, -0.01874086819589138, -0.10352527350187302, 0.01942109502851963, -0.07255081832408905, -0.022996949031949043, -0.06160586699843407, 0.13166283071041107, -0.2307262271642685, -0.09843874722719193, 0.11320696026086807, -0.2046622782945633, 0.09090003371238708], [-0.022829240188002586, -0.22711798548698425, -0.06836183369159698, -0.19786310195922852, 0.141383096575737, -0.10647466033697128, -0.1153775081038475, -0.0029514431953430176, -0.016742108389735222, -0.04681611806154251, -0.022165898233652115, 0.12399058789014816, -0.05481043830513954, 0.07928850501775742, -0.3421572744846344, 0.15686540305614471, 0.0010217411909252405, 0.047987110912799835, 0.04030190035700798, -0.05379784479737282, -0.1387699544429779, 0.02178935520350933, 0.048502884805202484, 0.04129970818758011, -0.2306770384311676, -0.2247895896434784, -0.0572676844894886, 0.20900723338127136, -0.14985443651676178, -0.035161737352609634, 0.12527911365032196, 0.030048448592424393, 0.37212762236595154, 0.06745903939008713, -0.12595276534557343, -0.11601289361715317, 0.09536055475473404, -0.04834580421447754, 0.06655485928058624, 0.049185432493686676, -0.1878422647714615, 0.11736513674259186, 0.24949009716510773, -0.10050024837255478, -0.13282425701618195, 0.20847758650779724, 0.006876440718770027, 0.0316658578813076, 0.04214471951127052, 0.12681704759597778, 0.0024893416557461023, 0.00046666135312989354, -0.09110895544290543, 0.09920194745063782, 0.13714464008808136, 0.0201489869505167, -0.025785546749830246, 0.0063091907650232315, 0.02087794803082943, -0.17701968550682068, 0.03554615378379822, -0.02553761564195156, 0.15612931549549103, 0.11810580641031265, -0.07717421650886536, -0.10323813557624817], [-0.2047337293624878, 0.08420583605766296, -0.055613111704587936, -0.030985064804553986, -0.040060725063085556, -0.15310023725032806, 0.033125847578048706, 0.09367559105157852, 0.2199499011039734, 0.1043187752366066, -0.0673193708062172, 0.09860311448574066, -0.2239995300769806, 0.011536706238985062, 0.07492043077945709, 0.1665266752243042, -0.09187173843383789, 1.9739345589186996e-05, -0.09538260102272034, 0.09919512271881104, -0.061493922024965286, 0.10782203078269958, -0.0562865324318409, 0.14342522621154785, 0.010526446625590324, 0.016314469277858734, 0.00861138105392456, -0.029223935678601265, -0.16326263546943665, -0.2722884714603424, -0.053490687161684036, 0.25738525390625, 0.13659682869911194, -0.029734451323747635, 0.06654928624629974, 0.10381907969713211, -0.07512660324573517, 0.1383204311132431, 0.03544282168149948, -0.14408087730407715, 0.05218013375997543, -0.09973813593387604, 0.11824484169483185, -0.04144596680998802, -0.07666204869747162, -0.12581823766231537, -0.06323559582233429, 0.06057138741016388, 0.1706407070159912, -0.0297582745552063, 0.17468158900737762, -0.004235486034303904, 0.09537965804338455, -0.09874045103788376, -0.20195423066616058, -0.02146846428513527, 0.14604061841964722, 0.14045599102973938, 0.21120792627334595, 0.21987955272197723, -0.207424134016037, -0.0571148581802845, -0.22046850621700287, 0.16386482119560242, 0.12718655169010162, -0.16100099682807922], [-0.1268591731786728, -0.09320584684610367, -0.10669367760419846, 0.038910701870918274, 0.0030205680523067713, 0.15023301541805267, 0.2538732886314392, -0.28561702370643616, 0.0601203590631485, -0.1355261355638504, -0.272269606590271, -0.075578972697258, -0.059119291603565216, -0.05439700931310654, 0.11483980715274811, -0.060172781348228455, -0.2067921757698059, -0.09070644527673721, -0.009165296331048012, -0.003722588997334242, -0.04881282523274422, -0.029180187731981277, -0.03717953711748123, 0.12358225136995316, -0.05105311796069145, -0.07834094762802124, -0.08060988783836365, 0.14752857387065887, 0.09190002083778381, -0.04075256735086441, 0.07273844629526138, -0.19733044505119324, -0.11354941129684448, -0.07693647593259811, -0.16862274706363678, -0.015634531155228615, -0.18897390365600586, -0.008923032321035862, 0.03168347105383873, 0.17847968637943268, 0.11485601961612701, -0.10050389170646667, 0.04840606451034546, 0.12990009784698486, -0.03496033325791359, 0.18300749361515045, -0.10221797972917557, 0.07283342629671097, 0.16306467354297638, -0.14773446321487427, 0.21168306469917297, 0.010216103866696358, -0.028809567913413048, 0.1420457363128662, 0.23472461104393005, -0.07126593589782715, 0.0168063472956419, 0.02971918135881424, 0.07447237521409988, 0.1210678443312645, -0.13702045381069183, -0.044176120311021805, -0.11276993155479431, 0.08594869822263718, -0.21341945230960846, -0.11314147710800171], [0.19376999139785767, -0.040297891944646835, 0.264691561460495, -0.10635586827993393, 0.0997416153550148, 0.15715594589710236, 0.13515110313892365, 0.22031086683273315, -0.0022618102375417948, 0.02834675833582878, -0.0363432951271534, 0.033122945576906204, 0.032989319413900375, -0.3846108317375183, -0.09622114896774292, 0.028832824900746346, -0.00033649252145551145, 0.15517285466194153, -0.2297956496477127, -0.1616830676794052, -0.21851743757724762, 0.16678489744663239, -0.004821519833058119, 0.0072751641273498535, -0.0880030021071434, -0.12702542543411255, -0.01644829288125038, -0.07354555279016495, 0.011356472969055176, 0.05632774531841278, -0.058148179203271866, 0.019812926650047302, -0.010374905541539192, -0.06807918101549149, -0.0016942581860348582, 0.0009203871013596654, -0.2955157458782196, -0.26389381289482117, 0.06982407718896866, 0.0490473136305809, 0.12974333763122559, 0.2914997339248657, 0.02768409624695778, 0.03533964976668358, 0.16140656173229218, -0.11596820503473282, 0.07668397575616837, 0.09240785241127014, -0.13903000950813293, 0.09710831940174103, -0.03790310025215149, -0.057815130800008774, 0.007915867492556572, 0.03257570415735245, -0.059839483350515366, -0.05601935833692551, 0.032579436898231506, 0.01749548129737377, 0.09031456708908081, 0.03381853923201561, 0.1999659687280655, 0.09440656751394272, -0.1470063179731369, -0.06789359450340271, 0.00025228934828191996, 0.08439698815345764], [-0.036531951278448105, -0.14971598982810974, 0.09850612282752991, 0.08514511585235596, 0.14602208137512207, 0.12463229894638062, 0.015153443440794945, 0.13529886305332184, 0.04765255004167557, 0.2022697627544403, 0.12114115059375763, -0.015204603783786297, 0.058393411338329315, -0.1088721752166748, 0.016296107321977615, 0.10660242289304733, -0.11042255908250809, 0.10364669561386108, -0.09757553786039352, -0.06397905945777893, 0.17746426165103912, -0.14608646929264069, 0.09846371412277222, -0.11916026473045349, -0.18011006712913513, 0.006335473153740168, 0.04591234773397446, -0.053685061633586884, 0.47175002098083496, 0.14035898447036743, 0.1440368890762329, 0.21779541671276093, 0.008717385120689869, 0.12490613013505936, 0.21329820156097412, -0.19763271510601044, -0.019182471558451653, 0.25118914246559143, 0.14931823313236237, 0.12582625448703766, -0.09188959747552872, -0.027156727388501167, 0.19318805634975433, -0.05754256248474121, 0.007040584459900856, 0.00611150125041604, 0.031434595584869385, -0.09377244859933853, 0.20918647944927216, 0.04171692952513695, -0.15128305554389954, -0.048136718571186066, 0.02829633839428425, 0.19126397371292114, -0.19329097867012024, -0.031190119683742523, -0.19435614347457886, -0.0357806459069252, 0.04440612718462944, 0.0763954147696495, 0.04864523559808731, 0.07545124739408493, -0.027569549158215523, 0.15703830122947693, -0.02832183428108692, 0.11409056931734085], [0.011972419917583466, -0.022747261449694633, 0.02646232396364212, -0.09804648160934448, 0.22222208976745605, 0.11251462250947952, -0.07997731864452362, -0.10235210508108139, 0.0640992596745491, -0.014425001107156277, 0.028198381885886192, -0.21671204268932343, 0.06096331402659416, 0.04295886307954788, 0.09970632195472717, 0.05348309502005577, 0.09724258631467819, -0.1554562747478485, 0.09603282064199448, -0.16808365285396576, -0.08665122091770172, -0.07383207231760025, 0.054346729069948196, 0.08258970081806183, 0.07558497786521912, 0.03442511707544327, -0.022413237020373344, -0.2502394914627075, -0.0190841443836689, 0.16277174651622772, 0.003755933837965131, 0.189672589302063, 0.10795212537050247, -0.013863014988601208, -0.11422601342201233, -0.0006777086528018117, -0.08249887824058533, 0.010331873781979084, 0.014956193044781685, -0.2572721242904663, 0.05828537419438362, -0.06583204865455627, 0.03837396949529648, -0.18251481652259827, 0.1620333045721054, -0.060266848653554916, 0.19231462478637695, -0.03497181087732315, -0.12405725568532944, 0.10294321179389954, 0.044596437364816666, 0.051648374646902084, -0.0305405892431736, 0.07102654874324799, 0.2757258415222168, -0.12352079153060913, 0.06069745495915413, 0.07235543429851532, 0.06497447937726974, 0.0033475738018751144, -0.42634114623069763, -0.15046125650405884, 0.11164628714323044, 0.11854400485754013, 0.08955810219049454, 0.17985360324382782], [0.1776277720928192, -0.0661914274096489, -0.10960672795772552, -0.03872773423790932, 0.32439112663269043, -0.1773402839899063, -0.21170136332511902, -0.06035417690873146, -0.014474275521934032, -0.06434416025876999, -0.027864087373018265, -0.10544397681951523, 0.00925146322697401, -0.06285993754863739, 0.13134407997131348, 0.15231436491012573, 0.055776651948690414, -0.05695901811122894, 0.058842796832323074, 0.0597737655043602, 0.16102458536624908, 0.04718506336212158, 0.025428224354982376, -0.09454578161239624, 0.12053503096103668, 0.11300690472126007, -0.2110641747713089, -0.047893226146698, -0.029519017785787582, -0.23580877482891083, -0.08348943293094635, -0.008943649008870125, -0.05811775103211403, -0.024569710716605186, -0.18790197372436523, 0.14344638586044312, -0.08833891898393631, -0.17925935983657837, -0.10326534509658813, 0.03973804786801338, 0.06360165774822235, -0.03997848182916641, 0.14404770731925964, -0.01245205383747816, -0.21180255711078644, -0.20642384886741638, 0.1362939029932022, -0.06383127719163895, 0.24201974272727966, -0.14119260013103485, 0.1365613043308258, -0.01739124022424221, 0.13083089888095856, -0.2511019706726074, 0.14233684539794922, -0.11294563859701157, -0.16977547109127045, -0.20220635831356049, -0.0903715193271637, 0.0982130765914917, 0.058466218411922455, 0.09112312644720078, 0.11543923616409302, 0.029940586537122726, -0.1370462328195572, -0.043913375586271286], [0.01109691895544529, -0.10850398987531662, 0.12447133660316467, -0.08201028406620026, 0.034524861723184586, -0.03701543062925339, 0.10418487340211868, 0.1273202747106552, 0.13366025686264038, 0.19524390995502472, 0.05532670021057129, 0.07268565148115158, -0.17302066087722778, 0.24883109331130981, 0.06071135774254799, 0.104435034096241, -0.13528139889240265, -0.14230287075042725, 0.07794088125228882, -0.31306782364845276, 0.10961911082267761, 0.129148468375206, -0.23758958280086517, -0.0947784036397934, -0.022785533219575882, 0.06397118419408798, 0.021018408238887787, 0.053941551595926285, -0.10834869742393494, 0.24140644073486328, 0.039346419274806976, -0.07518629729747772, -0.07444211840629578, -0.03276427090167999, -0.018637867644429207, 0.22297348082065582, 0.11286044865846634, 0.1794683188199997, -0.041138291358947754, 0.16991791129112244, -0.11067280918359756, 0.04972262680530548, -0.0020626303739845753, 0.02780422382056713, 0.08525344729423523, -0.11510409414768219, 0.1749643087387085, -0.05079495906829834, -0.07215042412281036, -0.13060614466667175, 0.23620794713497162, 0.14546218514442444, 0.08127027750015259, 0.054269954562187195, 0.089839406311512, 0.06858916580677032, 0.11604589223861694, 0.009417679160833359, -0.20049446821212769, 0.03452460840344429, 0.08896174281835556, 0.0625218078494072, -0.024504007771611214, -0.18428394198417664, -0.09116943180561066, -0.01829373463988304], [0.07245635986328125, -0.08784663677215576, 0.014208384789526463, -0.061022982001304626, 0.1304149180650711, -0.06722480058670044, -0.14969494938850403, -0.1572573184967041, 0.06970478594303131, 0.09574221819639206, -0.13208496570587158, 0.321478933095932, 0.061449263244867325, -0.020781317725777626, 0.16092146933078766, 0.11298403888940811, -0.011137698777019978, 0.11729665100574493, -0.13754889369010925, -0.29619839787483215, 0.043747179210186005, 0.022676873952150345, 0.26567354798316956, -0.1269632875919342, 0.16088543832302094, 0.20460544526576996, 0.09007853269577026, 0.08411151170730591, -0.11065716296434402, -0.03993462398648262, -0.0562075674533844, -0.24845199286937714, 0.07714174687862396, 0.1395329385995865, -0.1131928339600563, 0.0355667918920517, -0.1403426229953766, -0.01591932773590088, 0.08113187551498413, 0.04760080203413963, 0.19687989354133606, -0.20172612369060516, -0.07544868439435959, -0.11976740509271622, 0.028854968026280403, 0.031456395983695984, -0.16200214624404907, -0.17582501471042633, -0.014176721684634686, 0.058282092213630676, -0.18834125995635986, 0.1191539391875267, 0.0655747801065445, -0.13385678827762604, -0.02751210145652294, 0.02518238127231598, -0.06490001827478409, 0.30476757884025574, -0.06440247595310211, -0.07492424547672272, -0.012657521292567253, -0.11500981450080872, -0.16159771382808685, 0.06966882944107056, 0.010256584733724594, -0.06743773818016052], [-0.11493537575006485, -0.05383771285414696, 0.09110556542873383, 0.15384440124034882, -0.15296627581119537, 0.11551989614963531, -0.06982836127281189, 0.25295355916023254, 0.029389720410108566, -0.1654047816991806, 0.039614710956811905, 0.0033297170884907246, -0.02514731138944626, -0.017530402168631554, -0.2535189092159271, -0.02964055724442005, 0.06712676584720612, 0.08486595004796982, 0.025463545694947243, -0.04808087274432182, -0.08406917750835419, -0.13745206594467163, 0.11473158001899719, -0.09759765863418579, 0.07934936136007309, -0.021319003775715828, 0.029559703543782234, 0.03585568442940712, -0.10223056375980377, 0.10249525308609009, -0.07037612795829773, 0.0889592170715332, 0.11280900239944458, 0.14736849069595337, -0.04482867941260338, 0.10298848897218704, -0.012576944194734097, 0.003788467962294817, -0.15632866322994232, -0.0998067706823349, 0.05702270194888115, -0.03452705219388008, -0.18134599924087524, 0.09288966655731201, -0.18835145235061646, 0.05109574273228645, -0.08587337285280228, -0.3324904441833496, -0.03904768452048302, 0.12842980027198792, 0.057713400572538376, 0.231098473072052, -0.058631718158721924, 0.3444567024707794, 0.04577535390853882, -0.11411820352077484, -0.145274356007576, -0.20043501257896423, 0.1241476982831955, 0.3099830150604248, 0.09563471376895905, 0.24775844812393188, -0.16926437616348267, 0.06193774566054344, -0.027897046878933907, -0.029742367565631866], [-0.17687208950519562, 0.06673727929592133, 0.23787379264831543, -0.006704606115818024, -0.008362796157598495, 0.014917587861418724, 0.11914726346731186, -0.10813865065574646, -0.27777335047721863, 0.005686922464519739, 0.09043058753013611, 0.12515896558761597, 0.2403842657804489, 0.05375738441944122, -0.146551713347435, 0.018058056011795998, -0.021652568131685257, 0.11543897539377213, 0.015773652121424675, -0.1682860106229782, -0.19364969432353973, -0.000347147200955078, -0.09561702609062195, -0.07791876792907715, 0.11783251911401749, -0.07266867905855179, -0.24741078913211823, -0.022843552753329277, -0.0009925185004249215, 0.02946431376039982, 0.04578142985701561, -0.014970858581364155, -0.05032482370734215, -0.04390941932797432, -0.00859894324094057, -0.09635311365127563, -0.17271657288074493, 0.19141258299350739, -0.10560650378465652, -0.1689673215150833, -0.2129524201154709, -0.08857512474060059, 0.08418650180101395, -0.091410331428051, -0.023273952305316925, -0.12065323442220688, 0.08477596193552017, -0.16672861576080322, 0.12126240134239197, -0.0373939648270607, -0.09027659147977829, -0.11583995819091797, -0.19060471653938293, -0.029407264664769173, -0.08716347068548203, -0.34173285961151123, 0.018333006650209427, 0.004308728966861963, -0.026733526960015297, 0.17742162942886353, 0.04914841055870056, -0.14988349378108978, -0.03702099621295929, -0.11134927719831467, -0.07357531785964966, -0.2224562168121338], [0.048486143350601196, -0.009583628736436367, 0.2493005394935608, 0.07085616141557693, 0.2025294154882431, 0.19926106929779053, 0.13169117271900177, 0.11877577751874924, 0.31215569376945496, 0.07845854014158249, 0.1394808441400528, 0.1857479363679886, 0.0851733461022377, 0.014904431998729706, -0.08521521836519241, -0.09207676351070404, 0.12500806152820587, -0.14254553616046906, -0.12205615639686584, 0.22799797356128693, 0.18240071833133698, -0.15583893656730652, 0.13153508305549622, 0.08675246685743332, 0.10812290757894516, -0.31380271911621094, 0.009846764616668224, -0.0822359248995781, -0.04564123973250389, -0.09017270058393478, -0.055960383266210556, -0.04506903514266014, 0.04816495627164841, -0.04767373204231262, -0.1683170199394226, 0.0648418515920639, 0.08764651417732239, 0.026608599349856377, 0.07402563840150833, 0.03542722016572952, -0.014384347014129162, -0.30160167813301086, 0.13949646055698395, 0.05820026993751526, -0.1250353455543518, -0.126812145113945, -0.022438932210206985, -0.003935439046472311, -0.03709764778614044, -0.22997581958770752, -0.020318573340773582, -0.00948496162891388, 0.07273293286561966, -0.10706319659948349, 0.11918885260820389, 0.1956988275051117, 0.2852145731449127, 0.12539130449295044, 0.03632606565952301, 0.008886801078915596, -0.001805008272640407, -0.012227708473801613, 0.015068801119923592, -0.0983758419752121, -0.09699536859989166, 0.010112506337463856], [-0.11913525313138962, -0.11115501821041107, 0.2910568118095398, 0.12034724652767181, 0.07171504944562912, 0.06325749307870865, 0.0707046315073967, -0.010064221918582916, -0.02780796028673649, -0.04545285552740097, -0.07961490005254745, -0.14707191288471222, -0.07702389359474182, 0.2015274316072464, -0.11855508387088776, -0.042039960622787476, -0.2882377803325653, 0.06922421604394913, 0.09764549136161804, 0.041087862104177475, 0.09691713750362396, 0.11280827969312668, 0.21364906430244446, -0.08330238610506058, 0.21607597172260284, -0.05965890362858772, 0.10066436976194382, 0.0328490175306797, 0.07022571563720703, -0.15128298103809357, 0.28374049067497253, 0.07598428428173065, -0.026593700051307678, 0.1958002895116806, -0.16798192262649536, -0.27851057052612305, -0.03311687707901001, -0.018296774476766586, -0.11394893378019333, 0.04417964071035385, 0.04219268634915352, 0.13205011188983917, -0.05056564882397652, -0.06883300095796585, 0.06395961344242096, -0.12108685821294785, -0.014119796454906464, 0.174848735332489, -0.24309910833835602, -0.014607420191168785, -0.048354193568229675, 0.13838280737400055, -0.16205525398254395, 0.04248511791229248, -0.15738601982593536, -0.054972775280475616, 0.04503153637051582, -0.10224407911300659, -0.02801426127552986, -0.080929234623909, 0.12209539860486984, 0.19512994587421417, 0.07206355035305023, 0.06278562545776367, 0.17546777427196503, -0.01225686352699995], [-0.015543399378657341, 0.15409910678863525, -0.2893703877925873, 0.018505455926060677, 0.23413187265396118, 0.13903959095478058, -0.07669154554605484, 0.04114037752151489, 0.05889064818620682, 0.005530375521630049, 0.09719471633434296, -0.050121042877435684, -0.06356558203697205, -0.07763919979333878, 0.0005402393871918321, 0.02700776420533657, -0.06288402527570724, -0.06327708810567856, 0.047596924006938934, -0.16356541216373444, -0.0037876355927437544, -0.05652889981865883, 0.036552924662828445, 0.33618801832199097, -0.08407359570264816, 0.07406065613031387, -0.07293405383825302, -0.040784597396850586, -0.09493831545114517, -0.19689908623695374, 0.245554581284523, -0.10713070631027222, -0.0505327470600605, -0.0816853865981102, -0.2143825739622116, 0.031753022223711014, -0.04514680057764053, 0.10942976921796799, 0.14064519107341766, -0.18295568227767944, -0.055463094264268875, 0.005654561799019575, -0.36501026153564453, 0.029279403388500214, 0.055390484631061554, 0.10301060974597931, 0.1628735065460205, -0.11060706526041031, 0.177981898188591, -0.21429406106472015, -0.1391153484582901, 0.184168741106987, 0.26145100593566895, -0.009098055772483349, -0.05207982659339905, 0.09443584084510803, 0.13293592631816864, -0.045390527695417404, -0.08615279942750931, -0.13553108274936676, 0.11766870319843292, -0.011661873199045658, 0.036517638713121414, -0.12819112837314606, -0.0187116339802742, -0.07496073096990585], [-0.0342620313167572, -0.011218925938010216, -0.05618908628821373, -0.10000088810920715, -0.09693360328674316, 0.06733951717615128, -0.08450210094451904, -0.10410082340240479, -0.05796244367957115, -0.0058505036868155, 0.06052762269973755, -0.15981793403625488, -0.14747139811515808, 0.09662038832902908, 0.08131755143404007, -0.013640647754073143, 0.3661069869995117, 0.08043650537729263, 0.15919643640518188, -0.012671276926994324, -0.038174986839294434, 0.18767286837100983, 0.090348981320858, -0.09856178611516953, -0.04934459924697876, 0.05594340339303017, -0.03588928282260895, -0.03406249359250069, 0.04950568079948425, 0.08243484795093536, 0.07376375049352646, 0.19035844504833221, 0.009159144945442677, -0.4083808958530426, -0.004300829954445362, -0.13071449100971222, -0.13593362271785736, 0.10154402256011963, -0.06449932605028152, 0.0752941444516182, 0.07804162800312042, -0.08187820762395859, 0.2331993281841278, 0.13248829543590546, -0.03947381675243378, 0.01346949115395546, -0.26442354917526245, -0.11206883192062378, -0.031206807121634483, -0.00693091657012701, -0.01489340327680111, 0.20262588560581207, -0.10073965042829514, 0.12286339700222015, -0.04948826879262924, 0.003183819120749831, 0.19779640436172485, -0.05218261480331421, 0.023835301399230957, -0.14289551973342896, 0.3817630708217621, 0.11736983805894852, -0.019775986671447754, 0.03495493158698082, -0.07195776700973511, 0.04045093432068825], [-0.09825688600540161, -0.06886572390794754, -0.1332063525915146, 0.07319879531860352, 0.12817785143852234, -0.23585312068462372, 0.07381945103406906, -0.10446207970380783, -0.21291682124137878, 0.004673777148127556, -0.05110100656747818, -0.009678185917437077, 0.18442969024181366, -0.14608822762966156, 0.028368208557367325, 0.022237438708543777, 0.15065962076187134, 0.03785869851708412, -0.025408409535884857, 0.21794869005680084, -0.04493866115808487, -0.2337704300880432, -0.044888969510793686, 0.14603331685066223, -0.05460041016340256, 0.039279043674468994, 0.10822075605392456, -0.04844309017062187, -0.3631581962108612, 0.037162650376558304, 0.12789668142795563, -0.025026336312294006, 0.07228371500968933, -0.01988728903234005, 0.007092720363289118, -0.0708233043551445, -0.11389205604791641, 0.1018715351819992, -0.04462173953652382, 0.27035537362098694, -0.017593663185834885, -0.1555945873260498, 0.1502738893032074, -0.17997398972511292, 0.06386075168848038, -0.03647832199931145, 0.09335643798112869, 0.1445518583059311, -0.060001932084560394, 0.03739875555038452, 0.025318428874015808, 0.11732324212789536, 0.18619324266910553, 0.1129550039768219, -0.04883183166384697, 0.07092446088790894, 0.029192864894866943, -0.16750392317771912, -0.18994194269180298, 0.1820170134305954, -0.009591631591320038, 0.06604267656803131, -0.25900915265083313, -0.05541057512164116, 0.0557883121073246, 0.07528886944055557]]

Nombre del Parámetro: module.0.module.0.0.bias
Pesos:
[0.10467460751533508, 0.12075543403625488, 0.08489866554737091, 0.12067212909460068, -0.07817161828279495, -0.09394072741270065, -0.003478591563180089, 0.17473603785037994, -0.12235011905431747, -0.02393074706196785, -0.1060514748096466, 0.012206492945551872, 0.07065980136394501, -0.04768828675150871, -0.14172101020812988, 0.10230220854282379, 0.06910891830921173, -0.013734854757785797, 0.11058583110570908, -0.08021605759859085, 0.08192864060401917, -0.10972361266613007, 0.13366633653640747, 0.02524176985025406, 0.008656979538500309, -0.03978047892451286, 0.1217498779296875, -0.0547778345644474, 0.08040351420640945, -0.09686043858528137, 0.09424460679292679, -0.044016726315021515, 0.007431698497384787, -0.0522572286427021, 0.08714472502470016, 0.040120333433151245, -0.12922844290733337, 0.03236052393913269, -0.11700386554002762, 0.06804578751325607, -0.07450775057077408, 0.0837327390909195, -0.14169010519981384, -0.0001276567199965939, 0.11856848746538162, 0.165243998169899, 0.14236927032470703, -0.08316241949796677, 0.11093764007091522, -0.1363433599472046, -0.10606639087200165, 0.1030123233795166, 0.12226101011037827, -0.07477468252182007, -0.08676741272211075, -0.13460803031921387, -0.13080191612243652, 0.13908220827579498, 0.07891976833343506, -0.1393512338399887, 0.10859668999910355, -0.13034097850322723, 0.05887692794203758, -0.09319014847278595]

Nombre del Parámetro: module.0.module.0.2.weight
Pesos:
