Parameter name: module.0.module.0.0.weight
Weights:
[[-0.08852358162403107, 0.140996053814888, -0.08567352592945099, -0.16689732670783997, -0.13503798842430115, -0.02918837033212185, 0.19578419625759125, 0.1291801780462265, 0.04462195932865143, 0.09140140563249588, -0.14234808087348938, 0.26996102929115295, -0.10017040371894836, 0.1274622678756714, -0.22032973170280457, 0.28109756112098694, -0.05500540882349014, -0.11977826058864594, -0.14238587021827698, -0.07054755836725235, -0.06159293279051781, 0.015412937849760056, 0.15266424417495728, -0.09651737660169601, 0.0371859036386013, -0.03017980419099331, -0.142757847905159, -0.14569510519504547, -0.08327136188745499, 0.03570134937763214, -0.10433457046747208, 0.0019394508562982082, -0.052974529564380646, 0.05459209531545639, 0.08190108835697174, 0.012033112347126007, -0.3494206368923187, 0.09923581033945084, 0.006823562551289797, 0.04383477568626404, 0.09047938883304596, -0.11535758525133133, 0.10434038937091827, 0.11475914716720581, -0.15852107107639313, -0.15036006271839142, 0.10778960585594177, -0.09588417410850525, -0.15928223729133606, -0.17249691486358643, 0.0035471387673169374, -0.12567175924777985, -0.08334368467330933, 0.0022140752989798784, -0.073210708796978, 0.14016498625278473, 0.12244997173547745, -0.28776073455810547, -0.01813136413693428, 0.08537422865629196, -0.16027790307998657, 0.1420724242925644, -0.15457212924957275, 0.03943945840001106, -0.059800516813993454, 0.05151413753628731], [-0.01453604456037283, -0.02753882110118866, -0.12683820724487305, -0.13562992215156555, -0.22839653491973877, -0.047097545117139816, -0.07145246863365173, -0.1414264589548111, -0.048013683408498764, 0.025068314746022224, 0.061628542840480804, 0.018104366958141327, 0.315112441778183, -0.0033565915655344725, -0.0689135268330574, -0.2370625138282776, -0.06425636261701584, 0.14569969475269318, 0.03494558110833168, 0.0031816044356673956, -0.18364781141281128, 0.046004295349121094, 0.03006238304078579, -0.056445926427841187, 0.10051769018173218, 0.10841807723045349, 0.005293459631502628, -0.0785047635436058, 0.14896619319915771, -0.13736368715763092, 0.012391585856676102, 0.02349909581243992, -0.05782643333077431, -0.09331304579973221, 0.011764870956540108, -0.17572519183158875, -0.23478782176971436, 0.1089845821261406, 0.14906832575798035, -0.1294940710067749, -0.00816712249070406, -0.03202894702553749, 0.19574959576129913, 0.08897163718938828, 0.1305955946445465, -0.08050962537527084, 0.1663682609796524, -0.12063001841306686, -0.07935933768749237, -0.0011400721268728375, -0.23921802639961243, 0.10660192370414734, -0.22717855870723724, -0.09757016599178314, -0.13496196269989014, -0.20937561988830566, -0.04881294444203377, -0.12619642913341522, 0.00038488709833472967, -0.1781548112630844, -0.0804036483168602, -0.12811291217803955, 0.2555515170097351, 0.010837485082447529, 0.19743181765079498, 0.06706494092941284], [-0.050862736999988556, -0.03990692272782326, 0.06476038694381714, -0.05665014684200287, 0.11399070173501968, 0.10747044533491135, -0.08933092653751373, 0.07243078202009201, 0.004416046664118767, 0.07282964140176773, -0.019010189920663834, -0.043001361191272736, -0.01349190529435873, 0.003329070983454585, 0.007278027944266796, -0.1788375973701477, 0.11518216878175735, -0.07638800889253616, 0.053256068378686905, -0.06733737140893936, -0.030217954888939857, 0.0919303447008133, -0.22912275791168213, -0.006771592888981104, 0.16271065175533295, -0.05228196829557419, -0.0888991728425026, -0.12647493183612823, -0.0029644311871379614, -0.16263605654239655, 0.1742827147245407, 0.2365422397851944, -0.0653020367026329, -0.06813569366931915, 0.16902536153793335, 0.007283583749085665, -0.06264706701040268, 0.02134225331246853, -0.19724227488040924, -0.162006676197052, -0.07902862131595612, -0.29180946946144104, 0.05968843773007393, 0.07233348488807678, 0.0037508788518607616, -0.001178061356768012, -0.019597014412283897, 0.19336389005184174, 0.059587229043245316, 0.28629952669143677, -0.12976816296577454, -0.13453444838523865, 0.08873410522937775, -0.07972130179405212, -0.385562926530838, 0.22415027022361755, -0.0087475860491395, -0.13746237754821777, -0.009352372959256172, -0.27641749382019043, 0.12686926126480103, 0.1037178635597229, -0.028576815500855446, 0.029436837881803513, -0.11274546384811401, -0.14831195771694183], [-0.0036678125616163015, 0.12309771776199341, 0.05884041637182236, -0.14328822493553162, -0.20749177038669586, -0.1098848432302475, 0.024690520018339157, 0.021037237718701363, -0.19731144607067108, 0.10252884775400162, -0.03748539462685585, 0.0864965170621872, -0.14455915987491608, 0.08360812813043594, 0.05786251276731491, -0.10450240224599838, -0.09127689898014069, -0.13891905546188354, 0.21762453019618988, -0.05904252082109451, -0.12536904215812683, -0.1868966519832611, 0.28035929799079895, -0.04239486902952194, 0.009021440520882607, -0.18806405365467072, 0.052855052053928375, 0.05954630672931671, -0.037885475903749466, 0.07583871483802795, -0.038726117461919785, -0.23704662919044495, -0.14832046627998352, -0.029763761907815933, 0.0807260125875473, 0.16678768396377563, 0.09967827796936035, 0.020810263231396675, 0.12471584975719452, 0.24234065413475037, 0.026277748867869377, -0.13995492458343506, -0.16795574128627777, -0.04035727307200432, 0.19524265825748444, -0.1733032464981079, -0.17549768090248108, 0.04840931296348572, -0.038514088839292526, 0.06171645596623421, -0.0634317621588707, -0.12163656204938889, -0.03615157678723335, -0.03972197696566582, -0.14165425300598145, 0.10340093076229095, -0.10100307315587997, 0.07688199728727341, -0.14590533077716827, -0.1421354115009308, 0.1584080457687378, -0.22987890243530273, -0.047514986246824265, -0.15043123066425323, 0.2295948565006256, -0.16492941975593567], [0.16524651646614075, 0.1692497432231903, -0.17592807114124298, -0.04273701831698418, -0.15918521583080292, -0.017813917249441147, 0.1110449880361557, -0.16992956399917603, 0.22184224426746368, -0.09196453541517258, -0.02723866142332554, -0.29488733410835266, 0.16481643915176392, -0.026856688782572746, -0.0018646809039637446, 0.03292948752641678, -0.0681312158703804, 0.057676397264003754, 0.008259703405201435, 0.01435222290456295, 0.1361498087644577, -0.005617076065391302, -0.21340730786323547, 0.05448075756430626, -0.13629156351089478, -0.2442924976348877, -0.011843055486679077, 0.1820475310087204, -0.1831633299589157, 0.00402452377602458, 0.044369060546159744, 0.07890944927930832, -0.010332884266972542, 0.09880384057760239, -0.28084054589271545, -0.010619627311825752, -0.1944873034954071, 0.013372096233069897, -0.07687857747077942, 0.26682260632514954, -0.06980777531862259, 0.08008347451686859, -0.13091368973255157, 0.2044537365436554, 0.08038118481636047, -0.013060224242508411, -0.2510564625263214, 0.01835874654352665, -0.0163232684135437, -0.08310490101575851, 0.008320764638483524, 0.07228952646255493, 0.11431895941495895, -0.17253904044628143, 0.04824128374457359, 0.19238130748271942, -0.05020040646195412, -0.04755353927612305, -0.0494997538626194, 0.2639639675617218, 0.06472372263669968, -0.31266430020332336, -0.03626619651913643, 0.05650607496500015, -0.12456151098012924, -0.03242149204015732], [0.17060771584510803, 0.04405473545193672, -0.3009833097457886, -0.029198966920375824, -0.20321933925151825, -0.1289195567369461, 0.17618265748023987, -0.0011843045940622687, -0.005169841926544905, 0.12401579320430756, 0.03587264567613602, 0.11680817604064941, -0.369535356760025, 0.17071330547332764, -0.18841703236103058, -0.19885577261447906, -0.23680171370506287, -0.04707236960530281, -0.0013021569466218352, -0.006774307228624821, 0.13252313435077667, 0.11253242194652557, 0.08867508172988892, 0.1236090436577797, 0.1499936729669571, 0.011582418344914913, -0.06292349845170975, 0.07659514993429184, 0.00098975352011621, -0.13892216980457306, 0.060750462114810944, 0.14663469791412354, -0.02313782460987568, -0.0975673720240593, -0.0645366832613945, -0.02533016726374626, 0.15775659680366516, 0.10380810499191284, -0.16071051359176636, -0.024208063259720802, 0.15211135149002075, -0.006494967266917229, 0.011862969025969505, -0.13933144509792328, -0.08609471470117569, 0.1473623514175415, -0.11206812411546707, 0.17286771535873413, 0.18794389069080353, -0.09033104032278061, -0.0018247871194034815, 0.15971027314662933, -0.242177352309227, 0.045518599450588226, -0.011152448132634163, 0.04547244310379028, -0.24632912874221802, 0.028917865827679634, 0.1117519959807396, 0.24179115891456604, -0.0453266017138958, -0.12235652655363083, -0.0544704906642437, 0.10502838343381882, 0.03527731075882912, -0.03475002571940422], [0.031542882323265076, -0.033130574971437454, -0.05529758334159851, -0.03948448970913887, -0.03463219478726387, -0.05111861228942871, -0.07230948656797409, -0.11361150443553925, 0.1378706693649292, -0.08250837028026581, -0.25703105330467224, 0.2070029377937317, 0.18991190195083618, -0.039862193167209625, 0.08493898063898087, 0.09777280688285828, -0.26358938217163086, 0.0062773944810032845, 0.20291317999362946, 0.1280028522014618, 0.14850735664367676, 0.2971920967102051, -0.04674951732158661, 0.05167515203356743, 0.08560603857040405, 0.11172755807638168, 0.11434459686279297, -0.1685512363910675, 0.07169121503829956, -0.07637107372283936, -0.05006827041506767, -0.3172886073589325, -0.09205872565507889, -0.009992638602852821, 0.18536095321178436, 0.012760194018483162, 0.02709031291306019, -0.2135528326034546, 0.09605231881141663, -0.030414242297410965, -0.01811959780752659, -0.11562985926866531, -0.12717369198799133, 0.2849784791469574, -0.19377842545509338, 0.05563291162252426, 0.04588168114423752, -0.12442710995674133, -0.020260870456695557, -0.04237733781337738, 0.033813174813985825, 0.07955589145421982, -0.01006250735372305, -0.08015184104442596, -0.1884227991104126, 0.08269147574901581, -0.22527824342250824, 0.09769614785909653, 0.08966409415006638, -0.02700660564005375, 0.0016846972284838557, 0.15351688861846924, -0.10082238912582397, -0.11323898285627365, -0.11207009851932526, 0.06139050051569939], [0.21758970618247986, -0.10504815727472305, 0.20668816566467285, -0.029581008478999138, -0.09575828909873962, -0.26924675703048706, 0.08162573724985123, 0.08124040067195892, -0.3063371777534485, 0.052287135273218155, -0.08481085300445557, -0.11929505318403244, -0.1136695072054863, -0.017064815387129784, -0.005005266051739454, 0.062284380197525024, 0.004405289888381958, -0.008357909508049488, -0.06786354631185532, 0.14426285028457642, -0.23758326470851898, -0.09204269200563431, -0.009492043405771255, 0.17273718118667603, 0.04962795227766037, 0.09798592329025269, 0.19953738152980804, 0.06048058718442917, -0.02790333330631256, -0.07003525644540787, 0.23911969363689423, -0.029582291841506958, 0.25274381041526794, 0.11485764384269714, 0.037400826811790466, 0.067935049533844, -0.25706252455711365, -0.03487269952893257, -0.10053560882806778, 0.0723273828625679, 0.11247169226408005, -0.133266881108284, -0.09235765784978867, 0.09340577572584152, -0.011801814660429955, 0.016719728708267212, -0.07809655368328094, 0.13857150077819824, -0.041209522634744644, 0.017931025475263596, -0.007558045443147421, 0.22152307629585266, -0.052445728331804276, -0.060095835477113724, -0.16586542129516602, -0.3309701979160309, 0.10585854947566986, -0.08610616624355316, 0.021276364102959633, -0.1759520173072815, -0.008202742785215378, -0.040645256638526917, 0.008777095004916191, -0.0452297106385231, -0.007949765771627426, 0.14194847643375397], [0.0040305666625499725, -0.11597930639982224, 0.1349399834871292, -0.13621288537979126, -0.012307273223996162, -0.16143251955509186, 0.22841165959835052, 0.1394767314195633, 0.004291215445846319, -0.1772029846906662, -0.004032676108181477, 0.0014477020595222712, 0.029738381505012512, -0.24827256798744202, -0.1651076227426529, -0.04499773681163788, 0.14597485959529877, -0.046466559171676636, 0.011998234316706657, -0.012822994962334633, 0.008621374145150185, -0.10661479085683823, -0.11037305742502213, 0.08880656212568283, 0.21739308536052704, 0.03355010226368904, -0.0363270528614521, -0.05034578591585159, 0.05637776106595993, 0.0700450986623764, -0.059188514947891235, 0.19283007085323334, -0.20050303637981415, -0.2519592046737671, -0.17964407801628113, -0.0014517309609800577, 0.10210265964269638, -0.08447673916816711, 0.31093162298202515, -0.03223679959774017, -0.02736283466219902, 0.14212727546691895, -0.3263920843601227, 0.03963690251111984, -0.03634871914982796, -0.025135530158877373, -0.07598328590393066, -0.10200956463813782, 0.02700800821185112, -0.05097060278058052, 0.09827494621276855, 0.0818580910563469, -0.12059881538152695, -0.054271046072244644, -0.15792299807071686, 0.11155381798744202, 0.07314485311508179, -0.14133548736572266, 0.12213397771120071, -0.14583934843540192, -0.12170243263244629, 0.20160819590091705, 0.1578967571258545, -0.068929523229599, 0.04143543168902397, 0.03275010362267494], [-0.17360667884349823, -0.20839238166809082, 0.05416526645421982, -0.02731730416417122, -0.022933509200811386, -0.06343671679496765, 0.15610919892787933, -0.030162783339619637, -0.14492912590503693, 0.08272093534469604, -0.23637285828590393, 0.09336887300014496, -0.09937095642089844, -0.2317529171705246, -0.005331931170076132, -0.2003994584083557, -0.12547527253627777, 0.09884950518608093, -0.14952614903450012, -0.0077551743015646935, -0.04775800183415413, 0.001602824660949409, -0.1446838229894638, -0.09948970377445221, -0.032211095094680786, -0.14785677194595337, 0.17403292655944824, 0.0010595991043373942, 0.16036894917488098, 0.26231175661087036, 0.059428781270980835, -0.024590566754341125, 0.18304994702339172, 0.03005596250295639, -0.027212968096137047, -0.06330590695142746, 0.13004125654697418, -0.0022733293008059263, 0.13564319908618927, 0.09359584003686905, -0.031295303255319595, -0.014833544380962849, 0.015145639888942242, -0.13310427963733673, -0.32709866762161255, 0.09721162915229797, 0.19625155627727509, -0.03157248720526695, -0.0995696559548378, 0.2260056585073471, -0.0953964963555336, -0.14787785708904266, -0.03702878579497337, -0.08296030014753342, 0.0002829396689776331, -0.12591208517551422, -0.04651547968387604, -0.09306774288415909, 0.10592927783727646, 0.03389797732234001, -0.01751728728413582, -0.17109183967113495, -0.004915171302855015, 0.003584799822419882, -0.2171613574028015, -0.13474345207214355], [-0.054060667753219604, 0.12255528569221497, -0.021574705839157104, 0.14822402596473694, -0.2332276552915573, 0.038191672414541245, -0.09161578118801117, 0.02673148736357689, 0.051843222230672836, 0.05836585536599159, -0.0927693173289299, -0.06909945607185364, -0.005422398913651705, 0.2520725429058075, -0.03616880252957344, -0.047271478921175, 0.17454101145267487, -0.14215032756328583, 0.09367720037698746, 0.29880696535110474, -0.0007490660645999014, -0.08792507648468018, -0.09564750641584396, -0.1855129450559616, 0.0966612696647644, 0.09059856086969376, -0.16185739636421204, 0.21865107119083405, -0.19611841440200806, -0.011252555064857006, -0.054394591599702835, -0.24119064211845398, -0.027098070830106735, 0.028067076578736305, 0.03725806623697281, 0.05041921138763428, -0.23365014791488647, 0.04660264030098915, 0.0769357904791832, 0.07168277353048325, -0.04125727340579033, 0.22149428725242615, -0.16641207039356232, -0.17595964670181274, -0.07276234775781631, -0.014739841222763062, 0.08809109777212143, 0.1630580723285675, 0.21308062970638275, 0.23754583299160004, 0.268283486366272, 0.13082268834114075, -0.018914487212896347, 0.11270713061094284, 0.004448888823390007, 0.03170347958803177, -0.0038633320946246386, 0.1184585839509964, -0.016914883628487587, -0.0016099929343909025, 0.14348378777503967, -0.3103492558002472, 0.04893941059708595, 0.07665637135505676, -0.156546488404274, 0.061429575085639954], [-0.11486580967903137, -0.12350625544786453, -0.0209977850317955, -0.14510533213615417, -0.008530902676284313, 0.03241914138197899, 0.10177965462207794, -0.033010341227054596, 0.020570792257785797, 0.2568487524986267, -0.2520870268344879, -0.1064336970448494, -0.26067763566970825, -0.05190872773528099, 0.039485570043325424, -0.055065907537937164, 0.08829925954341888, 0.11696754395961761, 0.15381743013858795, 0.12909185886383057, 0.21872280538082123, -0.05620330944657326, 0.037666384130716324, 0.1284262239933014, -0.07167548686265945, -0.09938618540763855, 0.01628425344824791, -0.12711501121520996, -0.042402997612953186, 0.11517626792192459, -0.17327982187271118, 0.1917881816625595, -0.054349135607481, -0.10155662149190903, -0.11422573775053024, -0.24360188841819763, -0.23269818723201752, 0.013848405331373215, -0.11539266258478165, -0.18486562371253967, -0.06871151924133301, -0.0005947372992523015, 0.057415056973695755, 0.1189911738038063, -0.05353574454784393, -0.04337684065103531, 0.04073883220553398, 0.05405664071440697, -0.025036180391907692, -0.08860800415277481, 0.20912888646125793, 0.0718497559428215, 0.18957647681236267, 0.09254911541938782, -0.06219782307744026, -0.05896950885653496, -0.09206607937812805, 0.2907305657863617, -0.17496386170387268, -0.04497193917632103, 0.014833316206932068, -0.2082470804452896, 0.12103042006492615, -0.09418400377035141, 0.21210996806621552, 0.04221785441040993], [0.08136233687400818, 0.08115445077419281, 0.036234039813280106, 0.08802148699760437, 0.13961923122406006, 0.01669101044535637, 0.04695677012205124, 0.11232592165470123, -0.057371143251657486, 0.11522761732339859, -0.18601134419441223, 0.21454671025276184, -0.011976012960076332, -0.23466689884662628, 0.05575941130518913, 0.11694073677062988, -0.30816808342933655, 0.06357991695404053, 0.0291715357452631, -0.08263713866472244, 0.055833861231803894, 0.0058086891658604145, 0.16145320236682892, -0.015379541553556919, 0.10219906270503998, 0.010034248232841492, -0.12472712993621826, -0.007376887835562229, 0.05594664812088013, -0.14070944488048553, -0.0021899316925555468, 0.24736535549163818, -0.16149954497814178, 0.08982229977846146, 0.10616016387939453, -0.09099343419075012, 0.014782783575356007, -0.145632803440094, 0.17837685346603394, -0.08517453074455261, 0.02794353850185871, 0.04384608194231987, -0.06904196739196777, 0.11798001080751419, 0.18512554466724396, 0.15937776863574982, 0.09368328005075455, 0.06461554765701294, -0.01848526857793331, -0.1844039112329483, -0.0040945992805063725, -0.09280872344970703, -0.08840987831354141, 0.11658506840467453, -0.002130095614120364, -0.11349641531705856, 0.2412298321723938, 0.04801027849316597, -0.19402600824832916, -0.21623378992080688, 0.06631915271282196, -0.10785982757806778, 0.06731243431568146, 0.2403639703989029, -0.3221525251865387, -0.11710149794816971], [-0.08954300731420517, -0.05125391483306885, -0.1982804387807846, -0.1388205587863922, -0.15843436121940613, 0.046211421489715576, -0.22020843625068665, 0.1869146227836609, -0.10797254741191864, -0.0895848423242569, 0.15793855488300323, 0.16018570959568024, -0.026753494516015053, 0.02910934016108513, 0.15707999467849731, -0.06507676839828491, -0.045060448348522186, -0.21044382452964783, -0.02143130823969841, 0.1942516714334488, -0.15331637859344482, -0.28664034605026245, -0.028570083901286125, 0.05911015346646309, 0.040533002465963364, -0.13453440368175507, 0.22054104506969452, 0.4060777425765991, 0.14921118319034576, -0.0621541403234005, -0.10865804553031921, 0.057882193475961685, 0.0020695531275123358, 0.10409029573202133, -0.07681773602962494, 0.07466839998960495, -0.10544177889823914, -0.03359510004520416, -0.07060828804969788, -0.22680741548538208, -0.07575306296348572, 0.10545895993709564, 0.03742676600813866, 0.17711171507835388, -0.1336151659488678, 0.003975777421146631, -0.06957823038101196, 0.014123569242656231, 0.06156681105494499, 0.07939863950014114, -0.046830177307128906, 0.08452782779932022, 0.0041560279205441475, 0.0847979485988617, 0.07678194344043732, 0.2690633237361908, 0.17233361303806305, 0.1397859752178192, -0.03622126579284668, 0.2363463044166565, 0.08910500258207321, -0.011196086183190346, -0.0735912099480629, 0.00756940757855773, 0.016561336815357208, -0.11546283215284348], [0.008943391963839531, -0.04369625076651573, -0.06741975247859955, -0.13477057218551636, 0.12779854238033295, -0.25701528787612915, 0.0757599025964737, 0.12342012673616409, -0.13307099044322968, -0.05409867689013481, 0.05074337497353554, -0.1571020483970642, -0.07609636336565018, 0.1420058310031891, 0.19869102537631989, -0.016416210681200027, 0.03243470937013626, -0.21107330918312073, 0.09270381182432175, -0.09739489108324051, -0.1368362456560135, 0.32770994305610657, -0.11248322576284409, 0.19394393265247345, -0.031920768320560455, 0.0641850084066391, 0.099903903901577, -0.2766449451446533, 0.3304140865802765, 0.1348181962966919, -0.26789590716362, -0.12148183584213257, -0.12340126931667328, 0.1335074007511139, 0.07066167145967484, -0.013358497992157936, -0.10092809051275253, -0.03754475340247154, -0.02016351744532585, 0.13670076429843903, 0.05259615182876587, 0.1366923749446869, -0.02757137082517147, -0.02280443347990513, -0.02745627984404564, -0.060351088643074036, 0.008148450404405594, 0.03126669302582741, -0.014905095100402832, 0.12124466896057129, -0.19455912709236145, 0.14801640808582306, -0.05129244551062584, 0.22249051928520203, -0.19943487644195557, -0.12318798899650574, -0.16703654825687408, -0.1980961114168167, -0.3236345052719116, -0.1034586951136589, -0.06126467138528824, -0.07355258613824844, 0.1906687468290329, 0.3045703172683716, -0.0630827322602272, -0.05430709570646286], [-0.3280355930328369, 0.14871034026145935, -0.04791361093521118, -0.20021012425422668, -0.07699855417013168, 0.2204398512840271, 0.12902219593524933, 0.07500584423542023, 0.04380475729703903, 0.049234434962272644, -0.15710386633872986, 0.07992170006036758, 0.10418497771024704, 0.034987904131412506, -0.13506270945072174, -0.1300623118877411, -0.19514517486095428, 0.12039599567651749, 0.1521967500448227, -0.19116252660751343, -0.18223842978477478, 0.18447448313236237, -0.043990105390548706, -0.03298749402165413, -0.025673426687717438, 0.26584458351135254, 0.1834348887205124, -0.12577614188194275, -0.08997537195682526, 0.03340710699558258, 0.04087858647108078, -0.016733231022953987, -0.051333509385585785, 0.028316237032413483, -0.24725116789340973, 0.0025979229249060154, 0.12273650616407394, -0.08364222943782806, -0.11657600104808807, -0.0953793153166771, 0.00309770368039608, -0.03255121782422066, -0.04290232062339783, 0.06937042623758316, 0.21213684976100922, 0.09109501540660858, -0.05724059045314789, -0.05562715232372284, 0.02183687873184681, -0.08790986984968185, 0.096321702003479, 0.1458861529827118, 0.13141272962093353, 0.07159008830785751, 0.18875251710414886, 0.0020042816177010536, -0.10749798268079758, -0.11044003814458847, 0.02497565932571888, -0.34362170100212097, -0.059232596307992935, 0.07869896292686462, -0.07097115367650986, -0.03302077576518059, -0.22721920907497406, -0.06712409108877182], [0.015074384398758411, 0.0827440693974495, -0.044231463223695755, -0.04933150112628937, -0.12262091040611267, -0.06376584619283676, 0.021309440955519676, 0.08456838876008987, -0.2464285045862198, 0.15566496551036835, -0.07674992829561234, -0.0016892901621758938, -0.026003098115324974, 0.12389463931322098, 0.11569804698228836, 0.042598940432071686, -0.07890123873949051, 0.12619568407535553, 0.1801069974899292, -0.26036250591278076, 0.05684831365942955, 0.14637744426727295, 0.02570720575749874, 0.14952345192432404, -0.0009157616877928376, 0.16392852365970612, -0.12144386023283005, 0.030132299289107323, -0.12171775847673416, 0.11470939218997955, 0.06317082792520523, -0.0557195283472538, 0.028591139242053032, -0.05650823935866356, 0.012046350166201591, 0.07417748123407364, -0.02652997337281704, -0.09032958745956421, -0.13680526614189148, -0.16676798462867737, -0.06339694559574127, 0.08805777132511139, -0.09833046048879623, -0.0875353217124939, 0.01595713384449482, -0.08532974869012833, -0.15466608107089996, -0.24753902852535248, 0.12502944469451904, 0.11107169836759567, -0.008488640189170837, -0.07734452188014984, 0.01980043388903141, -0.030797872692346573, -0.05788084492087364, -0.022608991712331772, 0.394529789686203, -0.05481560155749321, 0.1539161205291748, 0.3259412944316864, 0.19710321724414825, -0.19014275074005127, 0.10030438005924225, -0.07544397562742233, -0.0650419369339943, 0.08544950932264328], [-0.050043534487485886, 0.10284630954265594, 0.06889981031417847, -0.019701458513736725, -0.08354119956493378, 0.041691359132528305, 0.07177545875310898, 0.0016048835823312402, 0.044427137821912766, -0.256321519613266, -0.03739262372255325, -0.18979832530021667, -0.04992040991783142, 0.11523506045341492, 0.23915444314479828, -0.034478019922971725, -0.08309975266456604, -0.08605188131332397, 0.011743541806936264, -0.061571814119815826, -0.031677260994911194, 0.0820079818367958, -0.020995764061808586, -0.14009104669094086, -0.20009535551071167, 0.06672503054141998, -0.06437277048826218, 0.16868126392364502, -0.14339667558670044, 0.1133110374212265, -0.010199140757322311, 0.05842669680714607, 0.052656661719083786, -0.03555759787559509, -0.09948199987411499, -0.31666299700737, -0.01236794050782919, -0.21633218228816986, -0.06253732740879059, 0.01766105927526951, 0.12891998887062073, -0.07973034679889679, -0.17534253001213074, -0.09526833146810532, -0.05675869062542915, -0.13580761849880219, 0.24017345905303955, 0.14709454774856567, 0.014754490926861763, -0.050365250557661057, -0.23099596798419952, 0.0970703661441803, -0.2586408257484436, 0.13794772326946259, -0.13615165650844574, 0.12324239313602448, 0.19588585197925568, 0.2036314457654953, 0.11057282239198685, 0.02283812314271927, -0.037094153463840485, -0.13578131794929504, -0.08124373108148575, -0.03186577931046486, 0.1565694659948349, 0.0029130957555025816], [-0.15941840410232544, 0.0935518741607666, 0.0359051376581192, -0.12032502889633179, 0.06498237699270248, -0.12352220714092255, -0.054099250584840775, 0.028294038027524948, 0.03359849378466606, 0.04903773218393326, -0.11206283420324326, 0.0664696991443634, -0.06754925101995468, 0.110728420317173, 0.0525326132774353, 0.25950610637664795, -0.009512586519122124, 0.1468231976032257, -0.05714268237352371, -0.02390873432159424, -0.11696664243936539, 0.2570425570011139, -0.16306330263614655, -0.03152812272310257, 0.1998654454946518, -0.1926257610321045, -0.03592252731323242, 0.30862218141555786, -0.01733875833451748, 0.020867234095931053, -0.029828187078237534, -0.03981969878077507, -0.07496386021375656, -0.07209613919258118, -0.11205432564020157, 0.205399289727211, 0.09699702262878418, 0.18884111940860748, -0.15697401762008667, -0.24918414652347565, 0.05267861485481262, 0.08367732167243958, -0.19225454330444336, 0.09945368766784668, 0.0263413954526186, 0.046891771256923676, 0.0860263854265213, 0.13746538758277893, -0.17899644374847412, 0.0021110009402036667, 0.009457089006900787, -0.15958289802074432, -0.021371765062212944, 0.10958866029977798, -0.048031844198703766, -0.1778947412967682, -0.05502490699291229, 0.056833721697330475, 0.10559310764074326, -0.0015790098113939166, -0.0887584462761879, -0.0337693952023983, 0.029572442173957825, 0.06800920516252518, 0.244623601436615, 0.09577062726020813], [0.04995064437389374, -0.10410470515489578, -0.19684332609176636, 0.09178385138511658, 0.027492081746459007, -0.053404614329338074, 0.2332843542098999, 0.22907371819019318, 0.13258302211761475, -0.1733740270137787, -0.10389602184295654, -0.07993955165147781, -0.09721092134714127, 0.18282942473888397, 0.06455148011445999, -0.05587823688983917, -0.07007881999015808, 0.08692207932472229, 0.10614045709371567, -0.0957159698009491, -0.012616760097444057, -0.07246337831020355, 0.09200833737850189, -0.08207076042890549, -0.05071252956986427, -0.09522461891174316, -0.2240554541349411, 0.038536813110113144, 0.08826778829097748, -0.0400870218873024, 0.2980211079120636, -0.0860283300280571, 0.02071981132030487, 0.12536005675792694, 0.09105060994625092, -0.07384159415960312, 0.051777880638837814, 0.1406516581773758, -0.02757364511489868, -0.0333603098988533, -0.10407296568155289, 0.21677935123443604, 0.08360928297042847, 0.05223286151885986, -0.18252548575401306, -0.09965240955352783, -0.15517759323120117, -0.1808486431837082, -0.18529030680656433, 0.20919618010520935, -0.08646102249622345, 0.10588523000478745, 0.08384153991937637, -0.1289152055978775, 0.12316461652517319, 0.12096861749887466, 0.05099954828619957, 0.2815079391002655, 0.039096761494874954, -0.35048869252204895, 0.08055450767278671, -0.01903931424021721, 0.05963233485817909, 0.08035121113061905, 0.05019528046250343, 0.02699747495353222], [-0.09440592676401138, 0.10082267224788666, -0.20446446537971497, -0.2386358678340912, 0.34105977416038513, 0.09137848764657974, 0.02661406807601452, 0.35454273223876953, 0.10896792262792587, 0.11236265301704407, 0.04304257407784462, 0.0321723073720932, -0.03326795995235443, -0.09389607608318329, -0.20458634197711945, -0.11019139736890793, -0.10999669134616852, 0.229197159409523, -0.10389972478151321, 0.030892420560121536, 0.12996263802051544, 0.0856621190905571, 0.0977073535323143, 0.09897246211767197, -0.24280841648578644, -0.05218111351132393, 0.02386719360947609, 0.18671827018260956, -0.11087646335363388, 0.03561694547533989, -0.0387595035135746, -0.10230232775211334, -0.26835137605667114, -0.1050943061709404, 0.1610250473022461, -0.0483398400247097, -0.04737485200166702, -0.038083020597696304, 0.022060388699173927, 0.029889026656746864, -0.03721308708190918, 0.035085856914520264, 0.09721124917268753, 0.039048582315444946, 0.10661037266254425, -0.06663219630718231, 0.10076053440570831, 0.015802377834916115, 0.36251750588417053, 0.16083835065364838, 0.08447165042161942, -0.000430415035225451, -0.11426109075546265, -0.19708919525146484, 0.025755450129508972, -0.08469489961862564, 0.03941693529486656, -0.1057470366358757, 0.1855824589729309, -0.10087519884109497, 0.04898471385240555, -0.15467682480812073, -0.16549359261989594, -0.004936167970299721, 0.05280343443155289, 0.0636097639799118], [-4.260216519469395e-05, -0.02554578334093094, 0.04192996770143509, 0.06816022843122482, -0.034257177263498306, -0.03580978140234947, 0.027390077710151672, 0.11884260177612305, 0.18256260454654694, 0.21346619725227356, 0.14006714522838593, 0.04146483168005943, 0.027199726551771164, 0.2151092290878296, 0.10596315562725067, 0.08198865503072739, -0.012804180383682251, -0.20835165679454803, 0.04979710653424263, 0.22073180973529816, 0.12222371995449066, 0.11448458582162857, -0.11406610906124115, 0.0038254098035395145, 0.024883465841412544, 0.03871449455618858, -0.023834822699427605, 0.3256940245628357, -0.21244710683822632, 0.05055832862854004, 0.025322649627923965, -0.07503418624401093, 0.16916801035404205, -0.19076795876026154, -0.16193072497844696, -0.2151896357536316, 0.15516041219234467, 0.0491805262863636, 0.18703459203243256, 0.006117069162428379, 0.20534086227416992, 0.05951752886176109, 0.2049439698457718, 0.16011005640029907, 0.10926149785518646, -0.03998294100165367, -0.12010373920202255, -0.008135149255394936, -0.0913986936211586, 0.1083657294511795, 0.06328052282333374, 0.014687338843941689, 0.027938606217503548, -0.2602066397666931, 0.03375418484210968, -0.05804866924881935, 0.15569929778575897, 0.009698603302240372, -0.17155461013317108, 0.16700352728366852, 0.000777577399276197, 0.011042767204344273, -0.0028677135705947876, -0.02957289107143879, 0.09016074240207672, -0.4157899022102356], [0.13887938857078552, 0.11619243025779724, 0.11632918566465378, 0.09104801714420319, -0.09240718930959702, 0.08230806887149811, 0.14482229948043823, 0.07987520098686218, 0.0020740150939673185, 0.214081808924675, 0.022186873480677605, -0.025844253599643707, 0.037489548325538635, 0.04062085971236229, -0.11098041385412216, 0.2506103515625, -0.07719175517559052, -0.0662032812833786, -0.0008793408633209765, 0.05754007026553154, -0.032794978469610214, -0.05642455071210861, -0.0299582090228796, -0.14046941697597504, -0.1561623513698578, 0.045093826949596405, 0.0985560491681099, -0.05306980758905411, 0.1488841474056244, -0.11823800206184387, -0.16869814693927765, -0.04314712807536125, -0.09927450120449066, -0.13326960802078247, -0.1127629429101944, 0.13939253985881805, 0.1404207944869995, 0.006180028896778822, 0.06532332301139832, -0.025064613670110703, 0.20260068774223328, 0.09477908164262772, 0.14649827778339386, 0.013187984935939312, -0.20542459189891815, -0.10250470787286758, 0.07439707219600677, 0.17634642124176025, 0.12700793147087097, -0.0316321961581707, -0.21525000035762787, 0.21287225186824799, 0.3004705607891083, -0.1204565167427063, -0.1317731738090515, 0.15732499957084656, 0.027023738250136375, 0.041284091770648956, 0.21436651051044464, -0.0038942613173276186, 0.15464583039283752, -0.1886017769575119, 0.2215447574853897, 0.06127827614545822, -0.011713080108165741, 0.0006212434382177889], [-0.02257581427693367, -0.061517275869846344, 0.09483914822340012, 0.12657156586647034, 0.038987331092357635, -0.33342409133911133, -0.23571068048477173, 0.1469166874885559, -0.017772505059838295, -0.20843909680843353, -0.13462649285793304, -0.08373583108186722, 0.10617400705814362, -0.07521703094244003, 0.006276658736169338, -0.04078559949994087, -0.07144860923290253, 0.07522065192461014, -0.014575988985598087, -0.1858634650707245, 0.283493310213089, 0.03306548669934273, 0.07258302718400955, -0.28047192096710205, -0.14600247144699097, 0.31530460715293884, 0.09937593340873718, 0.032311078161001205, 0.06894703209400177, -0.14055567979812622, -0.11921185255050659, 0.10245858877897263, -0.050695400685071945, 0.08429126441478729, -0.0751754641532898, 0.12615422904491425, -0.20392945408821106, 0.17761370539665222, -0.0811457484960556, 0.009129030629992485, 0.1080196425318718, 0.08711180090904236, 0.030679434537887573, 0.0665423572063446, -0.007743857800960541, -0.05679702013731003, -0.09598609060049057, -0.05647571384906769, 0.016553638502955437, -0.042497001588344574, 0.13184355199337006, -0.1502789855003357, 0.02375417947769165, 0.0692010298371315, -0.06195830926299095, -0.015673426911234856, -0.12797288596630096, -0.06034114211797714, 0.1298922896385193, -0.017478980123996735, -0.1542850136756897, 0.06460797041654587, -0.0455537848174572, -0.13087035715579987, -0.03177992254495621, -0.3317112326622009], [0.12675681710243225, 0.07464903593063354, 0.23714932799339294, 0.11008448153734207, -0.07125978916883469, -0.06409404426813126, -0.032693441957235336, -0.038448553532361984, 0.2559371590614319, -0.28670844435691833, -0.025227537378668785, 0.07259481400251389, -0.07123309373855591, 0.23231293261051178, -0.012865937314927578, -0.09295479953289032, 0.21749630570411682, 0.27929407358169556, -0.03514381870627403, 0.10619375854730606, -0.016655534505844116, -0.07039321213960648, 0.010992596857249737, -0.2519665062427521, -0.06014758348464966, -0.1945710927248001, 0.08793210983276367, -0.03397594392299652, 0.3974299132823944, 0.03651278465986252, -0.0521107017993927, 0.06740367412567139, 0.15829631686210632, -0.11764063686132431, 0.06477312743663788, 0.08758615702390671, 0.023927537724375725, -0.23530717194080353, -0.1952153742313385, -0.06865083426237106, -0.003557344200089574, -0.08491043001413345, -0.047115180641412735, -0.10871469229459763, 0.005505215842276812, -0.08421744406223297, -0.0888620987534523, -0.07252876460552216, -0.017664281651377678, -0.12299451231956482, 0.08591049909591675, -0.005688527133315802, -0.0613773949444294, -0.17076492309570312, -0.11218041181564331, -0.14274756610393524, 0.026216505095362663, -0.18133549392223358, -0.19699470698833466, -0.01213878858834505, 0.06047236919403076, -0.01650838926434517, -0.00729626277461648, 0.0912398248910904, -0.038569580763578415, -0.12112188339233398], [0.27701079845428467, 0.04593154415488243, 0.023772142827510834, -0.1237640380859375, 0.09488213807344437, 0.24355241656303406, 0.06923733651638031, 0.1737566739320755, -0.015295092016458511, 0.009475579485297203, -0.047372523695230484, 0.3242291212081909, 0.0877036601305008, 0.24311797320842743, -0.051853351294994354, -0.25496435165405273, -0.06683290749788284, 0.01967005431652069, -0.016176316887140274, 0.11450988054275513, 0.10902643203735352, 0.12401189655065536, 0.0032958397641777992, 0.1594334989786148, 0.009816253557801247, 0.018553441390395164, -0.016667133197188377, 0.11632344126701355, -0.18790005147457123, 0.17135369777679443, 0.07010062038898468, 0.16625455021858215, -0.07978620380163193, 0.09100636839866638, 0.01518227905035019, 0.030756982043385506, -0.10494441539049149, 0.03491101413965225, 0.025368545204401016, 0.12821747362613678, 0.3253365159034729, 0.06521528214216232, -0.0760621577501297, -0.12566198408603668, -0.12185715138912201, 0.21312502026557922, 0.07671719789505005, -0.16283035278320312, 0.0042052301578223705, 0.04922417178750038, -0.07345771789550781, 0.038934119045734406, 0.19906073808670044, 0.1801271289587021, -0.015362096019089222, 0.08664696663618088, 0.06262147426605225, -0.029046280309557915, -0.09292365610599518, 0.0748201310634613, 0.017426863312721252, -0.1961875557899475, 0.17581206560134888, -0.2250574380159378, 0.19465385377407074, 0.11336854845285416], [-0.08359906077384949, -0.1410098671913147, 0.014151635579764843, 0.27509966492652893, 0.07086917757987976, -0.00822574831545353, 0.026050671935081482, -0.18146811425685883, 0.08896578103303909, -0.1599956452846527, -0.02980448305606842, 0.11170963943004608, -0.059655096381902695, 0.040127385407686234, 0.22911891341209412, 0.05886175110936165, 0.03281201422214508, -0.19784079492092133, -0.06712693721055984, 0.0011139409616589546, -0.18773463368415833, -0.05209830403327942, -0.0631374642252922, 0.17200185358524323, -0.11482255905866623, 0.09507031738758087, -0.1410844922065735, -0.1569717526435852, 0.058974627405405045, -0.03710250183939934, 0.04098646715283394, 0.04019957780838013, -0.08185195177793503, 0.15290755033493042, 0.006449318025261164, 0.12271339446306229, 0.0007521939114667475, 0.08355123549699783, -0.0007996164495125413, -0.22656704485416412, 0.13225284218788147, -0.0724533349275589, -0.22528356313705444, 0.13683722913265228, -0.022781481966376305, -0.1851661056280136, 0.0083517050370574, -0.10830214619636536, 0.2344585657119751, -0.1029256284236908, 0.05240248143672943, -0.027569161728024483, 0.049501366913318634, -0.227225199341774, 0.13577832281589508, -0.12210335582494736, -0.044097673147916794, -0.21982130408287048, 0.07983668893575668, -0.12136581540107727, -0.1518714278936386, -0.253569632768631, -0.1668042242527008, 0.019349411129951477, 0.09941516071557999, -0.12648454308509827], [0.24977052211761475, -0.16362184286117554, 0.0387619324028492, -0.18543732166290283, 0.12542077898979187, 0.02604113705456257, -0.01723889634013176, -0.10897009819746017, 0.15608054399490356, 0.17267084121704102, 0.08906865864992142, 0.111287422478199, 0.1294834315776825, 0.16511645913124084, -0.3064451217651367, -0.19029030203819275, 0.02859223634004593, -0.023704247549176216, 0.023854857310652733, -0.0012034316314384341, -0.05775519087910652, 0.10404109954833984, 0.20984436571598053, 0.023134542629122734, 0.1725718379020691, -0.00444355234503746, -0.024580221623182297, 0.20859524607658386, -0.35152965784072876, 0.14208446443080902, -0.15530318021774292, 0.056804217398166656, 0.25452348589897156, -0.0492769293487072, -0.06571082025766373, 0.07103364914655685, -0.06126425042748451, -0.19286437332630157, 0.08435305953025818, 0.007529838476330042, -0.03673241659998894, 0.08597925305366516, -0.0009100843453779817, 0.19900093972682953, -0.12001433223485947, -0.19040212035179138, -0.16491758823394775, 0.03246636688709259, 0.10625016689300537, -0.04635725915431976, -0.08887585252523422, -0.04756283387541771, 0.07872657477855682, 0.10850328207015991, -0.04111982136964798, 0.04582482576370239, 0.011192688718438148, 0.262478768825531, 0.1958741992712021, -0.04452076181769371, -0.07700367271900177, -0.1634996086359024, -0.1147981733083725, 0.3231811225414276, 0.025100678205490112, -0.08254866302013397], [0.1574794352054596, 0.05800807848572731, 0.2611563801765442, -0.11980118602514267, -0.052448321133852005, 0.0389360636472702, 0.15741871297359467, 0.00936136208474636, -0.2754075229167938, -0.03849322721362114, -0.2080913931131363, 0.04919213801622391, -0.14176729321479797, 0.1269690990447998, 0.18847866356372833, -0.11801127344369888, 0.006358541082590818, 0.037129878997802734, 0.0762409046292305, -0.01241053082048893, -0.0027260964270681143, -0.08928721398115158, -0.30530956387519836, -0.05642581358551979, -0.020338546484708786, 0.017660723999142647, -0.09766732156276703, 0.05795487016439438, -0.13756459951400757, 0.009519970044493675, -0.10543263703584671, -0.11527565121650696, -0.24011339247226715, 0.02253885567188263, 0.19681218266487122, -0.13949896395206451, -0.007245635148137808, -0.06213453412055969, 0.16627010703086853, -0.059106308966875076, -0.07819365710020065, -0.12608453631401062, 0.27313679456710815, 0.026864804327487946, 0.0035195539239794016, 0.10006686300039291, -0.2303275465965271, -0.08288570493459702, 0.007079367525875568, -0.001545442035421729, 0.04628923535346985, 0.10276729613542557, 0.02448468655347824, 0.19595034420490265, 0.12272811681032181, -0.04199591651558876, -0.08174726366996765, -0.1464131772518158, 0.20095734298229218, 0.12792891263961792, -0.008669048547744751, -0.06429310142993927, 0.0035113024059683084, 0.27435103058815, 0.13216599822044373, 0.061341624706983566], [0.03340732678771019, 0.0829797014594078, -0.023777615278959274, -0.05093711242079735, 0.22615236043930054, 0.15569105744361877, -0.17060187458992004, 0.058811429888010025, 0.21968327462673187, 0.1927938610315323, -0.20980264246463776, -0.007609417662024498, -0.06111806258559227, -0.10226532071828842, 0.09329619258642197, -0.19990842044353485, -0.2604075074195862, -0.33632799983024597, 0.08492401987314224, -0.11785045266151428, -0.01000498328357935, -0.0751199796795845, -0.06486392766237259, 0.08852971345186234, 0.02496066689491272, 0.010287324897944927, -0.09144183248281479, -0.04973191022872925, -0.04123947024345398, 0.01779329404234886, -0.018360890448093414, -0.07982607930898666, -0.04772259667515755, -0.31475067138671875, 0.267637699842453, 0.08304649591445923, -0.17222480475902557, 0.04467688128352165, -0.002511389786377549, -0.07241663336753845, 0.02854909375309944, 0.21899843215942383, -0.15373703837394714, -0.08597179502248764, -0.03612196072936058, -0.11555348336696625, -0.11575499922037125, 0.13650184869766235, -0.2464265525341034, -0.16194458305835724, -0.1368069052696228, 0.09800531715154648, -0.06577163934707642, 0.0005877752555534244, 0.05712258070707321, -0.19588810205459595, -0.09860460460186005, -0.13572609424591064, 0.10291122645139694, 0.011393653228878975, -0.011179348453879356, 0.04514293000102043, 0.0733569860458374, -0.08625534176826477, -0.08522193878889084, 0.04258498176932335], [0.15180636942386627, 0.04214773699641228, -0.175352543592453, 0.08527405560016632, -0.15196675062179565, 0.055455777794122696, -0.228228360414505, -0.020982779562473297, 0.05544830858707428, -0.021776873618364334, -0.1220136284828186, -0.026662062853574753, -0.15009382367134094, -0.10010118037462234, 0.14211754500865936, 0.08753853291273117, -0.049048032611608505, 0.2782436013221741, 0.1689213514328003, -0.14938946068286896, -0.0630887895822525, 0.07615366578102112, 0.12273923307657242, 0.02509799785912037, 0.024619756266474724, -0.08709897100925446, -0.09306494891643524, -0.22255447506904602, -0.06880441308021545, 0.03761497884988785, -0.0898880586028099, -0.057826146483421326, 0.1736265867948532, 0.0471968911588192, -0.2034546583890915, 0.09336889535188675, -0.1289573758840561, 0.08370739966630936, 0.24083568155765533, -0.1475992202758789, -0.18963992595672607, 0.06694726645946503, -0.06003765016794205, -0.10519121587276459, -0.028742056339979172, 0.10354168713092804, 0.11206042766571045, 0.11147060990333557, 0.13486485183238983, 0.1264147311449051, 0.0611279271543026, 0.22957302629947662, 0.028262300416827202, -0.013691423460841179, -0.1688801646232605, 0.03308996930718422, 0.030720200389623642, -0.27596724033355713, -0.11154994368553162, -0.15653708577156067, -0.061509985476732254, 0.21232548356056213, -0.12930820882320404, 0.008980800397694111, 0.12371266633272171, -0.20348326861858368], [0.15440019965171814, -0.012265358120203018, 0.08031220734119415, 0.011182630434632301, 0.025601642206311226, -0.10528787225484848, 0.13288286328315735, 0.020843829959630966, 0.21929892897605896, -0.09395454078912735, -0.1305089294910431, 0.0025482475757598877, 0.12394873797893524, 0.31175071001052856, -0.14756184816360474, 0.029277464374899864, 0.011905286461114883, 0.03328031674027443, 0.049347031861543655, -0.06159815937280655, -0.14046698808670044, -0.0600544698536396, -0.014750480651855469, 0.19964678585529327, -0.029422501102089882, -0.12503020465373993, -0.13060519099235535, -0.0451895147562027, -0.03784357011318207, 0.11162119358778, -0.14902108907699585, -0.0013220490654930472, -0.0793004184961319, 0.23329788446426392, -0.03170398995280266, -0.09068335592746735, 0.09581810981035233, 0.0643392950296402, 0.09777776151895523, -0.09695709496736526, 0.037509985268116, 0.13657449185848236, 0.1963670253753662, 0.05938659608364105, 0.19575229287147522, -0.033891402184963226, -0.013756395317614079, 0.32041826844215393, -0.02855648472905159, 0.07766754925251007, 0.06446810811758041, 0.01023787073791027, -0.20608972012996674, 0.09129572659730911, -0.0027984092012047768, 0.030830493196845055, -0.08729781210422516, 0.019570447504520416, 0.15413448214530945, 0.19679363071918488, 0.20004957914352417, -0.058577101677656174, 0.006571210455149412, -0.36125892400741577, -0.27806025743484497, -0.011501139029860497], [0.13513359427452087, -0.2626471221446991, 0.08765427023172379, -0.04435870796442032, -0.25656187534332275, 0.0868091955780983, -0.14930559694766998, 0.10213595628738403, -0.049578454345464706, -0.024689266458153725, 0.02063925564289093, -0.07583309710025787, -0.0974905788898468, -0.1781822144985199, -0.07201984524726868, 0.1347290724515915, 0.07276909053325653, 0.17777717113494873, -0.011836044490337372, -0.006505224853754044, -0.02782326750457287, -0.013254407793283463, -0.3290611803531647, 0.039322249591350555, -0.12946529686450958, 0.15627208352088928, 0.0004002333735115826, -0.28481802344322205, 0.15677745640277863, 0.14547093212604523, -0.1265043020248413, -0.06201987341046333, 0.2901405990123749, 0.015147133730351925, 0.1310977190732956, 0.0914277732372284, 0.029388613998889923, 0.09597871452569962, -0.03498408570885658, -0.038161057978868484, 0.2500416934490204, -0.0506976917386055, -0.11448067426681519, 0.14065629243850708, 0.09701531380414963, -0.049617376178503036, -0.08333569020032883, -0.02329961769282818, -0.0512935146689415, 0.1636277437210083, -0.022016052156686783, -0.14769995212554932, -0.42847946286201477, 0.03713741898536682, 0.09969630837440491, 0.16877467930316925, -0.029174376279115677, 0.05499855428934097, -0.09291330724954605, -0.1348768174648285, 0.17078430950641632, -0.17931370437145233, 0.1030910462141037, 0.10972630232572556, 0.053907763212919235, 0.04428916424512863], [0.1675732582807541, 0.36537879705429077, -0.04932594299316406, -0.0740189403295517, -0.19285710155963898, 0.017538797110319138, 0.0025998333003371954, 0.06015269085764885, 0.08126955479383469, 0.17782126367092133, -0.2052028775215149, 0.11090602725744247, -0.13365119695663452, 0.09153501689434052, -0.07327109575271606, -0.22147847712039948, 0.07287584245204926, -0.17078372836112976, -0.1878879964351654, 0.22714801132678986, 0.2186478227376938, 0.08255002647638321, -0.015105116181075573, 0.2436743825674057, 0.014837948605418205, 0.10340610891580582, -0.21442018449306488, 0.05858759209513664, 0.13677345216274261, -0.06574138253927231, 0.0036195965949445963, -0.19323189556598663, -0.09474176168441772, -0.04568241164088249, -0.22367213666439056, -0.003999405074864626, -0.03838714584708214, -0.03565077856183052, -0.030285531654953957, 0.08973724395036697, -0.20280219614505768, 0.004808418918401003, -0.027166493237018585, 0.02516884170472622, 0.15583586692810059, -0.18697942793369293, 0.07528146356344223, 0.003976602107286453, 0.01679869182407856, -0.11989059299230576, -0.15105941891670227, -0.17773696780204773, 0.06971491873264313, 0.1315264254808426, 0.14859667420387268, 0.019122062250971794, 0.1275561898946762, 0.056997139006853104, 0.17825450003147125, -0.05198104679584503, -0.1744428277015686, 0.08796259760856628, 0.0343201719224453, -0.002265355782583356, -0.12360851466655731, -0.10574479401111603], [-0.1341143101453781, -0.11258596181869507, -0.1133289784193039, 0.03256814181804657, 0.06881148368120193, 0.09753987193107605, 0.18832045793533325, -0.23337322473526, 0.050379086285829544, -0.164375439286232, 0.005203436128795147, 0.28895875811576843, 0.18356244266033173, -0.21162736415863037, 0.040061868727207184, 0.12693525850772858, -0.11703746765851974, 0.08760517090559006, -0.19814807176589966, -0.1510092169046402, 0.04359488934278488, -0.16319333016872406, -0.1489144116640091, 0.029581032693386078, 0.0789894387125969, 0.024576637893915176, -0.13663208484649658, 0.047749489545822144, 0.1376030147075653, -0.04312259703874588, -0.11446302384138107, -0.07792925834655762, 0.2120215892791748, -0.1844424456357956, 0.05639220029115677, 0.013402517884969711, -0.05022532492876053, 0.1730242818593979, -0.19979605078697205, 0.18317590653896332, 0.014242773875594139, 0.14058862626552582, 0.11923810839653015, -0.079845130443573, 0.27977827191352844, 0.01793772354722023, -0.01868325099349022, -0.059034571051597595, 0.06332746148109436, -0.03229878097772598, 0.1018764078617096, 0.06910651177167892, 0.17502976953983307, 0.13095730543136597, -0.3178866505622864, 0.012479058466851711, 0.06409510225057602, 0.07624676823616028, 0.09898792952299118, -0.12273470312356949, -0.06737522035837173, 0.05239381268620491, -0.1790899932384491, -0.02939439006149769, 0.037526827305555344, -0.17978525161743164], [0.17256614565849304, -0.29533812403678894, -0.21922913193702698, -0.044350944459438324, -0.22916561365127563, -0.050939835608005524, -0.10512926429510117, -0.18595267832279205, -0.034446727484464645, -0.09559586644172668, -0.0650850385427475, -0.08730248361825943, 0.0510874018073082, 0.017860595136880875, 0.07667217403650284, -0.00845634937286377, -0.01491816621273756, -0.09855577349662781, 0.024420082569122314, 0.1301090568304062, 0.11230135709047318, 0.00960959866642952, 0.09287851303815842, -0.16794677078723907, 0.08417729288339615, -0.17111049592494965, 0.043095897883176804, 0.014575052075088024, 0.031081601977348328, 0.05381409451365471, -0.08493603765964508, 0.006084023043513298, -0.1560511291027069, 0.07066204398870468, -0.061324167996644974, -0.027233347296714783, 0.055712901055812836, -0.07066667824983597, -0.12403133511543274, 0.02014823816716671, 0.33287569880485535, -0.13090339303016663, -0.08991767466068268, -0.1061578020453453, 0.12227816134691238, -0.25083065032958984, 0.028632713481783867, 0.1674303263425827, -0.11171086877584457, 0.24536864459514618, 0.18958401679992676, 0.03392866998910904, 0.17121542990207672, 0.06601626425981522, 0.2075541466474533, -0.07282966375350952, 0.17909863591194153, -0.1952589601278305, 0.10902339965105057, -0.03819948062300682, 0.250662237405777, 0.0783485621213913, 0.027261503040790558, 0.1530178040266037, 0.05797218903899193, 0.02697078511118889], [0.017013903707265854, 0.08107321709394455, -0.4607570171356201, 0.2167573720216751, -0.007939591072499752, -0.019417457282543182, 0.06516663730144501, 0.14053864777088165, -0.04774421826004982, -0.12505124509334564, -0.041190363466739655, -0.05867306515574455, -0.06795201450586319, 0.058891475200653076, -0.142163947224617, -0.1319190412759781, 0.008843276649713516, -0.09647699445486069, 0.2994181513786316, 0.029195833951234818, 0.05628591775894165, -0.13899187743663788, -0.18911220133304596, 0.03156566247344017, -0.10397421568632126, -0.07931271195411682, -0.0909515991806984, 0.3568234145641327, -0.1590258777141571, 0.10353109240531921, -0.09614153206348419, 0.04495733231306076, 0.23546987771987915, -0.008638058789074421, 0.034145500510931015, 0.19661521911621094, 0.020229600369930267, -0.11440298706293106, 0.18189109861850739, 5.4066207667347044e-05, 0.07326650619506836, -0.26116830110549927, 0.1284685879945755, 0.12332616001367569, 0.10257846862077713, -0.1517486274242401, 0.14433732628822327, 0.13748270273208618, 0.013641027733683586, -0.09289765357971191, -0.04387456178665161, -0.058084309101104736, 0.21941223740577698, 0.0013443347997963428, 0.01745183765888214, -0.029970068484544754, 0.014352608472108841, 0.11676103621721268, 0.04263625666499138, 0.12830747663974762, -0.15473580360412598, 0.04071439430117607, 0.13053999841213226, -0.06049155071377754, -0.012763254344463348, 0.076833575963974], [0.04874448850750923, 0.11709114164113998, 0.08675641566514969, -0.030955234542489052, 0.10899405926465988, -0.05390705540776253, -0.05489960312843323, -0.08128394931554794, -0.027864642441272736, 0.0007850409601815045, 0.019448280334472656, -0.0812579020857811, -0.2285252958536148, -0.0045608156360685825, 0.20735283195972443, -0.16353055834770203, -0.28589722514152527, -0.0033562753815203905, -0.2251281887292862, 0.13221734762191772, -0.27270030975341797, 0.08923584222793579, -0.06096600368618965, -0.12180295586585999, 0.11978109180927277, -0.04310053586959839, 0.2775266766548157, -0.37133753299713135, 0.09212750941514969, 0.18021385371685028, 0.07277455180883408, 0.02199072577059269, 0.055319737643003464, 0.14443859457969666, 0.15373240411281586, 0.08392129838466644, 0.020508119836449623, 0.007270883768796921, 0.05257287248969078, 0.024592313915491104, 0.015860844403505325, 0.03127819672226906, 0.10416761785745621, 0.01633104868233204, 0.07706519961357117, -0.09239287674427032, -0.05825139954686165, 0.06657750904560089, 0.15666796267032623, -0.0299135260283947, 0.27846622467041016, -0.20552363991737366, -0.11651229113340378, -0.017231767997145653, -0.2666962146759033, 0.061492398381233215, 0.17580972611904144, -0.02627262845635414, 0.02247527427971363, -0.05936477705836296, -0.2976815104484558, 0.12779086828231812, 0.385585755109787, 0.10304246097803116, 0.1753905564546585, 0.1416608691215515], [0.18529270589351654, 0.044573500752449036, -0.05046459659934044, 0.15160885453224182, -0.4068153202533722, 0.06843031942844391, 0.2798920273780823, 0.07309942692518234, 0.09050238877534866, 0.141908660531044, 0.05066987872123718, -0.08904578536748886, 0.06400732696056366, 0.03453691676259041, -0.07907997816801071, -0.1402359902858734, 0.07116767764091492, -0.15152986347675323, 0.059705112129449844, 0.08239686489105225, 0.0766110047698021, 0.08433184027671814, 0.178949236869812, 0.10258942097425461, -0.18282905220985413, -0.03189492225646973, 0.22203469276428223, 0.20020999014377594, -0.14251823723316193, 0.1788836568593979, 0.056510187685489655, -0.020530307665467262, 0.015403414145112038, -0.05725868046283722, 0.3235185146331787, -0.11631398648023605, 0.14955861866474152, 0.09703098237514496, -0.08654628694057465, -0.13525649905204773, -0.07444652915000916, 0.22709155082702637, -0.06922812014818192, 0.18194101750850677, 0.032824210822582245, 0.00991852954030037, 0.11271873861551285, 0.011484675109386444, -0.008824732154607773, -0.13832513988018036, 0.08290917426347733, -0.07476820796728134, 0.04690786451101303, 0.2664974331855774, -0.14842283725738525, 0.08767024427652359, -0.009991020895540714, -0.247493714094162, 0.02277441881597042, -0.03187643364071846, 0.012214693240821362, -0.03007257916033268, -0.04216575250029564, 0.0486794039607048, 0.02958461456000805, 0.037347108125686646], [-0.03486313298344612, 0.020763514563441277, -0.0076550268568098545, -0.20790007710456848, 0.1584116369485855, -0.1424883008003235, -0.055633872747421265, -0.015271209180355072, -0.06357946246862411, 0.27829301357269287, -0.1415383219718933, 0.20794303715229034, 0.1270829439163208, 0.03918148949742317, 0.08763103932142258, -0.09810753911733627, 0.09594985097646713, -0.1381462663412094, 0.2547013461589813, -0.027873212471604347, 0.07263647764921188, -0.13600529730319977, -0.07080931961536407, -0.1054222360253334, -0.09490276873111725, -0.129637211561203, -0.034152913838624954, -0.15706400573253632, 0.04481903463602066, -0.23516227304935455, 0.027217205613851547, -0.052841588854789734, 0.11766934394836426, 0.08178794384002686, -0.03093545511364937, -0.18311411142349243, 0.22063413262367249, 0.06901435554027557, -0.056797660887241364, -0.0376308336853981, 0.17010760307312012, 0.15566124022006989, -0.03369317948818207, -0.03292221203446388, -0.05668840929865837, -0.10411074757575989, -0.041780468076467514, -0.041169263422489166, 0.18631663918495178, -0.10017658025026321, 0.00012639339547604322, -0.12229044735431671, -0.05305054411292076, 0.010012879967689514, -0.14409975707530975, -0.01761513389647007, 0.09153375029563904, -0.14390181005001068, -0.07831402122974396, -0.11245492845773697, -0.3587852120399475, -0.02776332013309002, -0.060690976679325104, -0.04278561472892761, -0.1694841980934143, 0.2852369248867035], [-0.04429537430405617, -0.038742098957300186, 0.21388982236385345, 0.17041237652301788, 0.03233703225851059, 0.03676250949501991, 0.15319319069385529, 0.4190060794353485, -0.08081381022930145, 0.08778846263885498, 0.04747143015265465, 0.20378711819648743, 0.26616373658180237, -0.010179352946579456, -0.010234232060611248, -0.12062117457389832, -0.06635602563619614, -0.16387981176376343, 0.03805151209235191, -0.04097607731819153, -0.07393915951251984, 0.145668625831604, 0.03604922443628311, 0.126768559217453, 0.0353163443505764, -0.20103102922439575, 0.06322833150625229, -0.3614868223667145, 0.1726628839969635, -0.06361842900514603, -0.05824822559952736, 0.023234806954860687, 0.06417965143918991, -0.09084052592515945, -0.03714403510093689, -0.014200599864125252, -0.19521158933639526, -0.03184167668223381, -0.05066966265439987, 0.011824330314993858, 0.00648719584569335, -0.15951354801654816, -0.10261322557926178, -0.1326282024383545, 0.0869605764746666, 0.09057877212762833, 0.0598725825548172, 0.02527572773396969, -0.09966576099395752, -0.024148136377334595, 0.2654115557670593, -0.04175684601068497, -0.06413667649030685, -0.12145646661520004, -0.0466206893324852, -0.052825190126895905, -0.06960611045360565, 0.15650083124637604, 0.19301041960716248, 0.028503626585006714, -0.14068195223808289, -0.06989968568086624, -0.06635725498199463, 0.19315142929553986, 0.06737984716892242, -0.05476347729563713], [0.2790146470069885, -0.0007415205473080277, 0.11413945257663727, 0.030857935547828674, 0.04543810710310936, -0.16551613807678223, -0.137920543551445, 0.14844919741153717, 0.0809173732995987, -0.015176207758486271, -0.16489161550998688, -0.0820414125919342, -0.03028901107609272, 0.05967041850090027, 0.12699344754219055, 0.03789696842432022, -0.07299625873565674, -0.04267067089676857, 0.0636863112449646, -0.030004383996129036, -0.1729062795639038, 0.007255036849528551, 0.05935477092862129, 0.16672196984291077, 0.18062956631183624, -0.02348773181438446, 0.10276751965284348, 0.12610580027103424, -0.020562758669257164, 0.010074423626065254, -0.14974524080753326, -0.03761216253042221, 0.1457221508026123, -0.17309707403182983, -0.09089531749486923, -0.13178740441799164, 0.11552226543426514, 0.32358428835868835, -0.09261392802000046, 0.12646791338920593, -0.13410869240760803, -0.2516498863697052, 0.008438773453235626, -0.048307474702596664, 0.020618489012122154, -0.1237945556640625, 0.24146533012390137, -0.2018057256937027, 0.11462551355361938, -0.033402226865291595, 0.08290578424930573, 0.03836275637149811, 0.02000746876001358, 0.1289658099412918, 0.13350585103034973, 0.18602783977985382, -0.0432402566075325, -0.1425493061542511, -0.002581486012786627, 0.06277058273553848, 0.20841486752033234, -0.21072183549404144, 0.13004843890666962, 0.11868315190076828, -0.02777528017759323, 0.15602675080299377], [-0.10150479525327682, 0.10546550154685974, -0.04154840484261513, 0.05835798382759094, -0.10981674492359161, -0.17162315547466278, -0.11299458146095276, 0.12669523060321808, 0.27276360988616943, 0.021002355962991714, 0.11944174021482468, 0.1274249106645584, -0.15001066029071808, -0.08460915088653564, 0.16163602471351624, 0.0484517477452755, 0.16594652831554413, -0.05504307895898819, -0.02096588723361492, -0.0005891721812076867, 0.11988871544599533, 0.02839353121817112, -0.051075346767902374, -0.05493995174765587, 0.03435424342751503, -0.20377220213413239, 0.23309312760829926, -0.014963068068027496, 0.01977776736021042, 0.10659655183553696, 0.08354013413190842, 0.020303446799516678, 0.1469225138425827, 0.10211348533630371, 0.035325199365615845, -0.027534758672118187, -0.11756276339292526, -0.10717591643333435, 0.21783316135406494, -0.15608066320419312, 0.12116751074790955, 0.008924607187509537, 0.11021696776151657, -0.2434578686952591, 0.21305720508098602, 0.14665956795215607, -0.21816125512123108, 0.0040154228918254375, -0.03087736666202545, -0.11903376132249832, -0.3108552098274231, 0.015660902485251427, 0.11098482459783554, 0.062146224081516266, 0.02671344019472599, 0.047666922211647034, 0.09128937870264053, -0.04059039428830147, 0.15312598645687103, -0.09142059087753296, 0.030866308137774467, -0.2537201941013336, -0.025646602734923363, 0.012556726112961769, 0.06621013581752777, 0.24271556735038757], [-0.03862132877111435, 0.06021428480744362, -0.13973911106586456, 0.03861748054623604, 0.1162346825003624, -0.09970859438180923, -0.16376356780529022, 0.1707800179719925, 0.08857846260070801, 0.14556482434272766, -0.34712323546409607, -0.011167273856699467, 0.13719919323921204, -0.09012870490550995, -9.845791646512225e-05, 0.03989844769239426, 0.08104407787322998, -0.20151810348033905, 0.06834463030099869, 0.32634055614471436, -0.19105681777000427, -0.23485910892486572, 0.06495743989944458, -0.09617292881011963, 0.03437027707695961, 0.2478688508272171, 0.07800549268722534, -0.24019795656204224, 0.04956433176994324, 0.24771443009376526, 0.055501312017440796, 0.20594225823879242, 0.07224463671445847, 0.08714010566473007, -0.07170859724283218, -0.011046694591641426, 0.16273900866508484, -0.06730625778436661, -0.12185537070035934, 0.12092126160860062, -0.027425726875662804, -0.012944701127707958, 0.024123622104525566, 0.1082373633980751, 0.047795649617910385, 0.15957003831863403, -0.09332672506570816, 0.017773611471056938, -0.06372226774692535, 0.0606965497136116, -0.18514606356620789, 0.013455191627144814, -0.13115479052066803, 0.08055788278579712, -0.23093339800834656, -0.1197095662355423, -0.04238808527588844, -0.13326293230056763, 0.10997644066810608, 0.007421927526593208, 0.02058028057217598, 0.04999546706676483, -0.07277078926563263, 0.256255567073822, 0.394696980714798, -0.008765103295445442], [-0.05456744134426117, 0.1716419756412506, -0.1626492440700531, 0.1256818026304245, 0.12445921450853348, 0.014613942243158817, -0.04112350195646286, -0.027332410216331482, 0.12771138548851013, -0.08091814070940018, 0.09382147341966629, 0.30054959654808044, -0.09086871147155762, -0.180099219083786, 0.08462850749492645, -0.1479809731245041, 0.34503355622291565, 0.14008837938308716, -0.09051214158535004, -0.35229647159576416, 0.008507668040692806, -0.0354616604745388, 0.054918624460697174, -0.10267757624387741, -0.0013794911792501807, 0.09604568034410477, 0.15884371101856232, -0.11808840930461884, -0.1717260628938675, -0.055873461067676544, 0.11946362257003784, -0.10810018330812454, -0.22119273245334625, -0.11543458700180054, -0.05917976424098015, 0.005043498706072569, 0.05763932317495346, 0.2229793667793274, 0.021196750923991203, 0.042243316769599915, 0.12508322298526764, -0.08013924211263657, -0.04583430662751198, 0.2665616273880005, -0.03016822226345539, -0.06365541368722916, 0.07419753819704056, 0.008714167401194572, -0.17826762795448303, 0.04965519905090332, 0.07818292826414108, 0.13989879190921783, 0.0028526922687888145, 0.016993459314107895, -0.09135724604129791, -0.09624119102954865, 0.10330583900213242, 0.1291065663099289, 0.009415925480425358, 0.18121817708015442, -0.05498688295483589, 0.021656371653079987, -0.06396035104990005, 0.08617106825113297, -0.2198767066001892, 0.013837944716215134], [-0.06413476914167404, -0.04942448437213898, 0.14075595140457153, 0.07893819361925125, 0.010168422944843769, -0.11246207356452942, 0.0609627403318882, -0.10901875793933868, 0.14421670138835907, 0.15836487710475922, 0.14341704547405243, 0.20758742094039917, -0.11151117086410522, -0.10748965293169022, -0.006967464461922646, 0.017049822956323624, -0.1224367544054985, -0.14009137451648712, 0.1593756526708603, 0.34107327461242676, -0.22899819910526276, 0.02701103314757347, 0.12091655284166336, -0.13758839666843414, -0.40471351146698, -0.08356324583292007, -0.04501552879810333, 0.04118814319372177, 0.006030947435647249, 0.22016645967960358, 0.031203238293528557, 0.13930967450141907, -0.04408816248178482, -0.1510734260082245, 0.05434756726026535, -0.0682070180773735, -0.12260766327381134, 0.04715333133935928, -0.09313354641199112, -0.04971945658326149, 0.010561611503362656, -0.1939106583595276, -0.028636517003178596, -0.10644639283418655, 0.0730351135134697, 0.053332068026065826, -0.262399286031723, -0.12915125489234924, 0.040150683373212814, 0.14865224063396454, -0.06488370895385742, 0.1209377869963646, -0.05767214670777321, 0.11597726494073868, -0.012339672073721886, 0.025457162410020828, 0.07283955067396164, 0.05273252725601196, 0.08236866444349289, 0.13463744521141052, -0.10750231891870499, 0.1974143385887146, 0.28352928161621094, 0.03559492155909538, -0.19243896007537842, 0.13103087246418], [0.20749330520629883, 0.1432739645242691, -0.31586265563964844, -0.0838383287191391, -0.11401370912790298, -0.1089785024523735, 0.11706478893756866, 0.032835450023412704, 0.04283929988741875, -0.06059592217206955, 0.05237630754709244, -0.18324340879917145, 0.11064562946557999, 0.06109922379255295, 0.0029889584984630346, 0.06065744534134865, 0.03706088289618492, -0.2004675269126892, -0.08336635679006577, 0.04107733070850372, 0.002277438063174486, -0.04544994980096817, -0.12057407200336456, -0.21238946914672852, 0.057854797691106796, -0.15705254673957825, 0.0345146544277668, -0.04818671941757202, -0.16178679466247559, 0.04621921852231026, 0.0022184208501130342, -0.09158582985401154, 0.05260694399476051, -0.1113915890455246, -0.10800378024578094, -0.0201896820217371, -0.0849730595946312, 0.08451405167579651, 0.06820007413625717, -0.23252415657043457, 0.058012526482343674, -0.12931014597415924, -0.007120121736079454, -0.029278716072440147, -0.07865232974290848, 0.02538270689547062, -0.05348452925682068, -0.22436481714248657, 0.3031761944293976, -0.08882595598697662, -0.02766529656946659, -0.1193469688296318, -0.030066972598433495, 0.23294970393180847, -0.020279621705412865, -0.2659558653831482, -0.060216933488845825, 0.14204448461532593, -0.060868218541145325, -0.1546066552400589, 0.2612842321395874, 0.18148183822631836, -0.09108815342187881, -0.12478767335414886, -0.0883190855383873, -0.16483153402805328], [0.18004781007766724, -0.14285561442375183, 0.04988541454076767, -0.17938530445098877, -0.03714980557560921, 0.07136627286672592, 0.04495630040764809, 0.20038580894470215, 0.17109565436840057, -0.10030397027730942, 0.12833446264266968, 0.13318756222724915, -0.18704596161842346, -0.17868272960186005, 0.14260344207286835, 0.11296903342008591, -0.07154861837625504, -0.08191321790218353, 0.3374793827533722, 0.010221441276371479, -0.2187795341014862, -0.04411521926522255, 0.010695930570363998, 0.00960903987288475, 0.07665669918060303, 0.14128294587135315, 0.032148707658052444, -0.1344587802886963, 0.054174941033124924, -0.03596498444676399, 0.2014147937297821, -0.1620219200849533, -0.07753964513540268, -0.13404445350170135, -0.170832559466362, -0.07741107046604156, -0.12905359268188477, -0.22780215740203857, -0.1423293948173523, 0.13253426551818848, 0.03179163485765457, 0.09814554452896118, 0.20826447010040283, -0.025009548291563988, -0.09903686493635178, 0.024511627852916718, 0.05226278305053711, 0.16739317774772644, 0.03452073037624359, -0.03306401148438454, 0.048196978867053986, -0.34373757243156433, -0.02127012051641941, 0.09710289537906647, -0.12076408416032791, -0.17947907745838165, -0.06604523956775665, -0.15644428133964539, 0.03328914940357208, -0.06737027317285538, -0.1303485631942749, -0.04888087138533592, 0.0578022301197052, 0.045423801988363266, 0.04421858862042427, 0.09724227339029312], [0.057304393500089645, -0.05590435862541199, 0.09472866356372833, -0.02190340869128704, 0.06698697805404663, -0.1392035186290741, -0.031896501779556274, -0.053077466785907745, -0.14802786707878113, -0.14077968895435333, 0.008434177376329899, 0.09023241698741913, 0.118344746530056, -0.10407990217208862, -0.07994809746742249, -0.004448323044925928, -0.05567777529358864, 0.059515196830034256, 0.2204383909702301, 0.22562316060066223, 0.008339918218553066, -0.04310787096619606, -0.18185333907604218, -0.008083145134150982, 0.016122331842780113, 0.08841434866189957, 0.11682848632335663, -0.15460911393165588, -0.09469208866357803, 0.2772834002971649, 0.21645666658878326, -0.01352276187390089, -0.20461395382881165, 0.0156351700425148, 0.015278262086212635, 0.07251361012458801, -0.05081237852573395, 0.29247796535491943, -0.03604502230882645, -0.13365158438682556, 0.005557326599955559, 0.10009198635816574, 0.08041216433048248, -0.2696768641471863, 0.06296785920858383, -0.10434437543153763, 0.09422454982995987, 0.10492764413356781, -0.027268165722489357, -0.30985236167907715, -0.1398276388645172, -0.05032174289226532, -0.0035083258990198374, -0.24955320358276367, -0.015674041584134102, 0.08261364698410034, 0.10186076909303665, 0.1381399929523468, -0.09035686403512955, -0.008133902214467525, -0.03613545745611191, 0.15302173793315887, -0.19621814787387848, 0.2239099144935608, -0.07701633870601654, -0.07924211025238037], [0.05578990280628204, 0.2398608773946762, 0.1946830302476883, -0.08198131620883942, -0.25839778780937195, -0.12830395996570587, -0.19213984906673431, -0.11367475986480713, 0.0748787522315979, -0.24739773571491241, 0.05802276358008385, -0.1352824866771698, 0.04433819651603699, -0.22382622957229614, -0.11665425449609756, -0.12843142449855804, -0.12101858109235764, -0.1335752159357071, 0.008672382682561874, 0.041934460401535034, -0.1656787246465683, -0.027312785387039185, 0.035399429500103, 0.19570674002170563, -0.2089364230632782, -0.07349913567304611, -0.12908895313739777, 0.12646983563899994, -0.006354327779263258, -0.05925557762384415, -0.16052566468715668, 0.0681162104010582, 0.03934849798679352, 0.0329839326441288, -0.00048645364586263895, 0.033738017082214355, 0.12041597068309784, 0.11314912885427475, 0.04243059456348419, -0.1290096789598465, 0.14793053269386292, 0.021536989137530327, 0.09978870302438736, -0.0171218179166317, -0.18009409308433533, 0.060091279447078705, -0.024131644517183304, -0.02711346372961998, -0.06009780243039131, 0.18954890966415405, 0.057468898594379425, -0.13958659768104553, 0.18197403848171234, 0.007502821274101734, -0.021411780267953873, -0.14651773869991302, 0.11211451143026352, 0.13312643766403198, -0.0708225816488266, 0.06540790945291519, -0.010439561679959297, -0.1270902156829834, -0.173386812210083, 0.06602421402931213, 0.09808655828237534, 0.046971406787633896], [0.08449859172105789, 0.3015111982822418, -0.07887037843465805, -0.038142748177051544, -0.077592633664608, 0.043131403625011444, 0.05037462338805199, -0.21829307079315186, -0.0007459816988557577, -0.00439120177179575, -0.08302553743124008, -0.06605996191501617, 0.15301413834095, 0.14965735375881195, 0.1003372073173523, 0.16616575419902802, 0.13567529618740082, -0.022517504170536995, -0.07612594217061996, -0.31406429409980774, 0.18824106454849243, -0.2066466063261032, 0.1403142362833023, 0.10873916000127792, 0.016435226425528526, 0.11382393538951874, -0.04219004139304161, 0.28642016649246216, 0.08314578235149384, 0.3169582188129425, 0.0634504035115242, 0.09506743401288986, -0.011644383892416954, -0.18126168847084045, 0.015636948868632317, 0.008886161260306835, -0.123259536921978, -0.06336533278226852, 0.01429999154061079, -0.07065436244010925, 0.18241947889328003, 0.0014967971947044134, 0.06394195556640625, 0.034147877246141434, -0.03843280300498009, 0.1078178733587265, 0.04443186894059181, 0.06889412552118301, 0.15687641501426697, 0.254497230052948, 0.05364217609167099, -0.08189176023006439, 0.03506159782409668, -0.217454195022583, 0.2347230464220047, 0.13710623979568481, -0.2796318829059601, 0.12468113750219345, -0.06786216050386429, -0.06185518950223923, -0.0792296826839447, 0.04983258619904518, 0.026652928441762924, 0.03010549210011959, -0.12898798286914825, -0.010989047586917877], [0.027680907398462296, -0.06713376939296722, 0.12784790992736816, -0.07799181342124939, -0.13492535054683685, -0.14630696177482605, -0.14332889020442963, 0.054672203958034515, 0.1495654284954071, 0.08786780387163162, 0.12364691495895386, 0.16848500072956085, -0.06789809465408325, 0.22400376200675964, -0.30818361043930054, 0.11412394791841507, -0.2282143384218216, -0.26500728726387024, 0.03585173562169075, -0.17574262619018555, 0.1918962001800537, -0.1108475849032402, -0.2016172856092453, -0.029141005128622055, -0.10321387648582458, -0.05431295186281204, 0.019024953246116638, 0.0353102944791317, -0.0011291939299553633, 0.19418464601039886, 0.3000648617744446, 0.15385384857654572, -0.024030912667512894, 0.011246575973927975, 0.06901391595602036, -0.049732908606529236, 0.11296422779560089, -0.1449194997549057, 0.05282764509320259, 0.04882894828915596, -0.24886810779571533, -0.03695634379982948, 0.028387844562530518, -0.011302622966468334, 0.06626421958208084, -0.16445833444595337, 0.14190375804901123, -0.023739349097013474, 0.07913866639137268, 0.16794952750205994, 0.04492311552166939, 0.24497440457344055, 0.09545651078224182, 0.17726542055606842, 0.013502458110451698, -0.09297698736190796, 0.03493935242295265, 0.10207892209291458, -0.10414139181375504, 0.14154066145420074, -0.008880277164280415, -0.1776968389749527, 0.0818178653717041, 0.016406262293457985, 0.13445906341075897, 0.13015258312225342], [-0.28913021087646484, 0.004543926101177931, 0.0983148068189621, 0.017786528915166855, -0.07634609192609787, -0.17829272150993347, -0.034364454448223114, 0.11548300087451935, -0.020532412454485893, -0.1792314052581787, -0.09919235855340958, 0.16737866401672363, 0.12708403170108795, -0.3144072890281677, -0.01594116911292076, -0.12629027664661407, 0.0977139100432396, -0.01004270650446415, -0.2670406401157379, -0.1354289948940277, -0.019352274015545845, 0.0866209864616394, 0.08822651207447052, -0.0886201485991478, 0.021233875304460526, -0.07964121550321579, -0.32789647579193115, -0.029500460252165794, -0.21863186359405518, 0.026975350454449654, 0.02197912707924843, -0.11086729913949966, 0.03675207868218422, -0.01400688011199236, 0.08909914642572403, 0.007048286497592926, 0.08075849711894989, -0.11008631438016891, -0.21599219739437103, 0.009389976970851421, 0.06850340962409973, 0.12240094691514969, 0.09129713475704193, 0.121479831635952, 0.02830400876700878, 0.06841918081045151, 0.023706035688519478, 0.0927467793226242, 0.2492925375699997, -0.1945391297340393, -0.09296979010105133, 0.08324819803237915, 0.16560518741607666, -0.23140627145767212, 0.16400979459285736, 0.020545443519949913, -0.022952746599912643, 0.048900850117206573, -0.19535118341445923, 0.17058701813220978, 0.12051653861999512, 0.18247103691101074, 0.18077321350574493, -0.04926673695445061, -0.07581865042448044, 0.05886945128440857], [-0.06052713096141815, -0.11705990880727768, -0.11325675249099731, -0.18923036754131317, -0.2016604244709015, -0.08785581588745117, 0.009125464595854282, -0.00858366396278143, 0.1502254754304886, -0.08994393050670624, -0.17764584720134735, -0.16934481263160706, -0.00992362666875124, 0.1347702294588089, 0.14754009246826172, 0.09865603595972061, 0.13549600541591644, 0.08921372145414352, 0.06573425233364105, 0.12563584744930267, -0.12479884922504425, 0.11500271409749985, -0.02073655091226101, -0.03267773985862732, 0.00928119570016861, -0.051870688796043396, 0.09025531262159348, -0.0114936213940382, -0.019215568900108337, -0.1638702005147934, 0.028496362268924713, 0.3370135426521301, 0.07284334301948547, -0.29921042919158936, 0.21982085704803467, 0.29456669092178345, 0.037489112466573715, 0.08124976605176926, 0.1464492678642273, 0.2841492295265198, 0.05423523485660553, 0.02169201895594597, 0.09672066569328308, 0.015702368691563606, 0.01297655887901783, 0.05748104304075241, 0.03520095348358154, 0.011617042124271393, 0.12466318160295486, 0.10254746675491333, 0.031214630231261253, 0.07617876678705215, 0.02963525801897049, 0.07599874585866928, 0.22340987622737885, 0.04932163655757904, 0.1518554538488388, 0.16833986341953278, -0.05354953184723854, -0.008384141139686108, -0.029681988060474396, -0.08648881316184998, -0.17876558005809784, -0.0692833736538887, 0.0009883777238428593, -0.07905377447605133], [-0.15242338180541992, 0.0807202085852623, -0.05329079180955887, -0.02053155191242695, 0.2166757881641388, 0.11481090635061264, 0.007457071915268898, -0.017339134588837624, -0.1640089601278305, -0.07655110210180283, -0.238848477602005, 0.11886658519506454, 0.0032202305737882853, -0.26050102710723877, 0.005425177048891783, 0.05210644006729126, 0.10967560857534409, -0.04204563423991203, -0.06583591550588608, 0.03519629314541817, -0.09810686856508255, 0.2935831546783447, 0.12584885954856873, 0.0826558917760849, -0.09004231542348862, 0.11528555303812027, 0.007275223266333342, -0.043762415647506714, 0.11007452011108398, -0.1679532676935196, 0.27411386370658875, 0.10294416546821594, 0.10309384018182755, -0.036629967391490936, -0.07200101763010025, 0.04456915706396103, -0.006763538345694542, -0.09954884648323059, 0.20261028409004211, -0.14730481803417206, 0.08376995474100113, 0.09743276983499527, 0.16209876537322998, -0.21015629172325134, 0.046047307550907135, -0.41793549060821533, -0.0770503506064415, -0.07828265428543091, -0.11227517575025558, 0.002374471863731742, 0.1904553920030594, 0.021462332457304, -0.051010966300964355, 0.13843442499637604, -0.139629065990448, 0.08912966400384903, -0.2292393445968628, -0.08274997770786285, -0.08387202024459839, 0.10397887974977493, 0.15235672891139984, 0.054532285779714584, -0.040070243179798126, 0.06072012707591057, -0.04851548373699188, 0.03524915128946304], [-0.14067445695400238, 0.0826355367898941, -0.08105386793613434, 0.22108812630176544, 0.0008272472769021988, -0.272344708442688, -0.052286066114902496, -0.05184502154588699, -0.2143249362707138, 0.028866928070783615, 0.3191536068916321, 0.17434541881084442, 0.03787478059530258, -0.0026218753773719072, 0.3016337454319, -0.08800157159566879, -0.07209529727697372, 0.334722638130188, -0.12175887823104858, 0.07009037584066391, -0.08981233090162277, 0.001450353185646236, -0.14661435782909393, -0.0798570066690445, -0.10182692110538483, 0.10575380176305771, -0.12766949832439423, -0.23014385998249054, 0.0840672105550766, 0.10437119752168655, 0.01160383690148592, 0.234376922249794, 0.048104360699653625, -0.17039699852466583, -0.04621066525578499, 0.03336460143327713, -0.020682616159319878, -0.03238286077976227, 0.07279729843139648, 0.11082874983549118, -0.09991129487752914, 0.08235212415456772, -0.027009565383195877, 0.13348262012004852, -0.11547049880027771, -0.12559618055820465, -0.02290000021457672, 0.1506497859954834, -0.08097808063030243, -0.0482901856303215, 0.04577292501926422, -0.14759761095046997, 0.06951774656772614, 0.08756160736083984, 0.08151688426733017, -0.053962044417858124, -0.047148242592811584, -0.14863690733909607, -0.05805008113384247, -0.19544754922389984, 0.17349395155906677, 0.13884279131889343, -0.23295924067497253, -0.0835239365696907, -0.012637430801987648, 0.18724565207958221], [0.0075515639036893845, -0.0476343147456646, 0.026119720190763474, -0.027399197220802307, -0.02035076916217804, -0.031422678381204605, -0.008541716262698174, 0.0016829946544021368, -0.16934643685817719, -0.10520895570516586, -0.04076375439763069, 0.1864047795534134, -0.07896147668361664, 0.055957306176424026, 0.2279723435640335, -0.006738940719515085, -0.05074511840939522, -0.20072197914123535, -0.08229514956474304, 0.02284330502152443, 0.10374102741479874, -0.036149393767118454, 0.01295158825814724, 0.06396505236625671, -0.11130152642726898, -0.025168418884277344, 0.16857703030109406, -0.22941133379936218, -0.32224223017692566, -0.05528146028518677, -0.22525718808174133, 0.1090773493051529, -0.019643068313598633, -0.05180160328745842, -0.11419042944908142, 0.2825967073440552, 0.0830177590250969, -0.08626098930835724, -0.20453578233718872, -0.060423750430345535, -0.20112521946430206, 0.10244399309158325, 0.2326301783323288, -0.1033828854560852, -0.010149776935577393, -0.046599216759204865, 0.06503812968730927, -0.1253424733877182, -0.1946522295475006, 0.053189389407634735, 0.020043930038809776, 0.001296860515139997, -0.3097200393676758, -0.1969720721244812, -0.11319797486066818, -0.13737104833126068, -0.01646970957517624, -0.10857642441987991, 0.020369140431284904, -0.3386170268058777, 0.012424726970493793, 0.020379243418574333, 0.12106943875551224, 0.02723945863544941, -0.11178989708423615, 0.17122936248779297], [-0.04815332219004631, 0.08822006732225418, -0.022956034168601036, 0.35266175866127014, -0.006095831748098135, -0.022931629791855812, -0.08104883879423141, -0.027985038235783577, 0.0922950804233551, 0.23089826107025146, -0.06951390951871872, -0.04738791286945343, 0.12842167913913727, -0.21655535697937012, -0.07621923089027405, 0.013697474263608456, 0.011830922216176987, 0.22794832289218903, 0.01226913370192051, -0.17421258985996246, -0.1724138706922531, -0.03578658401966095, -0.21809223294258118, 0.13447579741477966, 0.1614411324262619, -0.1720048040151596, 0.0659983903169632, -0.0052255610935389996, -0.03791803866624832, -0.03921133652329445, -0.03862645477056503, 0.026392294093966484, -0.2398693710565567, 0.047018617391586304, 0.005251449067145586, 0.040466710925102234, -0.021165521815419197, -0.25444668531417847, -0.20054195821285248, 0.11082148551940918, 0.18378014862537384, 0.07678107172250748, 0.15556517243385315, -0.07942313700914383, -0.16651242971420288, -0.19003306329250336, 0.011861421167850494, -0.22153396904468536, 0.04007434844970703, -0.04946139082312584, 0.05876242741942406, 0.0626537874341011, -0.18471771478652954, 0.08213860541582108, 0.04106025770306587, 0.023743081837892532, 0.0029057173524051905, 0.031248558312654495, -0.07451783865690231, -0.1458391547203064, -0.11216715723276138, 0.1953025907278061, -0.128129780292511, -0.1040559783577919, 0.062442898750305176, -0.19718554615974426], [0.008135883137583733, -0.2966170608997345, 0.12713825702667236, 0.30280235409736633, -0.025140713900327682, 0.14299951493740082, -0.06181660667061806, 0.03617480769753456, -0.12802226841449738, -0.03688586503267288, -0.28223660588264465, 0.023710694164037704, 0.04605255648493767, 0.09082421660423279, -0.11873027682304382, -0.09944318979978561, -0.12455740571022034, -0.0802210345864296, -0.11899913847446442, -0.21919062733650208, -0.07312241196632385, 0.22057044506072998, 0.009985457174479961, -0.002030349336564541, -0.049078404903411865, 0.03968949615955353, 0.05904505029320717, -0.02801208198070526, 0.2026461362838745, 0.029256587848067284, -0.03032194823026657, -0.1617962270975113, -0.19959133863449097, -0.16681380569934845, -0.24490797519683838, 0.01784699223935604, -0.03495026379823685, 0.12294492870569229, 0.0971464216709137, 0.07649035006761551, -0.033478010445833206, -0.09512200951576233, 0.10966431349515915, 0.04116237908601761, -0.08759245276451111, 0.12170016020536423, -0.27636733651161194, 0.08583977818489075, 0.08494842052459717, -0.10786624252796173, 0.02638278342783451, -0.1425681859254837, -0.1882139891386032, 0.009417576715350151, -0.1388411521911621, -0.012220834381878376, 0.08887963742017746, -0.06747912615537643, -0.2181044965982437, -0.18095315992832184, -0.0015949094668030739, 0.036481983959674835, -0.08674397319555283, 0.04166334494948387, 0.039605479687452316, 0.36104318499565125], [-0.05939587205648422, 0.1876329630613327, 0.004278803709894419, -0.11307364702224731, 0.07024286687374115, 0.17848002910614014, 0.03176054731011391, -0.011342293582856655, -0.003735290840268135, 0.04614624008536339, 0.038096316158771515, 0.22223050892353058, 0.11171073466539383, -0.26640334725379944, 0.0375332348048687, 0.03408199921250343, 0.1326095014810562, -0.11694523692131042, 0.19884087145328522, -0.09634795039892197, 0.15214228630065918, 0.288823664188385, 0.047865401953458786, -0.015468406490981579, 0.12735265493392944, 0.004992803558707237, -0.03761564940214157, 0.017345981672406197, 0.17536377906799316, 0.1474502831697464, -0.03178717941045761, 0.10949230194091797, 0.0378008671104908, 0.20545925199985504, 0.05414104089140892, -0.018591949716210365, 0.01727636158466339, 0.19511254131793976, -0.047095008194446564, 0.14872029423713684, -0.16678139567375183, -0.11072656512260437, 0.1356372833251953, 0.04420428350567818, -0.25579020380973816, -0.10791336745023727, -0.16347993910312653, 0.19372984766960144, 0.08644425123929977, -0.18928292393684387, 0.12264564633369446, 0.16416585445404053, -0.159528449177742, -0.02048025280237198, 0.07960765063762665, -0.15987282991409302, 0.18844033777713776, -0.04480590298771858, 0.15285830199718475, -0.19951747357845306, 0.007098241243511438, 0.060507871210575104, 0.03153122216463089, -0.14328506588935852, 0.04473603889346123, -0.10090379416942596], [0.2293374240398407, -0.10587599128484726, -0.043000251054763794, 0.08852587640285492, -0.0889224037528038, -0.01740945875644684, -0.10518195480108261, -0.1329389065504074, -0.082776740193367, 0.02734784409403801, 0.004071405623108149, 0.06943954527378082, -0.21337629854679108, 0.0005616211565211415, -0.12319039553403854, 0.04397659748792648, 0.23043730854988098, -0.06631201505661011, -0.008695822209119797, -0.1993032544851303, -0.16667595505714417, 0.21542304754257202, -0.11252135038375854, -0.2585690915584564, -0.05912518501281738, -0.08688512444496155, -0.054842621088027954, 0.26907458901405334, 0.04959427937865257, -0.04343881830573082, -0.1572771668434143, 0.17571024596691132, 0.03227986395359039, 0.09235966205596924, 0.018815217539668083, -0.11876475811004639, -0.07225099205970764, -0.015932956710457802, -0.0020032827742397785, 0.17428900301456451, -0.024580350145697594, 0.26411566138267517, -0.04427115246653557, 0.05929424986243248, 0.2256745994091034, 0.1279674619436264, 0.16281826794147491, -0.1838725209236145, 0.00416824733838439, -0.07442139834165573, 0.06751234084367752, -0.058267902582883835, 0.1753779798746109, -0.3190779685974121, 0.13768503069877625, 0.07193148136138916, -0.15605270862579346, 0.20007112622261047, 0.1510229855775833, 0.054873835295438766, 0.17733395099639893, 0.09415339678525925, -0.15658265352249146, -0.12366656213998795, 0.0259102676063776, -0.035143494606018066], [-0.2834634482860565, 0.04504029452800751, 0.22659406065940857, 0.05952960252761841, -0.18741676211357117, 0.19751928746700287, -0.04034094884991646, 0.05254737660288811, 0.054894477128982544, -0.038359303027391434, -0.006021146196871996, 0.04740075767040253, -0.17324987053871155, 0.06860078126192093, 0.09803591668605804, -0.008905651047825813, -0.13587509095668793, 0.017250211909413338, 0.14835305511951447, 0.07510686665773392, 0.11208563297986984, -0.07884608954191208, 0.03851545602083206, 0.16108861565589905, 0.1918226182460785, -0.05099967494606972, 0.13914723694324493, -0.1135420948266983, 0.007018430158495903, -0.04989650472998619, 0.0264043677598238, 0.17952419817447662, 0.0009812039788812399, 0.16485218703746796, -0.026868313550949097, -0.05718039721250534, -0.0784558653831482, 0.16430717706680298, 0.10574181377887726, 0.18194320797920227, 0.12540562450885773, 0.06002120301127434, -0.03681441396474838, 0.07771614193916321, 0.026851924136281013, -0.1761004626750946, 0.0013724241871386766, -0.1555747240781784, 0.18525183200836182, -0.03364212438464165, -0.1501842737197876, -0.14233699440956116, -0.08159522712230682, -0.014415412209928036, -0.232529416680336, -0.3039033114910126, -0.08336545526981354, -0.026727966964244843, 0.10629536956548691, -0.05088759958744049, 0.20722375810146332, 0.3045332133769989, 0.08669397979974747, 0.19333124160766602, -0.0836767852306366, 0.141570582985878], [0.11159899085760117, 0.01716548763215542, 0.22797735035419464, -0.05264170840382576, 0.09348508715629578, -0.013730420731008053, 0.33710119128227234, -0.014615586958825588, 0.1283770501613617, 0.25900378823280334, 0.012367276474833488, -0.08487753570079803, -0.0037756769452244043, -0.1103518083691597, 0.012630073353648186, -0.2990577220916748, -0.12696325778961182, -0.13667896389961243, 0.161129891872406, 0.047127000987529755, 0.17975100874900818, 0.045148033648729324, 0.06536324322223663, -0.09861337393522263, 0.16399362683296204, 0.05580693110823631, -0.08430031687021255, 0.18303336203098297, 0.06192431226372719, 0.03761545568704605, 0.061719246208667755, -0.09226201474666595, 0.02956600859761238, 0.07326675951480865, -0.148665189743042, 0.3178771734237671, -0.1151360422372818, -0.03540991619229317, -0.025747131556272507, -0.10423873364925385, 0.07221941649913788, 0.024598505347967148, 0.17157979309558868, 0.20097887516021729, 0.16756969690322876, 0.04663712531328201, 0.24467815458774567, -0.08396372944116592, 0.05886416509747505, 0.13347503542900085, -0.035997871309518814, 0.15589851140975952, -0.147112175822258, 0.11177408695220947, 0.07882912456989288, 0.15255068242549896, 0.06792455166578293, 0.03891221806406975, -0.039781440049409866, 0.16822068393230438, 0.059903454035520554, -0.06591156125068665, -0.14643330872058868, -0.048380378633737564, 0.09533650428056717, 0.17542289197444916], [0.30395248532295227, 0.06222083419561386, 0.008058714680373669, 0.10138459503650665, -0.19646479189395905, 0.15450070798397064, 0.18356913328170776, 0.11158756166696548, -0.058985043317079544, -0.10623573511838913, -0.03969249129295349, -0.028623802587389946, 0.1291029006242752, -0.08388080447912216, 0.006005830131471157, 0.13835790753364563, -0.035832565277814865, 0.062575563788414, -0.1689693182706833, 0.06794986128807068, 0.07252967357635498, 0.04332653060555458, -0.023067235946655273, -0.18603838980197906, 0.1546391397714615, 0.001848692074418068, 0.16668538749217987, 0.13316203653812408, -0.1672280728816986, -0.02767162397503853, -0.14376768469810486, 0.11114908009767532, 0.00971917062997818, -0.01568310149013996, 0.07391264289617538, -0.08470562845468521, 0.039485473185777664, 0.033912573009729385, -0.0715700164437294, -0.08538051694631577, -0.1758403480052948, 0.05692083388566971, -0.1017313301563263, 0.034092262387275696, 0.09831516444683075, -0.24070699512958527, -0.12997056543827057, 0.10627849400043488, 0.13554735481739044, 0.323822021484375, -0.24024443328380585, -0.016620557755231857, 0.07781846076250076, 0.0030978547874838114, 0.1766653209924698, -0.10129448026418686, -0.09431389719247818, 0.1391417682170868, -0.20592057704925537, 0.22407382726669312, -0.2305990755558014, -0.1365976184606552, -0.037160713225603104, -0.17099109292030334, 0.09012603014707565, 0.0749085322022438]]

Parameter name: module.0.module.0.0.bias
Weights:
[-0.05984994024038315, -0.06965784728527069, -0.06792394071817398, -0.01842188835144043, 0.10451814532279968, 0.09719301015138626, -0.07111036777496338, -0.02908836491405964, -0.08248832076787949, -0.016517512500286102, 0.044483717530965805, -0.03379188850522041, -0.0824643224477768, 0.11618057638406754, -0.014663530513644218, 0.01268711593002081, 0.021603530272841454, 0.0862748846411705, 0.024867786094546318, 0.09980752319097519, 0.0736418291926384, 0.05210305005311966, 0.11565794795751572, -0.10033721476793289, -0.023269960656762123, 0.08460249751806259, -0.11883286386728287, 0.034406647086143494, 0.060862768441438675, 0.026697278022766113, -0.01480631623417139, 0.09622406214475632, -0.03169713914394379, 0.0027991083916276693, -0.09983362257480621, 0.04698845371603966, 0.08596250414848328, -0.0928451269865036, 0.06816931813955307, 0.0579521507024765, 0.11286908388137817, 0.07502000033855438, 0.01918749324977398, -0.03758978843688965, -0.003790601622313261, 0.06972687691450119, -0.08140655606985092, -0.10336799174547195, -0.08521611243486404, 0.04983777925372124, 0.07770796865224838, 0.1063939556479454, -0.004988511558622122, 0.06009400635957718, -0.0934705138206482, -0.04463301599025726, -0.06109314784407616, -0.10597381740808487, -0.05559660121798515, -0.0798935741186142, -0.00956662092357874, 0.006126367021352053, -0.012091066688299179, 0.043931975960731506]

Parameter name: module.0.module.0.2.weight
Weights:
