Nombre del Parámetro: module.0.module.0.0.weight
Pesos:
[[0.16268979012966156, -0.009599706158041954, 0.0370216891169548, -0.18338754773139954, -0.14160828292369843, 0.059585388749837875, -0.44563281536102295, -0.08842575550079346, -0.11485924571752548, -0.2169293463230133, 0.096196249127388, -0.004154502879828215, -0.29173582792282104, 0.037452876567840576, 0.3006530702114105, 0.021853571757674217, -0.014456856064498425, -0.006197298411279917, 0.10405445843935013, 0.23604175448417664, -0.26624855399131775, 0.016538599506020546, 0.11109817028045654, 0.06973975896835327, -0.3721364438533783, 0.15950879454612732, 0.03857311233878136, 0.06298253685235977, -0.16358977556228638, 0.043264396488666534, 0.02793697640299797, 0.05390962213277817, -0.22145268321037292, -0.007671992760151625, -0.15811286866664886, 0.07354774326086044, 0.09583574533462524, -0.06600995361804962, 0.08908239752054214, -0.013650712557137012, -0.013523449189960957, -0.03587215766310692, 0.03604365140199661, 0.1173083707690239, 0.17188508808612823, -0.16981114447116852, 0.0024609386455267668, -0.03717359900474548, -0.11177407205104828, 0.2440468817949295, -0.01428037229925394, -0.07185012102127075, -0.14273062348365784, -0.1941392868757248, -0.011587266810238361, 0.041454214602708817, 0.13446244597434998, -0.16993792355060577, 0.10701649636030197, -0.2743014097213745, -0.18507234752178192, 0.1424182653427124, -0.05115729942917824, -0.18295583128929138, -0.1292867511510849, 0.08715171366930008], [0.10917980223894119, -0.043174952268600464, -0.33763280510902405, -0.013574544340372086, 0.024380825459957123, -0.09299072623252869, 0.04763687774538994, -0.22222913801670074, 0.034054335206747055, -0.17513716220855713, -0.16587193310260773, 0.019221270456910133, 0.02319326624274254, 0.018090538680553436, -0.23627474904060364, -0.02059718407690525, 0.26598334312438965, -0.07264748960733414, 0.004629697650671005, -0.18046562373638153, 0.08851106464862823, -0.07241415232419968, -0.13483966886997223, 0.3290331959724426, 0.2634812891483307, 0.4536186754703522, -0.2976038455963135, -0.0554523691534996, -0.09510733187198639, -0.07998315244913101, -0.2562369406223297, -0.14700861275196075, -0.11689253896474838, -0.07750894874334335, -0.09125639498233795, 0.0176297165453434, 0.16216886043548584, -0.036180172115564346, -0.21485164761543274, 0.12081532180309296, -0.04805967956781387, 0.04708085209131241, -0.14814189076423645, 0.1478596329689026, -0.18083158135414124, -0.055808503180742264, 0.08010213822126389, -0.19001491367816925, 0.0784173384308815, 0.20121324062347412, 0.01586676575243473, -0.19084523618221283, -0.055210597813129425, 0.09527067840099335, 0.07118767499923706, -0.22016572952270508, 0.20464415848255157, 0.05670956149697304, 0.07764245569705963, 0.07790343463420868, 0.059116464108228683, 0.015715409070253372, 0.20132434368133545, -0.09555869549512863, -0.16943004727363586, 0.1628112941980362], [-0.046182259917259216, -0.0406305268406868, -0.18109118938446045, -0.1430567502975464, 0.0846312940120697, 0.26117315888404846, -0.19358472526073456, 0.023461803793907166, -0.28279563784599304, 0.10838280618190765, -0.23126079142093658, 0.13265034556388855, 0.053374797105789185, -0.06991352140903473, 0.035851944237947464, -0.23859122395515442, -0.07474474608898163, -0.21741585433483124, -0.15539133548736572, -0.05872371792793274, 0.13804078102111816, 0.2445789873600006, -0.0015495901461690664, -0.10893715173006058, -0.21788428723812103, 0.10590541362762451, 0.04392336681485176, -0.20975174009799957, 0.06930495798587799, -0.24803422391414642, -0.12668609619140625, -0.32159021496772766, -0.24448302388191223, 0.10066621750593185, -0.050618935376405716, 0.11181901395320892, -0.07767745107412338, -0.08390817046165466, -0.04477695748209953, -0.07388252019882202, -0.15663141012191772, -0.13715489208698273, -0.15556609630584717, -0.0022070305421948433, -0.03404585272073746, -0.01830519363284111, 0.04961010441184044, 0.04214142635464668, -0.19329112768173218, 0.20492736995220184, -0.03517721965909004, -0.005037831608206034, -0.0392422080039978, 0.10040450096130371, -0.1338430792093277, 0.053797803819179535, -0.09463217109441757, -0.3013704717159271, 0.11608672887086868, 0.1576053947210312, -0.1630028635263443, 0.10360777378082275, -0.03447023406624794, -0.14520494639873505, 0.07126396149396896, 0.3545147180557251], [-0.022434791550040245, 0.15607328712940216, -0.04623115062713623, -0.08551274240016937, -0.1295926421880722, -0.23257556557655334, -0.1180131807923317, -0.14321468770503998, -0.14214660227298737, -0.3062770962715149, -0.13220635056495667, -0.12585575878620148, -0.026880566030740738, 0.06427562981843948, 0.3741833567619324, 0.2504059970378876, 0.018237724900245667, -0.09141663461923599, -0.09261851757764816, 0.36829158663749695, 0.06695257872343063, -0.140015110373497, -0.04507998377084732, -0.002037459285929799, -0.07900527864694595, -0.1674417406320572, -0.08026372641324997, 0.023359833285212517, 0.006220947951078415, -0.0432564876973629, 0.049666229635477066, 0.17780938744544983, 0.041037313640117645, 0.32463574409484863, -0.10737812519073486, 0.22232982516288757, -0.18274644017219543, -0.0860455110669136, -0.0462547242641449, -0.05115864798426628, -0.004186044912785292, -0.03503470495343208, 0.02715252712368965, 0.19652226567268372, -0.06321629881858826, -0.03733057528734207, -0.07918202877044678, 0.229730486869812, -0.0356842465698719, 0.04920518770813942, 0.07885821163654327, 0.10008823871612549, -0.03952601179480553, 0.1879023015499115, -0.010988800786435604, 0.10266430675983429, -0.30652573704719543, 0.173527792096138, 0.0940442606806755, -0.04963365197181702, 0.2370966225862503, -0.03058123216032982, 0.13438348472118378, -0.11262919753789902, 0.05528918653726578, -0.25045058131217957], [0.07348886877298355, -0.03131919354200363, 0.38300976157188416, 0.30716273188591003, -0.1220846101641655, -0.14092348515987396, -0.2843111753463745, 0.03137528523802757, -0.002521374262869358, -0.09876828640699387, -0.04717255011200905, -0.07551369071006775, -0.2170029580593109, -0.011010638438165188, 0.3834398686885834, 0.11008869111537933, 0.004875148180872202, -0.1594424694776535, 0.048874083906412125, 0.028804797679185867, -0.08059994131326675, -0.12583822011947632, 0.10108871012926102, -0.1386372148990631, -0.28198665380477905, 0.013594931922852993, -0.16853773593902588, -0.04056442156434059, -0.2904376983642578, -0.3613719046115875, -0.0027038645930588245, 0.09714186936616898, -0.05266363173723221, 0.06303558498620987, 0.08892520517110825, -0.02207985892891884, -0.11223305016756058, -0.10573215782642365, 0.011137808673083782, 0.0321609191596508, 0.12208329886198044, -0.08219648897647858, -0.05914375185966492, 0.040616609156131744, -0.14692379534244537, -0.04672908037900925, 0.12891776859760284, -0.09180331230163574, -0.20573051273822784, 0.029947036877274513, -0.029867572709918022, 0.08998285979032516, 0.18109263479709625, -0.04689402133226395, -0.1578000783920288, -0.21734602749347687, 0.10599292814731598, 0.05637650564312935, 0.05111388489603996, 0.11314716190099716, 0.10837314277887344, -0.07570523768663406, 0.05096401274204254, 0.09857025742530823, 0.2816663682460785, 0.11732169985771179], [0.09307724982500076, 0.03901906684041023, -0.08930905163288116, 0.27408939599990845, -0.08102915436029434, -0.14759624004364014, -0.4362580478191376, -0.013334891758859158, -0.3280884921550751, -0.234287828207016, -0.0754745751619339, -0.07227807492017746, 0.042540472000837326, 0.13012728095054626, 0.5134679675102234, 0.1023629829287529, 0.08377893269062042, 0.010271396487951279, -0.0997905507683754, -0.1128457635641098, 0.08582098037004471, -0.0226008091121912, -0.06774728745222092, -0.06104819104075432, -0.043840572237968445, -0.18632277846336365, 0.07471420615911484, 0.2597042918205261, -0.011906846426427364, 0.15300288796424866, 0.043266404420137405, 0.09543310105800629, -0.2345711588859558, -0.15359987318515778, 0.09747722744941711, -0.11586599051952362, 0.04131731390953064, -0.1587548702955246, 0.23545145988464355, 0.018010683357715607, 0.08943020552396774, 0.03454351797699928, 0.37542250752449036, 0.15794789791107178, -0.14166131615638733, -0.16998173296451569, 0.17484427988529205, -0.18927809596061707, -0.06760833412408829, -0.08292786777019501, 0.10664302855730057, 0.0016752103110775352, -0.047139544039964676, 0.2450411021709442, -0.16489256918430328, 0.08818221837282181, 0.04326486214995384, -0.22128640115261078, 0.06239309534430504, 0.12307927757501602, -0.0970461517572403, -0.018748177215456963, 0.1711881160736084, -0.039603669196367264, -0.01362907700240612, -0.09776828438043594], [-0.11506607383489609, 0.33972007036209106, -0.1226930320262909, -0.05859297141432762, 0.19858376681804657, 0.17642013728618622, 0.27399739623069763, 0.107562355697155, 0.19703078269958496, 0.11271100491285324, 0.10323687642812729, -0.4846154749393463, 0.0469307079911232, 0.14551183581352234, -0.20332692563533783, -0.11537432670593262, 0.26219186186790466, 0.23687386512756348, -0.13233640789985657, 0.07323351502418518, 0.056922055780887604, -0.08086017519235611, -0.00016457309538964182, -0.07262449711561203, 0.011079216375946999, -0.21372097730636597, 0.06173887103796005, -0.009610560722649097, -0.09234937280416489, 0.20343011617660522, -0.2059754580259323, -0.15912634134292603, 0.06386584788560867, 0.15876376628875732, 0.020162437111139297, -0.08312522619962692, 0.020036153495311737, -0.19936764240264893, -0.16316233575344086, 0.08843813836574554, -0.009924395941197872, 0.25432491302490234, -0.03504339978098869, -0.02566148340702057, -0.09520048648118973, -0.24835559725761414, -0.05077210068702698, 0.006387915927916765, -0.11496900022029877, -0.1448369175195694, 0.05155331641435623, -0.017075354233384132, 0.20008167624473572, -0.1571311503648758, -0.2279108762741089, 0.0640706792473793, 0.02289879322052002, -0.13838405907154083, -0.11376338452100754, -0.08694487065076828, 0.05705399438738823, -0.02953176014125347, -0.05850254371762276, 0.01261319499462843, -0.03741808235645294, 0.07289673388004303], [0.0199689120054245, 0.23750367760658264, -0.16148553788661957, 0.17850014567375183, 0.05792001634836197, -0.14492256939411163, -0.023989737033843994, -0.2021593600511551, 0.36519455909729004, -0.15038537979125977, -0.06384360045194626, 0.04414907470345497, 0.23987643420696259, 0.0013513206504285336, -0.04795200377702713, 0.03657634183764458, 0.18299253284931183, -0.17180223762989044, 0.02222771942615509, -0.15622813999652863, 0.0913771465420723, 0.07042321562767029, 0.04134238511323929, 0.08094487339258194, 0.028155945241451263, -0.27320924401283264, 0.06346714496612549, -0.05266705900430679, -0.05202975496649742, 0.15306873619556427, 0.10470529645681381, -0.047753941267728806, -0.16254200041294098, -0.09217257052659988, -0.10411316901445389, -0.23960013687610626, -0.1425575613975525, -0.15543116629123688, -0.19863606989383698, -0.09461048245429993, 0.2192843109369278, -0.3031741678714752, -0.14226973056793213, 0.09104887396097183, -0.0002166343037970364, -0.11512622237205505, 0.0514262318611145, 0.0901777595281601, 0.11081691831350327, 0.12818166613578796, 0.030352430418133736, -0.1950494796037674, -0.06041036918759346, -0.16924692690372467, 0.19561639428138733, 0.007688908837735653, -0.11623414605855942, 0.18295083940029144, 0.03647727146744728, 0.021388685330748558, 0.05564424395561218, 0.13161571323871613, -0.11373816430568695, -0.21432608366012573, -0.12725310027599335, -0.12164624035358429], [0.12393103539943695, 0.1136041209101677, 0.19384437799453735, 0.031167354434728622, 0.09588735550642014, -0.014436254277825356, 0.12397507578134537, 0.15692031383514404, -0.11414675414562225, 0.200285866856575, 0.14126744866371155, -0.28457772731781006, -0.13688354194164276, 0.14013037085533142, -0.31041276454925537, 0.01784636825323105, -0.06395509093999863, -0.14771047234535217, 0.04710552841424942, -0.15699762105941772, 0.0724421963095665, 0.22557277977466583, 0.3012436032295227, 0.5026390552520752, 0.3587535321712494, 0.3765730559825897, -0.039204709231853485, -0.038098737597465515, 0.011029358953237534, 0.13740479946136475, -0.06370492279529572, -0.24361710250377655, -0.16766874492168427, 0.1726645827293396, -0.0323602594435215, 0.009141328744590282, -0.0021046174224466085, -0.2151169627904892, 0.024081500247120857, -0.2174917757511139, -0.05974259972572327, -0.03474726527929306, 0.07616838067770004, -0.09674111753702164, 0.06715725362300873, 0.13437306880950928, -0.05793379247188568, -0.014137380756437778, 0.07455696165561676, 0.04412198066711426, -0.01779463328421116, 0.06045345216989517, -0.07516904175281525, 0.185763880610466, -0.04506084695458412, 0.06087246537208557, 0.08265332132577896, -0.09881898015737534, 0.0875222310423851, -0.060565035790205, -0.09071458876132965, -0.18638379871845245, 0.14959797263145447, -0.2242475301027298, 0.056713055819272995, 0.10404682904481888], [0.018137726932764053, -0.0569053515791893, 0.027289830148220062, -0.19908936321735382, -0.12704123556613922, -0.13772180676460266, -0.43427735567092896, -0.029359599575400352, -0.46433040499687195, -0.18063762784004211, -0.0212464090436697, -0.35528135299682617, -0.15478193759918213, -0.0013817575527355075, 0.23916998505592346, -0.0043134912848472595, -0.031484492123126984, -0.1563171148300171, -0.15945005416870117, 0.06484272330999374, 0.032360997051000595, -0.14276328682899475, -0.07648682594299316, -0.13180166482925415, -0.47894009947776794, -0.4802381098270416, -0.05081598088145256, -0.03336164727807045, -0.31822872161865234, 0.11419421434402466, 0.24642445147037506, 0.006204773206263781, 0.09745290130376816, -0.24327991902828217, -0.11552084237337112, -0.09699545800685883, -0.0523228719830513, 0.008298734202980995, -0.009679632261395454, -0.04949164018034935, 0.08347655832767487, 0.023504219949245453, -0.06406351923942566, -0.015498471446335316, 0.10056498646736145, -0.02181316539645195, 0.04092917591333389, 0.015644434839487076, 0.022696763277053833, -0.29837122559547424, -0.02197171375155449, 0.0935392752289772, 0.11102509498596191, -0.04321302846074104, -0.020724644884467125, 0.14246538281440735, 0.11937639862298965, 0.2919747829437256, -0.1739371120929718, 0.006793367210775614, -0.14839939773082733, 0.07977481931447983, 0.19854968786239624, 0.190653994679451, 0.21882082521915436, -0.028370186686515808], [0.08273745328187943, -0.10495170950889587, -0.14538270235061646, -0.13194260001182556, -0.029040860012173653, 0.051023729145526886, 0.22687338292598724, -0.0035475287586450577, 0.1612376868724823, -0.022128183394670486, 0.17218880355358124, 0.07996427267789841, 0.20440673828125, -0.018271194770932198, -0.43333590030670166, 0.07640599459409714, -0.010782287456095219, 0.18971551954746246, 0.059291187673807144, -0.15855127573013306, 0.22491630911827087, 0.10692322254180908, 0.2256901115179062, 0.2414669692516327, 0.06716660410165787, 0.007485975977033377, -0.18528565764427185, 0.2225663810968399, 0.16228005290031433, -0.12170615792274475, -0.24948115646839142, -0.02559829130768776, -0.1051083356142044, -0.018426736816763878, 0.03542253002524376, 0.14317168295383453, -0.09031081944704056, 0.22520586848258972, -0.013393428176641464, 0.24738553166389465, 0.1460028737783432, -0.11452176421880722, -0.18014909327030182, -0.22353357076644897, -0.1637309044599533, -0.22328148782253265, 0.03587428107857704, 0.2055579423904419, 0.09690702706575394, 0.17498329281806946, -0.1597975492477417, 0.2249438464641571, 0.0013348390348255634, -0.0037408340722322464, -0.21635116636753082, -0.062157269567251205, 0.2640821039676666, -0.014210022054612637, 0.016770821064710617, 0.048238784074783325, 0.018017081543803215, -0.11744008958339691, -0.09151781350374222, -0.26264333724975586, -0.11281228065490723, -0.014539518393576145], [0.1455121487379074, -0.3887910842895508, 0.14605365693569183, 0.08594011515378952, -0.007104107644408941, -0.18260785937309265, -0.1916416734457016, 0.008307262323796749, -0.060169026255607605, 0.01880348101258278, -0.052084606140851974, 0.16224366426467896, -0.1608746349811554, 0.04261330887675285, 0.41447386145591736, 0.062301795929670334, 0.2843751311302185, 0.0021264152601361275, 0.09510347247123718, 0.2973073124885559, -0.17639298737049103, -0.0907135158777237, 0.12336482107639313, 0.10491489619016647, 0.02863920107483864, -0.3926175534725189, 0.12073357403278351, -0.08803010731935501, -0.0019348073983564973, -0.13315658271312714, 0.1544872671365738, 0.14137957990169525, 0.25634312629699707, 0.0986948236823082, -0.18940657377243042, -0.01774936355650425, 0.15593796968460083, 0.014400490559637547, -0.0844719186425209, -0.14658136665821075, -0.01578713022172451, -0.01473118457943201, -0.008915257640182972, -0.1542959213256836, -0.054958242923021317, 0.004461630247533321, 0.06707776337862015, -0.0913412868976593, -0.16453872621059418, -0.051538482308387756, -0.3099471926689148, 0.1348041594028473, -0.041015397757291794, -0.061553966253995895, 0.1707335263490677, 0.12831304967403412, 0.07052332162857056, -0.13017545640468597, -0.004987685009837151, 0.18465234339237213, 0.004661099519580603, 0.11435355991125107, 0.22397136688232422, -0.03253939747810364, -0.04201682284474373, 0.19927823543548584], [-0.1195140853524208, -0.059217195957899094, -0.13427934050559998, -0.009477578103542328, -0.04221678525209427, 0.029436375945806503, 0.39204347133636475, 0.008852945640683174, 0.26204654574394226, 0.05799800530076027, 0.14617668092250824, 0.3226047456264496, -0.24721233546733856, -0.1821114867925644, -0.5788958668708801, -0.04682430252432823, 0.0942639485001564, -0.1778423935174942, -0.11041882634162903, -0.07263551652431488, 0.14399808645248413, -0.31695398688316345, 0.02889007329940796, -0.060029998421669006, 0.13714347779750824, -0.02816644124686718, -0.0521138533949852, 0.019748084247112274, -0.039024658501148224, -0.013944590464234352, -0.060557056218385696, 0.08916372805833817, -0.1284458190202713, -0.12399478256702423, -0.053425148129463196, -0.0588114857673645, 0.20511598885059357, -0.017175691202282906, 0.0018896671244874597, -0.004052306059747934, -0.08206400275230408, -0.10308308154344559, 0.048373013734817505, 0.08704207837581635, 0.059792064130306244, -0.1779520958662033, -0.2927425801753998, -0.15689818561077118, 0.007493376266211271, -0.0770639181137085, -0.16600556671619415, 0.17292733490467072, 0.015141868032515049, -0.07170803844928741, 0.04301316663622856, 0.18717262148857117, -0.17305855453014374, 0.047207657247781754, -0.019175410270690918, 0.10059429705142975, 0.029062513262033463, -0.1622387170791626, -0.26414963603019714, -0.2604733109474182, 0.0819128230214119, -0.0985037088394165], [-0.08165586739778519, 0.18029630184173584, 0.22432659566402435, 0.0668211430311203, 0.04467274993658066, 0.09190421551465988, -0.3860788345336914, -0.006041227839887142, -0.48987463116645813, -0.13567715883255005, -0.21200788021087646, 0.1019500270485878, -0.18551857769489288, -0.14752599596977234, 0.22723577916622162, 0.10561542958021164, 0.01549339946359396, 0.0029113858472555876, -0.17055079340934753, 0.08128541707992554, -0.06323821097612381, -0.024401752278208733, 0.16493912041187286, -0.06807012856006622, -0.25610584020614624, -0.09903606027364731, 0.17009858787059784, 0.11292629688978195, 0.14820024371147156, 0.06893089413642883, 0.2845536470413208, 0.228147491812706, 0.03050469607114792, -0.22829550504684448, 0.08202829957008362, 0.06644647568464279, 0.08795688301324844, -0.2246759831905365, -0.21013711392879486, 0.2061166763305664, -0.20705845952033997, 0.14000679552555084, -0.005104145500808954, -0.10252846032381058, -0.09784708172082901, 0.06613961607217789, -0.10294567793607712, 0.1471022367477417, -0.09001043438911438, 0.05488363280892372, 0.08958789706230164, -0.045391589403152466, -0.13508456945419312, -0.12409275770187378, -0.006312251556664705, -0.08589862287044525, 0.018042976036667824, 0.08728913962841034, 0.08190715312957764, 0.09143925458192825, -0.05014662817120552, -0.14050014317035675, 0.12178969383239746, 0.008675321005284786, -0.1680040806531906, 0.15432077646255493], [0.03850627690553665, 0.1473412662744522, -0.212300643324852, 0.19780850410461426, -0.1106250137090683, -0.002960297977551818, -0.17577284574508667, -0.12070591747760773, -0.18544991314411163, -0.03691967576742172, -0.06822802871465683, -0.2112901210784912, -0.14765484631061554, -0.1232689768075943, 0.13268516957759857, 0.16054971516132355, -0.0070701343938708305, -0.0324576161801815, 0.10107509046792984, -0.2392757683992386, -0.0461793914437294, -0.20807693898677826, -0.08449511229991913, 0.08342747390270233, -0.02806825563311577, 0.07963011413812637, 0.38712450861930847, 0.012297580018639565, -0.030404888093471527, -0.15966106951236725, -0.008432064205408096, 0.10345743596553802, 0.14848800003528595, 0.13433440029621124, -0.025396166369318962, 0.08474058657884598, 0.14543026685714722, 0.015901636332273483, 0.020530834794044495, -0.06776370853185654, 0.08787859976291656, -0.03824686259031296, 0.10135040432214737, -0.18970240652561188, -0.2059161216020584, -0.06333814561367035, 0.19963474571704865, 0.19278541207313538, 0.020167570561170578, -0.18257002532482147, 0.08240918815135956, -0.02005869150161743, -0.16133838891983032, -0.1298651546239853, -0.16527493298053741, -0.08319414407014847, -0.11878154426813126, 0.06475073099136353, 0.08676952123641968, -0.014568216167390347, -0.08591364324092865, 0.3176634907722473, -0.1200278177857399, 0.039975278079509735, 0.1060052365064621, -0.019248459488153458], [-0.21131852269172668, -0.012616836465895176, -0.12127922475337982, -0.0336279571056366, 0.01677948795258999, -0.004785557277500629, 0.10548112541437149, 0.03184974193572998, 0.22917409241199493, 0.14352041482925415, -0.015552124939858913, 0.07270833849906921, -0.1571550965309143, -0.007473395671695471, -0.08801437169313431, -0.16322743892669678, 0.09960612654685974, -0.056825850158929825, -0.16714850068092346, -0.06283676624298096, 0.12181053310632706, 0.13396336138248444, 0.17386475205421448, 0.03647790104150772, 0.02923121117055416, 0.28325730562210083, 0.07486876100301743, 0.0015467224875465035, -0.08655184507369995, 0.3087453842163086, -0.2406436949968338, -0.13827699422836304, 0.06711991131305695, 0.08133268356323242, 0.11253924667835236, -0.061916057020425797, 0.030933067202568054, 0.17201830446720123, 0.18522322177886963, 0.022572891786694527, -0.099755197763443, 0.0031890932004898787, -0.2051592618227005, -0.022642284631729126, -0.14622968435287476, -0.04668458178639412, 0.039507295936346054, 0.057976022362709045, 0.2117891013622284, 0.0314827561378479, 0.14311262965202332, 0.31892889738082886, 0.13065651059150696, -0.16190199553966522, 0.14783135056495667, 0.1224311962723732, 0.21424417197704315, 0.04140778258442879, 0.13949796557426453, 0.12296711653470993, -0.05472717806696892, -0.08631359040737152, -0.12120727449655533, 0.05840424448251724, -0.045780330896377563, -0.16020235419273376], [-0.10889171808958054, -0.03275524452328682, -0.1005796268582344, -0.09412512928247452, 0.1077672690153122, -0.07898125052452087, -0.11307466775178909, 0.1511140763759613, -0.25892317295074463, -0.38544273376464844, 0.050588905811309814, 0.24702507257461548, -0.1899062693119049, -0.0493432991206646, 0.012508475221693516, -0.18206612765789032, 0.0795905590057373, 0.20844820141792297, -0.0187845379114151, 0.09567014127969742, -0.14880308508872986, 0.2237768918275833, -0.06741325557231903, -0.06909254938364029, 0.08002332597970963, 0.03580320626497269, -0.019942529499530792, 0.1680687963962555, -0.07486046105623245, -0.1626441478729248, 0.25083792209625244, 0.1600620299577713, -0.11219579726457596, 0.1288062483072281, 0.18001018464565277, 0.06443742662668228, -0.08779273182153702, -0.0487198643386364, -0.028954539448022842, -0.26018187403678894, 0.26358672976493835, -0.0035107829608023167, -0.07390935719013214, -0.012343875132501125, -0.13141867518424988, -0.04617738723754883, 0.047444071620702744, -0.07777533680200577, -0.08612312376499176, -0.14863194525241852, 0.004368981812149286, -0.09594609588384628, 0.14182622730731964, 0.01912425458431244, 0.06685517728328705, -0.041363343596458435, 0.1321249008178711, 0.12227693200111389, 0.10622682422399521, 0.049303386360406876, -0.0833856537938118, -0.004532093182206154, -0.22711488604545593, 0.006660555023699999, 0.017102083191275597, 0.04532520845532417], [0.031130237504839897, 0.04399431496858597, 0.03544666990637779, -0.03654475510120392, -0.12317018955945969, -0.07584477216005325, -0.35288432240486145, -0.16348686814308167, 0.03763998672366142, -0.35634180903434753, 0.12627249956130981, -0.01233726553618908, -0.093549944460392, -0.1769895851612091, 0.3491005301475525, -0.30614209175109863, 0.026672882959246635, -0.08534901589155197, 0.16037793457508087, -0.011763940565288067, 0.07417070120573044, 0.04499077796936035, -0.13082024455070496, -0.007976190187036991, -0.17990410327911377, -0.26064276695251465, 0.0425802543759346, -0.06349717080593109, -0.1489323377609253, 0.14470185339450836, 0.04851355403661728, 0.15687523782253265, 0.27077916264533997, -0.030738845467567444, 0.06561879813671112, -0.06069790944457054, -0.04910534247756004, -0.044360194355249405, 0.08051823824644089, -0.12137264758348465, -0.10260649025440216, 0.014561193063855171, 0.013713477179408073, -0.25591927766799927, 0.13033559918403625, 0.0694897323846817, -0.1640893518924713, 0.04341205209493637, -0.22820179164409637, 0.0168992280960083, 0.2270675003528595, 0.01361355371773243, -0.002406464656814933, 0.09499800205230713, -0.1487799435853958, -0.20482654869556427, -0.08101587742567062, 0.00010032176214735955, 0.00385472783818841, 0.014384354464709759, -0.040172066539525986, -0.008388431742787361, 0.14247149229049683, -0.11577742546796799, 0.0663246363401413, -0.0161849744617939], [0.2232934981584549, 0.009438801556825638, 0.13225223124027252, 0.12921173870563507, -0.2536992132663727, 0.007942824624478817, 0.05819015949964523, -0.3289712965488434, -0.2461700588464737, -0.024465804919600487, -0.1032024621963501, -0.20200739800930023, -0.020904703065752983, 0.10910191386938095, 0.21670988202095032, -0.048305708914995193, -0.055321402847766876, -0.000873238779604435, -0.1787005364894867, 0.0960690826177597, -0.09496414661407471, 0.24381190538406372, 0.024550266563892365, -0.17627131938934326, 0.010987946763634682, -0.021225109696388245, 0.312696635723114, 0.2967940866947174, -0.1542353481054306, 0.07578837126493454, 0.02056257799267769, -0.07789530605077744, -0.06285076588392258, 0.015107511542737484, 0.0974622517824173, -0.028397582471370697, -0.010062454268336296, 0.20312882959842682, 0.033705126494169235, 0.06091979518532753, 0.07953628152608871, -0.01264627929776907, -0.07757306098937988, 0.10855560749769211, -0.0671626627445221, 0.023756714537739754, -0.11537237465381622, 0.004598043393343687, -0.09595410525798798, 0.0805530846118927, 0.10856703668832779, -0.03086237795650959, -0.07176540791988373, -0.03909127786755562, -0.07778413593769073, 0.027861736714839935, 0.12400968372821808, 0.06793960928916931, -0.29758352041244507, -0.022680215537548065, -0.10029336810112, -0.09885884076356888, 0.08624178916215897, -0.09932234138250351, 0.16737617552280426, 0.28711262345314026], [0.1929527074098587, -0.10806522518396378, 0.14877979457378387, 0.0003641130169853568, 0.01457670982927084, -0.045319344848394394, 0.04924693703651428, 0.0016962300287559628, 0.13104049861431122, 0.1607026755809784, 0.01434754952788353, -0.10625728964805603, 0.16841687262058258, -0.19495812058448792, -0.20390640199184418, 0.047434791922569275, 0.266401082277298, 0.02620711363852024, 0.10359718650579453, -0.006039211060851812, -0.006086472421884537, 0.06414945423603058, -0.17015443742275238, 0.05544031783938408, 0.11484384536743164, 0.2653203010559082, 0.2232528030872345, -0.15570390224456787, -0.01441524364054203, 0.1344703584909439, -0.17155539989471436, 0.0678459033370018, 0.059054184705019, -0.06158026307821274, 0.17505596578121185, 0.25110021233558655, -0.21248894929885864, -0.09482786804437637, 0.03600842133164406, 0.1646425575017929, 0.001253721071407199, -0.039555829018354416, 0.08169932663440704, 0.026596134528517723, -0.03351617231965065, -0.010928112082183361, -0.121187224984169, -0.1415286809206009, 0.1255761981010437, -0.17291344702243805, -0.21704602241516113, 0.07547623664140701, 0.15974609553813934, -0.06234966591000557, 0.1407889723777771, 0.09029140323400497, 0.050343554466962814, 0.0320458710193634, 0.11242105066776276, 0.126214399933815, 0.20914770662784576, -0.07061411440372467, -0.13927778601646423, -0.2992255687713623, 0.06026916205883026, -0.11363394558429718], [0.08360115438699722, -0.1815660297870636, 0.018488774076104164, -0.060719553381204605, 0.005355593282729387, -0.03536089137196541, -0.1735575646162033, -0.09566783159971237, -0.12059041857719421, -0.003903394564986229, 0.07623674720525742, -0.079135000705719, 0.17254455387592316, -0.1494707316160202, 0.40681225061416626, 0.08440915495157242, -0.03645595163106918, 0.012868322432041168, -0.3033244013786316, 0.23674948513507843, -0.29589998722076416, -0.05283800885081291, -0.06054598093032837, 0.041580017656087875, -0.19332808256149292, -0.11805149167776108, 0.1100248172879219, 0.012462383136153221, -0.06693312525749207, 0.07362562417984009, 0.22454579174518585, -0.016018472611904144, 0.030195333063602448, 0.0011297384044155478, 0.12582075595855713, -0.06454021483659744, 0.0966816246509552, -0.24209438264369965, 0.08117025345563889, 0.237263485789299, 0.16802187263965607, -0.03536565601825714, -0.15406744182109833, -0.16860468685626984, -0.04883595556020737, 0.032000329345464706, 0.15535224974155426, -0.20198284089565277, 0.12659426033496857, -0.2227429300546646, 0.1736837774515152, 0.037372689694166183, -0.0842784121632576, 0.289602130651474, -0.2122226357460022, -0.12141430377960205, -0.44454225897789, 0.03138110414147377, 0.17080870270729065, -0.05983664095401764, -0.13067711889743805, -0.006941708270460367, 0.13881298899650574, 0.12305670976638794, -0.05606824532151222, 0.08883842080831528], [0.2076948583126068, 0.12523525953292847, -0.01832129806280136, -0.04080543294548988, -0.09002900868654251, -0.14058056473731995, 0.1250241994857788, 0.30306926369667053, 0.043962545692920685, 0.020777583122253418, 0.14091646671295166, -0.025535790249705315, -0.27036383748054504, 0.08061233907938004, 0.005194163881242275, -0.05061625316739082, -0.1978304088115692, -0.35289955139160156, 0.24686670303344727, 0.23544350266456604, -0.15781857073307037, 0.3423806130886078, -0.10173513740301132, 0.029022525995969772, -0.09189561009407043, 0.006454493384808302, 0.18738514184951782, -0.06062615290284157, 0.09276466071605682, 0.1132805272936821, -0.04214555025100708, -0.06973659992218018, -0.15010400116443634, 0.0034776495303958654, -0.12166151404380798, 0.1039312556385994, 0.17664888501167297, -0.023920834064483643, -0.16915519535541534, 0.07968571782112122, -0.16641837358474731, 0.03284265846014023, -0.05362779274582863, 0.11944522708654404, -0.14064143598079681, -0.0014970533084124327, -0.0102723753079772, 0.15826721489429474, 0.026381241157650948, -0.036743663251399994, -0.20720431208610535, -0.039595700800418854, -0.07726068049669266, 0.1423172950744629, -0.259144127368927, 0.009571249596774578, 0.181615948677063, 0.0680491104722023, 0.19205015897750854, -3.640086288214661e-05, -0.032455604523420334, 0.08921307325363159, 0.03521113842725754, 0.2576877772808075, 0.15964534878730774, 0.22389476001262665], [-0.036867279559373856, 0.2895369231700897, -0.3315729796886444, -0.04072851687669754, -0.02650911919772625, -0.26867783069610596, 0.18486911058425903, -0.17070312798023224, 0.3135548532009125, 0.21564044058322906, 0.08901669085025787, -0.01626243069767952, -0.21039573848247528, -0.2480117231607437, -0.13099995255470276, -0.04964245483279228, -0.13102808594703674, 0.08232694864273071, -0.19653496146202087, 0.057482168078422546, 0.3158269226551056, 0.0024477860424667597, -0.10488340258598328, 0.0734129250049591, 0.04762836918234825, 0.06584401428699493, -0.08621576428413391, 0.20488178730010986, -0.013944875448942184, -0.05399060249328613, 0.09086751192808151, -0.008478485979139805, -0.013980617746710777, -0.07648541778326035, -0.014166946522891521, 0.043113499879837036, -0.15756070613861084, -0.06072331964969635, -0.07526461780071259, -0.0874796211719513, -0.04078271612524986, 0.1212739497423172, 0.007746574003249407, -0.013146869838237762, 0.07961884140968323, 0.026568226516246796, 0.2132149636745453, -0.20857752859592438, 0.05000174045562744, 0.3959498107433319, -0.00841841846704483, 0.03828594088554382, 0.12941186130046844, -0.34722408652305603, 0.004836901091039181, 0.3541032373905182, 0.07809263467788696, 0.14819732308387756, -0.004571123979985714, 0.14701373875141144, 0.0024732130113989115, 0.03436509519815445, -0.08358874917030334, -0.07871449738740921, -0.1135573536157608, 0.011806654743850231], [0.02082790993154049, 0.04801367595791817, -0.04903854802250862, 0.01921791024506092, -0.03964341804385185, -0.030127033591270447, -0.22116747498512268, -0.10134293884038925, -0.29642796516418457, -0.30536341667175293, 0.07690253853797913, 0.15464703738689423, -0.015193597413599491, 0.08135544508695602, 0.48216983675956726, 0.09666064381599426, 0.07192539423704147, 0.2083875983953476, 0.08565156906843185, 0.06625165045261383, -0.05640297383069992, -0.2278118133544922, -0.014953355304896832, -0.12586688995361328, -0.043403975665569305, -0.4001966416835785, 0.06510533392429352, -0.09138476103544235, -0.328499436378479, -0.192977637052536, 0.22594201564788818, -0.018908072263002396, 0.03370966389775276, -0.23039841651916504, 0.29576802253723145, 0.06815560162067413, 0.08240827918052673, 0.04400651156902313, -0.0007509897695854306, -0.0007970492588356137, -0.01933695375919342, 0.10470595955848694, 0.07119394093751907, 0.09529562294483185, 0.32079192996025085, -0.13134461641311646, 0.03821751847863197, 0.19560886919498444, 0.13815268874168396, 0.10856182128190994, 0.0866277739405632, 0.0858558863401413, 0.057783275842666626, -0.06831908226013184, 0.05580202490091324, 0.11524935066699982, -0.041005246341228485, 0.07402785867452621, 0.3273889720439911, -0.012128845788538456, -0.05832685902714729, 0.03583826869726181, 0.23579144477844238, 0.08616527915000916, 0.32097429037094116, 0.18421877920627594], [-0.06725534796714783, -0.18725450336933136, -0.2139548659324646, -0.023377468809485435, 0.18957659602165222, -0.0012924708425998688, 0.14395256340503693, 0.04897534102201462, -0.1787796914577484, 0.03820284828543663, -0.028407661244273186, 0.2442362904548645, -0.16993403434753418, 0.07706302404403687, 0.01372066605836153, 0.008351372554898262, -0.2251441776752472, 0.253853976726532, -0.06973004341125488, -0.09365861117839813, 0.18279962241649628, 0.022711582481861115, 0.040993429720401764, 0.006094420328736305, -0.3097754120826721, 0.16705501079559326, 0.1694616973400116, -0.3344520628452301, -0.01598404534161091, 0.020016411319375038, -0.04978906735777855, 0.039346396923065186, -0.1690363734960556, 0.01844658888876438, 0.1821906715631485, -0.06904833763837814, -0.03381725028157234, 0.08463122695684433, -0.27068832516670227, -0.21226826310157776, -0.021467098966240883, -0.09198233485221863, 0.23072214424610138, -0.24346208572387695, -0.036565884947776794, -0.1753751039505005, -0.04614570736885071, -0.17573919892311096, 0.08596490323543549, 0.07373150438070297, -0.2419230341911316, 0.03731927275657654, -0.07202370464801788, -0.020678170025348663, -0.008898656815290451, -0.1185331866145134, -0.04984867572784424, 0.11829480528831482, -0.2026822865009308, -0.08473119884729385, 0.11617184430360794, -0.01599307172000408, 0.2044733166694641, -0.061998046934604645, -0.16878868639469147, 0.13611049950122833], [-0.18253327906131744, -0.16830691695213318, 0.27210286259651184, -0.10106585174798965, 0.14487168192863464, 0.05642241612076759, 0.12380210310220718, -0.012578101828694344, -0.14101125299930573, 0.15849800407886505, 0.026536250486969948, 0.02987665869295597, -0.1712828129529953, 0.04530198872089386, 0.06704125553369522, -0.020348094403743744, 0.019474709406495094, -0.02526971325278282, -0.13115283846855164, -0.25905129313468933, -0.06858564913272858, 0.3091590106487274, 0.0529763363301754, 0.020632782950997353, 0.04295028746128082, -0.05884411931037903, -0.012227233499288559, -0.12187964469194412, -0.19813275337219238, -0.0609685555100441, -0.22153277695178986, 0.2930278182029724, 0.0028168673161417246, -0.09052790701389313, -0.06263771653175354, 0.16338425874710083, 0.14433352649211884, 0.07232335954904556, -0.15552474558353424, 0.12404835969209671, 0.22645053267478943, 0.15905721485614777, 0.03119523823261261, 0.06476068496704102, 0.0908002108335495, 0.16711010038852692, 0.07152843475341797, 0.023833127692341805, 0.12200882285833359, 0.033650416880846024, 0.13364078104496002, -0.11942243576049805, 0.08112045377492905, 0.012887200340628624, -0.1328287571668625, 0.1498931497335434, -0.21887308359146118, -0.027849387377500534, -0.05135899782180786, 0.0736258253455162, -0.19486640393733978, 0.11265775561332703, -0.15079639852046967, -0.13720211386680603, -0.11630787700414658, -0.0023460928350687027], [0.21967917680740356, -0.08176609128713608, 0.08686495572328568, -0.05162704735994339, 0.1078764945268631, 0.018803657963871956, 0.36257204413414, -0.06226581707596779, 0.30219292640686035, 0.057842984795570374, 0.04164688289165497, 0.2168051153421402, 0.0029534928034991026, 0.09204106032848358, -0.46888527274131775, -0.033164724707603455, -0.0651569589972496, -0.02252677083015442, -0.0415441058576107, -0.261752724647522, 0.22052402794361115, -0.012768198736011982, 0.021224521100521088, 0.1732942759990692, 0.017116738483309746, 0.3046598434448242, 0.1893167495727539, -0.24115251004695892, 0.10561751574277878, -0.10944776237010956, 0.023194048553705215, -0.1787673532962799, -0.0592782087624073, -0.08841384202241898, 0.09576652944087982, -0.08519375324249268, -0.23668381571769714, -0.0711236372590065, -0.03000294230878353, -0.017995353788137436, 0.11908288300037384, 0.2945251762866974, -0.0514216423034668, 0.17867964506149292, -0.001730519812554121, 0.002021392807364464, -0.014984291046857834, 0.12847959995269775, -0.297902911901474, -0.04885949566960335, 0.127253457903862, 0.1851181983947754, -0.04962530732154846, 0.24236398935317993, 0.07679088413715363, 0.19520744681358337, -0.0008004485862329602, 0.018458407372236252, -0.005900674033910036, -0.02515595220029354, -0.13031375408172607, 0.02183404751121998, 0.0761612057685852, -0.09055943042039871, -0.4657205045223236, -0.015649991109967232], [-0.11890481412410736, -0.0011405512923374772, 0.2252022624015808, -0.2517172694206238, 0.007512529846280813, 0.07926575094461441, -0.020066699013113976, 0.3020952343940735, -0.1623694896697998, -0.07159136980772018, -0.01949332281947136, -0.03538651764392853, 0.018120894208550453, 0.032487090677022934, 0.17932644486427307, -0.2346520721912384, -0.2712714672088623, 0.11303095519542694, 0.06391378492116928, -0.13646188378334045, 0.08270695805549622, -0.029139986261725426, -0.1003059670329094, -0.2730855941772461, 0.08367207646369934, -0.10778532177209854, 0.22471824288368225, 0.18235506117343903, 0.031355563551187515, 0.060816440731287, -0.06479299068450928, 0.136794313788414, 0.22660744190216064, -0.20777364075183868, -0.3384082019329071, 0.04468304663896561, -0.07579679042100906, -0.0998208075761795, 0.07129526138305664, 0.04723888263106346, 0.052730049937963486, 0.036703575402498245, -0.02295142412185669, -0.07739237695932388, -0.1879492998123169, -0.007670764345675707, 0.06232775002717972, -0.10691313445568085, 0.05952579528093338, -0.11418868601322174, 0.05521365627646446, 0.07258649915456772, 0.1185925304889679, -0.06423810869455338, 0.06029140204191208, 0.12422129511833191, 0.0003095853899139911, -0.033010806888341904, 0.14022238552570343, -0.04142379388213158, 0.09508314728736877, 0.05411733314394951, 0.2551478445529938, -0.017149612307548523, 0.05531138926744461, 0.16971416771411896], [-0.014940857887268066, 0.07193814218044281, 0.13867828249931335, 0.09937194734811783, 0.026059677824378014, 0.12739664316177368, 0.3255431354045868, 0.033096034079790115, 0.05147232487797737, 0.18657641112804413, -0.1417950987815857, -0.25138962268829346, -0.010306425392627716, -0.12361641973257065, 0.00401656050235033, 0.042475439608097076, -0.1222725585103035, -0.2846080958843231, 0.2995719611644745, 0.24782609939575195, 0.2010892629623413, 0.2350417971611023, -0.11242102831602097, -0.13272987306118011, 0.17123378813266754, 0.19150179624557495, -0.3411273658275604, 0.14616096019744873, -0.02698705531656742, 0.1172688826918602, -0.06525613367557526, -0.15349999070167542, 0.11886510252952576, -0.06953496485948563, 0.023226791992783546, 0.05687195435166359, 0.03569917753338814, -0.11067785322666168, -0.10203979164361954, -0.10743121057748795, 0.05839095637202263, -0.18000300228595734, -0.011371384374797344, 0.0819859728217125, 0.11932746320962906, -0.2659411132335663, -0.0417020209133625, -0.027518611401319504, 0.04494927451014519, -0.2825641930103302, 0.14895905554294586, 0.15829883515834808, -0.11192546784877777, -0.08921390771865845, -0.005551017355173826, -0.030533161014318466, 0.12613503634929657, 0.014824175275862217, 0.19844019412994385, 0.0314004085958004, -0.24261139333248138, 0.018505321815609932, -0.027301428839564323, -0.18006949126720428, -0.1411149650812149, -0.018327221274375916], [0.12822461128234863, -0.01908530667424202, -0.09504701942205429, -0.021688291803002357, 0.16639894247055054, -0.05877508595585823, -0.12724272906780243, -0.12633250653743744, -0.4210342466831207, -0.19534946978092194, 0.18631286919116974, -0.005203557200729847, -0.011954592540860176, -0.2680618464946747, 0.4022301435470581, 0.23554585874080658, -0.06452540308237076, -0.05260929837822914, 0.335629403591156, 0.062346551567316055, -0.30693134665489197, -0.26047030091285706, 0.06263639777898788, -0.4535534977912903, -0.1460210084915161, -0.32562437653541565, -0.07840730994939804, 0.03778291493654251, -0.1663249433040619, 0.19789856672286987, -0.07004686444997787, 0.161452978849411, 0.02741502970457077, 0.08371145278215408, 0.12737330794334412, -0.07309366762638092, -0.017080998048186302, -0.1457575112581253, -0.02435431070625782, -0.09938041120767593, -0.1227421686053276, 0.018777988851070404, -0.20783181488513947, 0.08431071043014526, -0.12865835428237915, 0.26823097467422485, 0.09085503220558167, 0.0019089467823505402, -0.03721259534358978, 0.06346427649259567, -0.0004203578282613307, 0.015940532088279724, -0.06316110491752625, 0.05649418383836746, 0.00908296275883913, 0.09031203389167786, -0.049016322940588, -0.049187205731868744, -0.02622462622821331, 0.115882009267807, 0.11103837192058563, 0.2413831204175949, 0.10053016990423203, 0.016422098502516747, 0.11177535355091095, 0.0042197261936962605], [0.08505776524543762, 0.06388640403747559, 0.011136254295706749, 0.20289380848407745, 0.17939989268779755, -0.05231255665421486, -0.30913427472114563, -0.06239749491214752, -0.06790071725845337, -0.3245397210121155, -0.07467671483755112, 0.052531324326992035, -0.2097599059343338, 0.05071736499667168, 0.19454777240753174, 0.19663304090499878, 0.071565181016922, 0.19573020935058594, -0.025655267760157585, 0.17791150510311127, 0.18926160037517548, 0.06717821210622787, -0.06871922314167023, 0.03865797817707062, -0.1418406218290329, -0.10630404949188232, -0.07971444725990295, 0.10584992915391922, -0.034550052136182785, -0.06608889251947403, 0.06715548038482666, -0.15261174738407135, -0.11233785003423691, -0.2136766016483307, -0.02893255278468132, 0.02112261950969696, -0.1237163320183754, 0.041965171694755554, 0.09325923770666122, 0.10344799607992172, -0.06725678592920303, -0.07438956201076508, -0.022049205377697945, -0.13138043880462646, 0.005952891893684864, 0.41096875071525574, -0.05794598162174225, -0.1343879997730255, 0.05672284960746765, -0.11111893504858017, 0.025657176971435547, 0.01618836633861065, -0.14237834513187408, -0.07678402215242386, -0.10129769146442413, -0.03326203301548958, 0.0034009532537311316, -0.07793230563402176, 0.03326116129755974, 0.08131445944309235, -0.04862416163086891, 0.40135782957077026, -0.09877180308103561, -0.011127117089927197, 0.01864292472600937, 0.07013849914073944], [-0.08594311773777008, -0.03562779352068901, -0.11891678720712662, 0.16652317345142365, 0.11502756178379059, -0.019566014409065247, -0.04660367593169212, -0.008548331446945667, -0.007322373799979687, 0.02696726657450199, 0.13517533242702484, -0.08325130492448807, -0.19943609833717346, 0.09339159727096558, -0.12826842069625854, -0.018675925210118294, -0.07661742717027664, -0.11127495020627975, 0.14977337419986725, -0.012645905837416649, -0.26207634806632996, -0.035669732838869095, -0.011299815960228443, -0.23716875910758972, 0.056976936757564545, -0.276061475276947, -0.01062773633748293, -0.13818632066249847, -0.18731437623500824, 0.04168736934661865, 0.07792877405881882, 0.14526556432247162, -0.010589413344860077, 0.06601922959089279, 0.005635213106870651, 0.1874811202287674, -0.23278935253620148, -0.009450199082493782, 0.13149043917655945, 0.27575811743736267, -0.11167356371879578, -0.18460756540298462, -0.019630782306194305, -0.16045232117176056, 0.04091089591383934, -0.0762660950422287, -0.05124261602759361, -0.08025110512971878, -0.18245826661586761, 0.09437040239572525, -0.2214653193950653, 0.06369340419769287, -0.05157651752233505, -0.0784134566783905, 0.21809694170951843, 0.11925000697374344, -0.025493934750556946, 0.07202384620904922, 0.08140048384666443, -0.057226743549108505, -0.2704600393772125, -0.24541117250919342, 0.20440800487995148, 0.2513545751571655, -0.19544224441051483, -0.06582342833280563], [0.13494016230106354, 0.09939274191856384, -0.036287516355514526, 0.1792573183774948, -0.048917196691036224, -0.24128571152687073, -0.23481355607509613, 0.12077832221984863, -0.20006577670574188, -0.17070914804935455, -0.03953196108341217, 0.05262908712029457, 0.11430662870407104, 0.1238129660487175, 0.3268568813800812, -0.10934492200613022, 0.10537444055080414, -0.01833462156355381, -0.02430107071995735, 0.034128349274396896, 0.18209806084632874, -0.17895589768886566, -0.054292771965265274, -0.09693246334791183, -0.32798850536346436, -0.03700270876288414, -0.05383879318833351, 0.23791556060314178, -0.21295848488807678, 0.05020968243479729, 0.06449395418167114, 0.01819327287375927, -0.18074798583984375, 0.07541058212518692, 0.040894221514463425, 0.2503255009651184, 0.10052784532308578, -0.10466759651899338, -0.1986212581396103, 0.01882684975862503, 0.3348650336265564, -0.053250644356012344, -0.1299486607313156, -0.15712182223796844, 0.07350144535303116, 0.08626213669776917, -0.16014383733272552, -0.00481432257220149, -0.04281715303659439, 0.13665679097175598, 0.4162394106388092, 0.0456044040620327, -0.1998232901096344, -0.1642000526189804, 0.18360531330108643, 0.1049656942486763, -0.1706666350364685, -0.09563074260950089, 0.00099837442394346, 0.045358795672655106, 0.29482415318489075, 0.1577162742614746, 0.03931136056780815, 0.20072734355926514, 0.02905328944325447, -0.005005516577512026], [-0.052398987114429474, 0.1352849006652832, -0.06829366087913513, 0.22482019662857056, 0.003943110350519419, 0.12438210844993591, -0.15735973417758942, 0.19052444398403168, -0.0653892531991005, -0.07860113680362701, 0.20754079520702362, 0.0842195674777031, -0.28036442399024963, -0.0946274921298027, 0.2477700412273407, -0.10812290757894516, -0.07275114208459854, 0.02102147974073887, -0.049764323979616165, 0.04615780711174011, -0.024369046092033386, -0.0010700916172936559, -0.09215538948774338, 0.06486185640096664, 0.13587586581707, 0.03487134724855423, -0.06246078386902809, -0.05145660415291786, -0.1220867782831192, 0.012641818262636662, -0.014946353621780872, 0.1103932186961174, 0.025835637003183365, 0.009085784666240215, 0.05728522688150406, -0.08924035727977753, -0.1506931036710739, 0.013522973284125328, -0.07710429280996323, 0.2073686271905899, -0.039797887206077576, -0.016324063763022423, -0.047965604811906815, -0.033460527658462524, 0.24615256488323212, -0.14992843568325043, 0.03770899027585983, 0.12871338427066803, 0.056397754698991776, 0.06883687525987625, -0.16070859134197235, 0.09657227993011475, 0.016351424157619476, 0.23741069436073303, 0.11378294229507446, 0.14535869657993317, -0.2469264417886734, 0.15231512486934662, -0.21904999017715454, 0.00941681768745184, 0.13090282678604126, 0.290834903717041, 0.04077964276075363, -0.09940984100103378, -0.033523447811603546, 0.26073765754699707], [0.12340206652879715, 0.04442306607961655, -0.06434930115938187, 0.03912634402513504, -0.02484172210097313, -0.11825887113809586, -0.005129140801727772, -0.09330594539642334, -0.4140376150608063, -0.12733757495880127, 0.0797886922955513, -0.05129821226000786, -0.06512260437011719, 0.18443386256694794, 0.2823595404624939, 0.05690794438123703, 0.07117179781198502, -0.3364994525909424, -0.017138512805104256, 0.2653859555721283, -0.17727838456630707, -0.05056997388601303, -0.21993209421634674, -0.13774752616882324, -0.22948379814624786, -0.13286630809307098, 0.0551048219203949, 0.09123601764440536, -0.0762927457690239, -0.15549859404563904, 0.08925129473209381, 0.05531662702560425, 0.0036712149158120155, -0.18121308088302612, -0.07959622144699097, -0.14219152927398682, -0.1946897804737091, -0.32163912057876587, 0.14882594347000122, -0.03932414576411247, 0.014230175875127316, 0.16641530394554138, 0.006528069730848074, -0.34274762868881226, 0.0222622137516737, -0.03689734637737274, -0.06006579473614693, 0.1584945023059845, 0.16911432147026062, 0.26375633478164673, 0.1379590928554535, -0.022234302014112473, 0.12336235493421555, -0.11767715960741043, 0.03858499601483345, -0.14691412448883057, 0.039225466549396515, -0.09284114837646484, 0.019282110035419464, -0.04414665326476097, -0.05426032468676567, 0.09657305479049683, -0.11034764349460602, 0.08509910106658936, 0.21751633286476135, 0.010302390903234482], [-0.05957344174385071, -0.3033442795276642, 0.20917554199695587, 0.15115110576152802, 0.26729607582092285, -0.010405641980469227, -0.2349056750535965, 0.0103980777785182, -0.027245469391345978, 0.0757492333650589, -0.0993826687335968, -0.2383977472782135, -0.2660042643547058, 0.04722202941775322, 0.11036617308855057, -0.07042033970355988, 0.0003503861662466079, 0.10916735976934433, 0.10097194463014603, -0.10360802710056305, -0.07961633056402206, -0.027908967807888985, -0.1477579027414322, 0.06544539332389832, -0.03196651488542557, 0.022863879799842834, 0.24524277448654175, 0.06095273792743683, 0.34137412905693054, -0.06076127290725708, -0.2148553729057312, 0.0061953263357281685, -0.1983698606491089, 0.0017804376548156142, 0.0011532068019732833, -0.10811679065227509, 0.0691770613193512, 0.09730692952871323, -0.23554988205432892, -0.12733735144138336, -0.1818583905696869, 0.01152778323739767, -0.09814167767763138, 0.04293375462293625, 0.058563802391290665, 0.06744885444641113, -0.15419821441173553, -0.05473751202225685, 0.17773663997650146, 0.1264682114124298, -0.08022305369377136, 0.0713358074426651, -0.0357944630086422, 0.3157474994659424, -0.0520518533885479, -0.0660780593752861, -0.01693960465490818, 0.021618999540805817, 0.23820263147354126, 0.0745367705821991, -0.11101987957954407, -0.26637160778045654, -0.08923099935054779, -0.00017467055295128375, -0.20781740546226501, 0.013100232928991318], [0.052798788994550705, -0.09675087034702301, -0.21727007627487183, -0.12296351790428162, 0.11543460935354233, -0.05085071921348572, 0.3406328856945038, 0.02289516106247902, 0.4291558563709259, 0.19978156685829163, -0.04005328193306923, 0.1964600384235382, 0.10526273399591446, 0.008719202131032944, -0.16461443901062012, 0.04661022126674652, -0.07098837196826935, 0.13089603185653687, -0.21535241603851318, -0.3172556459903717, 0.0012478610733523965, -0.027934027835726738, 0.16037443280220032, -0.0391625314950943, 0.3032052218914032, 0.13437923789024353, -0.07874035835266113, -0.20635783672332764, 0.19869156181812286, -0.0662989541888237, -0.2567639946937561, -0.13663998246192932, -0.0514678880572319, 0.1602698266506195, -0.08537047356367111, 0.09617725014686584, -0.0203974861651659, -0.029478855431079865, -0.0534321665763855, 0.26116153597831726, -0.05319252237677574, -0.05587230622768402, 0.2260778397321701, -0.24201053380966187, 0.11247236281633377, -0.04963881894946098, -0.14787089824676514, -0.06293457746505737, -0.06383317708969116, -0.20250363647937775, 0.2556016147136688, -0.32965385913848877, 0.023381728678941727, 0.09966079145669937, 0.02110309712588787, 0.03870078921318054, 0.42578259110450745, 0.21295347809791565, -0.013230493292212486, 0.016031915321946144, -0.015136893838644028, -0.12444432079792023, -0.10420968383550644, -0.2476309984922409, 0.03083210065960884, -0.06037278100848198], [0.2501608729362488, -0.21875138580799103, -0.1600569784641266, -0.21642839908599854, -0.06020360067486763, -0.052278291434049606, 0.1175372451543808, -0.03263372555375099, 0.4039258062839508, 0.1927787810564041, -0.39305081963539124, 0.10710340738296509, -0.15424853563308716, 0.2381853461265564, -0.5759344100952148, -0.06633017957210541, -0.11721687018871307, 0.19754745066165924, 0.08139956742525101, -0.2905324101448059, 0.07994356751441956, 0.25480762124061584, 0.0750659704208374, 0.10767467319965363, 0.3411957323551178, 0.1584472358226776, -0.014787822961807251, 0.054080888628959656, 0.014134776778519154, -0.06777500361204147, -0.06315644085407257, -0.14233344793319702, 0.03661474585533142, 0.12412207573652267, 0.2844131886959076, 0.13754187524318695, 0.11305075138807297, -0.2716505229473114, -0.08213494718074799, 0.07193183153867722, -0.16590218245983124, -0.01817755214869976, 0.02048776112496853, 0.01032231654971838, 0.0407516248524189, -0.11039446294307709, 0.06704995036125183, -0.03174377605319023, 0.14005927741527557, 0.1615303009748459, -0.11434006690979004, 0.03387726470828056, -0.08663513511419296, 0.06130777671933174, -0.04418015480041504, -0.06573258340358734, 0.12974733114242554, -0.11812536418437958, -0.21400070190429688, 0.07599160820245743, 0.09951091557741165, -0.027288680896162987, -0.2505105435848236, 0.013748211786150932, -0.13712219893932343, -0.18123719096183777], [0.12739858031272888, 0.18827387690544128, -0.04959945008158684, -0.1383952647447586, 0.09955079853534698, 0.0447218120098114, 0.25804901123046875, 0.047839369624853134, 0.13276521861553192, 0.5335125923156738, -0.20272596180438995, -0.15895062685012817, 0.22570353746414185, 0.2037634253501892, -0.49824240803718567, -0.2795732617378235, -0.27222341299057007, -0.08628436177968979, 0.22690387070178986, 0.1288847178220749, 0.10819730907678604, 0.12429341673851013, 0.17535275220870972, 0.2616012990474701, 0.3753553032875061, 0.24230800569057465, 0.004023087676614523, 0.005996615160256624, 0.14636607468128204, 0.18051785230636597, -0.36926186084747314, -0.0023659677244722843, -0.2868947982788086, -0.05318892374634743, -0.101253442466259, 0.02768469601869583, 0.024838581681251526, 0.08653827011585236, -0.028414033353328705, 0.04518909752368927, 0.061826109886169434, 0.33286452293395996, -0.1166246235370636, -0.02331535331904888, 0.16190527379512787, -0.045558102428913116, 0.09669500589370728, -0.16370560228824615, -0.2787175178527832, -0.052807606756687164, -0.13265253603458405, 0.22465047240257263, -0.02496238239109516, 0.12404150515794754, 0.08526879549026489, -0.22089779376983643, 0.06745893508195877, 0.14520417153835297, 0.10651958733797073, -0.001456810743547976, -0.18753015995025635, -0.004240336362272501, -0.27986183762550354, -0.1312982141971588, 0.12137258797883987, -0.04047178477048874], [0.17475879192352295, 0.03269396722316742, 0.09684664756059647, -0.26140230894088745, -0.06904196739196777, -0.01917077787220478, 0.24438545107841492, 0.24869404733181, 0.26721715927124023, 0.09724050015211105, -0.13336063921451569, 0.13555240631103516, 0.16397704184055328, -0.1999141424894333, -0.13244344294071198, -0.018514694646000862, 0.2469182163476944, -0.09434372186660767, 0.0801011249423027, -0.06364487111568451, 0.08222774416208267, 0.1193196102976799, 0.2094993144273758, 0.07076683640480042, 0.40685176849365234, 0.3999485969543457, -0.017837148159742355, -0.19311252236366272, 0.0636727586388588, -0.11954352259635925, -0.27571555972099304, -0.047025177627801895, -0.2109205275774002, -0.22683441638946533, 0.06320060789585114, 0.07811782509088516, -0.14481715857982635, 0.07654587924480438, -0.19264402985572815, -0.11839737743139267, -0.11710483580827713, -0.11238061636686325, 0.04282347112894058, -0.08376342058181763, 0.025395818054676056, 0.025848643854260445, 0.0961965024471283, -0.0150180384516716, -0.033463988453149796, -0.008479301817715168, -0.15654359757900238, 0.06004772335290909, -0.23764082789421082, 0.1455565243959427, -0.3453603684902191, -0.12347855418920517, 0.0791780948638916, -0.13444525003433228, -0.11894352734088898, -0.22372597455978394, -0.1098380833864212, -0.05798135697841644, -0.08221853524446487, 0.15666310489177704, -0.10038898140192032, -0.09876539558172226], [-0.08054086565971375, -0.10064152628183365, 0.10017386823892593, 0.25780871510505676, -0.17134904861450195, -0.040398161858320236, -0.17177431285381317, 0.048706259578466415, -0.26235827803611755, -0.27609413862228394, -0.1237524077296257, -0.0890488475561142, 0.1085347905755043, 0.2701668441295624, 0.42459964752197266, 0.11472884565591812, 0.1788633167743683, -0.13938984274864197, -0.12695087492465973, 0.021094700321555138, -0.12232352048158646, -0.18787889182567596, -0.19551827013492584, -0.19823837280273438, -0.20595239102840424, -0.18314023315906525, -0.1950421780347824, 0.06296420097351074, -0.1781720072031021, 0.2628747820854187, 0.36056363582611084, 0.2190103381872177, 0.1163637638092041, -0.018006127327680588, 0.15128670632839203, 0.0553932785987854, -0.0014123767614364624, 0.12509290874004364, -0.01851675845682621, -0.11047828197479248, -0.23138247430324554, 0.18092340230941772, -0.08112497627735138, -0.21202008426189423, -0.03173867240548134, 0.0660243108868599, 0.13404053449630737, -0.010998858138918877, -0.11828158795833588, 0.17007192969322205, -0.15069589018821716, -0.020201565697789192, 0.03624042123556137, 0.04075293987989426, -0.03677310794591904, 0.16257493197917938, -0.06185927614569664, 0.1358519196510315, 0.09561000764369965, -0.20818032324314117, -0.06866120547056198, 0.18505747616291046, -0.000886597903445363, -0.18789951503276825, 0.10077454149723053, 0.1451125144958496], [0.13126309216022491, 0.015440031886100769, -0.17158201336860657, 0.056127872318029404, -0.13335928320884705, 0.08514179289340973, 0.3245159685611725, 0.053159311413764954, 0.12855340540409088, 0.10125738382339478, -0.17716161906719208, 0.1972198337316513, 0.04067128524184227, -0.059984903782606125, -0.36516737937927246, -0.11464396119117737, -0.16899439692497253, -0.031067732721567154, 0.02170547842979431, -0.20401768386363983, -0.015090268105268478, 0.10851936042308807, -0.06324156373739243, 0.5735872387886047, 0.08765178173780441, 0.0903615653514862, -0.03357614204287529, 0.18290163576602936, -0.05229812115430832, -0.11213968694210052, -0.23805220425128937, -0.2946358323097229, -0.09156417101621628, 0.027361178770661354, 0.07134894281625748, 0.0657363012433052, -0.2663276493549347, 0.15281350910663605, -0.26661619544029236, 0.017080316320061684, -0.18232791125774384, -0.03711583837866783, -0.032284483313560486, 0.10300587117671967, -0.02754589356482029, 0.030561408028006554, -0.01042190846055746, -0.18594975769519806, -0.07616479694843292, -0.1328096240758896, 0.21092094480991364, -0.1343107968568802, 0.14897683262825012, -0.16978812217712402, -0.10711193829774857, 0.03692013770341873, -0.042267538607120514, -0.12092456221580505, 0.11303018778562546, -0.08332102745771408, 0.05530344322323799, -0.16619972884655, -0.12462249398231506, -0.10303061455488205, -0.0766449123620987, -0.20610520243644714], [-0.16005656123161316, 0.02488565258681774, -0.007060626056045294, 0.11941136419773102, -0.24619312584400177, -0.06925302743911743, -0.16231591999530792, 0.05136237293481827, -0.01823660172522068, 0.07666781544685364, 0.10676418989896774, 0.14831608533859253, 0.06801233440637589, -0.10592077672481537, 0.05241839587688446, 0.06529644876718521, -0.05967661738395691, 0.33661723136901855, -0.03724231198430061, 0.08938397467136383, 0.03280779346823692, 0.07810420542955399, 0.09179476648569107, -0.026959890499711037, 0.10585186630487442, 0.010325962677598, -0.0025465048383921385, 0.027180684730410576, -0.28708362579345703, -0.09412188827991486, 0.11653102189302444, -0.1888304352760315, -0.03174209222197533, -0.144044429063797, -0.0907885804772377, -0.12076138705015182, 0.09099400788545609, -0.13028734922409058, -0.2655102014541626, 0.036057546734809875, -0.0627669170498848, -0.02628515101969242, 0.005199367646127939, -0.000953107897657901, -0.2708192765712738, 0.04033384099602699, -0.21899046003818512, 0.03007400408387184, -0.050827983766794205, 0.13486288487911224, 0.14342869818210602, 0.19543661177158356, 0.2988389730453491, 0.10624903440475464, 0.15918788313865662, 0.10081329196691513, 0.034169383347034454, 0.1247209906578064, -0.10382480174303055, -0.08983628451824188, -0.14449678361415863, 0.03840693458914757, -0.032469041645526886, -0.20466063916683197, 0.06330648809671402, -0.2799196243286133], [-0.060000162571668625, 0.14221766591072083, -0.029713230207562447, -0.0766114741563797, -0.18671807646751404, -0.07660719007253647, -0.20255695283412933, -0.0991596207022667, -0.3031221032142639, -0.14747460186481476, 0.04327109828591347, 0.07459751516580582, -0.18826095759868622, 0.23505271971225739, 0.5945200324058533, -0.004501589108258486, 0.13649924099445343, -0.04887431859970093, 0.29578396677970886, 0.11186051368713379, -0.03366142883896828, -0.1979282945394516, -0.07759398221969604, 0.0824737474322319, -0.27769935131073, -0.0780920758843422, -0.025471441447734833, 0.016945794224739075, -0.0867597833275795, 0.07089249789714813, 0.1172775998711586, -0.24090290069580078, 0.05277325585484505, -0.09448745846748352, 0.01974136009812355, 0.18168237805366516, -0.08056731522083282, -0.0962504893541336, 0.017270009964704514, 0.0920090451836586, 0.07727030664682388, -0.14493200182914734, 0.17944251000881195, 0.11757473647594452, -0.19199414551258087, 0.21563760936260223, 0.015150490216910839, -0.012642228975892067, -0.06010431423783302, 0.23112905025482178, -0.20508475601673126, -0.0404280424118042, -0.11222846806049347, 0.15593627095222473, 0.06021186709403992, -0.15207640826702118, -0.13694772124290466, 0.047479283064603806, -0.05791302025318146, 0.1753014773130417, -0.1767347753047943, -0.13134843111038208, -0.21447084844112396, 0.07019363343715668, -0.022514140233397484, 0.2646271884441376], [-0.12025687843561172, -0.004292149096727371, -0.1620410829782486, 0.04141522943973541, 0.17886130511760712, -0.2255699336528778, -0.2581517994403839, -0.03387906774878502, -0.4824073612689972, -0.08947854489088058, 0.10553575307130814, 0.0767480805516243, 0.11321794986724854, -0.10391070693731308, 0.39316558837890625, 0.039381373673677444, 0.18992450833320618, 0.10207723081111908, -0.19114407896995544, 0.04307049885392189, -0.1281803846359253, -0.05097528174519539, -0.3634268641471863, -0.34655365347862244, -0.1485135555267334, -0.32016482949256897, 0.041347477585077286, 0.12547016143798828, -0.3118596374988556, -0.04728909581899643, 0.3928917348384857, 0.2746431827545166, 0.16824325919151306, 0.0296085886657238, -0.18780624866485596, -0.06580840796232224, 0.0005908791208639741, 0.03270048275589943, 0.006365509238094091, 0.09948330372571945, -0.006654927507042885, -0.1696869134902954, 0.16727522015571594, 0.18183746933937073, 0.11272803694009781, 0.19494907557964325, -0.04805833101272583, 0.17037999629974365, -0.09304791688919067, 0.024911943823099136, 0.1179150715470314, 0.37064486742019653, 0.0025091751012951136, -0.06085457652807236, -0.05983243137598038, -0.25276216864585876, -0.07606509327888489, -0.04128653183579445, -0.027126723900437355, -0.18609294295310974, 0.1777409166097641, 0.07793924957513809, 0.20239247381687164, 0.06638187170028687, 0.15074682235717773, 0.20703154802322388], [0.05465252324938774, 0.09321943670511246, -0.017025792971253395, -0.17000439763069153, -0.09464046359062195, 0.030538585036993027, 0.33003726601600647, 0.020278016105294228, 0.25838154554367065, 0.6034650802612305, -0.15119114518165588, 0.2530632019042969, -0.27723824977874756, -0.11320416629314423, -0.44099342823028564, -0.29157987236976624, 0.18914206326007843, 0.1512366533279419, 0.08829929679632187, -0.1916794776916504, -0.01409054547548294, 0.144002303481102, 0.062135376036167145, 0.1023697480559349, 0.219199076294899, 0.060698773711919785, -0.09743036329746246, -0.18143457174301147, 0.30354931950569153, -0.0632886290550232, -0.16772723197937012, -0.15565884113311768, -0.3583945035934448, 0.05393369123339653, 0.11799121648073196, 0.02887485921382904, -0.0832558125257492, 0.10663184523582458, 0.1400369554758072, -0.11745505034923553, 0.06598401069641113, 0.07143853604793549, -0.029752878472208977, -0.052042633295059204, -0.16250023245811462, 0.0014331854181364179, -0.18670450150966644, 0.025771385058760643, 0.10479757934808731, 0.010397535748779774, -0.024320751428604126, -0.13233017921447754, -0.13429798185825348, 0.05739499256014824, -0.14503982663154602, -0.07378702610731125, 0.03341573104262352, 0.09582937508821487, 0.0982813760638237, -0.044596802443265915, 0.012123591266572475, 0.04544742405414581, 0.19112303853034973, -0.11610573530197144, -0.20088820159435272, -0.11929650604724884], [0.32511696219444275, 0.08594175428152084, 0.15683263540267944, 0.15853263437747955, -0.22910304367542267, -0.06816039234399796, -0.30174756050109863, -0.2447449266910553, -0.25242507457733154, -0.14458739757537842, 0.25038209557533264, 0.03079582005739212, 0.05870942398905754, 0.21267172694206238, 0.23171080648899078, 0.05786857381463051, 0.07776372879743576, 0.006723480764776468, -0.26964715123176575, 0.146789088845253, 0.0594930462539196, -0.047383569180965424, -0.07965895533561707, -0.2390325516462326, -0.04762854799628258, -0.16357755661010742, -0.13718660175800323, 0.15496990084648132, 0.06626542657613754, 0.2362293154001236, -0.08893440663814545, 0.1357591152191162, 0.25583815574645996, 0.14094138145446777, 0.033658482134342194, -0.19059360027313232, 0.051808521151542664, -0.09002888202667236, -0.20386415719985962, 0.07233438640832901, 0.08107296377420425, -0.06348522752523422, 0.17280519008636475, 0.012979517690837383, 0.15809358656406403, 0.056143343448638916, 0.1635432243347168, 0.10427320748567581, -0.09647010266780853, -0.04342922568321228, -0.07313557714223862, 0.05826530605554581, 0.35623085498809814, -0.17114362120628357, 0.118968665599823, -0.024511564522981644, -0.210555300116539, 0.0500599667429924, 0.14697052538394928, 0.07466820627450943, -0.1649499386548996, 0.17866288125514984, 0.1730574071407318, 0.0937890112400055, 0.05938314273953438, -0.18437425792217255], [-0.20356301963329315, 0.1673157811164856, -0.11646697670221329, -0.26739948987960815, -0.12149283289909363, -0.127232626080513, 0.18693611025810242, -0.03950962796807289, 0.4291541874408722, 0.20776353776454926, -0.0509948655962944, -0.07858843356370926, -0.01702812686562538, 0.2778078317642212, -0.33896389603614807, 0.2450500726699829, -0.10232913494110107, 0.028645873069763184, -0.01162884570658207, -0.02024860680103302, -0.1866770088672638, 0.009075202979147434, -0.11300702393054962, 0.07539675384759903, 0.17751222848892212, 0.1814916580915451, 0.11076874285936356, -0.11752200871706009, 0.22288469970226288, 0.03340272605419159, -0.10834899544715881, 0.11404460668563843, -0.04350053146481514, -0.1521529108285904, 0.23520897328853607, -0.20275285840034485, -2.68535459326813e-05, 0.12187844514846802, -0.14467206597328186, 0.02247437834739685, 0.0830596461892128, -0.2333538830280304, -0.1378045529127121, -0.10300968587398529, 0.012444369494915009, 0.07716812938451767, -0.031771015375852585, -0.011620750650763512, -0.1587621122598648, -0.26666414737701416, 0.10336122661828995, -0.06426316499710083, -0.03759332373738289, 0.08102037757635117, -0.020153582096099854, 0.02987046167254448, 0.02534979209303856, -0.3242272436618805, 0.09302929788827896, 0.13725683093070984, 0.0492074228823185, -0.09030928462743759, 0.13981492817401886, -0.1285262107849121, 0.04485291987657547, -0.14701537787914276], [0.0504598468542099, 0.032201625406742096, 0.07363931834697723, -0.05378517135977745, 0.02308732084929943, -0.06452737748622894, -0.17893348634243011, -0.10575481504201889, -0.1503048837184906, 0.009052970446646214, 0.06809740513563156, 0.044861000031232834, -0.006540399510413408, 0.03308006748557091, 0.44930580258369446, 0.2386833280324936, -0.20277859270572662, -0.08326215296983719, -0.10733424127101898, -0.02739262953400612, 0.08337771892547607, -0.035529643297195435, -0.003263935213908553, 0.07496960461139679, 0.07877476513385773, -0.17676784098148346, 0.03521815314888954, -0.01681857369840145, -0.05554400756955147, 0.1189735010266304, 0.12711910903453827, 0.2159077674150467, -0.030354397371411324, -0.06473430246114731, 0.047604769468307495, 0.195506751537323, -0.02760411985218525, -0.07386533170938492, 0.15723265707492828, -0.1289956271648407, -0.09519931674003601, 0.05045308917760849, -0.21831993758678436, 0.11093665659427643, -0.11978001892566681, -0.17898498475551605, -0.33418911695480347, -0.010105956345796585, -0.029061228036880493, -0.045941371470689774, 0.04821271449327469, -0.12720535695552826, 0.17240294814109802, -0.04599413648247719, -0.056328509002923965, -0.30963224172592163, -0.11831638216972351, -0.15475381910800934, -0.021995317190885544, -0.05429072305560112, -0.052338507026433945, 0.312031090259552, 0.03223085403442383, 0.25984346866607666, 0.02800430916249752, 0.25239983201026917], [-0.21293020248413086, 0.1448926478624344, 0.26983776688575745, -0.051573075354099274, -0.029088536277413368, 0.04230896756052971, -0.14795838296413422, -0.06021726131439209, -0.36108851432800293, -0.20654213428497314, 0.2660299241542816, 0.07296367734670639, -0.015568490140140057, 0.0655154287815094, 0.37281057238578796, -0.08314768224954605, -0.016837235540151596, -0.018026750534772873, -0.27121537923812866, 0.11973089724779129, 0.10015624016523361, -0.17400486767292023, -0.14026185870170593, -0.17145280539989471, -0.30817288160324097, -0.5322505831718445, 0.1334129124879837, -0.05549691617488861, -0.1590755730867386, -0.1537928283214569, 0.1088910773396492, 0.35660287737846375, 0.17706777155399323, 0.159108504652977, 0.13826227188110352, -0.06105213984847069, -0.0826781615614891, -0.17987507581710815, 0.00573979364708066, 0.06390167027711868, -0.16897650063037872, -0.06558352708816528, -0.04803430289030075, 0.0969175472855568, -0.044855810701847076, 0.06266993284225464, 0.17033758759498596, -0.18163371086120605, 0.15812602639198303, -0.08378849923610687, 0.10756314545869827, 0.161770761013031, -0.27210748195648193, -0.034729741513729095, 0.2600683867931366, -0.04995271936058998, 0.15069010853767395, 0.012777009047567844, -0.062255170196294785, -0.3056361675262451, -0.1762123852968216, 0.2556130290031433, 0.10417953133583069, 0.0035377133172005415, 0.2353801429271698, 0.12301003187894821], [0.17498864233493805, 0.12863603234291077, -0.20636820793151855, 0.21522945165634155, -0.18096065521240234, -0.010165732353925705, -0.26997968554496765, -0.1451353132724762, -0.1896248310804367, -0.25153103470802307, 0.07392117381095886, -0.1719660609960556, 0.26215875148773193, 0.15447062253952026, 0.37257102131843567, -0.14730511605739594, -0.008138870820403099, 0.06421290338039398, 0.04420369863510132, 0.16524875164031982, -0.01643015816807747, -0.004672221839427948, 0.06270480155944824, -0.14547903835773468, -0.2651340961456299, -0.11508278548717499, -0.22526417672634125, -0.1238941103219986, -0.1280209869146347, -0.1384318768978119, 0.21966464817523956, 0.46680620312690735, 0.16746743023395538, 0.04253300651907921, -0.018677283078432083, -0.26677319407463074, -0.06027116999030113, 0.015946708619594574, 0.013514182530343533, 0.1540459394454956, -0.020877737551927567, 0.09947159886360168, 0.11051353067159653, 0.12215016782283783, -0.16421206295490265, 0.04707887023687363, -0.20296116173267365, -0.0527028888463974, 0.21710459887981415, -0.11703617870807648, -0.013318033888936043, 0.06082052364945412, 0.04346567019820213, -0.16175633668899536, 0.0552670955657959, 0.2140314131975174, -0.14613376557826996, 0.02891167812049389, 0.01620107889175415, 0.08284555375576019, -0.005777834914624691, 0.027175946161150932, 0.032855674624443054, 0.0747266635298729, 0.13931754231452942, 0.03567580506205559], [-0.11576764285564423, 0.1423165649175644, -0.20077013969421387, 0.2790769040584564, -0.13233095407485962, -0.2107211947441101, -0.10598740726709366, -0.08672381937503815, -0.30488207936286926, -0.2531580626964569, 0.20025083422660828, -0.09481042623519897, 0.13264136016368866, 0.07563669234514236, 0.3781992793083191, -0.006743724923580885, 0.04503168165683746, 0.11905315518379211, -0.23507775366306305, -0.18361812829971313, -0.20475958287715912, 0.07678178697824478, 0.04544864222407341, -0.03617330640554428, -0.2636163830757141, -0.153055801987648, -0.06883417069911957, -0.03882334753870964, 0.1601831465959549, -0.2456912100315094, -0.10958702117204666, -0.07059303671121597, 0.15743227303028107, -0.2593217194080353, 0.12789098918437958, 0.2105967253446579, 0.2312234342098236, -0.16620978713035583, 0.09959814697504044, -0.13565504550933838, -0.013541297055780888, -0.07767903059720993, -0.08519528806209564, 0.10076350718736649, 0.07378459721803665, 0.04330523684620857, 0.04004019871354103, -0.06609433144330978, -0.10316023975610733, -0.04332215338945389, 0.1642751395702362, 0.11793623119592667, 0.09906063973903656, -0.14082367718219757, 0.05948812887072563, -0.05268794670701027, -0.14536365866661072, 0.17209312319755554, -0.10644052922725677, -0.0693787932395935, 0.22933250665664673, 0.02741621807217598, 0.02165267989039421, -0.12908421456813812, -0.15847867727279663, -0.05733442306518555], [0.04011392220854759, 0.045674629509449005, 0.035279516130685806, 0.01422188337892294, 0.10216673463582993, -0.019909055903553963, 0.23179659247398376, 0.118949294090271, 0.3625175654888153, 0.09713369607925415, -0.21417367458343506, 0.16823135316371918, 0.18860752880573273, 0.07560443878173828, -0.3048878312110901, -0.25205758213996887, -0.18834605813026428, 0.08558299392461777, 0.10781355947256088, 0.028913771733641624, -0.03516877442598343, -0.10950491577386856, -0.06775625050067902, 0.2820681929588318, 0.1541406214237213, 0.34251442551612854, -0.04962167516350746, 0.0049487086944282055, -0.04927416518330574, -0.03269386291503906, -0.23575778305530548, -0.09188798815011978, -0.38212910294532776, 0.04298919066786766, -0.07368005812168121, 0.06980852037668228, 0.0433935672044754, -0.15439186990261078, 0.11564937233924866, -0.127776637673378, -0.13352586328983307, -0.01716211624443531, -0.11566175520420074, 0.0006831146311014891, 0.06494780629873276, 0.1285412609577179, 0.027139749377965927, 0.1770215630531311, 0.17925508320331573, -0.11085019260644913, -0.04946539178490639, 0.07018169015645981, 0.16293902695178986, -0.11594978719949722, -0.12103722989559174, 0.03992267698049545, 0.20514297485351562, -0.022238479927182198, -0.2419821321964264, 0.1869017779827118, -0.3877735435962677, -0.15588052570819855, 0.040926285088062286, -0.26354408264160156, -0.2715553045272827, -0.03488859906792641], [-0.08862310647964478, -0.10740576684474945, -0.04074026644229889, 0.06432143598794937, -0.05419207364320755, -0.5029116868972778, -0.08189938217401505, 0.32098832726478577, 0.04000243917107582, -0.06314891576766968, 0.023397265002131462, 0.14056502282619476, 0.06313299387693405, -0.13195602595806122, -0.1588435024023056, 0.23529580235481262, 0.043443966656923294, 0.0791485533118248, -0.09124671667814255, -0.019486049190163612, -0.06527435034513474, 0.014085215516388416, -0.019788680598139763, -0.12459807097911835, -0.08243993669748306, -0.13444292545318604, -0.016391657292842865, -0.1593334823846817, 0.039620283991098404, -7.667818863410503e-05, -0.1157354861497879, 0.0013757904525846243, 0.3133082985877991, 0.07202576100826263, 0.07461488991975784, -0.12059038877487183, -0.10166002810001373, 0.07816389203071594, 0.08908934146165848, 0.09691556543111801, -0.005181938409805298, 0.20352016389369965, -0.0040215118788182735, 0.1358315497636795, 0.009245187044143677, -0.1360795497894287, -0.07933693379163742, -0.0393793061375618, 0.01421604584902525, 0.15252342820167542, 0.02343856170773506, -0.16448113322257996, -0.2532181441783905, -0.09417597949504852, -0.010802030563354492, -0.14691974222660065, -0.24080903828144073, -0.08398187160491943, -0.06169258430600166, 0.024070635437965393, -0.30089202523231506, 0.06045066937804222, -0.0006453613168559968, -0.08903176337480545, 0.07163524627685547, 0.04307620972394943], [0.07992611825466156, 0.015266048721969128, -0.09501389414072037, -0.1401740461587906, 0.08041922748088837, 0.2404457926750183, -0.04497750848531723, 0.08224815130233765, 0.3245988190174103, 0.37408876419067383, 0.3381844758987427, 0.022196795791387558, 0.21473117172718048, 0.3743757903575897, -0.40654420852661133, 0.011038292199373245, 0.055951979011297226, -0.11099643260240555, 0.07231701910495758, 0.15192848443984985, 0.09077654778957367, 0.04768533632159233, -0.09443587064743042, -0.06880729645490646, 0.1558363437652588, 0.11719734966754913, -0.10377053171396255, 0.209701269865036, -0.13036224246025085, -0.08770865947008133, -0.17653386294841766, 0.03764815255999565, 0.12755653262138367, -0.1145496740937233, 0.013251791708171368, -0.00713933352380991, -0.1093951016664505, -0.04886187985539436, 0.0518784373998642, -0.15254461765289307, -0.1411014199256897, -0.032705917954444885, -0.020376073196530342, 0.06679224222898483, -0.12852375209331512, -0.11166271567344666, 0.0803975760936737, 0.07007652521133423, -0.06851278990507126, -0.11834761500358582, 0.3231889009475708, -0.06801460683345795, -0.10567853599786758, -0.21541637182235718, -0.03331952914595604, 0.14014914631843567, -0.14430665969848633, 0.40717899799346924, -0.05415811762213707, 0.04695376381278038, 0.08176425844430923, -0.021907005459070206, 0.0294205192476511, -0.044812049716711044, 0.08748318254947662, -0.0563482902944088], [-0.00990032497793436, 0.06515143066644669, -0.19752955436706543, -0.16024670004844666, 0.018141552805900574, 0.31256139278411865, 0.27177250385284424, 0.1643674075603485, 0.19361203908920288, 0.012352372519671917, -0.03441834822297096, -0.00567562784999609, 0.0733359232544899, 0.044718481600284576, -0.22345785796642303, 0.09379669278860092, 0.0806836187839508, 0.002799796173349023, -0.08411448448896408, -0.15193800628185272, 0.022259924560785294, 0.05912746489048004, -0.038641445338726044, 0.12042905390262604, 0.03067740984261036, -0.009307480417191982, 0.11320695281028748, 0.026440974324941635, 0.09933308511972427, 0.05399816855788231, 0.06946545839309692, 0.0683390200138092, 0.09669362008571625, 0.1032351404428482, 0.018134715035557747, -0.05221327394247055, 0.06073914095759392, -0.04819398745894432, 0.08158111572265625, 0.04153994098305702, 0.1049264520406723, -0.04809970781207085, -0.056589193642139435, 0.04759707301855087, 0.07326438277959824, 0.06969653069972992, -0.27066856622695923, -0.33195775747299194, -0.14956419169902802, 0.3331553041934967, 0.019440995529294014, 0.16027645766735077, 0.02330017276108265, -0.13791537284851074, -0.19731579720973969, 0.08331897854804993, 0.08430169522762299, 0.23789486289024353, -0.01097837369889021, 0.125489741563797, -0.18797941505908966, 0.05992710590362549, 0.11538765579462051, 0.09328149259090424, 0.12423507869243622, -0.23448996245861053], [-0.05380721390247345, 0.2026924192905426, 0.07631196081638336, 0.0010137680219486356, 0.14057324826717377, -0.1532018929719925, -0.33934977650642395, -0.1989079862833023, -0.18534331023693085, -0.1991320699453354, 0.016973383724689484, -0.043791912496089935, -0.0892617255449295, 0.1343962848186493, 0.4067378342151642, -0.018528584390878677, 0.11379183083772659, -0.13638725876808167, 0.023815438151359558, 0.003379270201548934, -0.31997373700141907, -0.20620039105415344, 0.1780082881450653, -0.2673819661140442, -0.38740330934524536, -0.16359490156173706, 0.022546865046024323, 0.24008451402187347, -0.005752969067543745, 0.029507460072636604, 0.4026235342025757, 0.06449945271015167, 0.184419184923172, -0.07173047959804535, -0.14233972132205963, 0.08477833867073059, -0.25294217467308044, 0.06856124103069305, -0.16444872319698334, -0.04367005079984665, -0.07705096900463104, 0.017784344032406807, 0.081362284719944, 0.05672604963183403, 0.04000922292470932, -0.14832833409309387, 0.005144763272255659, -0.15863728523254395, 0.19579392671585083, -0.019951658323407173, 0.2732270359992981, 0.21390067040920258, 0.1662224978208542, 0.09184814244508743, 0.021589050069451332, -0.039526935666799545, -0.2540925443172455, -0.017215672880411148, -0.023310093209147453, 0.040819741785526276, -0.08340314030647278, 0.39075377583503723, 0.13520431518554688, 0.03391392156481743, 0.13027451932430267, 0.08023848384618759], [0.04974480718374252, -0.2648954391479492, 0.07156882435083389, -0.11859309673309326, 0.1481490433216095, 0.12556038796901703, 0.2593524158000946, 0.12326954305171967, 0.23213739693164825, 0.19151298701763153, -0.040657855570316315, -0.2397584617137909, -0.0923326164484024, 0.07297550141811371, -0.2727906107902527, -0.2851938009262085, -0.20545779168605804, -0.1228242963552475, -0.21056190133094788, 0.16640354692935944, -0.19372011721134186, -0.014636228792369366, 0.1490580439567566, 0.18442869186401367, 0.10053268074989319, -0.009707007557153702, -0.0071625662967562675, 0.010607684031128883, 0.10124313831329346, 0.24882547557353973, -0.1570827066898346, -0.022015824913978577, -0.012381020002067089, -0.13783210515975952, 0.1517484188079834, 0.015624109655618668, -0.09487658739089966, 0.05903203412890434, -0.022770611569285393, -0.0721828043460846, 0.0005014797206968069, -0.025953304022550583, 0.37725895643234253, 0.05417770519852638, -0.23092380166053772, 0.08358390629291534, -0.07786064594984055, 0.20085743069648743, -0.09397974610328674, 0.18272189795970917, -0.07224471867084503, 0.03177058696746826, -0.07488059252500534, -0.03732319176197052, 0.04856947436928749, -0.10005814582109451, 0.10462681949138641, -0.07839131355285645, 0.18162067234516144, 0.13394106924533844, -0.0206497460603714, 0.2334587723016739, -0.04189988970756531, 0.03714538738131523, -0.06288810819387436, -0.006368754431605339], [-0.060466162860393524, 0.17653560638427734, -0.11508005857467651, 0.04804541543126106, -0.15148839354515076, -0.010316239669919014, -0.0505952388048172, -0.17091883718967438, 0.40399524569511414, -0.13451354205608368, -0.01744239777326584, 0.11181571334600449, 0.2769451439380646, -0.18624833226203918, -0.21728090941905975, 0.4414413571357727, 0.23984447121620178, -0.09209118038415909, 0.0010449967812746763, -0.0797022357583046, 0.0938299298286438, 0.22428245842456818, -0.13783206045627594, 0.13312314450740814, -0.09977584332227707, -0.09224654734134674, -0.1625629961490631, 0.07065297663211823, -0.07765300571918488, 0.004269986413419247, -0.18659177422523499, -0.012097788974642754, -0.23822151124477386, 0.09335781633853912, 0.01755617931485176, 0.1313258409500122, 0.023791296407580376, 0.026788851246237755, -0.03775476664304733, -0.18292628228664398, -0.0035067275166511536, 0.09908145666122437, 0.2512832283973694, -0.06410647928714752, 0.009606912732124329, 0.034678347408771515, 0.03359964117407799, -0.06788420677185059, 0.0773012563586235, -0.16441038250923157, 0.3579487204551697, 0.17020373046398163, 0.25844624638557434, -0.03324389085173607, 0.28675681352615356, 0.03893089294433594, -0.03311442583799362, 0.1151963323354721, -0.09485304355621338, 0.008380713872611523, -0.010900699533522129, -0.17884711921215057, -0.019489848986268044, -0.03800886496901512, -0.17488236725330353, 0.06287480890750885], [0.2939123213291168, 0.19672371447086334, 0.12678763270378113, 0.08112163096666336, 0.0599655881524086, -0.06374221295118332, -0.006882816087454557, 0.056155864149332047, -0.4257344901561737, -0.12836767733097076, -0.12306193262338638, 0.03640631586313248, -0.08656563609838486, 0.08223956823348999, 0.23063556849956512, 0.04874720051884651, 0.05493550002574921, 0.26801711320877075, -0.13126777112483978, 0.10665608942508698, 0.027468407526612282, 0.02316301316022873, 0.009372149594128132, 0.022637344896793365, -0.18868280947208405, -0.13119381666183472, 0.09439640492200851, -0.1461971402168274, -0.27850908041000366, -0.03244645893573761, 0.06503468006849289, 0.11284341663122177, 0.03297446668148041, -0.08596906810998917, -0.1894616335630417, -0.10732804983854294, 0.039185769855976105, 0.14660581946372986, 0.18482233583927155, -0.0669567808508873, -0.22154182195663452, -0.2449718564748764, -0.043705761432647705, -0.020714620128273964, 0.005665020551532507, -0.16966554522514343, 0.14508944749832153, -0.07734867185354233, -0.07525230944156647, 0.3188064396381378, 0.23342140018939972, -0.06413154304027557, 0.1610437035560608, 0.1183137446641922, 0.12109268456697464, 0.013665436767041683, -0.009555796161293983, 0.11422847956418991, 0.039655651897192, 0.1651163250207901, 0.11785770207643509, 0.07019951194524765, -0.17764964699745178, 0.020175520330667496, -0.18390075862407684, -0.0195446889847517], [-0.06977252662181854, -0.18567396700382233, -0.28811562061309814, 0.06931469589471817, -0.11093447357416153, 0.2380582094192505, 0.14388906955718994, 0.2325505018234253, 0.21855835616588593, 0.365888774394989, -0.16666750609874725, 0.24107739329338074, 0.0019218854140490294, 0.0519711896777153, -0.5295850038528442, 0.02773606777191162, -0.07697765529155731, 0.09616107493638992, 0.04459310322999954, 0.06395991146564484, -0.0011079693213105202, -0.042794641107320786, 0.2852034270763397, 0.047074686735868454, 0.25268980860710144, 0.11621096730232239, 0.15787367522716522, -0.24691356718540192, 0.12323499470949173, 0.09337982535362244, -0.296800822019577, -0.015701649710536003, 0.13817961513996124, 0.01776350662112236, -0.02616928331553936, 0.09720436483621597, -0.23754628002643585, -0.044843919575214386, -0.002765425480902195, -0.14851795136928558, 0.21546804904937744, -0.04567006230354309, -0.10392660647630692, 0.1305796355009079, 0.18528789281845093, 0.14226816594600677, -0.05942438915371895, -0.048890598118305206, 0.173040509223938, -0.02575397863984108, -0.08355749398469925, -0.13247238099575043, 0.03468121215701103, 0.12253023684024811, -0.251537948846817, -0.09403492510318756, 0.36726123094558716, -0.01028398796916008, 0.0792248398065567, -0.12391259521245956, 0.02863481640815735, -0.19903412461280823, -0.05315898731350899, -0.09073908627033234, -0.18114030361175537, 0.1447228193283081], [-0.24516616761684418, -0.16320087015628815, -0.1427186131477356, -0.0670262947678566, -0.34429728984832764, -0.11663824319839478, 0.4041514992713928, -0.014890434220433235, 0.32350051403045654, 0.11740029603242874, -0.04427492991089821, -0.1330445110797882, 0.2921893894672394, -0.10814260691404343, -0.2773597240447998, 0.060840904712677, 0.265118807554245, 0.15427440404891968, 0.06633643060922623, -0.2055298537015915, 0.20258986949920654, 0.12063557654619217, 0.2251325100660324, 0.07038521021604538, -0.0012499472359195352, 0.24012209475040436, 0.05753724277019501, 0.2685195207595825, -0.07012568414211273, -0.08430077135562897, -0.15584732592105865, 0.03804272785782814, -0.1354811191558838, 0.10178951919078827, 0.013705655932426453, -0.1615035980939865, -0.0990300104022026, -0.17337718605995178, 0.03278680518269539, 0.07231860607862473, -0.19736838340759277, -0.024919461458921432, -0.013514362275600433, 0.0477108508348465, 0.2418994903564453, 0.04514952003955841, -0.049964096397161484, 0.06664824485778809, -0.05437517166137695, -0.11969347298145294, -0.12166699022054672, -0.16219057142734528, 0.05346064269542694, 0.03514254465699196, 0.06281859427690506, -0.1056911051273346, -0.0673312097787857, 0.10411040484905243, 0.15147224068641663, 0.17430198192596436, 0.12230686843395233, 0.14119350910186768, 0.004752750974148512, 0.0335017628967762, -0.10456192493438721, -0.10777798295021057], [-0.04305792227387428, -0.30550745129585266, -0.16025272011756897, -0.05354449525475502, 0.0845446065068245, 0.29876425862312317, 0.41624218225479126, 0.18634618818759918, 0.25995028018951416, 0.4429018497467041, -0.14494305849075317, 0.05467700585722923, -0.14382930099964142, -0.07859080284833908, -0.36353036761283875, -0.08484836667776108, 0.015140487812459469, 0.23934170603752136, 0.04981877654790878, -0.1593678593635559, -0.08661547303199768, 0.1521558165550232, 0.030189217999577522, 0.3273925483226776, 0.24226626753807068, 0.23356756567955017, -0.10899636149406433, -0.11043721437454224, 0.33157819509506226, 0.12785018980503082, -0.3381370007991791, 0.22072850167751312, 0.02295989729464054, -0.16517674922943115, -0.04492669180035591, -0.028056040406227112, -0.15547698736190796, -0.1633870154619217, -0.0431581549346447, 0.017679842188954353, 0.025957755744457245, -0.07028413563966751, -0.08833211660385132, 0.0416780561208725, -0.009298155084252357, -0.11325147747993469, 0.04872604086995125, 0.1553727239370346, -0.09872227162122726, -0.05873957648873329, 0.09900548309087753, 0.04489505663514137, -0.03572557121515274, 0.1648256778717041, 0.06656502187252045, 0.12275594472885132, 0.14960426092147827, -0.10263970494270325, -0.20521293580532074, -0.11001620441675186, -0.3961266577243805, -0.12359435111284256, -0.06364995986223221, 0.15060436725616455, 0.27802300453186035, -0.0043902709148824215], [-0.22760821878910065, 0.08319872617721558, 0.29574325680732727, 0.030261525884270668, 0.09557471424341202, -0.33032742142677307, -0.25549718737602234, -0.24243806302547455, -0.40529119968414307, -0.08059218525886536, -0.09563430398702621, 0.1596352458000183, 0.14418429136276245, -0.012502569705247879, 0.1166076585650444, -0.11591101437807083, 0.0009234223980456591, -0.02298245020210743, 0.10819212347269058, 0.11566184461116791, -0.005277026444673538, 0.0308704674243927, -0.019435064867138863, 0.13048262894153595, -0.13165484368801117, 0.028111973777413368, -0.06748524308204651, 0.03493943437933922, -0.03555389866232872, 0.016558198258280754, -0.08872155845165253, 0.021286306902766228, 0.05937908962368965, -0.005888031795620918, 0.047964587807655334, -0.03342471271753311, 0.10397044569253922, -0.09501974284648895, 0.0959327295422554, -0.0018217473989352584, -0.030754556879401207, -0.25352489948272705, 0.051235053688287735, -0.05696196109056473, -0.012116244994103909, -0.04464799165725708, -0.09993698447942734, 0.02326318435370922, -0.05919407308101654, -0.1098046600818634, 0.12705795466899872, 0.022640783339738846, 0.08276467770338058, 0.055604103952646255, -0.2942717373371124, 0.3420100212097168, 0.05679202079772949, 0.07607836276292801, 0.044613294303417206, -0.23757527768611908, 0.029030006378889084, 0.21108202636241913, -0.1258746236562729, 0.21041271090507507, -0.03660344332456589, 0.32569998502731323]]

Nombre del Parámetro: module.0.module.0.0.bias
Pesos:
[-0.07877201586961746, -0.029184138402342796, -0.0964176282286644, -0.019490057602524757, 0.08449199795722961, -0.07405812293291092, 0.18420065939426422, 0.22407585382461548, 0.036029111593961716, -0.030164945870637894, 0.014757910743355751, -0.16298271715641022, -0.06424615532159805, -0.08006555587053299, -0.09041591733694077, 0.05014616623520851, -0.1822296679019928, -0.05188407003879547, 0.03415253385901451, 0.04742246866226196, -0.047566015273332596, 0.025326155126094818, -0.052788298577070236, -0.07440387457609177, -0.12184304744005203, -0.011747595854103565, -0.05891621857881546, -0.05189226567745209, 0.10178561508655548, -0.027195682749152184, -0.026167448610067368, -0.07978000491857529, -0.1282896250486374, -0.14404255151748657, -0.03932960703969002, -0.17983292043209076, 0.04323028400540352, -0.022620582953095436, 0.11391995847225189, 0.023779209703207016, -0.00953968707472086, 0.022300241515040398, -0.1481025069952011, -0.09244250506162643, 0.08896607905626297, 0.036491524428129196, -0.00797076616436243, 0.052226368337869644, -0.09776903688907623, -0.006931527052074671, 0.0010860427282750607, 0.04750600829720497, 0.07202780991792679, -0.029767228290438652, 0.0631311759352684, 0.11443237215280533, -0.04478282481431961, 0.05554549768567085, -0.016580622643232346, -0.16190549731254578, 0.05369134619832039, 0.08061029016971588, 0.0922279804944992, -0.03741496801376343]

Nombre del Parámetro: module.0.module.0.2.weight
Pesos:
