Nombre del Parámetro: module.0.module.0.0.weight
Pesos:
[[0.02300095185637474, -0.13011913001537323, 0.1103459969162941, 0.0016152366297319531, -0.15061751008033752, 0.10317238420248032, 0.13844069838523865, -0.04079374298453331, 0.18229646980762482, -0.07832489162683487, -0.1157262772321701, -0.20227502286434174, -0.04114600643515587, -0.05569338798522949, -0.09132477641105652, -0.11142519861459732, -0.03693133965134621, -0.052461203187704086, 0.3707903325557709, -0.030327370390295982, 0.0932716578245163, -0.0688137412071228, -0.0948171317577362, -0.19841261208057404, -0.017264509573578835, -0.17480294406414032, -0.0879935771226883, 0.10928788781166077, 0.029659418389201164, 0.0721152201294899, -0.0605391301214695, -0.2354179173707962, 0.26012077927589417, 0.0451144203543663, 0.13660578429698944, 0.11464505642652512, 0.10767866671085358, -0.09669680148363113, 0.004768220707774162, -0.14612384140491486, 0.022167492657899857, -0.07984774559736252, 0.18501383066177368, 0.2362949401140213, 0.046764813363552094, 0.0700899288058281, -0.0132939787581563, -0.2028523087501526, -0.04271358624100685, -0.09115897119045258, -0.018016904592514038, 0.0032606637105345726, -0.13213986158370972, -0.014596481807529926, 0.2646063268184662, 0.0781058594584465, -0.09077413380146027, -0.01126763317734003, 0.11149193346500397, -0.06993080675601959, 0.0668952465057373, 0.15911269187927246, -0.04548686370253563, 0.11205332726240158, 0.15849334001541138, 0.09779556095600128], [0.19441480934619904, 0.1287449300289154, 0.13398869335651398, 0.03481956571340561, 0.12739750742912292, -0.2844539284706116, 0.030512908473610878, 0.1049194261431694, 0.057993244379758835, 0.056134894490242004, -0.09134222567081451, -0.06466221809387207, 0.05682381987571716, 0.1586819440126419, 0.13473907113075256, 0.05000700801610947, 0.12528148293495178, -0.04053809493780136, 0.24131843447685242, 0.05051285773515701, 0.02957320213317871, -0.11522910743951797, -0.11001229286193848, 0.11506659537553787, 0.12775903940200806, -0.20968057215213776, 0.1153130903840065, 0.15005898475646973, -0.09467246383428574, -0.11269815266132355, -0.040722642093896866, -0.016897190362215042, -0.022079311311244965, 0.005023160483688116, -0.027942562475800514, 0.13556553423404694, -0.061657436192035675, 0.18298253417015076, -0.11280803382396698, -0.11308813095092773, 0.08457908779382706, 0.054647233337163925, 0.06702560931444168, -0.022129429504275322, -0.013482491485774517, -0.195264995098114, -0.2555752992630005, 0.14307639002799988, 0.11940179020166397, -0.11865745484828949, 0.004150908440351486, -0.020966561511158943, 0.07186342030763626, -0.08721113950014114, 0.09939917922019958, -0.20894990861415863, -0.01924900896847248, 0.07460376620292664, 0.00657303724437952, -0.18060313165187836, -0.18816930055618286, -0.13699959218502045, 0.13462235033512115, -0.11671498417854309, -0.17765790224075317, 0.17105554044246674], [-0.1567116528749466, -0.32336002588272095, 0.0198304895311594, -0.03520050272345543, 0.16757425665855408, -0.12458502501249313, -0.07519041746854782, -0.1541411578655243, 0.07439243793487549, 0.22082802653312683, -0.11159592866897583, -0.21556025743484497, -0.09867249429225922, 0.025338798761367798, 0.14740462601184845, -0.32482847571372986, -0.26527857780456543, 0.0942813977599144, 0.10051880031824112, 0.09033948928117752, -0.18652309477329254, 0.15448729693889618, 0.10096809267997742, 0.18219676613807678, 0.04102481156587601, 0.054240670055150986, -0.109202079474926, -0.06519924849271774, 0.009226338006556034, 0.010514416731894016, -0.12411889433860779, -0.04062695801258087, -0.0953688696026802, 0.05937877669930458, 0.045954734086990356, 0.08807189017534256, 0.08700435608625412, 0.04527275636792183, -0.10340841114521027, -0.06265301257371902, 0.1328827291727066, 0.03965961933135986, 0.11014403402805328, 0.1002228632569313, 0.0003529978566803038, -0.11194012314081192, 0.014522808603942394, 0.12563449144363403, 0.042845577001571655, 0.030445758253335953, 0.11247405409812927, -0.10076791793107986, 0.1670912504196167, -0.011261270381510258, -0.12674696743488312, -0.018258340656757355, -0.047143030911684036, -0.0890142023563385, -0.03676838055253029, 0.2127828150987625, 0.19346240162849426, -0.003125462681055069, 0.0592813715338707, -0.0345517098903656, -0.19472166895866394, -0.11178883910179138], [-0.06018749624490738, -0.11003287881612778, 0.011183644644916058, -0.16199269890785217, -0.026010002940893173, -0.05991354212164879, -0.25345179438591003, 0.019253188744187355, 0.07807345688343048, -0.09324976801872253, -0.1961108148097992, 0.04429785534739494, -0.03575267270207405, -0.08293614536523819, -0.2661694288253784, -0.03922705724835396, 0.05473172664642334, 0.05038321763277054, 0.02937941625714302, 0.17045244574546814, 0.0548410527408123, 0.05519083887338638, -0.1084742620587349, 0.07888428866863251, 0.18396343290805817, 0.1299348771572113, -0.05614598095417023, -0.024026477709412575, 0.004542813636362553, -0.049215711653232574, -0.24957987666130066, -0.12435660511255264, -0.2507472634315491, -0.2923668920993805, -0.17890749871730804, 0.026861587539315224, -0.05788182094693184, -0.011145723052322865, 0.3946165144443512, -0.03409463167190552, -0.188928484916687, -0.07386903464794159, -0.11152754724025726, 0.06794816255569458, -0.04231247305870056, -0.12873154878616333, 0.025033963844180107, -0.054736651480197906, 0.012647232040762901, -0.16914846003055573, 0.053055357187986374, -0.10797058045864105, -0.0889061838388443, 0.008969142101705074, -0.12318877130746841, -0.11830171197652817, 0.0166028942912817, 0.053795479238033295, 0.17937541007995605, -0.012475097551941872, -0.0028560087084770203, -0.017524871975183487, -0.03763512894511223, -0.21092426776885986, -0.285725861787796, 0.13376453518867493], [0.1668045073747635, 0.13535068929195404, 0.0897580087184906, -0.12295882403850555, 0.2620416283607483, 0.12077417969703674, 0.045014116913080215, -0.08542348444461823, -0.1430346518754959, 0.09717243164777756, 0.21538062393665314, -0.04382576048374176, 0.24359530210494995, 0.102975994348526, -0.0840577781200409, -0.1455157846212387, 0.019553611055016518, -0.04689456894993782, -0.09622602164745331, 0.03511867672204971, -0.08233068138360977, 0.08429861068725586, 0.19849765300750732, -0.11398231238126755, 0.19891875982284546, -0.1978311538696289, -0.1282971054315567, -0.11701547354459763, -0.07488977909088135, 0.08418785035610199, -0.17304635047912598, -0.04338536411523819, -0.038111522793769836, -0.10634791851043701, -0.1277436763048172, 0.18811801075935364, -0.06287559121847153, 0.023096295073628426, 0.02205779403448105, -0.03130693361163139, 0.08109704405069351, -0.060666169971227646, -0.11551813781261444, 0.016331791877746582, 0.14839676022529602, -0.07051584124565125, 0.06788525730371475, -0.11291265487670898, 0.08809690922498703, 0.04843394085764885, -0.13668884336948395, 0.12351888418197632, 0.08446650952100754, 0.08621641248464584, 0.09986776113510132, 0.01288373488932848, 0.022737083956599236, 0.06245506554841995, -0.25218117237091064, -0.11166206747293472, 0.1427227109670639, 0.07126433402299881, -0.11797209829092026, 0.19422191381454468, 0.25867408514022827, 0.20087988674640656], [0.08502016961574554, 0.020269202068448067, -0.24671106040477753, -0.13658365607261658, 0.10895281285047531, 0.05339845269918442, 0.025189640000462532, -0.03552590310573578, -0.18043732643127441, 0.10527635365724564, -0.012246379628777504, -0.029500707983970642, -0.008940274827182293, -0.18318377435207367, 0.07545579224824905, 0.07160062342882156, 0.10904233157634735, -0.009505420923233032, 0.10180386900901794, -0.07073318213224411, 0.03881784901022911, 0.09150853008031845, -0.03562603518366814, -0.12096421420574188, -0.05193823203444481, 0.12150806933641434, 0.08197624236345291, -0.02893446385860443, -0.08729821443557739, -0.02597881853580475, 0.04030661657452583, 0.004597743973135948, 0.09518950432538986, 0.19304101169109344, -0.15708434581756592, 0.32332226634025574, 0.020577432587742805, 0.06711941212415695, 0.09506184607744217, 0.03786792978644371, 0.011734869331121445, 0.006182427052408457, 0.06286647170782089, -0.026472067460417747, 0.0807378739118576, -0.10776077955961227, 0.054412126541137695, 0.05860189348459244, -0.3479631841182709, -0.2976999878883362, -0.07166837155818939, -0.29942575097084045, 0.12326888740062714, -0.12186907231807709, 0.052888162434101105, 0.11760323494672775, 0.1402607560157776, 0.13956014811992645, 0.08999565243721008, 0.1139627993106842, 0.17149442434310913, -0.18716643750667572, -0.03974810615181923, 0.054075926542282104, -0.048358626663684845, 0.03356533497571945], [-0.06651157140731812, 0.15229260921478271, -0.04624422639608383, 0.08594372123479843, 0.13049401342868805, 0.09172320365905762, -0.3255855143070221, 0.09978486597537994, 0.2473294734954834, -0.01384208258241415, 0.22017018496990204, 0.004524881485849619, -0.05150783434510231, -0.07176465541124344, -0.014872705563902855, -0.21596501767635345, 0.1321093887090683, -0.11186397075653076, 0.1575244665145874, -0.06233522668480873, 0.10276075452566147, -0.2475937157869339, 0.009262562729418278, 0.08803057670593262, -0.037974946200847626, -0.0010385673958808184, -0.2599610984325409, -0.20378035306930542, 0.33280283212661743, -0.1450911909341812, 0.07070253789424896, 0.08706873655319214, 0.047073844820261, 0.041782308369874954, 0.018826600164175034, 0.10164766013622284, -0.01778547093272209, -0.014580813236534595, 0.14579720795154572, -0.15571357309818268, 0.11521323025226593, 0.037141431123018265, 0.008379820734262466, -0.13208988308906555, 0.07838396728038788, 0.04974143207073212, 0.11388042569160461, 0.008707817643880844, 0.026484739035367966, -0.019462309777736664, -0.031255412846803665, -0.03088945895433426, -0.02189936675131321, -0.07099869847297668, 0.04613105580210686, 0.10117309540510178, 0.022268138825893402, -0.0033866283483803272, -0.15532629191875458, -0.014084036462008953, 0.10499298572540283, -0.02677301876246929, 0.29010191559791565, -0.0709838718175888, -0.006705490406602621, -0.04342721775174141], [0.03078410215675831, 0.07403415441513062, -0.13094159960746765, 0.0067763193510472775, -0.16549472510814667, 0.04042555391788483, 0.04629955813288689, -0.0474812388420105, 0.05439526215195656, -0.11708643287420273, -0.060954250395298004, 0.1880308836698532, 0.05610017478466034, 0.0858382135629654, -0.031912557780742645, -0.05711028724908829, -0.08956752717494965, 0.003151903161779046, 0.19626154005527496, 0.2201269268989563, 0.10928824543952942, 0.02008811943233013, 0.06171666458249092, 0.2146381288766861, 0.11947985738515854, -0.04693705216050148, 0.11217920482158661, 0.007892509922385216, -0.1219697818160057, 0.04948367550969124, 0.0843222364783287, -0.042592450976371765, -0.2417629063129425, 0.01473101507872343, -0.1106240451335907, 0.06668543070554733, 0.29059919714927673, -0.000197422195924446, -0.12390550225973129, 0.07849950343370438, -0.010812090709805489, -0.13403983414173126, 0.1298062652349472, -0.0294452253729105, -0.21610449254512787, 0.07173460721969604, 0.18248878419399261, -0.12713652849197388, -0.0821460708975792, 0.11975368857383728, -0.15145786106586456, 0.08915933221578598, 0.054118115454912186, -0.043319933116436005, -0.11065929383039474, 0.23006503283977509, -0.025333918631076813, -0.03598201274871826, -0.02788800187408924, -0.16731493175029755, 0.1787131130695343, -0.26570355892181396, 0.09690603613853455, 0.017350347712635994, -0.3694073557853699, 0.024584904313087463], [-0.10991313308477402, -0.1124110147356987, -0.20799915492534637, 0.013307275250554085, 0.23911143839359283, 0.0925176665186882, 0.16363860666751862, -0.11528074741363525, 0.24956654012203217, 0.067656010389328, 0.19317613542079926, 0.04828402400016785, 0.07418057322502136, 0.036570049822330475, -0.08099387586116791, 0.23788316547870636, -0.13529039919376373, -0.06786360591650009, -0.19168704748153687, 0.20248407125473022, 0.04760439693927765, 0.057831037789583206, -0.09622954577207565, 0.07580719888210297, 0.017924008890986443, 0.0008429813897237182, 0.18758133053779602, -0.10749087482690811, 0.09526056051254272, 0.009534069336950779, 0.008049577474594116, 0.006339997053146362, -0.05691756308078766, 0.04048933461308479, -0.08547063171863556, 0.00451739551499486, 0.085490882396698, -0.024740371853113174, -0.01949276216328144, 0.005485461093485355, 0.3350747227668762, -0.05486045032739639, 0.10850980132818222, 0.14286112785339355, 0.09475531429052353, -0.007999653927981853, -0.018710903823375702, -0.17921136319637299, 0.11602579057216644, -0.10153206437826157, 0.016025539487600327, -0.047107189893722534, -0.0043645440600812435, 0.17929720878601074, 0.1956779956817627, -0.12032625824213028, -0.0011280308244749904, -0.013058168813586235, 0.13178777694702148, -0.1183692142367363, -0.06847953051328659, -0.08649297058582306, 0.04421878978610039, -0.22279945015907288, 0.09996543079614639, -0.06508702784776688], [0.06600446254014969, 0.027092617005109787, -0.053450558334589005, 0.16490040719509125, 0.047253746539354324, -0.26184871792793274, 0.10511508584022522, 0.019336501136422157, 0.15407101809978485, 0.1175939068198204, 0.08597195893526077, 0.312321275472641, -0.05472917854785919, 0.09808957576751709, 0.008798165246844292, -0.19747507572174072, 0.03317440301179886, 0.09222707897424698, 0.01445181667804718, -0.1133870929479599, -0.16985806822776794, -0.08621524274349213, -0.09297164529561996, -0.26960304379463196, -0.005697666201740503, -0.10815262794494629, 0.2744614779949188, 0.023924976587295532, -0.13508929312229156, -0.01823865994811058, -0.09809791296720505, 0.10896928608417511, 0.013323763385415077, -0.04880651459097862, -0.08507334440946579, 0.020578328520059586, -0.14648696780204773, -0.19576077163219452, 0.1432315558195114, -0.1417185217142105, -0.05160927772521973, -0.19827616214752197, 0.024744804948568344, 0.04825855791568756, -0.009988092817366123, 0.05475006625056267, 0.13876862823963165, 0.12811455130577087, 0.08489833027124405, -0.21607033908367157, 0.09398353844881058, 0.16859230399131775, 0.08567766845226288, 0.058798085898160934, 0.03865036368370056, 0.1402483433485031, -0.06126469746232033, -0.19646604359149933, 0.04065384715795517, 0.044447846710681915, 0.12258167564868927, 0.057266317307949066, -0.010332677513360977, 0.08964859694242477, 0.056279256939888, -0.1748466044664383], [-0.060928065329790115, 0.20925943553447723, -0.07710111141204834, -0.0012910844525322318, 0.2322700470685959, -0.17069293558597565, -0.10387273132801056, 0.010962551459670067, 0.13689878582954407, -0.11397622525691986, -0.4286079406738281, 0.16321995854377747, -0.13811950385570526, 0.004325471352785826, 0.06316035240888596, -0.08489952981472015, -0.008278507739305496, -0.12442929297685623, 0.14532186090946198, -0.07547721266746521, 0.10722395032644272, 0.0480043888092041, -0.2030607908964157, 0.13072842359542847, -0.08186404407024384, 0.12743279337882996, -0.04345521703362465, 0.010028249584138393, -0.1303272247314453, 0.1651170551776886, 0.26247721910476685, -0.07979905605316162, -0.2881820797920227, -1.542660902487114e-05, 0.032645560801029205, -0.02776847407221794, 0.07231949269771576, 0.014508704654872417, 0.03572556748986244, 0.11450446397066116, 0.11954721808433533, -0.08820229768753052, -0.071158267557621, -0.0409214124083519, -0.034310512244701385, -0.27427786588668823, -0.10209910571575165, -0.10395143181085587, 0.17521829903125763, 0.1472143679857254, -0.12770214676856995, -0.08934716880321503, 0.19575613737106323, -0.03641115128993988, -0.0564609058201313, 0.03854430094361305, 0.12274493277072906, -0.0664309561252594, 0.03032914362847805, 0.17570523917675018, 0.03136306256055832, 0.06238174811005592, -0.16848717629909515, -0.08275705575942993, 0.13673053681850433, 0.0732983648777008], [-0.03683749958872795, 0.1640656739473343, -0.22987763583660126, 0.0013349304208531976, 0.10846706479787827, 0.01328316330909729, 0.0327301099896431, 0.03046974167227745, -0.014844317920506, -0.1923416554927826, -0.20395073294639587, 0.22852960228919983, 0.1188727468252182, -0.01616056077182293, 0.12112971395254135, 0.03434989973902702, 0.040896493941545486, 0.12292995303869247, 0.16689351201057434, -0.05125628784298897, -0.2759830057621002, -0.09798819571733475, 0.10519391298294067, 0.30521753430366516, 0.048360925167798996, 0.25717273354530334, 0.0007632826454937458, -0.18126289546489716, 0.060276202857494354, -0.10736174881458282, 0.026641009375452995, -0.05861765891313553, 0.1401250958442688, -0.16495279967784882, 0.09364623576402664, -0.012222818098962307, -0.022731561213731766, -0.034105248749256134, -0.03990761190652847, 0.07181865721940994, -0.03954555094242096, -0.07976129651069641, 0.09413763880729675, 0.18542276322841644, 0.018078556284308434, -0.027666063979268074, -0.17364293336868286, -0.030679073184728622, -0.10458040982484818, 0.018997589126229286, 0.26494649052619934, -0.05421822890639305, -0.04016467556357384, 0.05442546680569649, 0.10155963152647018, -0.19537535309791565, -0.17989304661750793, 0.0570886954665184, -0.1758437603712082, 0.004669290967285633, 0.14527471363544464, -0.018010124564170837, -0.2637175917625427, -0.06640709191560745, -0.20335200428962708, 0.03262423351407051], [0.013066963292658329, -0.12622655928134918, 0.15510199964046478, 0.16490580141544342, 0.12055221945047379, 0.15896376967430115, 0.26214471459388733, 0.05825173482298851, 0.055965740233659744, 0.08141205459833145, -0.0321836844086647, 0.2312329262495041, -0.17840135097503662, -0.2275117039680481, 0.0662471204996109, -0.10065721720457077, 0.20437167584896088, 0.015269855968654156, -0.07898986339569092, -0.034335460513830185, 0.05527162924408913, -0.08301769196987152, -0.01860925182700157, 0.16080906987190247, 0.10122617334127426, 0.15499171614646912, -0.12046384066343307, 0.09299667924642563, 0.12281159311532974, 0.031722139567136765, 0.05561957508325577, -0.14697466790676117, -0.25411784648895264, 0.13460704684257507, -0.10741959512233734, 0.23474065959453583, -0.022732075303792953, -0.08360752463340759, -0.01611023023724556, -0.06373557448387146, -0.034027036279439926, -0.15533332526683807, -0.07867315411567688, 0.17102496325969696, 0.0012093412224203348, -0.021793918684124947, -0.030470920726656914, 0.09954923391342163, 0.06467507034540176, 0.21755249798297882, -0.08568146079778671, 0.011528565548360348, -0.021045222878456116, 0.00017417289200238883, -0.08037688583135605, -0.11496420949697495, -0.22048914432525635, 0.16315844655036926, 0.059855423867702484, 0.17930716276168823, -0.19500212371349335, -0.18765275180339813, -0.11053593456745148, 0.15177273750305176, -0.2503632605075836, 0.06786016374826431], [-0.0038294903934001923, -0.09352803230285645, -0.09517668932676315, 0.10568355023860931, -0.0023849315475672483, 0.0919700637459755, -0.01946239359676838, -0.21184569597244263, -0.21741677820682526, 0.1279900223016739, -0.028135359287261963, 0.025254325941205025, -0.03952847421169281, 0.09056130796670914, 0.11728446930646896, 0.025705544278025627, 0.10888894647359848, 0.2579983174800873, 0.11336483061313629, 0.18062946200370789, -0.0469820499420166, -0.20879623293876648, -0.09722524881362915, -0.2543889880180359, 0.07072348892688751, 0.004663475789129734, -0.0718197301030159, 0.07992186397314072, -0.01521444134414196, 0.028724022209644318, 0.08217605948448181, -0.057810790836811066, 0.09309089183807373, -0.004929908085614443, 0.1512254923582077, 0.07054421305656433, -0.0419715940952301, 0.0017692522378638387, 0.19914785027503967, 0.11123137921094894, 0.22318854928016663, -0.051383938640356064, -0.12794649600982666, -0.11537214368581772, -0.08971806615591049, 0.06587760895490646, 0.20545290410518646, -0.17022250592708588, 0.2031485140323639, 0.07375363260507584, 0.06470780074596405, -0.056770142167806625, 0.0479799322783947, 0.03398663550615311, 0.06119435653090477, 0.09783519059419632, 0.07227897644042969, 0.15965817868709564, -0.09132204949855804, -0.027803592383861542, -0.14618118107318878, 0.13819265365600586, -0.14694391191005707, -0.18140925467014313, -0.08108139783143997, -0.008540415205061436], [0.08001802116632462, 0.1302238553762436, 0.24536611139774323, 0.13190166652202606, -0.07305961102247238, 0.2596956491470337, 0.04574291780591011, -0.10086631029844284, 0.12795928120613098, 0.011413735337555408, 0.024351557716727257, 0.18185806274414062, 0.0033613713458180428, -0.022034557536244392, 0.017478888854384422, -0.13024358451366425, -0.12757840752601624, -0.16884000599384308, -0.04144858568906784, 0.16958649456501007, -0.02644834667444229, 0.1284029632806778, 0.13668528199195862, -0.24352632462978363, 0.1292003095149994, -0.04470216855406761, 0.03601228818297386, 0.15675054490566254, -0.22026102244853973, -0.11409906297922134, 0.19239971041679382, 0.08395178616046906, 0.12748341262340546, -0.28234589099884033, 0.0475192628800869, 0.012346486561000347, 0.12297791987657547, -0.1411183476448059, 0.027923742309212685, -0.1375788450241089, 0.10267302393913269, 0.1308128833770752, -0.1779579073190689, -0.14842703938484192, 0.04443904012441635, 0.01786920800805092, -0.18507246673107147, -0.10524146258831024, -0.19549468159675598, -0.03335167095065117, 0.15915478765964508, -0.14258910715579987, 0.06569547951221466, -0.1056620180606842, 0.04064294695854187, -0.05876592546701431, -0.05673568695783615, -0.004331422038376331, -0.033185139298439026, 0.1571580171585083, 0.02419627457857132, -0.059895966202020645, 0.1054285392165184, -0.10580608248710632, 0.04719468951225281, -0.06104107201099396], [0.26132887601852417, 0.07854972034692764, 0.1335097849369049, -0.21410837769508362, -0.09218625724315643, -0.023837484419345856, 0.03987133502960205, -0.11965076625347137, 0.15468980371952057, -0.13658760488033295, 0.09787862747907639, -0.17458538711071014, -0.05023181438446045, -0.14233823120594025, -0.04394892230629921, -0.06642346829175949, -0.008469358086585999, 0.3777022063732147, -0.10605791211128235, -0.14391154050827026, 0.09401005506515503, -0.12594307959079742, 0.016283763572573662, -0.15244057774543762, 0.03182832896709442, 0.22424963116645813, 0.10952813923358917, 0.021702703088521957, -0.05035506933927536, 0.23757082223892212, -0.03081335313618183, 0.01134405005723238, 0.029026996344327927, 0.04835008829832077, -0.10823972523212433, -0.01910034753382206, -0.08679399639368057, -0.005483631044626236, -0.014094419777393341, -0.0860765129327774, 0.07390143722295761, 0.10137764364480972, 0.061837878078222275, -0.06072104349732399, -0.01240991149097681, -0.10256252437829971, -0.07655170559883118, -0.127714604139328, -0.043960586190223694, 0.1757306307554245, 0.17656771838665009, 0.14833413064479828, 0.1589861959218979, 0.13729871809482574, 0.20229797065258026, -0.030208086594939232, 0.11272908002138138, 0.09264035522937775, -0.06832511723041534, 0.04350624606013298, 0.0688682347536087, -0.1220015287399292, 0.22837013006210327, -0.0845155268907547, -0.02616923116147518, -0.10221894830465317], [-0.017071304842829704, 0.03289567306637764, 0.0857163667678833, -0.061205387115478516, -0.26289302110671997, -0.10649381577968597, -0.14186860620975494, -0.11873769015073776, 0.2589615285396576, 0.06691417843103409, 0.018897568807005882, -0.11854944378137589, 0.06698253750801086, -0.1330457329750061, 0.13152261078357697, -0.05682630091905594, 0.2532663345336914, -0.1460338532924652, -0.21328963339328766, 0.17564591765403748, -0.09813134372234344, -0.09259112924337387, 0.09581485390663147, -0.016817204654216766, 0.09028197824954987, -0.16720804572105408, -0.22484414279460907, 0.0037725237198174, -0.2013552039861679, 0.06472580879926682, -0.007768620271235704, 0.12779593467712402, 0.19206155836582184, 0.13194671273231506, -0.02199292555451393, -0.019656680524349213, -0.05782787501811981, -0.015402328222990036, 0.09255652129650116, 0.2415504902601242, -0.043766528367996216, 0.13664868474006653, 0.12820620834827423, 0.11800733208656311, 0.0012053610989823937, -0.06153754144906998, 0.08726201951503754, -0.16240331530570984, 0.007806312758475542, -0.10961747914552689, 0.08608505874872208, 0.0897115021944046, 0.040650758892297745, 0.09164390712976456, 0.07091349363327026, 0.03513085097074509, 0.04765991121530533, -0.16663482785224915, -0.10390055179595947, -0.03924493119120598, -0.18281663954257965, -0.25213634967803955, -0.19236475229263306, 0.193394273519516, 0.13771158456802368, -0.1106962263584137], [-0.01476401835680008, 0.05822734534740448, 0.006909803953021765, 0.1282067447900772, 0.04664699360728264, 0.12516744434833527, -0.07553708553314209, 0.0626533031463623, 0.0807967334985733, 0.06362854689359665, 0.07362113893032074, -0.4244718849658966, -0.009065059944987297, 0.0547596737742424, 0.08209014683961868, 0.1320963054895401, 0.07116112112998962, 0.19128835201263428, -0.11081704497337341, 0.3049207627773285, 0.10052233189344406, 0.014075572602450848, -0.04696483165025711, -0.16244396567344666, -0.11634079366922379, -0.12357621639966965, 0.12337664514780045, -0.11867518723011017, 0.02506353333592415, 0.049696244299411774, 0.2182072103023529, 0.09151013195514679, -0.035966578871011734, -0.04264824092388153, 0.1359815150499344, -0.07965155690908432, 0.05569395050406456, -0.14118029177188873, 0.08355154097080231, -0.09228978306055069, -0.21609318256378174, -0.1943935602903366, -0.026603711768984795, 0.05675008147954941, 0.0891493484377861, 0.10858629643917084, -0.21417458355426788, -0.08531144261360168, 0.08387071639299393, -0.23116734623908997, 0.05037524923682213, 0.14614969491958618, 0.11594585329294205, -0.02584356628358364, -0.03805156797170639, -0.054826222360134125, 0.07125146687030792, 0.1453505903482437, -0.16464863717556, 0.1016266942024231, 0.14844565093517303, 0.0010911984136328101, 0.06713222712278366, 0.36521294713020325, 0.026198668405413628, 0.038408346474170685], [0.22103668749332428, -0.10501605272293091, 0.19590133428573608, 0.2452501505613327, -0.026190586388111115, -0.1905238926410675, -0.1203911304473877, 0.051129985600709915, -0.021301189437508583, 0.036161769181489944, 0.03795671835541725, -0.08939274400472641, -0.2688347399234772, 0.010541378520429134, 0.03191308304667473, 0.17620979249477386, 0.07063755393028259, -0.12002471834421158, 0.1377517133951187, 0.013326965272426605, 0.004213161300867796, 0.07395792007446289, 0.17999973893165588, 0.01928677223622799, 0.3113860487937927, 0.1983121633529663, 0.10407363623380661, -0.21698278188705444, 0.03352001681923866, 0.05328971520066261, 0.0005056124064140022, 0.004514060914516449, -0.005182608030736446, -0.005254921969026327, 0.11180587112903595, -0.05942072346806526, -0.14448627829551697, 0.25005459785461426, 0.015120009891688824, -0.107390858232975, 0.10944169759750366, -0.09569031745195389, 0.04266062751412392, -0.029246129095554352, -0.09016589820384979, 0.18030154705047607, 0.06661749631166458, -0.17196954786777496, -0.1312207579612732, -0.04013621062040329, -0.17489109933376312, -0.004158596508204937, 0.06433097273111343, -0.030823223292827606, -0.12226933240890503, -0.10001584142446518, -0.08090214431285858, 0.021448655053973198, -0.014590461738407612, -0.06653200089931488, 0.16771471500396729, -0.01979675330221653, -0.14795544743537903, -0.06091467663645744, 0.08821263909339905, -0.12110991030931473], [0.039014194160699844, 0.12497638911008835, 0.07243020087480545, 0.08847236633300781, -0.0201176255941391, 0.11797847598791122, -0.1256425380706787, -0.17004942893981934, -0.02912209928035736, -0.04016466066241264, -0.051790669560432434, 0.007321408484131098, 0.22534921765327454, 0.11460521072149277, 0.05317075923085213, 0.009154223836958408, -0.04146001115441322, 0.09491218626499176, -0.2487638145685196, -0.02517438866198063, 0.1257837563753128, -0.13395841419696808, -0.04558278247714043, -0.03912683203816414, 0.13138101994991302, -0.1049666553735733, -0.01671011932194233, 0.20495514571666718, 0.09872525930404663, 0.18867875635623932, 0.0565180778503418, -0.04628710821270943, 0.06564904749393463, 0.2509865164756775, 0.003512496594339609, 0.00833351444453001, 0.008383991196751595, 0.19444847106933594, 0.024555139243602753, -0.1624445766210556, -0.06007346138358116, -0.24532994627952576, 0.17328646779060364, -0.03639044240117073, 0.27100372314453125, 0.11267541348934174, 0.1343720406293869, 0.06754794716835022, -0.05478104576468468, 0.010670379735529423, 0.21606217324733734, -0.11288506537675858, -0.04663362726569176, -0.08937202394008636, -0.1702158898115158, -0.17540189623832703, 0.0515492707490921, -0.32802778482437134, 0.018792584538459778, 0.021240059286355972, 0.11503884196281433, 0.028826575726270676, -0.06979535520076752, -0.09946243464946747, -0.00892118364572525, 0.12616881728172302], [0.17735224962234497, -0.12466304004192352, -0.15727995336055756, -0.00758488941937685, -0.10089199244976044, 0.17525048553943634, -0.11665629595518112, -0.05579499155282974, 0.1677469164133072, -0.1478126496076584, 0.08498195558786392, -0.024352198466658592, 0.007501373067498207, -0.27152740955352783, 0.11597364395856857, 0.08639871329069138, -0.0532100684940815, -0.1534358561038971, -0.07401825487613678, -0.17256046831607819, 0.0495496429502964, 0.09263461828231812, -0.07270950824022293, 0.012664474546909332, 0.02694816142320633, 0.02827189303934574, 0.061622586101293564, 0.04283079132437706, -0.17627455294132233, -0.177474707365036, 0.03631310164928436, -0.04610311985015869, -0.0122121786698699, -0.11577409505844116, 0.11758661270141602, 0.12173696607351303, 0.2027319222688675, 0.3454698324203491, 0.14085941016674042, 0.06756271421909332, 0.03863274306058884, -0.1280752420425415, -0.1154271811246872, 0.19395539164543152, -0.11725565791130066, -0.14095333218574524, 0.07573792338371277, 0.2659452259540558, 0.10337582975625992, 0.09792599081993103, 0.02790636569261551, 0.2449471801519394, 0.06427370011806488, -0.02558368816971779, 0.010582570917904377, -0.05492677167057991, -0.043490491807460785, -0.016416573897004128, -0.034622933715581894, -0.01632744073867798, 0.053775083273649216, 0.22774668037891388, 0.017818642780184746, 0.011406337842345238, -0.031566210091114044, -0.009678571484982967], [0.10685054212808609, -0.03430420905351639, 0.13412156701087952, -0.00039798577199690044, 0.039299748837947845, -0.023621294647455215, 0.15242968499660492, -0.06613215059041977, 0.06958150863647461, 0.05201046168804169, -0.013630786910653114, 0.005752793047577143, 0.15844711661338806, 0.023770147934556007, -0.13534730672836304, -0.06635517627000809, -0.1421995311975479, -0.028021501377224922, -0.12162569165229797, 0.005808517802506685, 0.03040780872106552, -0.21902543306350708, -0.00780878122895956, -0.16654178500175476, 0.021266421303153038, -0.12805747985839844, -0.17650026082992554, -0.4557535648345947, -0.23343569040298462, 0.07351132482290268, 0.15512563288211823, 0.14739395678043365, 0.1424398124217987, -0.030086014419794083, 0.18408599495887756, -0.17430974543094635, -0.09560008347034454, 0.143576979637146, 0.05845000967383385, 0.1337013989686966, 0.07814500480890274, -0.0823417454957962, 0.05477921664714813, -0.027443448081612587, 0.09430008381605148, 0.20670267939567566, 0.0009343468700535595, 0.22136172652244568, -0.06965011358261108, -0.022482914850115776, -0.0008451243629679084, 0.07396615296602249, -0.0040491679683327675, 0.033245999366045, 0.11723285913467407, 0.08894212543964386, 0.10113798081874847, 0.13227425515651703, 0.29414188861846924, 0.12873820960521698, -0.027565481141209602, -0.06350420415401459, 0.05375083535909653, 0.04749920964241028, -0.08986915647983551, 0.22113554179668427], [0.018978454172611237, -0.08120286464691162, 0.08991848677396774, -0.18408824503421783, -0.057112619280815125, -0.09638240933418274, 0.06629066914319992, -0.07104165852069855, -0.06531401723623276, -0.18684051930904388, 0.006668109446763992, 0.17019562423229218, -0.1531236171722412, -0.04826339706778526, -0.1367035210132599, 0.009837903082370758, 0.05686129629611969, -0.18047045171260834, 0.03232911229133606, 0.2063870131969452, -0.05035160481929779, 0.27781280875205994, -0.10623480379581451, 0.16112513840198517, -0.1617678701877594, 0.2224908173084259, -0.1082659438252449, 0.07858680933713913, 0.06549181789159775, 0.1485263556241989, 0.05570118874311447, -0.0685625970363617, -0.004128868691623211, -0.01853899471461773, 0.0473889596760273, -0.07230564951896667, -0.11709566414356232, -0.05221817269921303, 0.018829932436347008, -0.10190633684396744, 0.12207349389791489, -0.21772630512714386, 0.10315745323896408, -0.08886894583702087, -0.005725661758333445, 0.022190053015947342, 0.06465941667556763, 0.24875305593013763, -0.017242897301912308, -0.10291888564825058, -0.1511927992105484, -0.11505250632762909, 0.22400517761707306, -0.009034885093569756, 0.19226296246051788, -0.1194034069776535, 0.03175982087850571, -0.1261528879404068, -0.3436082899570465, -0.032262545078992844, -0.14431852102279663, 0.11749519407749176, 0.013594887219369411, 0.018274305388331413, -0.3180415630340576, 0.03909110650420189], [-0.11106279492378235, -0.15280377864837646, 0.2066870927810669, 0.005078286863863468, -0.12823840975761414, 0.02007627673447132, 0.040379349142313004, -0.13883797824382782, -0.09486231207847595, -0.060077860951423645, 0.12109346687793732, 0.07738368958234787, -0.15754660964012146, -0.05327777937054634, 0.036005258560180664, 0.02384716458618641, 0.13849057257175446, 0.12304200232028961, -0.01306763757020235, 0.07447827607393265, -0.010186308063566685, -0.20200665295124054, 0.04537837207317352, -0.18244002759456635, 0.1654011607170105, -0.15080054104328156, 0.14113470911979675, -0.01875273324549198, 0.23758716881275177, -0.07974646240472794, -0.00771659379824996, 0.2842272222042084, -0.06330153346061707, -0.04539927840232849, 0.030341558158397675, -0.07659449428319931, 0.00819572526961565, 0.07466000318527222, -0.07969669997692108, 0.2462901622056961, 0.025000721216201782, -0.08699340373277664, 0.025413302704691887, 0.23447588086128235, 0.19626690447330475, -0.17295579612255096, -0.222638338804245, 0.0132352439686656, -0.17416712641716003, -0.0403563566505909, -0.07100208103656769, 0.05566389113664627, -0.07561450451612473, -0.005688150878995657, 0.07625061273574829, 0.24889124929904938, 0.18854853510856628, -0.19292683899402618, -0.17455098032951355, 0.04277484118938446, 0.13213323056697845, 0.06767947226762772, 0.13153351843357086, -0.048206500709056854, 0.18803279101848602, 0.23081600666046143], [-0.2498093992471695, -0.019833071157336235, -0.07066796720027924, 0.28366684913635254, 0.18137206137180328, -0.043990328907966614, 0.038514550775289536, 0.01852833479642868, 0.012540457770228386, -0.05767979100346565, -0.17206838726997375, 0.20961228013038635, -0.04790526255965233, -0.11886437237262726, -0.20020222663879395, 0.027617713436484337, 0.05594756454229355, 0.010597484186291695, 0.11857111752033234, 0.02791753225028515, 0.2341928780078888, 0.14125707745552063, 0.16520564258098602, -0.11846975237131119, -0.016242733225226402, 0.07920417934656143, -0.0056971171870827675, -0.12600667774677277, -0.04959552735090256, 0.08759399503469467, -0.26532596349716187, -0.1758328676223755, 0.05239405483007431, 0.0195088442414999, 0.15971167385578156, 0.007253942079842091, 0.05583285540342331, 0.06740909069776535, -0.16590332984924316, -0.026488497853279114, -0.09455229341983795, 0.052303001284599304, -0.10215601325035095, 0.05458732694387436, -0.18006591498851776, -0.1046886295080185, 0.10906311869621277, 0.14692899584770203, 0.07241954654455185, 0.0678696408867836, 0.15904714167118073, -0.025954335927963257, -0.02326122485101223, -0.10993252694606781, 0.041537705808877945, -0.20335125923156738, 0.36421534419059753, -0.040944892913103104, -0.16532818973064423, -0.0970497578382492, -0.018362771719694138, -0.21343070268630981, 0.04736211523413658, 0.044166576117277145, -0.0550820417702198, -0.026613328605890274], [-0.0016151273157447577, 0.0059986901469528675, -0.22017547488212585, 0.03944205865263939, -0.15962901711463928, -0.0787028893828392, 0.17366042733192444, -0.2944776117801666, 0.166134312748909, 0.034469254314899445, -0.08448750525712967, 0.011913598515093327, -0.2222866266965866, 0.12267760187387466, 0.12014824151992798, -0.045033033937215805, 0.10882578045129776, 0.04008754715323448, -0.2094399780035019, -0.018672168254852295, 0.06962007284164429, -0.045392364263534546, -0.033118948340415955, -0.002767314435914159, -0.18804407119750977, -0.1173614040017128, -0.0937955230474472, -0.0015680361539125443, -0.08579415827989578, -0.15019671618938446, -0.19178856909275055, -0.1834382265806198, 0.06448302417993546, -0.1440550535917282, 0.04841027781367302, -0.11409782618284225, -0.10681166499853134, 0.0651632696390152, -0.03083191253244877, 0.052266232669353485, 0.07093917578458786, -0.1404784917831421, 0.028099190443754196, -0.15531934797763824, -0.009364170953631401, -0.08139549195766449, 0.025890959426760674, -0.008255071006715298, -0.12504300475120544, 0.02624388225376606, -0.012512227520346642, -0.12720824778079987, -0.013752106577157974, 0.0132676986977458, -0.25451040267944336, -0.061293140053749084, -0.18593192100524902, 0.24604204297065735, -0.16334275901317596, -0.0880715399980545, 0.09836055338382721, -0.046257134526968, 0.23403796553611755, 0.018302645534276962, 0.13199220597743988, 0.15609361231327057], [-0.027393542230129242, 0.11619231104850769, -0.003586792154237628, -0.03884304687380791, -0.3053366541862488, -0.041264597326517105, 0.07687222957611084, 0.095441535115242, -0.02013329230248928, 0.2908589541912079, -0.2250167280435562, 0.10452371835708618, 0.11521177738904953, -0.14580872654914856, 0.17189905047416687, 0.009247067384421825, -0.21637827157974243, 0.2908762991428375, -0.086935855448246, 0.048520855605602264, 0.0949099212884903, 0.18483202159404755, -0.04642847925424576, -0.04255988448858261, 0.10011088848114014, -0.07682390511035919, -0.0632278174161911, -0.12976369261741638, 0.13161469995975494, -0.15816327929496765, 0.1385369747877121, 0.024302983656525612, 0.0650748461484909, -0.051235854625701904, 0.021244635805487633, 0.024303622543811798, -0.08060089498758316, 0.1496715396642685, 0.08781258761882782, -0.13969308137893677, -0.07738129794597626, 0.011383965611457825, -0.07962367683649063, 0.15107378363609314, 0.1946483999490738, 0.03924275562167168, 0.0745050385594368, -0.0024278894998133183, 0.13970217108726501, 0.0019616996869444847, -0.2404109090566635, -0.0009505856432951987, 0.03402817249298096, -0.06994514912366867, 0.19615288078784943, 0.02945360727608204, -0.020519370213150978, -0.022695453837513924, -0.12372319400310516, -0.08065759390592575, -0.05397405847907066, -0.13240335881710052, 0.1085539236664772, -0.08253120630979538, 0.10964788496494293, -0.13639479875564575], [-0.031838081777095795, -0.042949289083480835, -0.10813629627227783, -0.1455405056476593, 0.12176593393087387, -0.012110242620110512, -0.07685661315917969, -0.13257326185703278, -0.017751796171069145, 0.08892481029033661, -0.2025800496339798, 0.12058494240045547, -0.10613938421010971, 0.025642039254307747, 0.13872164487838745, 0.16869908571243286, 0.05092864856123924, -0.1840449571609497, 0.024443162605166435, -0.19463936984539032, -0.04462673142552376, 0.2484188973903656, -0.13689491152763367, -0.015283812768757343, 0.03312597796320915, 0.09431779384613037, -0.033439651131629944, 0.0613170862197876, 0.1249203234910965, 0.054105110466480255, -0.06510090827941895, 0.13382472097873688, -0.17418092489242554, -0.1862131804227829, 0.10988806933164597, 0.004389563109725714, 0.006375056225806475, 0.04570883885025978, 0.03236747160553932, -0.3004319667816162, 0.16276612877845764, 0.1435510218143463, 0.07751061767339706, 0.036849163472652435, 0.038963817059993744, 0.1722395271062851, -0.01851552538573742, -0.07812149822711945, -0.011306904256343842, 0.10597623139619827, 0.2968922257423401, 0.14618657529354095, -0.05081275850534439, -0.05915167182683945, -0.07390978932380676, 0.2381552904844284, 0.06447036564350128, 0.013840665109455585, 0.01881873421370983, -0.09349078685045242, -0.1513783037662506, -0.17662212252616882, -0.03124942258000374, 0.1838809847831726, -0.15367966890335083, 0.22751322388648987], [0.1481177657842636, -0.13033030927181244, -0.0803028792142868, -0.07884304225444794, -0.0846857875585556, 0.020688943564891815, -0.11623714119195938, -0.03283419832587242, -0.2354675531387329, 0.14408230781555176, -0.16614481806755066, 0.03229944780468941, 0.11529120057821274, -0.34222057461738586, -0.04718761518597603, -0.018691079691052437, 0.02532939612865448, -0.1313515156507492, -0.1144682765007019, 0.08248847723007202, -0.005781643092632294, -0.1909061223268509, 0.10923659801483154, -0.1298016756772995, 0.11935823410749435, -0.2337692677974701, 0.17202222347259521, -0.11164434999227524, 0.15969087183475494, -0.040836311876773834, -0.03339562937617302, 0.09378363937139511, 0.02130231074988842, 0.030509058386087418, 0.05653369054198265, -0.03939841687679291, 0.11869927495718002, -0.2067091166973114, 0.01506891567260027, -0.04149831831455231, 0.02869526483118534, -0.13319608569145203, 0.3889690637588501, -0.3616034984588623, -0.08900130540132523, -0.09189994633197784, -0.08279816061258316, -0.007712323684245348, 0.12185200303792953, 0.03399652987718582, 0.026339193806052208, 0.15020664036273956, -0.04736051335930824, -0.043469782918691635, 0.0913730189204216, -0.1283346265554428, -0.03570645675063133, 0.06722047179937363, -0.005364349111914635, 0.10367003083229065, 0.019200807437300682, 0.050154950469732285, 0.06417617946863174, 0.05794993415474892, 0.19362284243106842, -0.05812403932213783], [-0.0017254946287721395, 0.14963769912719727, 0.015192076563835144, 0.06439019739627838, 0.09861984103918076, 0.07699804753065109, -0.03521113470196724, -0.14271028339862823, -0.19539813697338104, 0.09531620144844055, 0.1303216964006424, -0.11855390667915344, -0.3031233549118042, -0.03947298973798752, -0.03263409435749054, 0.14615538716316223, -0.23529645800590515, -0.02779342606663704, -0.01773701421916485, -0.10792578756809235, 0.010216507129371166, -0.04601302370429039, -0.10435055941343307, 0.14018677175045013, 0.051730379462242126, -0.15228328108787537, 0.030756572261452675, 0.02805754356086254, -0.11391369253396988, 0.16537292301654816, -0.011812933720648289, 0.04451616108417511, 0.24450841546058655, -0.048703882843256, 0.060640059411525726, 0.14201436936855316, -0.11610103398561478, -0.21492084860801697, 0.282705694437027, 0.2243392914533615, -0.05635729059576988, -0.016064194962382317, 0.07626323401927948, 0.14334015548229218, -0.1349499523639679, 0.11359218508005142, -0.04820872098207474, 0.012587270699441433, 0.0560327023267746, 0.032522451132535934, -0.036970023065805435, 0.14787134528160095, -0.03135184943675995, -0.17636647820472717, 0.003417828120291233, -0.0863281786441803, -0.07781624048948288, -0.16716048121452332, -0.11002291738986969, 0.06137818470597267, 0.045117542147636414, -0.2414439171552658, 0.15381014347076416, -0.13987556099891663, 0.08942334353923798, 0.06302065402269363], [0.03975636884570122, -0.05719057098031044, 0.0017090007895603776, -0.04952054098248482, 0.03053591027855873, 0.06051070615649223, 0.07726459950208664, 0.11137848347425461, 0.052745360881090164, 0.042724695056676865, -0.13701701164245605, 0.02914346195757389, -0.20474252104759216, 0.0028339610435068607, 0.0038567548617720604, 0.022874439135193825, -0.0923689603805542, -0.037972450256347656, -0.13176341354846954, -0.1362891048192978, -0.2974008023738861, -0.19535641372203827, 0.17894971370697021, 0.1265087127685547, 0.023259473964571953, 0.09673135727643967, -0.07936698198318481, 0.09692037850618362, 0.0193390641361475, -0.005365496966987848, 0.2301279604434967, -0.3459663689136505, -0.03262200579047203, -0.15384075045585632, -0.28915542364120483, -0.07254544645547867, 0.0944070890545845, 0.06898369640111923, -0.14612199366092682, -0.07037574052810669, 0.07133054733276367, -0.04681096971035004, 0.03411996364593506, 0.05270518362522125, -0.09458480030298233, 0.04592927172780037, 0.09504840523004532, -0.019942762330174446, 0.12943002581596375, -0.3044470548629761, 0.04114987328648567, 0.08379440009593964, -0.07335341721773148, -0.2260981649160385, -0.08131659775972366, 0.025597194209694862, 0.3735071122646332, 0.0849907398223877, -0.07813937962055206, -0.021757669746875763, -0.059692736715078354, 0.031070277094841003, 0.007634717971086502, -0.07161027193069458, -0.04644224792718887, 0.032503027468919754], [0.03189430758357048, -0.05668187886476517, -0.1318185031414032, -0.05858348682522774, -0.17077283561229706, -0.08119700849056244, -0.26040002703666687, -0.04858509823679924, 0.09056059271097183, 0.04661925882101059, 0.37157484889030457, 0.014940251596271992, 0.005344356410205364, -0.1381923407316208, 0.013867168687283993, -0.07795143872499466, -0.041583556681871414, 0.05671289190649986, -0.14198245108127594, 0.08216305822134018, -0.04016260802745819, -0.13152487576007843, -0.06546960026025772, -0.08704644441604614, 0.21146003901958466, -0.24277417361736298, 0.12951120734214783, 0.0609268955886364, 0.031082933768630028, 0.15720055997371674, 0.1073489636182785, 0.05613664910197258, 0.18509405851364136, -0.02365107461810112, 0.06805724650621414, -0.25945568084716797, -0.10217447578907013, -0.1744508296251297, -0.12311076372861862, -0.17678341269493103, -0.052147407084703445, 0.044067367911338806, -0.03246260806918144, 0.19116775691509247, -0.025213725864887238, 0.08588393032550812, 0.016364233568310738, 0.08453179150819778, 0.0008592776721343398, 0.15644192695617676, -0.09663704037666321, -0.26135390996932983, 0.13013646006584167, -0.0815737396478653, 0.11892981082201004, -0.053269848227500916, 0.0410485565662384, 0.18592996895313263, 0.15624596178531647, -0.04235182702541351, 0.16936607658863068, -0.07822640240192413, -0.09867353737354279, 0.1123294085264206, 0.3653324246406555, 0.2022378146648407], [0.07371953874826431, 0.07938440889120102, -0.05226092413067818, -0.13199181854724884, -0.011256582103669643, 0.2109144926071167, 0.046422529965639114, -0.20751190185546875, -0.09598033875226974, 0.12505638599395752, 0.07878772169351578, 0.013650334440171719, -0.06819861382246017, -0.15223972499370575, -0.08737821877002716, -0.0496419332921505, -0.055804066359996796, 0.17299066483974457, 0.11319082230329514, -0.13068382441997528, 0.1834801733493805, -0.12161660939455032, 0.1211768388748169, 0.049961719661951065, 0.012283125892281532, -0.2424609512090683, -0.057196132838726044, -0.06464894115924835, -0.014754384756088257, -0.052266038954257965, 0.0688047707080841, 0.09169521182775497, 0.020006561651825905, 0.11616700142621994, 0.04740819334983826, -0.23389339447021484, -0.010967106558382511, 0.0304967500269413, 0.024274930357933044, -0.25470852851867676, 0.12732771039009094, -0.0003607953549362719, -0.1604348123073578, 0.04267285764217377, -0.27320775389671326, -0.07145175337791443, -0.23527126014232635, 0.025489745661616325, -0.0016577763017266989, -0.2666078507900238, -0.02018335647881031, -0.07192572206258774, 0.03750232607126236, 0.27879297733306885, -0.20048555731773376, 0.012107999995350838, 0.015206227079033852, -0.2045770287513733, -0.00906392838805914, -0.11236283928155899, -0.08967968821525574, 0.004341612104326487, -0.18208061158657074, 0.0868758037686348, -0.03413204848766327, -0.0627676397562027], [0.01105332002043724, -0.005535089876502752, -0.024232860654592514, -0.13799694180488586, 0.11382654309272766, -0.15123745799064636, 0.12487898021936417, -0.06412435322999954, 0.0025466647930443287, 0.06355252116918564, 0.01790429651737213, 0.10506660491228104, 0.11637438088655472, -0.17177999019622803, -0.020601797848939896, 0.11322319507598877, 0.15719658136367798, -0.08166659623384476, -0.028876570984721184, -0.07609675824642181, 0.2221754789352417, 0.016167622059583664, -0.039714325219392776, 0.14835025370121002, 0.10346786677837372, 0.16785579919815063, -0.02170472778379917, -0.011216871440410614, -0.18956886231899261, -0.17306753993034363, -0.16753129661083221, -0.19818395376205444, -0.029618829488754272, 0.03521217033267021, -0.01213182881474495, -0.13409534096717834, -0.06847546249628067, -0.02774111181497574, -0.13640820980072021, 0.0821898952126503, 0.012811684980988503, 0.09205783903598785, -0.05242001265287399, 0.07079855352640152, 0.005368792451918125, 0.15856699645519257, -0.1193598061800003, -0.24980923533439636, 0.2998349368572235, -0.005492513533681631, 0.013784695416688919, -0.18450304865837097, 0.01632009632885456, -0.3668300211429596, -0.060068417340517044, 0.1322707235813141, -0.0552186518907547, -0.150466650724411, -0.05551053211092949, 0.20630472898483276, 0.09472594410181046, 0.21161296963691711, 0.09502977877855301, 0.02113979496061802, -0.3349463641643524, -0.02224687486886978], [0.10826817899942398, -0.03764709457755089, -0.1394466757774353, -0.16697555780410767, 0.12507066130638123, 0.0028893451672047377, 0.015276523306965828, 0.16787531971931458, 0.060174450278282166, -0.03617903217673302, 0.06819608062505722, 0.003843455808237195, 0.007464970462024212, 0.24314220249652863, 0.18889816105365753, -0.056945838034152985, 0.029183832928538322, 0.06071816384792328, -0.15101894736289978, 0.08164474368095398, 0.1702035665512085, -0.010379249230027199, 0.13608844578266144, -0.07293063402175903, 0.34582212567329407, 0.13364501297473907, -0.09271831810474396, 0.12329472601413727, 0.15579144656658173, -0.03377610072493553, -0.08297339826822281, -0.1274556815624237, 0.22379130125045776, 0.036569397896528244, 0.3076528012752533, -0.06864205002784729, 0.12798024713993073, -0.22427378594875336, 0.053013887256383896, 0.14251403510570526, 0.012879296205937862, -0.08735768496990204, -0.05592813715338707, -0.019789552316069603, -0.0048664771020412445, -0.06585464626550674, -0.09508012235164642, 0.13351263105869293, -0.11300339549779892, -0.1055859699845314, -0.048355501145124435, 0.14614062011241913, 0.20461353659629822, -0.03264862298965454, -0.05190866068005562, 0.1305844634771347, 0.0430777445435524, -0.057951170951128006, 0.19099926948547363, -0.05549313500523567, -0.16320979595184326, -0.03553229197859764, 0.05878430977463722, -0.008864669129252434, 0.08199513703584671, -0.06351883709430695], [-0.1989218145608902, -0.2571738064289093, 0.10027880221605301, 0.03155131638050079, -0.10031420737504959, 0.15215981006622314, -0.028628606349229813, 0.04778839647769928, 0.018038520589470863, -0.0035045091062784195, 0.30008018016815186, 0.022590674459934235, 0.16270306706428528, 0.1898380070924759, -0.02763800323009491, -0.12055229395627975, 0.17424994707107544, 0.2460162192583084, -0.025250816717743874, -0.3035777509212494, -0.006992587819695473, 0.16262750327587128, -0.25214627385139465, -0.08695976436138153, 0.09299931675195694, -0.10372515022754669, -0.0006297691725194454, -0.1800786256790161, -0.031567152589559555, -0.024931984022259712, 0.11525216698646545, 0.06678096950054169, 0.23461128771305084, -0.09524861723184586, -0.049112770706415176, -0.10085414350032806, 0.11442708224058151, 0.09835147857666016, 0.020621120929718018, -0.00030026372405700386, -0.012924863956868649, -0.05926784873008728, 0.20029254257678986, -0.18168294429779053, -0.14529414474964142, -0.10270443558692932, -0.03317442163825035, -0.21285109221935272, -0.002942722523584962, -0.11803380399942398, -0.06755971163511276, 0.08278398215770721, 0.12792915105819702, -0.13341215252876282, 0.03675011917948723, -0.12826725840568542, -0.06814379245042801, -0.06906173378229141, -0.042821113020181656, 0.11831507831811905, -0.08894593268632889, -0.15213234722614288, -0.03258289024233818, 0.062051691114902496, 0.1795111894607544, 0.12434891611337662], [-0.13874368369579315, 0.17087726294994354, 0.015613783150911331, 0.25733157992362976, -0.05518825724720955, -0.24677516520023346, -0.014313858933746815, -0.14889907836914062, -0.1455831378698349, 0.1328476220369339, -0.03841175511479378, -0.16313835978507996, 0.061723947525024414, -0.15011896193027496, -0.19033914804458618, -0.06258617341518402, -0.03603752702474594, -0.05351575091481209, -0.18217602372169495, 0.03962896764278412, -0.1313019096851349, -0.10818555951118469, -0.2034236639738083, 0.06920328736305237, -0.0038917148485779762, 0.3925820589065552, -0.01044966746121645, -0.04531783238053322, 0.029718242585659027, -0.14898979663848877, -0.012333733029663563, -0.17361120879650116, 0.0600917786359787, 0.005541665945202112, -0.02998560667037964, 0.11647796630859375, 0.22604869306087494, -0.046661823987960815, -0.07657573372125626, -0.1256665140390396, 0.10035347193479538, -0.03580896183848381, -0.18866071105003357, -0.09325087070465088, -0.052868522703647614, -0.08147764950990677, -0.1066519021987915, -0.004625406116247177, -0.11361214518547058, -0.0008713062852621078, -0.07280056923627853, 0.11189538985490799, 0.075233593583107, 0.007271763402968645, 0.044984061270952225, 0.07572992146015167, -0.08049390465021133, -0.21010582149028778, 0.09657060354948044, -0.1732230931520462, -0.006820953916758299, -0.01559672225266695, -0.025379957631230354, 0.06640547513961792, -0.05810699984431267, 0.19550821185112], [0.038020286709070206, -0.18664273619651794, -0.08435886353254318, 0.0006096221623010933, -0.009572315029799938, -0.008207851089537144, 0.04217963293194771, 0.03637925162911415, -0.0764753594994545, -0.20060646533966064, -0.06112881749868393, 0.07675311714410782, 0.14315810799598694, -0.0005018878728151321, -0.0514630563557148, 0.09383541345596313, -0.09657982736825943, 0.0649927407503128, 0.03066195361316204, 0.08311942964792252, -0.1651981621980667, -0.13052797317504883, -0.2705427408218384, 0.11436842381954193, 0.3313487470149994, -0.01681794971227646, -0.1982434242963791, 0.0864299014210701, -0.13399678468704224, 0.06876276433467865, -0.018708640709519386, 0.24770084023475647, 0.1499049961566925, 0.2278916835784912, -0.018795041367411613, 0.0544293075799942, -0.009099152870476246, 0.04084602743387222, -0.007192518096417189, -0.12768064439296722, -0.07708869874477386, -0.054406750947237015, -0.16596071422100067, -0.0520743727684021, -0.07107195258140564, 0.15745656192302704, -0.09009578824043274, -0.02161998301744461, 0.020943036302924156, -0.1208193302154541, 0.07671938836574554, -0.009854367934167385, -0.015829522162675858, 0.15831278264522552, -0.03630800172686577, 0.058649491518735886, 0.04144400358200073, 0.10186795890331268, -0.140389084815979, 0.04190390557050705, 0.05289669707417488, 0.014495749957859516, 0.3439856469631195, 0.17814520001411438, 0.35347265005111694, -0.051868461072444916], [0.2716332674026489, -0.08641314506530762, 0.024516567587852478, 0.12591105699539185, 0.14413169026374817, 0.15299411118030548, -0.11881355196237564, 0.06616522371768951, 0.007007277105003595, 0.08038041740655899, 0.024079732596874237, -0.021486302837729454, -0.05271304026246071, -0.1463664472103119, -0.17804795503616333, -0.04835072532296181, -0.011366876773536205, 0.0874447450041771, -0.12137560546398163, 0.10131082683801651, -0.009760652668774128, 0.04210091754794121, -0.19181054830551147, -0.07705733925104141, 0.038613028824329376, -0.16395923495292664, 0.029103750362992287, -0.1653839647769928, 0.010107705369591713, 0.2034890502691269, 0.10319310426712036, 0.016456905752420425, 0.24031779170036316, -0.1624748557806015, 0.01794842630624771, 0.07266127318143845, -0.060366373509168625, 0.0341794416308403, -0.3222411870956421, 0.06591944396495819, -0.25637638568878174, 0.030356932431459427, 0.11517518758773804, 0.012088208459317684, 0.11554977297782898, -0.13578742742538452, 0.0009126265649683774, -0.022676976397633553, -0.007388544734567404, -0.03549330681562424, 0.12489045411348343, -0.10910848528146744, 0.10317269712686539, 0.05491161718964577, -0.17083774507045746, 0.3493227958679199, -0.18214759230613708, -0.02382512390613556, -0.08019674569368362, -0.16750068962574005, -0.20459604263305664, 0.08610779047012329, 0.016402557492256165, -0.10757448524236679, 0.10117964446544647, -0.06766331195831299], [-0.11304392665624619, 0.14783985912799835, 0.13782437145709991, 0.0164283886551857, 0.002155242720618844, -0.050690144300460815, 0.014297278597950935, -0.0741003081202507, -0.14286012947559357, -0.3264106214046478, -0.05825053155422211, -0.152792826294899, 0.1239887923002243, 0.0013535458128899336, -0.11770523339509964, -0.2114625722169876, -0.0917416363954544, -0.05007998272776604, -0.1460675299167633, -0.07901100814342499, 0.022912373766303062, 0.05141749978065491, 0.09079919010400772, 0.04288393259048462, 0.08376090973615646, -0.1829061657190323, 0.3113826513290405, 0.009810100309550762, 0.2182716280221939, -0.13361622393131256, 0.06300768256187439, -0.11406559497117996, -0.039368920028209686, 0.01533183827996254, 0.12132801115512848, 0.08078641444444656, -0.14169205725193024, 0.08462386578321457, 0.07835223525762558, 0.08728940039873123, 0.12419018149375916, 0.025253964588046074, 0.004093043971806765, 0.1256972849369049, -0.16303718090057373, 0.1099247857928276, 0.13627400994300842, 0.012995961122214794, 0.04630425572395325, -0.1539873629808426, 0.12289822101593018, -0.15480183064937592, 0.14940384030342102, 0.006018411833792925, 0.01609743759036064, 0.18248425424098969, -0.10282774269580841, 0.16160857677459717, -0.04131230711936951, 0.15929198265075684, -0.21613290905952454, -0.06610865890979767, 0.041614681482315063, 0.11538518965244293, 0.1215621680021286, -0.0005342240910977125], [-0.15259720385074615, -0.025243395939469337, 0.08273047208786011, -0.15132786333560944, -0.012592191807925701, 0.10497444123029709, 0.12982352077960968, -0.05538893863558769, 0.043940525501966476, -0.025738798081874847, 0.0282051432877779, -0.09176453948020935, 0.004279688932001591, 0.06717696785926819, -0.05954870954155922, 0.04747909680008888, 0.29341644048690796, 0.0020170907955616713, -0.1337430626153946, 0.13130587339401245, -0.10937951505184174, -0.14518961310386658, -0.2034250944852829, 0.10120144486427307, 0.01469486765563488, -0.2481546401977539, 0.05469394847750664, -0.055747855454683304, 0.010530609637498856, 0.06242489069700241, -0.04174978286027908, -0.1413353532552719, 0.03334732726216316, -0.15397800505161285, 0.1102072224020958, 0.12695370614528656, -0.013548715971410275, 0.1451832354068756, 0.06260136514902115, -0.13394472002983093, -0.03169956058263779, 0.05713654309511185, -0.028397828340530396, -0.14517837762832642, -0.05392750725150108, 0.15164119005203247, -0.23741480708122253, 0.22482497990131378, -0.04908062890172005, 0.1398608684539795, -0.030983472242951393, 0.024928949773311615, 0.04192228615283966, -0.10019490867853165, 0.09419095516204834, 0.18387199938297272, 0.10243314504623413, -0.032595280557870865, 0.040137261152267456, -0.033466219902038574, 0.23942293226718903, -0.12297730147838593, -0.18211553990840912, -0.1032789796590805, 0.12893801927566528, -0.39250943064689636], [-0.19015806913375854, -0.004463316407054663, 0.15237978100776672, -0.10768520832061768, 0.0008327654795721173, -0.04100681096315384, -0.05097588524222374, -0.15310409665107727, 0.002511586295440793, 0.18898546695709229, -0.03654579073190689, 0.2687949240207672, -0.023741822689771652, -0.009415156207978725, 0.17991043627262115, -0.12691426277160645, 0.01557257492095232, -0.15538451075553894, 0.13670320808887482, 0.014219076372683048, 0.22835616767406464, 0.02039383538067341, -0.08488550782203674, 0.1776411086320877, -0.017263004556298256, 0.18959619104862213, 0.17011640965938568, -0.0709465816617012, -0.028413519263267517, 0.07561960071325302, 0.031076110899448395, -0.17183028161525726, -0.11032215505838394, 0.17468135058879852, -0.1303286999464035, 0.11165160685777664, 0.1547592282295227, 0.03218657150864601, -0.019751816987991333, 0.13198354840278625, -0.16281667351722717, 0.21573685109615326, -0.053627241402864456, -0.023280534893274307, -0.018096547573804855, 0.2378220558166504, -0.04493512213230133, 0.11695989221334457, -0.03857404366135597, -0.1836673766374588, 0.19201038777828217, 0.16010166704654694, 0.10624995827674866, 0.07230252772569656, -0.07911578565835953, -0.1370437890291214, 0.0044953301548957825, 0.23686829209327698, -0.0958225205540657, -0.11651119589805603, -0.020527537912130356, 0.24545323848724365, -0.055039022117853165, -0.1593261957168579, -0.009115174412727356, 0.10999657958745956], [-0.15272116661071777, 0.2809363007545471, -0.12189458310604095, 0.09331069886684418, 0.09188900142908096, 0.08996830880641937, 0.16234518587589264, -0.08227803558111191, 0.19348809123039246, -0.13464045524597168, 0.1355839967727661, -0.13788436353206635, -0.1377352476119995, -0.22507250308990479, -0.010148170404136181, 0.13282334804534912, -0.0830908790230751, 0.09185256063938141, 0.13858714699745178, 0.01644028350710869, -0.16886740922927856, 0.11079146713018417, -0.04864862561225891, -0.2102273851633072, 0.25824061036109924, -0.03908615931868553, -0.16838769614696503, 0.09795321524143219, -0.03975819796323776, -0.13004352152347565, -0.12630389630794525, -0.01952248066663742, -0.2248944491147995, 0.09560004621744156, -0.010949034243822098, -0.16904929280281067, -0.01783202774822712, 0.07840719074010849, -0.07248284667730331, 0.06744829565286636, -0.1509183794260025, 0.053121160715818405, 0.20412810146808624, -0.2587502896785736, 0.07742812484502792, 0.10378967225551605, 0.009009203873574734, 0.14651770889759064, 0.0461650975048542, -0.12164085358381271, -0.02799638733267784, 0.052015967667102814, 0.10060960799455643, -0.011621791869401932, 0.029598230496048927, 0.05157893896102905, -0.10456255078315735, 0.021562082692980766, 0.0014121627900749445, 0.08245742321014404, -0.07807527482509613, -0.0038240940775722265, -0.125960573554039, -0.12403570115566254, 0.08556417375802994, 0.048731207847595215], [-0.02366657555103302, -0.06478225439786911, 0.13928823173046112, -0.11088024079799652, 0.0810326635837555, 0.0020939288660883904, -0.08504772186279297, -0.20722639560699463, -0.018975315615534782, -0.04502329230308533, -0.04413381218910217, -0.06068580970168114, 0.02139219641685486, 0.03710992634296417, -0.07576476037502289, 0.1306530386209488, -0.009338650852441788, 0.020146284252405167, 0.09744473546743393, -0.035859592258930206, 0.07579158991575241, 0.0007549549336545169, -0.17266646027565002, -0.25431007146835327, 0.14332623779773712, -0.07729280740022659, -0.14008106291294098, 0.029303062707185745, 0.16111715137958527, -0.29248857498168945, 0.31759366393089294, -0.012591687962412834, 0.12373542040586472, -0.10833750665187836, -0.22111575305461884, -0.016810696572065353, -0.22340640425682068, -0.16410022974014282, -0.17590485513210297, 0.23528525233268738, 0.044198885560035706, -0.01530521921813488, 0.023645048961043358, 0.008448810316622257, 0.0092421043664217, 0.025944987311959267, 0.08213282376527786, 0.1212310642004013, 0.030397336930036545, 0.08316021412611008, 0.07164520770311356, 0.06825977563858032, 0.13027524948120117, 0.054985709488391876, -0.06862218677997589, -0.17735035717487335, -0.006291370838880539, -0.0413021519780159, 0.1293221414089203, -0.21099747717380524, 0.21900005638599396, -0.09558048099279404, 0.0466424822807312, 0.22349321842193604, 0.04393970966339111, -0.19342906773090363], [-0.225376158952713, -0.0628853365778923, -0.10303372144699097, 0.09820643812417984, 0.1848745048046112, 0.043793439865112305, -0.13873285055160522, -0.17168445885181427, -0.00014397784252651036, 0.12115038186311722, -0.2264774590730667, -0.0043252864852547646, 0.05389317497611046, 0.10419013351202011, -0.11452612280845642, 0.01810898818075657, 0.13186414539813995, -0.020319361239671707, 0.00047127585276030004, -0.2353750467300415, -0.0011704317294061184, -0.04795733839273453, 0.20156916975975037, 0.15330977737903595, 0.14112000167369843, 0.18675963580608368, 0.05507047474384308, 0.14375407993793488, -0.28760018944740295, -0.04056701809167862, 0.1395772248506546, -0.05437489598989487, -0.17805659770965576, -0.0905228853225708, 0.005138362757861614, -0.000423299876274541, -0.01825149916112423, -0.08746492117643356, 0.08643719553947449, -0.11434133350849152, -0.15324410796165466, 0.09251987189054489, 0.2545599043369293, 0.13657911121845245, 0.03921578451991081, 0.042943909764289856, -0.0507885217666626, 0.11926668137311935, -0.1316714584827423, 0.11835905909538269, -0.30966290831565857, -0.07730914652347565, 0.02516082301735878, 0.12736597657203674, 0.09400168061256409, 0.010562514886260033, 0.030205506831407547, 0.053270671516656876, -0.086875319480896, -0.11903084069490433, -0.17282898724079132, 0.19230535626411438, 0.16002210974693298, -0.05338846147060394, -0.19134078919887543, -0.050609949976205826], [-0.0875927284359932, -0.06143828108906746, -0.0752619281411171, 0.14350055158138275, -0.0921889916062355, 0.12184898555278778, 0.14594905078411102, 0.0022037404123693705, -0.030001197010278702, 0.029036259278655052, -0.08569664508104324, -0.16005508601665497, 0.10066189616918564, 0.10639110207557678, 0.08536333590745926, 0.22297772765159607, 0.00870461668819189, -0.15329991281032562, 0.056612152606248856, 0.10391411930322647, 0.1610468029975891, -0.18785205483436584, 0.03894612565636635, -0.06108775734901428, 0.11998893320560455, -0.08136623352766037, -0.006926985457539558, -0.09168308973312378, 0.12621042132377625, 0.26057684421539307, -0.016483958810567856, 0.06675277650356293, 0.16136248409748077, -0.09339586645364761, -0.34116607904434204, -0.260859876871109, -0.09458234161138535, 0.015123723074793816, 0.0978112518787384, -0.11220166832208633, 0.04142620787024498, 0.17601093649864197, -0.10105626285076141, 0.011065910570323467, -0.04399050399661064, -0.2693646550178528, 0.1475948542356491, 0.17022386193275452, -0.08467407524585724, -0.0517803430557251, 0.07190552353858948, 0.08314069360494614, 0.1373256891965866, -0.05828387662768364, 0.12318587303161621, 0.11163797229528427, -0.2747880220413208, -0.051544446498155594, -0.04109922796487808, 0.171888530254364, 0.07393229007720947, 0.04666634649038315, 0.04471132159233093, 0.07706785202026367, 0.1273987740278244, -0.008256682194769382], [0.13368093967437744, -0.09817048162221909, 0.07465238124132156, -0.014312812127172947, 0.20395639538764954, -0.10701704770326614, 0.017964471131563187, -0.06881347298622131, -0.16002796590328217, -0.00859459862112999, 0.039339516311883926, 0.07111256569623947, 0.1195836067199707, -0.06188593804836273, -0.12568479776382446, -0.00818685069680214, 0.09144193679094315, -0.09257584810256958, 0.2209150642156601, 0.11448327451944351, -0.07069776207208633, -0.018732141703367233, -0.13140840828418732, 0.09561903774738312, -0.17434760928153992, 0.15329743921756744, 0.03398466855287552, 0.11150191724300385, -0.12327277660369873, -0.21835805475711823, 0.09864848107099533, -0.2522820830345154, -0.11980181932449341, 0.12179116159677505, 0.12900419533252716, -0.32862523198127747, 0.12309250235557556, 0.009839510545134544, 0.14345037937164307, -0.12413870543241501, -0.006204071454703808, 0.10618145763874054, 0.026849105954170227, 0.2002745419740677, 0.21671636402606964, -0.14533308148384094, 0.16035646200180054, 0.02444722317159176, -0.07361889630556107, 0.025667475536465645, 0.011127317324280739, 0.16065950691699982, -0.06547633558511734, -0.020112575963139534, -0.20583121478557587, 0.010590971447527409, -0.019130511209368706, 0.09476227313280106, -0.13727650046348572, 0.08578962087631226, -0.032587118446826935, -0.2819746136665344, 0.011680088005959988, -0.18053744733333588, 0.029587456956505775, -0.0841914564371109], [0.10947360098361969, 0.011004691012203693, -0.03311249986290932, -0.06424463540315628, -0.25375238060951233, 0.23876456916332245, -0.13868746161460876, 0.06727013736963272, 0.17730823159217834, 0.20773424208164215, -0.14628052711486816, -0.01496769767254591, -0.04997881129384041, 0.2777373492717743, -0.2660282254219055, 0.10999801754951477, -0.08984971046447754, -0.1022326797246933, 0.1410461962223053, -0.10348974913358688, 0.011541003361344337, -0.11121316254138947, -0.13121293485164642, 0.12127478420734406, 0.060354311019182205, 0.24287408590316772, 0.21215061843395233, -0.09293791651725769, -0.08125039935112, -0.21230140328407288, -0.19024179875850677, -0.06808403879404068, -0.17635151743888855, 0.12209043651819229, 0.07040181010961533, 0.11320458352565765, -0.059989020228385925, -0.1536247879266739, -0.1678217053413391, 0.04698585718870163, 0.11137934774160385, -0.032628051936626434, -0.0728597491979599, -0.005027282517403364, 0.11782091856002808, -0.015232031233608723, 0.058863040059804916, 0.15436594188213348, 0.04967057704925537, 0.06354603916406631, 0.03365064784884453, -0.09520688652992249, 0.048566076904535294, -0.014070278964936733, -0.04228236898779869, -0.003996128682047129, 0.09620104730129242, -0.01356169767677784, -0.24320486187934875, 0.17488303780555725, -0.12589402496814728, -0.08382785320281982, -0.192241370677948, 0.019556231796741486, -0.07677638530731201, 0.036821357905864716], [0.11024852842092514, -0.0706101581454277, -0.06603401154279709, -0.013134382665157318, -0.09174240380525589, -0.13793477416038513, 0.3545500934123993, -0.20795045793056488, 0.07489559799432755, -0.05140545591711998, 0.1050489991903305, -0.05595443397760391, 0.0956716537475586, 0.07910870015621185, 0.048381224274635315, 0.0740811824798584, -0.02205597050487995, -0.15222477912902832, 0.14867740869522095, -0.05946052819490433, 0.013578676618635654, 0.03598324581980705, 0.1114526093006134, 0.1772433966398239, 0.02031562477350235, 0.1024499237537384, -0.00044072119635529816, -0.1581210494041443, 0.15245458483695984, -0.07886769622564316, 0.17366145551204681, -0.07210776209831238, -0.05007930099964142, -0.057249873876571655, 0.10201627016067505, 0.1955796331167221, -0.1067313626408577, -0.16737914085388184, 0.10948473960161209, -0.17284226417541504, -0.3954106271266937, 0.06595470756292343, 0.025704829022288322, -0.09149520844221115, -0.021807674318552017, -0.13299527764320374, 0.08456141501665115, -0.04658680036664009, 0.12014828622341156, 0.1334286630153656, 0.041130200028419495, -0.027569804340600967, 0.12528541684150696, 0.0567537285387516, -0.1436888575553894, 0.02667907066643238, 0.24166154861450195, -0.11915700137615204, 0.02258005551993847, 0.03680518642067909, -0.02615225873887539, 0.02311640977859497, -0.03356090560555458, -0.1539348065853119, 0.009185883216559887, 0.1560928374528885], [-0.006193459499627352, 0.07506713271141052, 0.11974164098501205, -0.07105186581611633, 0.044633593410253525, 0.22144904732704163, 0.035030610859394073, 0.05545947328209877, 0.08990732580423355, 0.12579157948493958, 0.08195090293884277, 0.014169013127684593, 0.15818257629871368, -0.059141453355550766, 0.04818098992109299, 0.07110921293497086, 0.006973537616431713, 0.08213105797767639, 0.11997656524181366, 0.21485203504562378, -0.2549136281013489, -0.1892917901277542, 0.06298986822366714, -0.15220366418361664, -0.19210216403007507, 0.08004589378833771, 0.11649887263774872, -0.024820521473884583, 0.044543810188770294, -0.01154528558254242, -0.06509240716695786, 0.10964106023311615, 0.011077911593019962, 0.042738862335681915, -0.007861167192459106, -0.0461697019636631, -0.10818958282470703, 0.16300353407859802, 0.17864114046096802, 0.04114420339465141, -0.036717843264341354, -0.04666745290160179, 0.13099811971187592, 0.09917232394218445, -0.2268364429473877, 0.03289848938584328, 0.0013878829777240753, -0.03879309818148613, -0.042127929627895355, 0.1666889786720276, 0.055301766842603683, -0.15219871699810028, 0.30086737871170044, -0.2118171602487564, -0.09256332367658615, -0.00667910510674119, -0.016551299020648003, -0.14272914826869965, 0.13438080251216888, -0.2142588496208191, -0.14797303080558777, 0.08872711658477783, 0.2032250314950943, 0.19976326823234558, 0.2565944194793701, 0.049646131694316864], [0.18664172291755676, -0.24568568170070648, 0.09781859815120697, 0.11335048824548721, 0.07221115380525589, -0.00586287397891283, -0.1519121527671814, -0.10324220359325409, 0.0624343603849411, 0.008319045417010784, -0.15226317942142487, 0.17184537649154663, -0.046344127506017685, 0.04533115774393082, 0.0008218379807658494, 0.15291467308998108, 0.0037881084717810154, 0.09931577742099762, 0.0921068862080574, -0.12653866410255432, -0.08143573999404907, 0.10329839587211609, 0.2208748608827591, 0.27089741826057434, -0.18413475155830383, 0.1851011961698532, -0.025286946445703506, 0.12285936623811722, 0.006919054314494133, -0.028362885117530823, 0.00889826100319624, -0.25516170263290405, -0.2357354462146759, 0.04861760511994362, 0.010181154124438763, -0.034138310700654984, 0.18341197073459625, -0.008438041433691978, 0.11852841079235077, 0.15781119465827942, -0.09706147760152817, 0.12533235549926758, -0.15655870735645294, -0.23382379114627838, 0.024074746295809746, 0.038285620510578156, -0.06233828514814377, 0.1854483187198639, 0.2818247377872467, -0.09856855124235153, 0.046672265976667404, -0.22413350641727448, -0.03698873892426491, 0.019844966009259224, 0.24687239527702332, 0.11654093861579895, -0.15301689505577087, -0.11402860283851624, 0.021789679303765297, -0.09419652819633484, 0.1317627876996994, -0.2098267674446106, -0.00473274989053607, 0.006012733560055494, -0.12209153175354004, 0.203306183218956], [0.20523439347743988, -0.006115267984569073, 0.09795214980840683, 0.1055571660399437, 0.11273778229951859, 0.15020911395549774, -0.11398299783468246, -0.18476691842079163, 0.0011923437705263495, -0.07433582842350006, -0.1578609049320221, 0.0011925047729164362, 0.16780820488929749, 0.022224929183721542, 0.19481238722801208, -0.034495193511247635, -0.0031027032528072596, -0.02871743030846119, -0.06401997059583664, 0.010148977860808372, -0.06766332685947418, -0.08210916817188263, -0.1805039793252945, -0.0262954942882061, -0.16927534341812134, 0.08257590979337692, -0.06538833677768707, 0.0431785061955452, 0.19369962811470032, -0.026807216927409172, -0.2747550904750824, 0.10440710186958313, -0.03767004236578941, -0.12419169396162033, 0.028414376080036163, 0.0032783616334199905, 0.0009168360265903175, -0.07681073993444443, -0.2595195174217224, -0.03826082497835159, -0.11869584769010544, 0.15454375743865967, -0.010498395189642906, 0.14326982200145721, -0.26310810446739197, 0.14125394821166992, 0.09917400032281876, -0.018304262310266495, 0.010649224743247032, -0.1807834953069687, -0.33503830432891846, 0.06882945448160172, 0.10357551276683807, 0.08921219408512115, 0.027395673096179962, -0.09031654894351959, 0.12244449555873871, -0.010372248478233814, 0.022639339789748192, 0.20316782593727112, 0.07862982898950577, -0.08766435831785202, -0.022057943046092987, -0.17721468210220337, -0.08644124865531921, 0.09341670572757721], [0.05171937122941017, -0.19920136034488678, -0.1464189887046814, 0.22446857392787933, 0.03346002846956253, -0.07095515727996826, -0.12620502710342407, 0.18438714742660522, -0.012608420103788376, 0.02675115503370762, 0.036047060042619705, 0.13352705538272858, 0.10374811291694641, -0.05697769299149513, 0.07878175377845764, 0.028942804783582687, -0.18841205537319183, 0.032242562621831894, 0.009876118041574955, 0.10185395181179047, 0.15462489426136017, 0.03164355456829071, -0.0438685305416584, 0.17018453776836395, -0.11474184691905975, -0.003682762151584029, -0.13090580701828003, 0.12347081303596497, -0.08329610526561737, -0.1616828292608261, 0.04318045824766159, -0.3709961473941803, -0.3049049973487854, -0.007972823455929756, -0.042113155126571655, 0.10991833359003067, -0.38344576954841614, 0.018199030309915543, 0.008799493312835693, 0.03499515354633331, 0.08415288478136063, 0.09397312998771667, 0.08586984872817993, -0.06745490431785583, -0.16048696637153625, 0.03666135296225548, -0.16125911474227905, -0.05521783605217934, -0.29987862706184387, 0.06037270277738571, 0.12769068777561188, 0.12077895551919937, -0.0022854022681713104, 0.0670468658208847, 0.10425511747598648, 0.06549940258264542, 0.14428876340389252, -0.12744052708148956, -0.07557602971792221, 0.11130379885435104, -0.040785036981105804, 0.06660491973161697, -0.08529839664697647, -0.015575279481709003, -0.09483334422111511, 0.12097936123609543], [0.023785054683685303, -0.04919206351041794, -0.07639092206954956, 0.016437409445643425, 0.016467595472931862, 0.11787533760070801, 0.15980809926986694, 0.3415296971797943, -0.09872777760028839, 0.08581122010946274, -0.19788475334644318, -0.07098235189914703, -0.1442561000585556, 0.05179169774055481, -0.01814069040119648, -0.13056091964244843, 0.2182280272245407, -0.2552137076854706, -0.17238645255565643, -0.10088083148002625, -0.03611330687999725, 0.08096134662628174, -0.0708066001534462, -0.11001074314117432, 0.040039122104644775, 0.08026296645402908, -0.030593369156122208, -0.019804945215582848, -0.030584489926695824, -0.1302032172679901, 0.09332387149333954, -0.050928082317113876, -0.16625091433525085, 0.17520879209041595, 0.02494952827692032, -0.07304660230875015, 0.019380636513233185, 0.009261174127459526, 0.04981662333011627, 0.011047692969441414, -0.05837291479110718, 0.04844643175601959, 0.02829327993094921, 0.1174488514661789, -0.19272615015506744, 0.09693075716495514, 0.02413087897002697, -0.055513788014650345, 0.07133129984140396, 0.021190650761127472, 0.13265618681907654, -0.19162431359291077, 0.10964886099100113, 0.2963353991508484, 0.04883212968707085, -0.0726068988442421, -0.0036145916674286127, -0.15135590732097626, -0.10718072950839996, -0.095594123005867, 0.27304884791374207, -0.09254471957683563, 0.11153075844049454, -0.2501218616962433, -0.11940097063779831, 0.15208260715007782], [-0.09582440555095673, -0.02410264126956463, 0.05031215399503708, 0.0864138975739479, -0.08147434145212173, 0.04647811874747276, 0.1429843306541443, 0.10405558347702026, 0.06096920743584633, 0.12812332808971405, 0.11671970784664154, 0.010055837221443653, 0.167086660861969, -0.06932444870471954, -0.17625218629837036, -0.04823918640613556, -0.10414564609527588, -0.019054602831602097, -0.0720977708697319, 0.03892621770501137, 0.13670232892036438, -0.13814802467823029, 0.010097451508045197, 0.001147604314610362, 0.012702478095889091, 0.17562973499298096, 0.00329312845133245, 0.3710503578186035, 0.046679697930812836, 0.08256972581148148, 0.054906684905290604, 0.29448381066322327, 0.17406949400901794, -0.16091498732566833, 0.21684986352920532, 0.09630387276411057, -0.17271727323532104, 0.14084245264530182, 0.04706158488988876, 0.07940700650215149, 0.09117833524942398, 0.13301505148410797, 0.23851239681243896, -0.07306152582168579, 0.018429994583129883, -0.13589148223400116, -0.03609950840473175, 0.015249554067850113, 0.2328643649816513, -0.17169269919395447, -0.05884126201272011, 0.018056698143482208, 0.004232395440340042, 0.09147140383720398, -0.17441613972187042, 0.07366876304149628, 0.030391475185751915, 0.17371106147766113, 0.00028023277991451323, -0.06857459247112274, 0.28294578194618225, -0.05901474878191948, -0.12065717577934265, 0.09095881134271622, 0.028436768800020218, 0.03237886354327202], [-0.1675282120704651, 0.11767502874135971, 0.1574328988790512, -0.12783601880073547, 0.0069861141964793205, 0.17889630794525146, -0.11110784113407135, 0.07152272760868073, 0.056940481066703796, -0.040052369236946106, 0.01013314537703991, 0.00869724527001381, -0.013555511832237244, -0.07444936782121658, 0.1453789323568344, 0.1335022747516632, 0.15444263815879822, 0.1542218178510666, -0.04965132102370262, 0.18376290798187256, -0.16360634565353394, 0.11492788791656494, 0.00826116744428873, -0.005644065327942371, 0.11395005881786346, -0.06650842726230621, 0.2056972235441208, -0.11719796806573868, -0.13999256491661072, 0.010734743438661098, 0.1187746450304985, -0.10459928959608078, 0.20469297468662262, 0.14892740547657013, 0.1640712469816208, 0.07462646812200546, -0.2213098406791687, -0.11674021929502487, -0.10698223859071732, -0.15490756928920746, 0.1286601573228836, 0.13684415817260742, 0.005524265579879284, -0.08152610063552856, -0.0959467664361, -0.2037636786699295, 0.23873482644557953, 0.07568415999412537, 0.06218923628330231, -0.03151029348373413, -0.10086990892887115, 0.12282849103212357, -0.25650858879089355, 0.12989619374275208, -0.07155531644821167, 0.07876987755298615, -0.038709644228219986, -0.07610969245433807, 0.11254582554101944, 0.06817642599344254, 0.14365644752979279, 0.09987615048885345, 0.1429256647825241, 0.04214714094996452, -0.0032586250454187393, 0.22773945331573486], [-0.018352292478084564, 0.13301962614059448, 0.029277876019477844, 0.09829585254192352, -0.16499802470207214, 0.09793934226036072, -0.07655206322669983, -0.06315390765666962, -0.14449775218963623, 0.10943096876144409, 0.03335379809141159, 0.2738736569881439, -0.06859161704778671, 0.13262169063091278, -0.06277907639741898, 0.09861624240875244, -0.11361134797334671, -0.19552423059940338, -0.002283949637785554, -0.17183084785938263, -0.24301697313785553, 0.04478995129466057, -0.10093921422958374, 0.07037217170000076, 0.03292640671133995, -0.013953030109405518, -0.14383257925510406, -0.03385922685265541, 0.10755224525928497, 0.13986262679100037, -0.08828750252723694, -0.2927652597427368, -0.2751673460006714, 0.15749922394752502, 0.22745086252689362, -0.02154547907412052, -0.03180253878235817, 0.05788372457027435, 0.013835706748068333, 0.049970611929893494, -0.0998414009809494, 0.07755202800035477, -0.0020030676387250423, 0.07379757612943649, 0.05293160304427147, -0.3128913640975952, -0.09544099867343903, -0.1632571965456009, -0.001616121269762516, -0.10893644392490387, 0.027462325990200043, -0.0074028572998940945, 0.13827620446681976, 0.011290119029581547, 0.04656523838639259, -0.0854540690779686, 0.06018573418259621, 0.14737267792224884, 0.14645975828170776, -0.005338014103472233, 0.1120750904083252, 0.07184626162052155, 0.18142196536064148, 0.07964931428432465, -0.33460357785224915, -0.17030982673168182], [0.0262977946549654, -0.04137497767806053, -0.08869615942239761, -0.09051593393087387, -0.06209345534443855, -0.002645033411681652, -0.03667198121547699, -0.07528731971979141, -0.11244012415409088, -0.1285545378923416, -0.07536017894744873, 0.12625756859779358, -0.12545081973075867, 0.2244209200143814, -0.25318408012390137, -0.002250422490760684, 0.04884115606546402, 0.10697870701551437, -0.13418817520141602, 0.1201891079545021, 0.0680195540189743, 0.021555116400122643, 0.19016852974891663, -0.037867847830057144, -0.13183613121509552, 0.08270072937011719, -0.24323175847530365, -0.009777456521987915, -0.15252943336963654, -0.1343778371810913, 0.10640127956867218, 0.1601921021938324, -0.18694564700126648, 0.1806376725435257, 0.042093776166439056, 0.21031634509563446, -0.05122556537389755, -0.004619070794433355, -0.12183254957199097, -0.16842976212501526, 0.012484624050557613, 0.14273203909397125, 0.058963578194379807, 0.1556788682937622, -0.08272197842597961, -0.04755095764994621, -0.06135978922247887, 0.01531908381730318, 0.08793454617261887, -0.09670812636613846, 0.08943364024162292, 0.20490321516990662, 0.10611283779144287, -0.3589074909687042, 0.03759664669632912, -0.0414617583155632, -0.2277275174856186, 0.04327359423041344, 0.11920180916786194, 0.011934477835893631, 0.03232143446803093, 0.05299941450357437, -0.08578386157751083, -0.1891593337059021, 0.11709665507078171, 0.07151041179895401], [0.04119164124131203, 0.03129785880446434, 0.06307948380708694, 0.14725004136562347, -0.022528013214468956, 0.12526406347751617, 0.06032417342066765, 0.03621654212474823, -0.3166239559650421, -0.2017499953508377, 0.008631286211311817, 0.01113466452807188, -0.21268533170223236, 0.03047841228544712, 0.2939916253089905, -0.14487311244010925, -0.02675035409629345, -0.012458794750273228, 0.0076159024611115456, 0.014854289591312408, 0.19230668246746063, -0.05485127493739128, -0.1525576263666153, 0.2961559295654297, 0.006511513609439135, 0.24032242596149445, -0.06324198096990585, -0.12578435242176056, -0.2633831799030304, -0.15332698822021484, -0.13189177215099335, -0.035225316882133484, -0.3045273423194885, -0.1589014083147049, -0.0009814766235649586, -0.02491314895451069, 0.08025503158569336, -0.11334224045276642, -0.010287147015333176, -0.07974186539649963, 0.032605383545160294, 0.10681333392858505, 0.20025166869163513, 0.02343934029340744, 0.12122524529695511, -0.10073091089725494, 0.1689421534538269, 0.07782521098852158, 0.12826058268547058, -0.072745680809021, 0.12626752257347107, -0.19799356162548065, -0.05217365920543671, -0.027489304542541504, 0.12328027188777924, -0.037455979734659195, 0.1294248104095459, -0.05036865547299385, 0.10709269344806671, -0.19067858159542084, -0.026497330516576767, 0.03986248001456261, -0.03741869330406189, 0.11764869093894958, -0.03373201936483383, -0.08673515170812607], [0.08966127038002014, 0.033356573432683945, 0.016246039420366287, -0.19013431668281555, 0.1828976720571518, -0.14815348386764526, 0.06469406187534332, -0.07729648798704147, 0.12955476343631744, 0.08054777979850769, 0.11760441213846207, -0.0026149072218686342, -0.09634064882993698, 0.14882132411003113, -0.01939665898680687, 0.016228336840867996, -0.17563100159168243, 0.05686371028423309, -0.18792322278022766, 0.10613749176263809, 0.044683296233415604, -0.19379018247127533, -0.1633971631526947, -0.2415875643491745, 0.13573361933231354, -0.02368089184165001, 0.03736225515604019, -0.024179859086871147, 0.13661591708660126, -0.029642613604664803, 0.167117640376091, 0.07598648220300674, -0.011270182207226753, -0.0022522283252328634, 0.15505799651145935, 0.0030207124073058367, 0.12088080495595932, 0.17107433080673218, 0.03895801678299904, 0.0017586631001904607, -0.21507136523723602, 0.18892575800418854, 0.06336907297372818, -0.046085063368082047, -0.26062050461769104, -0.10546936839818954, 0.14574240148067474, -0.03936393931508064, -0.15760982036590576, -0.01578480377793312, -0.027516009286046028, -0.12318199127912521, -0.3181847035884857, -0.04989940673112869, 0.19502581655979156, -0.06187890097498894, -0.1453132927417755, -0.0611509308218956, -0.2020299732685089, 0.045261234045028687, -0.007843537256121635, 0.06182953342795372, -0.0802934393286705, 0.2478979527950287, 0.06854734569787979, -0.07055828720331192], [-0.1308109313249588, -0.0391431525349617, -0.09851625561714172, -0.0947766825556755, -0.018371757119894028, 0.04500686377286911, -0.1881430745124817, -0.054972097277641296, -0.12275523692369461, -0.18543529510498047, 0.04725459963083267, 0.10417984426021576, -0.047248050570487976, 0.1201251894235611, 0.18796855211257935, -0.0920666828751564, -0.1714695692062378, -0.2428855001926422, 0.049526896327733994, 0.0590890571475029, 0.05345100536942482, -0.07412505149841309, 0.08314640074968338, -0.27227795124053955, -0.08943255245685577, 0.29331961274147034, 0.061102837324142456, -0.09473811089992523, -0.07969935238361359, 0.005784648936241865, -0.030531998723745346, -0.25967589020729065, 0.040432270616292953, 0.032134391367435455, -0.1500406563282013, 0.04735548794269562, -0.13863055408000946, 0.18210585415363312, -0.032461993396282196, -0.122852623462677, -0.1309799998998642, -0.10183614492416382, 0.0895509272813797, 0.031083183363080025, 0.02714059129357338, -0.0018218436744064093, -0.3025211691856384, 0.019667724147439003, 0.282343327999115, 0.01783120632171631, -0.12629614770412445, -0.016347406432032585, -0.1323702037334442, 0.1227133572101593, -0.05499475076794624, 0.11803332716226578, -0.09983305633068085, -0.04595647007226944, -0.04432842135429382, 0.03302857279777527, -0.07403574138879776, -0.23161768913269043, -0.00159943918697536, -0.009561420418322086, -0.0692395567893982, -0.02905617095530033], [0.22510598599910736, -0.02132558263838291, -0.2042580097913742, 0.20342496037483215, 0.006459693890064955, 0.15237359702587128, 0.09496671706438065, -0.13669483363628387, 0.09529737383127213, -0.09968985617160797, -0.1760677844285965, 0.002355629578232765, -0.0026413723826408386, 0.0626741424202919, -0.03310338780283928, -0.34807926416397095, 0.032291628420352936, -0.009228937327861786, 0.0010971829760819674, 0.05388449877500534, -0.08557164669036865, 0.26991406083106995, -0.10889413207769394, 0.08019664883613586, 0.06448852270841599, 0.13060572743415833, 0.13301138579845428, -0.06513156741857529, 0.12215027213096619, 0.027035249397158623, 0.0006318752421066165, -0.03154478594660759, 0.0013415690045803785, 0.22345401346683502, -0.12661738693714142, -0.14633908867835999, -0.16873383522033691, -0.01684480719268322, 0.19230297207832336, 0.11111665517091751, 0.08367855101823807, 0.25452330708503723, 0.0022961345966905355, -0.01750202663242817, 0.02363131009042263, 0.005803699605166912, -0.20161770284175873, 0.062447983771562576, 0.03994670510292053, 0.015220669098198414, -0.12365715205669403, 0.0804385244846344, -0.22176285088062286, -0.24856482446193695, -0.07227694988250732, -0.05018077418208122, 0.11850148439407349, -0.007412808947265148, -0.014397623017430305, -0.18324819207191467, 0.013032296672463417, 0.08001921325922012, -0.04915827885270119, 0.054861582815647125, -0.11524182558059692, -0.0038489943835884333], [-0.02662687376141548, -0.00397642282769084, 0.23246555030345917, 0.0904226079583168, 0.1275693029165268, 0.03439590334892273, -0.045959290117025375, -0.04533298686146736, 0.08805735409259796, -0.06257586181163788, -0.034878697246313095, 0.03482701629400253, -0.1494498997926712, 0.08086538314819336, 0.0057929567992687225, 0.11471284180879593, -0.17155243456363678, -0.014639919623732567, -0.19257690012454987, 0.07220352441072464, 0.02571061998605728, 0.05702502280473709, 0.008341235108673573, 0.06743884831666946, -0.011121858842670918, -0.13938955962657928, 0.02212882600724697, 0.025930313393473625, -0.0076056276448071, -0.3430511951446533, -0.13903537392616272, 0.1735905259847641, 0.3867237865924835, 0.24193578958511353, -0.19231313467025757, -0.09717965871095657, 0.030412109568715096, 0.028863508254289627, 0.14114582538604736, -0.1246224045753479, -0.14363284409046173, -0.11974038183689117, 0.08217573910951614, -0.049790140241384506, -0.05189259722828865, -0.1342395544052124, -0.027456149458885193, -0.1320241093635559, 0.007092087529599667, 0.16847790777683258, 0.02673974446952343, 0.006327534094452858, 0.11265011876821518, 0.03789905458688736, 0.09608923643827438, 0.19943705201148987, 0.16958945989608765, 0.2207929790019989, 0.030731458216905594, 0.015835413709282875, 0.016103915870189667, 0.07394251972436905, -0.17003439366817474, 0.04653383791446686, -0.027936598286032677, 0.013771881349384785], [0.038752444088459015, 0.15569455921649933, 0.13164545595645905, 0.042411379516124725, -0.09170838445425034, -0.005578783806413412, -0.021528825163841248, -0.12464022636413574, 0.00859869085252285, 0.23369097709655762, 0.18099045753479004, -0.15778008103370667, 0.2201962172985077, 0.05642218887805939, 0.05895906314253807, -0.017086436972022057, 0.08747736364603043, -0.03764350712299347, 0.03868912160396576, 0.01749631203711033, 0.010531102307140827, 0.21381829679012299, -0.029302963986992836, -0.047013361006975174, 0.06400231271982193, 0.08552820235490799, -0.14703403413295746, 0.005785923916846514, 0.02165844850242138, 0.061750367283821106, 0.06904847919940948, 0.1400553584098816, -0.01774207502603531, 0.03244868293404579, -0.05120138078927994, -0.0766412541270256, -0.06713221222162247, -0.09147967398166656, -0.07711076736450195, 0.033850714564323425, -0.005973104387521744, -0.374133825302124, 0.05304384231567383, 0.10586681962013245, -0.3448010981082916, -0.12246345728635788, -0.07711413502693176, 0.17032089829444885, 0.014211755245923996, 0.014676486141979694, 0.1786782294511795, -0.09678132086992264, -0.3351776897907257, -0.06745105981826782, 0.11352381855249405, 0.20514535903930664, 0.04943102225661278, 0.18144269287586212, 0.0186100322753191, 0.00956222228705883, 0.01554176863282919, 3.956351429224014e-05, 0.04525971785187721, -0.14694200456142426, 0.17094989120960236, -0.08704489469528198]]

Nombre del Parámetro: module.0.module.0.0.bias
Pesos:
[0.009600046090781689, -0.010281939059495926, -0.013919128105044365, -0.008694564923644066, -0.0071510449051856995, -0.03237006813287735, 0.00887036882340908, -0.006487034726887941, 0.0008791268337517977, 0.005346263758838177, -0.0014262114418670535, -0.007179717067629099, -0.0043388474732637405, 0.008974967524409294, 0.032341375946998596, 0.012434457428753376, 0.018637605011463165, 0.015788011252880096, 0.011703474447131157, 0.014000803232192993, -0.01371284294873476, 0.006794114597141743, -0.008701708167791367, 0.011705269105732441, -0.008517494425177574, 0.015247354283928871, 0.00755331851541996, -0.011678922921419144, 0.0061990050598979, 0.005455831531435251, -0.006479557603597641, 0.010874232277274132, 0.014384829439222813, 0.0026441377121955156, 0.010605898685753345, 0.004176716785877943, -0.012116740457713604, 0.0039334408938884735, 0.011194337159395218, -0.0009091920219361782, 0.007688002660870552, -0.007835954427719116, -0.021086502820253372, 0.008694850839674473, -0.0013741414295509458, 0.004238332621753216, -0.01872609555721283, -0.0005611897213384509, -0.006766610778868198, 0.004570252727717161, 0.0030801713000983, 0.011581196449697018, -0.0018519316799938679, -0.009145038202404976, 0.0028148251585662365, -0.0020036580972373486, 0.0129212262108922, 0.018054096028208733, -0.010991554707288742, 0.004874546080827713, -0.00573525857180357, -0.011081281118094921, 0.009190583601593971, 0.00961226038634777]

Nombre del Parámetro: module.0.module.0.2.weight
Pesos:
