Nombre del Parámetro: module.0.module.0.0.weight
Pesos:
[[-0.11105284094810486, 0.019258597865700722, 0.1571258306503296, -0.15408523380756378, 0.06904198974370956, 0.17520661652088165, -0.23478783667087555, 0.10570801794528961, -0.11094911396503448, -0.1853601485490799, 0.01149474922567606, -0.09712080657482147, 0.09716401249170303, 0.03668168932199478, 0.0078101493418216705, -0.010970058850944042, -0.03488367050886154, -0.09630202502012253, 0.029953347519040108, 0.1031384989619255, -0.11632394045591354, 0.11941315233707428, -0.09626487642526627, -0.014893967658281326, -0.14109283685684204, 0.06720126420259476, 0.16127128899097443, -0.1675962507724762, 0.12030207365751266, 0.0250735841691494, 0.19047528505325317, 0.03733387589454651, -0.0746702030301094, 0.3061302900314331, -0.16972050070762634, -0.09639009833335876, -0.057125844061374664, -0.022907603532075882, -0.07034297287464142, -0.14191530644893646, -0.1201445609331131, 0.043585121631622314, 0.028771638870239258, 0.3464822769165039, 0.12810038030147552, 0.2532912790775299, 0.08261481672525406, -0.047293663024902344, 0.02587597630918026, -0.10884811729192734, 0.03265098109841347, 0.2893155813217163, 0.032982151955366135, -0.055907778441905975, 0.021058110520243645, 0.005770143121480942, -0.08428074419498444, 0.06394729763269424, -0.2616870403289795, -0.07022767513990402, -0.1272469162940979, -0.3066691756248474, 0.1055012047290802, 0.16927947103977203, 0.05779365077614784, 0.12318501621484756], [0.43704667687416077, 0.1674860268831253, -0.25406402349472046, -0.13926154375076294, 0.20935817062854767, 0.21016542613506317, 0.09399525821208954, 0.04351615905761719, 0.1511937975883484, 0.16858786344528198, -0.14073646068572998, 0.19864654541015625, 0.031041579321026802, 0.08351574838161469, -0.13687068223953247, 0.0017228217329829931, -0.049041736871004105, -0.09962461143732071, -0.014589990489184856, -0.1322942078113556, 0.04329993575811386, 0.00992762204259634, 0.1302378922700882, 0.056977279484272, 0.07857628166675568, 0.11768466979265213, 0.028263352811336517, 0.10834028571844101, -0.09119070321321487, -0.23316974937915802, -0.41665413975715637, -0.21080395579338074, -0.17887642979621887, 0.005413524340838194, -0.0721713975071907, 0.06770969182252884, 0.022276761010289192, 0.051594074815511703, 0.11596255004405975, -0.10250020027160645, 0.07355829328298569, -0.03214988484978676, 0.18388324975967407, 0.08045807480812073, 0.12579523026943207, -0.16101861000061035, 0.23237645626068115, 0.016495583578944206, 0.03404812514781952, 0.14565983414649963, -0.02976050041615963, -0.07297540456056595, -0.09701047092676163, 0.13579533994197845, -0.20144912600517273, -0.07264304906129837, 0.14247789978981018, -0.26707693934440613, -0.37683916091918945, 0.09277120232582092, 0.033715397119522095, -0.1923321634531021, 0.027296660467982292, -0.14430329203605652, -0.1608251929283142, -0.049432557076215744], [0.05087801069021225, 0.15099607408046722, 0.1893475353717804, 0.024109678342938423, -0.1472756415605545, 0.21674807369709015, -0.17536096274852753, 0.0014562975848093629, -0.12081543356180191, -0.15290296077728271, 0.12068885564804077, 0.007981112226843834, 0.11297674477100372, 0.4559996724128723, -0.07882025092840195, 0.12369661778211594, 0.1363605111837387, 0.11173062026500702, 0.07092853635549545, -0.08669476956129074, -0.0987539142370224, -0.27506527304649353, -0.057791341096162796, -0.1217644065618515, -0.31926360726356506, 0.007420147769153118, -0.06628715991973877, -0.07798372954130173, -0.040220946073532104, 0.12517401576042175, 0.2463092803955078, 0.018495840951800346, -0.1283567249774933, -0.06687398999929428, -0.0015615992015227675, -0.049036361277103424, -0.023391639813780785, 0.11079091578722, -0.004939231090247631, 0.029545338824391365, -0.01712324284017086, -0.2826864719390869, 0.10164929926395416, -0.05000505596399307, -0.03681185841560364, 0.02061965875327587, -0.05198482424020767, 0.005394901614636183, 0.056455470621585846, -0.20805123448371887, -0.008600685745477676, 0.02118135802447796, -0.10474135726690292, -0.0758998766541481, -0.17711688578128815, -0.14799237251281738, -0.13897408545017242, 0.08309420943260193, 0.25398877263069153, -0.11973220109939575, 0.027821704745292664, 0.08125222474336624, 0.06826715171337128, -0.08357743173837662, -0.051641322672367096, 0.02798125147819519], [0.036215364933013916, 0.02573554217815399, 0.03646877780556679, -0.11327935755252838, 0.07483237981796265, -0.044866278767585754, 0.00394739443436265, 0.2010505199432373, 0.20647284388542175, 0.14505888521671295, -0.20797856152057648, 0.12057885527610779, -0.0440535694360733, -0.036034323275089264, -0.1319827288389206, 0.005078390706330538, 0.172615647315979, 0.2541581988334656, -0.10230841487646103, -0.26650041341781616, 0.21761611104011536, 0.057932935655117035, 0.03424059599637985, 0.12302905321121216, -0.07503661513328552, 0.040868423879146576, -0.21265406906604767, 0.07304109632968903, 0.11090943217277527, -0.23609136044979095, -0.1874786764383316, 0.010046751238405704, -0.048313602805137634, 0.022526603192090988, 0.032151415944099426, -0.28564760088920593, 0.05141671746969223, -0.0020734246354550123, 0.2927062511444092, -0.05284677445888519, -0.06355784833431244, -0.15533439815044403, -0.011850244365632534, 0.06248224526643753, 0.061824847012758255, 0.08086826652288437, 0.043588265776634216, -0.051735300570726395, 0.12154191732406616, 0.2237221896648407, 0.10909339040517807, 0.05245504155755043, 0.18949218094348907, 0.0037633972242474556, -0.02574092149734497, 0.129803866147995, -0.03087134100496769, 0.09933476150035858, 0.14630566537380219, -0.13248954713344574, -0.2257070243358612, 0.13933080434799194, 0.11370986700057983, -0.12172242999076843, -0.040472306311130524, -0.20078134536743164], [0.19627633690834045, -0.3917236626148224, 0.1108349859714508, -0.015057781711220741, -0.32539811730384827, 0.08813315629959106, 0.0575665719807148, -0.020374326035380363, 0.09443686157464981, -0.03931174427270889, 0.013095924630761147, 0.1112503930926323, -0.14614208042621613, 0.12245558947324753, -0.018408292904496193, -0.013018527068197727, 0.14204874634742737, -0.1410483568906784, -0.02779521979391575, 0.19731606543064117, -0.10568904131650925, -0.013953370042145252, -0.047853805124759674, 0.05962415412068367, -0.06255343556404114, 0.052441999316215515, -0.030468331649899483, -0.029556654393672943, -0.04682043939828873, 0.0971696674823761, 0.06900159269571304, 0.05589862912893295, 0.1081441193819046, 0.26319682598114014, -0.08809340000152588, 0.1104167252779007, 0.22440069913864136, 0.18473251163959503, 0.22382576763629913, -0.012862848117947578, 0.005737592000514269, -0.005306292325258255, 0.03577049449086189, 0.027348017320036888, -0.15552949905395508, -0.030883310362696648, 0.16696226596832275, -0.24408374726772308, -0.28720784187316895, 0.06784462928771973, 0.23176945745944977, 0.04811232537031174, 0.022369882091879845, 0.12915381789207458, 0.05149758607149124, -0.05195700749754906, 0.09823679178953171, 0.04923732206225395, 0.04323279485106468, 0.1315470039844513, 0.011336679570376873, -0.03293452039361, 0.07858747243881226, -0.11030226945877075, 0.1914248764514923, -0.01770576275885105], [0.03171900287270546, 0.17717155814170837, 0.3045896291732788, -0.1610575169324875, 0.05056894198060036, -0.13472376763820648, -0.14628763496875763, -0.1663675606250763, -0.11421262472867966, -0.01347940694540739, 0.08776240050792694, 0.14949285984039307, -0.10956533998250961, -0.16983138024806976, -0.013657967559993267, -0.07324051111936569, 0.1747100055217743, 0.04174262657761574, -0.10734298080205917, 0.26551002264022827, 0.11987479031085968, -0.1307700276374817, -0.12232128530740738, -0.09465627372264862, -0.21326285600662231, -0.05365118384361267, -0.19029323756694794, 0.01776987686753273, 0.059749163687229156, 0.22476880252361298, 0.09067361801862717, 0.033509835600852966, -0.06905515491962433, -0.022447500377893448, 0.22845853865146637, -0.04383302479982376, -0.06966450065374374, 0.012590156868100166, -0.027132708579301834, -0.03904731199145317, 0.011946937069296837, -0.092817522585392, -0.09541568160057068, -0.061289552599191666, -0.2691245377063751, 0.012426578439772129, -0.0223864559084177, 0.07257499545812607, -0.20438900589942932, -0.1596055030822754, -0.04378136247396469, 0.28578177094459534, -0.16800250113010406, 0.10319194942712784, -0.04647950083017349, 0.0904938206076622, -0.13014595210552216, -0.15781576931476593, -0.20748303830623627, -0.10681802034378052, -0.0291352067142725, 0.15391911566257477, -0.0184970460832119, 0.268169105052948, -0.06192943826317787, 0.04977753013372421], [-0.16076625883579254, -0.16604189574718475, -0.23264972865581512, -0.07780298590660095, 0.045195307582616806, 0.012492645531892776, 0.2340577095746994, -0.08758503943681717, -0.16111022233963013, -0.11130530387163162, -0.056202422827482224, 0.007032135967165232, -0.07824918627738953, -0.2692331373691559, -0.2826784551143646, 0.39146119356155396, -0.03833489865064621, 0.07784491777420044, 0.0688304454088211, -0.04930909723043442, -0.25672370195388794, -0.17966707050800323, 0.08838661015033722, 0.2871611714363098, -0.0712614580988884, 0.18860766291618347, 0.023281197994947433, 0.0786588117480278, 0.04065144062042236, -0.18726162612438202, -0.1380167156457901, 0.06017443537712097, -0.23702257871627808, 0.13050097227096558, 0.1049526035785675, -0.02326042391359806, 0.049857936799526215, -0.08461812138557434, 0.13001024723052979, -0.053966913372278214, 0.10071438550949097, -0.07250957936048508, 0.0479191355407238, -0.05435112118721008, 0.09647607058286667, 0.14347167313098907, -0.05631455034017563, 0.10425010323524475, 0.023492226377129555, 0.06455875188112259, -0.015195491723716259, -0.046655621379613876, 0.05844857171177864, 0.1662788689136505, 0.10659225285053253, -0.019328350201249123, -0.024116260930895805, -0.09700656682252884, -0.013728060759603977, 0.08101530373096466, -0.09962538629770279, 0.0901586264371872, -0.2509360611438751, -0.03728828951716423, -0.13498449325561523, -0.030500490218400955], [0.2232050746679306, -0.018582122400403023, 0.1702355146408081, -0.0035330087412148714, -0.017624523490667343, -0.12565326690673828, -0.16329902410507202, 0.13666202127933502, -0.2839975953102112, -0.08399997651576996, 0.4216289222240448, -0.32301586866378784, 0.059664249420166016, -0.03336414694786072, 0.09728402644395828, -0.08705931156873703, 0.08968763053417206, 0.09568783640861511, 0.03938668221235275, -0.0835607498884201, -0.1846380978822708, -0.13095393776893616, -0.16789986193180084, -0.20086482167243958, 0.18466615676879883, -0.08996253460645676, 0.1850803941488266, 0.015767566859722137, 0.02280425652861595, -0.172196164727211, 0.02539783902466297, -0.019571812823414803, 0.11237521469593048, -0.02524055540561676, -0.07470935583114624, -0.1520286351442337, 0.017337379977107048, -0.12254492938518524, 0.05524222552776337, 0.09458372741937637, -0.07156846672296524, -0.19640983641147614, 0.1498287469148636, -0.14413918554782867, -0.2764449417591095, 0.07890208810567856, -0.10657947510480881, -0.12084565311670303, 0.10770464688539505, -0.07387655228376389, 0.06402618438005447, 0.10825648903846741, 0.01508029643446207, -0.015406844206154346, 0.023392220959067345, -0.07960332930088043, -0.04736224189400673, -0.08921421319246292, -0.14312906563282013, -0.11771684885025024, -0.094057597219944, 0.07172269374132156, 0.040719449520111084, 0.17894554138183594, 0.30854758620262146, 0.04015926271677017], [-0.1187826469540596, 0.11555023491382599, -0.010766484774649143, -0.11833751201629639, 0.06978979706764221, -0.09069980680942535, 0.0641791895031929, -0.031688738614320755, 0.3162073791027069, -0.043032076209783554, 0.11775749921798706, 0.01562802866101265, 0.17492760717868805, -0.11217758059501648, -0.05077796056866646, 0.13025854527950287, 0.22814542055130005, -0.02838733419775963, 0.05242939665913582, -0.0687195435166359, -0.05725806951522827, -0.010133656673133373, 0.13687719404697418, -0.11547375470399857, 0.15869808197021484, -0.07804879546165466, -0.11038195341825485, -0.03964103385806084, 0.008893182501196861, -0.18196916580200195, 0.06055931746959686, -0.09289924800395966, 0.2826542556285858, 0.14668168127536774, -0.028153851628303528, 0.12683217227458954, 0.19677510857582092, 0.07245587557554245, -0.05228983610868454, 0.16934919357299805, 0.052090834826231, 0.10909146070480347, -0.06684045493602753, -0.07721898704767227, 0.22692392766475677, -0.04697670787572861, -0.05588458105921745, -0.003434812417253852, -0.0033309441059827805, -0.21387621760368347, 0.22223863005638123, 0.04133544862270355, 0.0024681624490767717, -0.049197953194379807, -0.12171048671007156, -0.042925700545310974, -0.11697778105735779, 0.06526438146829605, -0.17390082776546478, -0.03256221115589142, -0.16218405961990356, 0.24620012938976288, 0.031340163201093674, -0.1424465924501419, -0.18788176774978638, 0.08884008973836899], [0.020676538348197937, 0.06404607743024826, -0.19508005678653717, 0.08156329393386841, 0.0822853073477745, -0.17421680688858032, 0.03219592943787575, 0.12735134363174438, 0.08626214414834976, -0.012882762588560581, -0.3069976270198822, 0.12202467769384384, 0.025682741776108742, 0.10450678318738937, -0.3164351284503937, 0.12568479776382446, 0.07480128854513168, -0.3039484918117523, -0.016991697251796722, -0.2599734365940094, -0.09889175742864609, 0.4326179623603821, -0.14972102642059326, 0.01234126091003418, 0.32337647676467896, 0.28342029452323914, -0.09898781776428223, 0.18062123656272888, 0.08176823705434799, 0.15307804942131042, -0.10461719334125519, 0.11705838888883591, -0.10184036195278168, 0.14856944978237152, 0.22031037509441376, -0.19347745180130005, 0.08781205862760544, -0.03975079953670502, -0.03366696834564209, 0.05531751736998558, 0.07663165032863617, -0.0034904340282082558, 0.0740342065691948, -0.11980443447828293, -0.04228546470403671, -0.07076667249202728, -0.05542246624827385, 0.08530832082033157, 0.007940884679555893, 0.029614407569169998, -0.04979206621646881, -0.06789103150367737, 0.08079351484775543, 0.15372061729431152, -0.09798470139503479, -0.19046062231063843, 0.06225444748997688, 0.05932788923382759, -0.03698241710662842, 0.1786649376153946, -0.05186445638537407, -0.0892607718706131, -0.09298629313707352, -0.07962236553430557, -0.15909823775291443, -0.11838985979557037], [-0.031461238861083984, -0.005994757171720266, -0.1859709918498993, 0.27787455916404724, 0.2028360664844513, -0.07634474337100983, 0.2424737811088562, -0.04104328528046608, 0.2989024221897125, 0.03574548661708832, -0.26585111021995544, -0.2778967320919037, 0.21736228466033936, 0.11102063953876495, -0.12405314296483994, 0.180276557803154, 0.2546461820602417, 0.22553487122058868, -0.19899268448352814, 0.09141898900270462, 0.022603316232562065, 0.15529775619506836, 0.21959874033927917, -0.13549819588661194, 0.01307610422372818, 0.08788686990737915, 0.09244807064533234, 0.14773902297019958, 0.1297013908624649, -0.043875761330127716, -0.030248822644352913, -0.04091385006904602, -0.2688400149345398, 0.07268425077199936, -0.010187855921685696, 0.06293463706970215, -0.0035852091386914253, -0.2191324532032013, -0.16067935526371002, -0.004381297621876001, -0.054157525300979614, -0.19648605585098267, -0.047155383974313736, -0.05447080731391907, -0.06914559006690979, -0.21854104101657867, -0.035209059715270996, -0.03394749388098717, -0.09379313886165619, 0.15082736313343048, 0.2767793536186218, -0.008524511940777302, -0.13847683370113373, 0.09584107249975204, 0.03203859552741051, 0.013180926442146301, -0.020601870492100716, -0.13731037080287933, -0.045909881591796875, 0.17241695523262024, -0.026293881237506866, -0.06246987357735634, 0.09638001769781113, -0.12889596819877625, 0.01497667096555233, -0.023171721026301384], [0.1289842426776886, -0.2373431771993637, -0.04110022634267807, -0.17413070797920227, -0.08009489625692368, 0.07098697125911713, 0.07096555829048157, -0.13226717710494995, -0.07460489869117737, 0.2869631350040436, 0.1718808114528656, -0.013494187965989113, 0.10317075252532959, 0.007589369546622038, 0.012800381518900394, 0.12924416363239288, -0.012981340289115906, 0.0018176521407440305, -0.014281420037150383, -0.20458926260471344, 0.13308516144752502, 0.04957958310842514, 0.15739060938358307, -0.01355140283703804, -0.11189202964305878, -0.06476578116416931, -0.040650852024555206, 0.07424760609865189, -0.07148495316505432, 0.07094981521368027, -0.061469849199056625, -0.12435998022556305, -0.17526604235172272, -0.12846511602401733, 0.09074974060058594, -0.25582054257392883, 0.00780252180993557, 0.07812409847974777, -0.31009379029273987, 0.20782388746738434, -0.25357213616371155, -0.028203872963786125, 0.07442394644021988, -0.014394614845514297, -0.047335099428892136, 0.053728725761175156, -0.05250386521220207, 0.013779385015368462, -0.18826134502887726, -0.103537417948246, 0.08662838488817215, 0.08366910368204117, 0.2192929983139038, 0.06601973623037338, 0.024256069213151932, 0.06552457809448242, 0.042742155492305756, 0.27273330092430115, -0.16845250129699707, 0.13420818746089935, -0.16231496632099152, -0.10265279561281204, -0.006285092327743769, -0.1920846849679947, -0.14880889654159546, -0.12655620276927948], [0.05818180367350578, 0.03129030019044876, -0.02879064530134201, 0.14610600471496582, 0.08617917448282242, -0.00554985087364912, -0.04691942408680916, 0.036745380610227585, -0.25631028413772583, -0.07872230559587479, 0.025569677352905273, -0.007586616091430187, -0.025842847302556038, -0.07519863545894623, 0.043429069221019745, 0.07890715450048447, 0.1668485552072525, 0.1500672996044159, 0.11379645764827728, 0.05967336893081665, 0.11879272758960724, -0.036338869482278824, -0.032605744898319244, -0.1070290356874466, 0.03122745454311371, 0.17612643539905548, 0.031609583646059036, -0.15761958062648773, 0.09085779637098312, 0.2623080313205719, 0.09778696298599243, 0.04400109127163887, 0.12459570169448853, -0.11391458660364151, -0.10711859166622162, 0.18898729979991913, -0.010344048961997032, 0.2130533903837204, -0.14201486110687256, -0.03609510138630867, 0.05015866830945015, 0.004876552149653435, 0.18979144096374512, 0.10160796344280243, 0.0004367339424788952, 0.1412920206785202, 0.0147319994866848, 0.027544524520635605, 0.13479775190353394, 0.10064888745546341, 0.01610555686056614, -0.2247726321220398, 0.020801303908228874, 0.254207968711853, -0.033607229590415955, 0.2803100347518921, -0.015158175490796566, 0.054988306015729904, -0.0041746702045202255, 0.14574630558490753, -0.21911367774009705, 0.09022033214569092, 0.21036562323570251, -0.07290952652692795, 0.08960974961519241, 0.11352755129337311], [0.055882494896650314, 0.043341901153326035, 0.048042550683021545, 0.0317416787147522, -0.012498811818659306, 0.2018285095691681, -0.03194347769021988, 0.023494122549891472, -0.10879053175449371, -0.14426015317440033, -0.08846486359834671, 0.09526586532592773, -0.07232452929019928, 0.019492806866765022, -0.060704879462718964, -0.0966339260339737, 0.02391045354306698, -0.10056071728467941, 0.10109826922416687, -0.00010657736129360273, 0.0037711397744715214, -0.013070633634924889, 0.034093599766492844, -0.12406516075134277, 0.04623322933912277, -0.2953265905380249, 0.16115136444568634, -0.12111537158489227, 0.0510922409594059, 0.20180688798427582, -0.031354598701000214, -0.13952714204788208, 0.03911514952778816, 0.07393820583820343, -0.22748926281929016, 0.019190385937690735, -0.1002621129155159, -0.1569191962480545, -0.010939188301563263, -0.006899428553879261, 0.09139110893011093, -0.23031964898109436, 0.09109990298748016, 0.19041623175144196, -0.0843488797545433, 0.08329012244939804, -0.08778125047683716, -0.20618149638175964, -0.20957119762897491, -0.10569527000188828, -0.19633479416370392, -0.010149352252483368, -0.19221293926239014, -0.0827564001083374, 0.23471683263778687, 0.053915202617645264, -0.11427918076515198, 0.04008309170603752, 0.093717060983181, 0.08257212489843369, -0.07686126977205276, 0.347584068775177, -0.25184112787246704, 0.07739080488681793, -0.07890273630619049, -0.044203270226716995], [0.055122777819633484, 0.2334698885679245, 0.05802180990576744, 0.1688588559627533, -0.17580917477607727, -0.10937215387821198, -0.04834064841270447, 0.03428531810641289, -0.052967991679906845, 0.011349020525813103, 0.11919593065977097, -0.2415010631084442, 0.19035160541534424, -0.12504860758781433, -0.05850426107645035, 0.14426088333129883, 0.03484656661748886, 0.015484328381717205, 0.05231456086039543, 0.06643061339855194, 0.17419464886188507, -0.27828672528266907, -0.315182089805603, -0.07213568687438965, -0.23497998714447021, -0.3469071686267853, 0.09966997057199478, -0.06527455151081085, 0.2246428281068802, 0.16136567294597626, 0.1447310894727707, 0.08301783353090286, 0.14112915098667145, 0.15208593010902405, 0.07546823471784592, -0.06441894918680191, 0.10525067895650864, 0.055154260247945786, 0.06035831570625305, 0.09952030330896378, 0.020908454433083534, -0.10086950659751892, -0.11128788441419601, -0.02147873118519783, -0.018356841057538986, -0.11210007220506668, 0.1255875527858734, -0.09168563038110733, -0.07041274011135101, -0.12205161899328232, -0.19958582520484924, -0.2608824074268341, 0.04263817518949509, -0.013792762532830238, 0.4121467173099518, 0.11275268346071243, -0.05574798211455345, 0.1578664928674698, -0.17872759699821472, -0.14597086608409882, -0.016695469617843628, -0.05654308944940567, 0.16777661442756653, -0.038018740713596344, 0.020195063203573227, 0.05058703571557999], [0.016994977369904518, -0.034745216369628906, -0.11016300320625305, -0.22124356031417847, -0.09437111765146255, 0.03053651563823223, 0.12528087198734283, 0.048755936324596405, 0.09860493987798691, 0.16769640147686005, -0.0433024987578392, 0.013005063869059086, -0.037670549005270004, 0.12116670608520508, 0.03689824417233467, -0.031790170818567276, -0.0011819698847830296, -0.1548648476600647, -0.04081328585743904, -0.037992194294929504, 0.10622283071279526, -0.12916384637355804, -0.11008677631616592, 0.14109420776367188, 0.26927655935287476, 0.20490145683288574, 0.133871391415596, -0.09320063143968582, -0.04190322756767273, 0.025639358907938004, -0.031996019184589386, 0.18388131260871887, -0.15853053331375122, -0.20343907177448273, 0.11166846007108688, 0.26904886960983276, 0.10898115485906601, -0.08779885619878769, 0.010439024306833744, -0.127353236079216, -0.1617555469274521, -0.0010824324563145638, 0.18108689785003662, -0.000808857090305537, -0.19177083671092987, -0.024310806766152382, 0.08951520919799805, 0.11297044903039932, 0.11604630947113037, 0.07313231378793716, 0.04515437036752701, 0.1304076910018921, -0.215274840593338, -0.19790397584438324, 0.1836152821779251, -0.07809746265411377, 0.06725455075502396, 0.10753047466278076, -0.05262851342558861, -0.08533337712287903, -0.2685960531234741, -0.05338611081242561, -0.05911192297935486, -0.17245785892009735, -0.13954207301139832, 0.16023723781108856], [-0.07889122515916824, -0.15344232320785522, -0.20117835700511932, -0.176309734582901, 0.04544258490204811, -0.2700929343700409, -0.02668042667210102, -0.08267651498317719, -0.11640369147062302, -0.043014124035835266, -0.22065691649913788, -0.016970539465546608, -0.1972152590751648, 0.2215375304222107, -0.21478290855884552, -0.16024290025234222, 0.0775640457868576, -0.05234818533062935, 0.26259705424308777, -0.031676825135946274, 0.20517462491989136, -0.1419498473405838, 0.06808746606111526, -0.009762401692569256, -0.08487363904714584, 0.03724394366145134, -0.05401914194226265, 0.1679309755563736, 0.0577632300555706, -0.002760248491540551, 0.037482213228940964, -0.06633278727531433, 0.1596599519252777, 0.015585268847644329, 0.017176225781440735, -0.013398394919931889, -0.1475987583398819, -0.09077422320842743, -0.21485675871372223, 0.04888245835900307, 0.20127925276756287, -0.03536820039153099, -0.021185336634516716, 0.035781167447566986, -0.0447099506855011, -0.025011392310261726, 0.12225370109081268, -0.1576855331659317, 0.08018217980861664, 0.20894445478916168, 0.058945320546627045, -0.05357438325881958, 0.11927518993616104, -0.20327267050743103, 0.054826829582452774, -0.26260149478912354, 0.005991308018565178, -0.017673226073384285, -0.14294636249542236, 0.04178423061966896, -0.11378369480371475, -0.10513342171907425, 0.08961686491966248, -0.07456926256418228, -0.07500816881656647, -0.01007445901632309], [0.21826086938381195, -0.09916511178016663, 0.0074630314484238625, -0.11812566965818405, 0.046916209161281586, 0.05541238933801651, 0.022766752168536186, 0.039063211530447006, 0.09011852741241455, 0.17111602425575256, -0.3611864149570465, 0.062158819288015366, 0.03937380760908127, 0.09110376983880997, -0.024326028302311897, 0.017930565401911736, -0.35761189460754395, 0.15021978318691254, 0.012800726108253002, -0.1934831589460373, 0.003273659385740757, 0.19481778144836426, 0.14812278747558594, 0.2830210030078888, -0.09897717088460922, 0.2123248428106308, 0.19047331809997559, 0.18405339121818542, -0.09222791343927383, 0.040497224777936935, 0.13885298371315002, -0.08327242732048035, 0.0032798415049910545, 0.0071575515903532505, -0.09514044970273972, 0.07207032293081284, 0.20706821978092194, 0.23974616825580597, -0.014065290801227093, 0.15008629858493805, 0.05672038719058037, -0.08572951704263687, -0.04478747397661209, -0.11171223223209381, -0.10979010909795761, -0.08126300573348999, -0.15441960096359253, -0.0948847308754921, 0.17427292466163635, -0.021446723490953445, 0.04584483802318573, 0.007125135511159897, -0.12833590805530548, 0.0984087586402893, 0.06365170329809189, -0.05086334049701691, -0.2528323233127594, -0.008317716419696808, -0.14779803156852722, -0.23444759845733643, -0.10862836986780167, 0.05202227458357811, -0.12466253340244293, 0.20402869582176208, -0.09191565960645676, 0.034408681094646454], [0.05413756147027016, 0.08503412455320358, -0.3433324098587036, 0.3043246269226074, 0.04552401602268219, 0.03297080472111702, 0.1464729607105255, 0.14452657103538513, 0.2522304356098175, 0.2475176900625229, -0.0437934510409832, 0.042261697351932526, -0.04970356076955795, -0.12093190103769302, -0.02819891832768917, -0.1045004352927208, 0.021207010373473167, 0.15665677189826965, -0.11588288843631744, -0.10833944380283356, 0.03946888819336891, 0.15268182754516602, 0.21284981071949005, 0.20800037682056427, 0.05778224766254425, 0.13524290919303894, -0.3115386962890625, -0.0985923707485199, -0.09319306910037994, 0.10581763088703156, -0.2923210561275482, 0.0933578759431839, -0.1544342190027237, 0.04642597958445549, 0.07637642323970795, 0.11251788586378098, -0.05349182337522507, 0.10184673219919205, -0.03606772795319557, 0.08511846512556076, 0.12334464490413666, -0.1212526485323906, 0.20876921713352203, -0.014358892105519772, 0.027096275240182877, 0.13169340789318085, 0.07634825259447098, -0.19782108068466187, 0.2333761602640152, -0.31296825408935547, 0.1464800089597702, 0.1922859400510788, 0.27239713072776794, -0.07859096676111221, 0.11545545607805252, -0.2108810991048813, 0.098664291203022, -0.02827596291899681, -0.1277378499507904, -0.03909756988286972, 0.04094281792640686, 0.022790906950831413, -0.10126324743032455, 0.0459102988243103, -0.08176238089799881, -0.01329574640840292], [-0.13759085536003113, -0.03915311396121979, -0.01315979938954115, -0.1734766662120819, -0.21964304149150848, 0.08962711691856384, 0.015369148924946785, 0.04735434800386429, -0.01282275840640068, -0.06307870149612427, -0.11010398715734482, 0.026351720094680786, 0.017667440697550774, 0.1479777991771698, -0.08446622639894485, -0.08815790712833405, 0.16470792889595032, 0.019494377076625824, -0.12699228525161743, -0.37992092967033386, -0.14824670553207397, 0.041573937982320786, 0.1323413997888565, 0.14585018157958984, -0.0352117121219635, -0.0901317149400711, 0.02150665409862995, -0.39770153164863586, 0.09677490592002869, 0.07883278280496597, 0.0064698769710958, 0.1440371721982956, 0.12126876413822174, -0.09044940024614334, -0.17838062345981598, 0.13448236882686615, 0.08436431735754013, -0.07932467013597488, 0.02074606902897358, 0.07381816953420639, -0.04363897815346718, 0.09361721575260162, -0.04962659254670143, -0.11689481139183044, -0.10582352429628372, -0.039215654134750366, 0.0403883196413517, 0.1500442922115326, -0.14453835785388947, -0.011392273008823395, -0.16012144088745117, 0.11170691251754761, 0.10638213157653809, 0.004125076346099377, 0.027302343398332596, 0.1841534525156021, 0.2881253659725189, -0.2291160374879837, -0.18475352227687836, -0.08226987719535828, -0.0005868886946700513, -0.002343072323128581, -0.13469146192073822, 0.03698534518480301, 0.17781350016593933, -0.0063437363132834435], [-0.11530891805887222, -0.03375544026494026, -0.14523522555828094, -0.060465749353170395, -0.013278147205710411, 0.2163124829530716, -0.03404149040579796, -0.08942536264657974, 0.14131122827529907, 0.2131967395544052, -0.04747028648853302, 0.00410061189904809, -0.08559611439704895, -0.1620069444179535, -0.11065468937158585, -0.13987521827220917, 0.21115009486675262, 0.05317126587033272, -0.09551204741001129, -0.08051660656929016, -0.0319780558347702, 0.15903785824775696, -0.07328182458877563, -0.003331148996949196, -0.02475893869996071, 0.1248500719666481, -0.0015416506212204695, 0.13629305362701416, 0.2936457395553589, -0.16407909989356995, -0.06292775273323059, -0.05222703143954277, -0.09678250551223755, 0.1516505628824234, -0.12516112625598907, 0.03895527496933937, -0.15403051674365997, 0.18705826997756958, -0.017119666561484337, 0.03497803211212158, 0.07677754759788513, 0.06806247681379318, 0.3182883858680725, -0.23360979557037354, -0.06864098459482193, -0.15662354230880737, -0.10964296758174896, -0.009447071701288223, 0.1131790280342102, 0.2365425080060959, 0.03122744895517826, -0.1431775838136673, 0.06632303446531296, -0.024895522743463516, -0.09728735685348511, 0.07152922451496124, 0.028548361733555794, 0.06822781264781952, -0.007292021997272968, -0.009556654840707779, 0.08483163267374039, -0.13749390840530396, -0.2957480251789093, -0.024157635867595673, -0.26698142290115356, 0.24030525982379913], [-0.24874554574489594, 0.06359565258026123, -0.0945480614900589, 0.16820886731147766, -0.0741138905286789, 0.11855167150497437, 0.14362969994544983, 0.10925645381212234, 0.07143371552228928, 0.22965103387832642, 0.054176103323698044, 0.0734989196062088, -0.16971485316753387, -0.20720630884170532, -0.26294267177581787, 0.0030634261202067137, -0.055766865611076355, -0.16052594780921936, 0.24247026443481445, -0.050161056220531464, -0.116836778819561, -0.021128488704562187, -0.1635214388370514, -0.09894020855426788, -0.07207115739583969, -0.25650936365127563, 0.14730149507522583, -0.03235538676381111, -0.34588491916656494, 0.11373741924762726, 0.0836496576666832, 0.0394212082028389, 0.08776333928108215, -0.17276740074157715, -0.1202889233827591, -0.16950128972530365, 0.033114492893218994, 0.00019704092119354755, -0.0899447500705719, -0.08582233637571335, 0.07602814584970474, -0.010280175134539604, 0.03885221108794212, -0.0486249215900898, -0.032148100435733795, -0.11252792179584503, 0.13353721797466278, -0.0657656267285347, -0.10690214484930038, 0.09474176913499832, 0.21561382710933685, 0.17012083530426025, 0.10365834087133408, 0.00888814963400364, -0.18796774744987488, 0.11285803467035294, -0.23475666344165802, -0.02446933463215828, -0.07851656526327133, -0.14952854812145233, -0.05337681993842125, -0.0893200933933258, 0.15285125374794006, -0.06995327770709991, -0.005035222973674536, -0.05498923361301422], [-0.062113068997859955, 0.12662936747074127, -0.17019185423851013, 0.07003676891326904, 0.11040366441011429, 0.0672830119729042, -0.16362789273262024, -0.25030264258384705, 0.24064971506595612, -0.023475365713238716, 0.11106838285923004, -0.1802767515182495, -0.06723469495773315, 0.08698537200689316, -0.17106907069683075, -0.008648097515106201, -0.02597043104469776, -0.1471668779850006, 0.005271091591566801, 0.024128951132297516, -0.006779974792152643, 0.12864558398723602, 0.2968814969062805, -0.01055989507585764, 0.04887932538986206, 0.07327552884817123, -0.15257097780704498, -0.04685601219534874, 0.0754861906170845, -0.09040270000696182, -0.1256965547800064, 0.06066253036260605, -0.07770194113254547, -0.16988396644592285, 0.0589790977537632, 0.006341743282973766, 0.20661674439907074, -0.008890829049050808, 0.13237977027893066, 0.14823459088802338, 0.24204544723033905, 0.0232444629073143, 0.03776659816503525, -0.1494973748922348, -0.04722835123538971, 0.269523024559021, 0.06753046065568924, 0.01248106174170971, -0.10314338654279709, 0.22612224519252777, 0.10546380281448364, -0.19450627267360687, -0.006854281760752201, 0.023092757910490036, 0.09954845905303955, 0.0096410708501935, -0.2747383415699005, -0.08259370923042297, 0.058906059712171555, 0.15607856214046478, -0.11457700282335281, -0.2892454266548157, 0.048044390976428986, 0.05231310427188873, -0.10139191895723343, -0.07355310022830963], [0.08079864829778671, -0.1173790842294693, 0.2944979965686798, 0.2405257672071457, -0.04212570935487747, 0.10385853052139282, -0.10642027854919434, -0.07628076523542404, -0.003339144866913557, -0.07707466185092926, -0.24237729609012604, -0.19899697601795197, -0.033195674419403076, 0.1549302339553833, -0.04335332661867142, -0.07267415523529053, -0.025251800194382668, -0.06640146672725677, 0.059265729039907455, 0.20522332191467285, -0.05843329802155495, -0.16276942193508148, -0.24117730557918549, -0.027760667726397514, -0.18550360202789307, -0.25319230556488037, 0.07398822158575058, -0.07857435941696167, -0.006205318961292505, -0.04430841654539108, 0.024351729080080986, 0.02273326925933361, 0.005530105903744698, -0.17240621149539948, -0.019621647894382477, -0.18288305401802063, -0.08973108977079391, 0.011180398985743523, 0.03399793803691864, 0.1002788320183754, 0.16061067581176758, 0.38775578141212463, 0.1972387135028839, -0.06353864073753357, 0.03314236178994179, 0.1405007541179657, -0.1553831845521927, 0.057066500186920166, 0.011853035539388657, -0.18806543946266174, -0.028196725994348526, 0.18607833981513977, -0.2588771879673004, 0.12667304277420044, 0.06015666201710701, -0.0062323580496013165, 0.2042166143655777, 0.08587874472141266, -0.09948667883872986, -0.15883101522922516, -0.1585586965084076, 0.19162049889564514, 0.11271688342094421, -0.05466204881668091, 0.11723946034908295, 0.031891968101263046], [-0.09399493038654327, 0.12015306949615479, 0.334183007478714, -0.03623058646917343, -0.06039684638381004, 0.019029488787055016, -0.08518002927303314, 0.07910238951444626, -0.17138046026229858, -0.10375325381755829, 0.009102464653551579, 0.03486429154872894, -0.05961908400058746, -0.198237344622612, 0.08758462220430374, 0.19424785673618317, -0.043430984020233154, 0.0562705360352993, 0.10876249521970749, 0.05979352071881294, -0.07904566079378128, 0.11373145878314972, -0.12446766346693039, -0.2533207833766937, -0.22943304479122162, -0.12025395035743713, -0.09736266732215881, 0.03696737810969353, 0.03993496671319008, -0.021507157012820244, -0.11033525317907333, 0.02040305733680725, 0.0003330261679366231, 0.03253636136651039, -0.11495241522789001, 0.10990242660045624, 0.2933482229709625, 0.04524056985974312, -0.2553357779979706, -0.03584174066781998, 0.11492970585823059, -0.028652187436819077, -0.09915665537118912, -0.07005981355905533, -0.23135006427764893, 0.24474956095218658, 0.137701615691185, 0.045769501477479935, 0.21424564719200134, 0.03126399964094162, -0.04283638298511505, 0.04028486832976341, -0.2545648217201233, -0.24734696745872498, 0.05899355933070183, 0.007594784256070852, 0.10502137988805771, -0.03560420125722885, 0.015299801714718342, 0.06340740621089935, 0.17875927686691284, 0.058987945318222046, -0.0704871341586113, -0.20826250314712524, 0.15537677705287933, -0.09803363680839539], [0.19543467462062836, 0.08995010703802109, -0.0055554029531776905, -0.07556667178869247, 0.061795204877853394, -0.09171152859926224, 0.235695019364357, -0.042081329971551895, 0.1855345219373703, 0.06810405850410461, 0.008839546702802181, -0.24828793108463287, -0.14802837371826172, 0.1064673364162445, -0.1025146096944809, 0.023859621956944466, -0.07538337260484695, 0.11218724399805069, 0.0010671074269339442, -0.22130945324897766, 0.16767552495002747, 0.009637542068958282, -0.05224481597542763, -0.11951969563961029, 0.06373550742864609, 0.15788748860359192, -0.16288937628269196, 0.1789301186800003, -0.03654266893863678, 0.07945914566516876, -0.33301323652267456, 0.31592926383018494, -0.10237138718366623, 0.12444834411144257, -0.3144524395465851, 0.15545609593391418, -0.10526634007692337, -0.056575339287519455, -0.025743624195456505, -0.2601437568664551, -0.037171341478824615, 0.16975726187229156, -0.010162931866943836, -0.0634465292096138, 0.07622728496789932, 0.06727652996778488, -0.1585388481616974, 0.07619412243366241, -0.11041498929262161, -0.08170224726200104, 0.15350393950939178, -0.19996005296707153, 0.04590275138616562, 0.017608925700187683, -0.05100085213780403, -0.04579823464155197, -0.19081121683120728, 0.12482147663831711, -0.1004868820309639, 0.014914196915924549, 0.07487360388040543, 0.0305692907422781, -0.08091884106397629, 0.10085158050060272, -0.14440949261188507, -0.19795331358909607], [-0.06532082706689835, -0.12287265062332153, 0.2715807557106018, 0.054191578179597855, -0.015212231315672398, 0.04753320664167404, 0.017210431396961212, -0.030502691864967346, -0.00770218949764967, -0.07970783114433289, -0.005944056902080774, -0.18990281224250793, 0.24930207431316376, -0.004848942160606384, 0.1906694769859314, -0.08114796131849289, 0.17065906524658203, -0.24406962096691132, 0.10259518772363663, 0.05259159207344055, -0.089714415371418, -0.3183521330356598, -0.11480332165956497, -0.21227747201919556, -0.1769690066576004, -0.1950095295906067, -0.05661708116531372, 0.03008105978369713, -0.030837779864668846, 0.2519894540309906, -0.025717375800013542, 0.1362079381942749, 0.23328103125095367, -0.05159857124090195, 0.1628502458333969, 0.1329520046710968, -0.1453256458044052, 0.027439527213573456, 0.1386563777923584, -0.010845999233424664, -0.07732793688774109, -0.09918079525232315, -0.11953122913837433, -0.02075260505080223, 0.14083389937877655, -0.033508285880088806, -0.11299973726272583, -0.039612460881471634, 0.24979881942272186, 0.2399747222661972, -0.08915639668703079, 0.10790267586708069, 0.10011060535907745, 0.0169325340539217, 0.0009892426896840334, 0.015428248792886734, -0.1854381263256073, -0.049380794167518616, -0.1111353188753128, 0.3121406137943268, -0.04949810355901718, -0.13088583946228027, -0.266554057598114, 0.03400407359004021, 0.24226902425289154, -0.10205300152301788], [-0.010829995386302471, -0.1386450082063675, -0.18887606263160706, 0.08031532913446426, -0.364178329706192, -0.24404452741146088, -0.28967970609664917, 0.07767987996339798, 0.07512011379003525, -0.16279339790344238, -0.06765104085206985, -0.05233868956565857, 0.11054833233356476, 0.016466431319713593, 0.36139026284217834, 0.0908035859465599, 0.09952027350664139, -0.20387190580368042, 0.018970943987369537, 0.04155061021447182, 0.006400849670171738, -0.1340302675962448, 0.012089955620467663, -0.008987764827907085, -0.2645867168903351, -0.08629177510738373, 0.07811026275157928, -0.013357234187424183, -0.09422437101602554, -0.1069021001458168, 0.00199997634626925, 0.05990786850452423, -0.22606047987937927, 0.09588659554719925, -0.009614469483494759, 0.05095504969358444, 0.08969920128583908, -0.16823849081993103, -0.14169512689113617, 0.10979988425970078, 0.11336750537157059, -0.07202339917421341, -0.010945846326649189, -0.0875934287905693, 0.031966909766197205, 0.10708154737949371, 0.13751831650733948, -0.006840215064585209, -0.023890769109129906, 0.220309779047966, -0.19370391964912415, 0.04860726371407509, -0.023190399631857872, 0.0373409129679203, -0.25123846530914307, 0.22403760254383087, 0.006080474704504013, 0.36025530099868774, -0.011498642154037952, 0.06705418974161148, -0.10396988689899445, 0.17125138640403748, -0.020219670608639717, 0.23327656090259552, -0.03713725507259369, -0.03993285819888115], [0.17740657925605774, -0.06568696349859238, 0.0428244024515152, -0.11541873216629028, 0.08147170394659042, 0.08934595435857773, -0.10028747469186783, 0.11381876468658447, 0.12240590155124664, 0.16602124273777008, -0.03894251212477684, -0.010562200099229813, -0.15744297206401825, 0.03744722157716751, 0.04877566918730736, -0.018975291401147842, -0.22179138660430908, 0.22191254794597626, 0.10500210523605347, 0.006359750404953957, -0.026218613609671593, -0.11721808463335037, -0.09128941595554352, -0.09995986521244049, 0.17317937314510345, -0.23178599774837494, -0.11634019017219543, -0.1831972301006317, -0.06779728829860687, 0.13440684974193573, 0.23847930133342743, 0.15879076719284058, 0.05451883375644684, 0.14219021797180176, 0.20149603486061096, -0.22561490535736084, 0.023730112239718437, -0.007187375333160162, -0.015780873596668243, -0.15895384550094604, 0.016366256400942802, -0.18381784856319427, 0.11661963909864426, -0.03419783338904381, 0.16264548897743225, 0.07490091770887375, -0.041352447122335434, 0.1088084802031517, -0.11395110934972763, 0.025859029963612556, 0.14833581447601318, -0.11077935248613358, -0.10910803824663162, -0.21146650612354279, -0.027145439758896828, 0.10859784483909607, 0.0921090766787529, -0.04273967444896698, -0.1423063576221466, 0.08278832584619522, 0.07967175543308258, 0.06523671746253967, -0.10982353985309601, 0.06339997053146362, 0.13892202079296112, 0.23900346457958221], [0.049979861825704575, 0.3240366578102112, -0.0005280678160488605, -0.052922096103429794, 0.12766212224960327, -0.135886088013649, 0.004370144568383694, 0.013162941671907902, -0.0435565784573555, 0.014532663859426975, 0.007482488639652729, -0.11465410143136978, -0.09718778729438782, 0.032833170145750046, 0.10085297375917435, 0.23689550161361694, -0.1301627904176712, -0.04734281450510025, -0.24076148867607117, 0.05712459608912468, -0.0721149817109108, -0.11429254710674286, 0.05736742168664932, -0.13575388491153717, -0.09492689371109009, -0.252704381942749, 0.06702941656112671, 0.31238946318626404, 0.10214950144290924, 0.27361223101615906, 0.022747695446014404, 0.045454323291778564, 0.36860162019729614, -0.13365603983402252, -0.13827379047870636, -0.06116248667240143, -0.01203005388379097, -0.04034243896603584, 0.1357460916042328, 0.16973687708377838, -0.1473887860774994, -0.08414392173290253, 0.1834501475095749, 0.06926807761192322, 0.06564825773239136, 0.06340259313583374, 0.22967268526554108, 0.25583791732788086, 0.037711501121520996, -0.014500805176794529, 0.20573453605175018, 0.18825125694274902, 0.07304586470127106, 0.029967650771141052, 0.051704008132219315, -0.07711296528577805, 0.020109180361032486, 0.1582033485174179, 0.07305779308080673, 0.07386033236980438, 0.06516467034816742, 0.016967542469501495, -0.04700528085231781, 0.07357741892337799, -0.02250720001757145, 0.18861159682273865], [-0.06670094281435013, -0.0005728027317672968, 0.2939373254776001, 0.022401541471481323, -0.26990652084350586, -0.08529307693243027, 0.14602096378803253, 0.10696221143007278, 0.14841735363006592, -0.03738921135663986, -0.005215613171458244, -0.11891206353902817, -0.1070154532790184, -0.017223425209522247, 0.07004506140947342, 0.09634281694889069, -0.16361095011234283, -0.14643891155719757, 0.18024659156799316, 0.009365556761622429, -0.33456817269325256, -0.16469727456569672, 0.2733426094055176, 0.021876417100429535, 0.0040318965911865234, 0.09091583639383316, -0.06972464174032211, -0.07625573873519897, 0.2907114028930664, 0.10891704261302948, -0.045071639120578766, -0.17706206440925598, 0.011504336260259151, -0.0040536862798035145, -0.018238907679915428, -0.00034531360142864287, -0.18064215779304504, -0.00666133314371109, -0.15412355959415436, -0.17396482825279236, 0.10269926488399506, -0.027739087119698524, 0.0008597545092925429, -0.07366321235895157, -0.05863749980926514, -0.04371221363544464, 0.013082076795399189, -0.08655375987291336, -0.051509927958250046, 0.061445824801921844, -0.1251392364501953, -0.012980897910892963, -0.048767779022455215, -0.020472591742873192, -0.041478611528873444, 0.010996950790286064, 0.17095626890659332, -0.04489188268780708, -0.0028058697935193777, -0.1002473458647728, -0.032305508852005005, -0.10617714375257492, 0.16468101739883423, 0.06271293759346008, -0.042068254202604294, 0.09193605184555054], [-0.00437167240306735, -0.04818428307771683, 0.25831761956214905, 0.1573631316423416, 0.11887308210134506, -0.0310513935983181, -0.11790816485881805, 0.0037521379999816418, -0.3919912278652191, 0.030353479087352753, 0.07558444887399673, 0.019522130489349365, 0.05975399538874626, -0.04339864104986191, 0.12036994099617004, 0.05420081689953804, 0.04835902154445648, -0.16225683689117432, -0.08122356981039047, -0.0020690453238785267, 0.04663306474685669, -0.08631762117147446, -0.00048541350406594574, 0.1632911115884781, -0.024770695716142654, -0.07926870137453079, 0.09556655585765839, -0.16219982504844666, -0.03596889600157738, 0.2939189374446869, -0.05869966372847557, -0.07725019007921219, -0.021802812814712524, 0.26812130212783813, -0.14498619735240936, 0.04355492442846298, -0.05727197602391243, 0.011511835269629955, 0.03733966127038002, 0.002533707767724991, -0.09066818654537201, 0.009900812059640884, -0.030383938923478127, -0.4387865364551544, 0.2121349573135376, 0.06323552876710892, -0.020958999171853065, 0.010618984699249268, -0.1416912078857422, -0.021902915090322495, 0.02244538627564907, 0.025841357186436653, -0.21587294340133667, -0.24382156133651733, -0.08600763231515884, -0.027804745361208916, -0.04358441010117531, -0.13598820567131042, 0.1270015388727188, -0.1693878471851349, -0.3632301092147827, 0.0943821370601654, 0.16041740775108337, 0.05689098685979843, 0.17513592541217804, 0.14435668289661407], [-0.34143921732902527, -0.07378935068845749, -0.04594714567065239, 0.07496728003025055, 0.09816611558198929, 0.03865646570920944, 0.1020912379026413, 0.04119494557380676, 0.01427085418254137, -0.11902187764644623, -0.14540830254554749, -0.19562336802482605, 0.04802754521369934, -0.023502593860030174, -0.01402734499424696, -0.09787890315055847, -0.15961578488349915, -0.11265712976455688, -0.029950257390737534, -0.10023017972707748, 0.24279125034809113, 0.08910272270441055, -0.08438710123300552, 0.12763674557209015, 0.04847529157996178, 0.17951205372810364, -0.3001938462257385, -0.06330012530088425, -0.13260255753993988, -0.10737831145524979, -0.05409681424498558, -0.2928605377674103, -0.12037556618452072, 0.03870692104101181, -0.060696255415678024, 0.052083585411310196, 0.12992353737354279, 0.07515420764684677, 0.12083534151315689, 0.0798184722661972, -0.2419937402009964, -0.22058862447738647, 0.1447671353816986, -0.00575527548789978, -0.04695703089237213, 0.08122602105140686, 0.11337083578109741, 0.08383593708276749, -0.0833243578672409, 0.15792763233184814, 0.09811833500862122, -0.12351292371749878, -0.047861434519290924, 0.09658481925725937, -0.09208643436431885, -0.08307919651269913, 0.17912299931049347, -0.033168643712997437, -0.16502156853675842, -0.130756676197052, 0.1523565798997879, 0.11197054386138916, -0.1145985946059227, 0.02289239689707756, -0.3349010646343231, -0.12345117330551147], [-0.024819286540150642, 0.17388276755809784, -0.14298094809055328, -0.012314215302467346, -0.056685809046030045, 0.2895313501358032, 0.006318706553429365, 0.17549020051956177, 0.01506102830171585, -0.2851332426071167, 0.0964764654636383, 0.061704814434051514, -0.12537813186645508, -0.13123615086078644, 0.13000783324241638, -0.10039939731359482, -0.10366547107696533, -0.05096706748008728, 0.015140852890908718, -0.05318503454327583, 0.06346631050109863, 0.054643794894218445, 0.11670937389135361, 0.21031397581100464, 0.056024957448244095, 0.12690788507461548, -0.14234639704227448, 0.20988629758358002, 0.15986773371696472, 0.0465380921959877, -0.0005818774225190282, 0.2753838300704956, 0.013175245374441147, -0.04179120436310768, 0.020677540451288223, -0.0729442909359932, -0.10189273208379745, -0.06157416105270386, -0.0692586675286293, 0.18236267566680908, 0.02973681315779686, -0.035280823707580566, -0.012015818618237972, 0.021842356771230698, 0.07436690479516983, -0.17241407930850983, -0.16353116929531097, 0.11870412528514862, -0.039440520107746124, 0.15880835056304932, 0.147294282913208, -0.023782989010214806, -0.13050730526447296, -0.02266906015574932, 0.049718212336301804, -0.04453637823462486, -0.11961976438760757, -0.05372829735279083, -0.2676544487476349, 0.0526091493666172, 0.14109663665294647, 0.14914090931415558, 0.16661566495895386, -0.1926121711730957, 0.09761719405651093, -0.03909720480442047], [-0.04764355346560478, 0.03900882601737976, -0.2048436850309372, 0.21377281844615936, 0.07913196831941605, 0.026779823005199432, 0.2311776578426361, -0.059944141656160355, 0.2999529540538788, 0.02075638622045517, 0.024747824296355247, 0.1998327523469925, -0.16394710540771484, 0.03399486094713211, -0.2302430272102356, -0.207451730966568, 0.012222661636769772, 0.19511954486370087, -0.07826924324035645, -0.1461591273546219, 0.04219430685043335, 0.04722365736961365, 0.059053998440504074, 0.1653779000043869, -0.00430190609768033, 0.038481686264276505, 0.1031704917550087, 0.31266623735427856, 0.1777549684047699, -0.10660170018672943, 0.11284370720386505, -0.1834799200296402, 0.08123388141393661, 0.03951272740960121, 0.08912703394889832, 0.08357460796833038, -0.014519124291837215, -0.0670279935002327, 0.028110604733228683, -0.15775705873966217, -0.258510023355484, -0.03546399250626564, -0.004942602477967739, -0.2833282947540283, 0.011917884461581707, 0.3720608949661255, 0.05927940830588341, 0.10267224907875061, 0.05806149169802666, -0.06499435007572174, -0.06052780896425247, -0.09525284171104431, -0.02061924710869789, 0.031832195818424225, -0.05209285393357277, -0.0712430328130722, -0.1208050400018692, 0.12798777222633362, -0.22147946059703827, 0.29115793108940125, 0.11609876155853271, -0.024628985673189163, 0.0659329816699028, -0.12088118493556976, 0.008687094785273075, -0.08480238169431686], [-0.11035984754562378, 0.2395148128271103, -0.031193433329463005, -0.021526524797081947, 0.03610832616686821, -0.16182191669940948, -0.2438342124223709, 0.12728288769721985, 0.08818705379962921, 0.13406524062156677, -0.09670469909906387, 0.18482139706611633, 0.08776433020830154, 0.10207656025886536, -0.15426097810268402, -0.08607570827007294, -0.23481382429599762, -0.021961770951747894, 0.08799538016319275, 0.09039531648159027, -0.09053424745798111, 0.02055136114358902, -0.0531892254948616, 0.23760919272899628, -0.01995949260890484, 0.10640300065279007, -0.005145613104104996, 0.00023049769515637308, -0.04217115417122841, -0.30273082852363586, -0.21009890735149384, -0.06464208662509918, -0.04949648678302765, 0.04063371196389198, 0.004224429838359356, 0.20205363631248474, -0.1975531131029129, 0.08653409779071808, -0.1297144889831543, -0.009430855512619019, -0.06664583832025528, -0.12906253337860107, 0.06814299523830414, -0.1348247230052948, -0.03607986867427826, -0.1465829461812973, -0.011629202403128147, 0.10057360678911209, -0.16224664449691772, -0.10118915140628815, 0.32544422149658203, -0.0140446862205863, 0.1203027069568634, 0.07351445406675339, 0.1772041618824005, 0.0984397754073143, -0.03407673165202141, 0.0939185842871666, 0.033738963305950165, 0.11755251884460449, -0.08104736357927322, -0.04812261089682579, -0.15686550736427307, -0.1364516019821167, 0.0730794221162796, -0.19796831905841827], [0.04193807393312454, 0.05623611435294151, -0.27032196521759033, -0.03502955660223961, 0.2745010256767273, 0.0901116132736206, -0.1247747465968132, 0.008882442489266396, 0.2647017240524292, 0.05097084119915962, -0.03230015188455582, 0.028180822730064392, -0.06568596512079239, -0.14419697225093842, 0.025818990543484688, 0.1286933273077011, -0.07236936688423157, 0.10290621966123581, 0.2493458241224289, -0.29104915261268616, 0.16537684202194214, 0.17085056006908417, 0.09210960566997528, 0.010406222194433212, -0.010237064212560654, 0.05230196565389633, 0.029831232503056526, -0.10445701330900192, 0.05132243037223816, -0.07090994715690613, -0.04268200322985649, -0.022250840440392494, -0.15244559943675995, 0.04611571878194809, 0.00835888646543026, 0.17205235362052917, -0.16450610756874084, 0.05077890679240227, 0.11978218704462051, 0.0026668556965887547, -0.022902630269527435, 0.0476037971675396, -0.1834457814693451, -0.11318732798099518, -0.07974997162818909, 0.05468984320759773, -0.08545280992984772, -0.09450534731149673, -0.16864439845085144, 0.2087482511997223, -0.01317014079540968, 0.17362117767333984, -0.00033070804784074426, 0.30548349022865295, -0.03260863199830055, -0.4192362129688263, 0.16272416710853577, 0.10632779449224472, 0.05920484662055969, -0.015798212960362434, 0.04687914624810219, -0.06463027000427246, -0.04173824563622475, -0.24379126727581024, 0.025854991748929024, 0.05453107878565788], [0.04015607014298439, 0.036009520292282104, 0.17825181782245636, 0.05018052086234093, 0.11714928597211838, 0.12036621570587158, -0.10113872587680817, 0.11735185235738754, 0.0326739177107811, 0.047686319798231125, 0.08531107008457184, -0.03201808035373688, -0.3293564021587372, 0.14038538932800293, -0.04953792691230774, 0.1770998239517212, 0.011789138428866863, -0.023762445896863937, -0.04505179822444916, 0.06051534041762352, -0.12503047287464142, -0.07550296932458878, -0.17535939812660217, -0.11680032312870026, -0.10096476227045059, -0.04014665260910988, 0.14481475949287415, 0.007868902757763863, 0.12878496944904327, 0.1273486167192459, 0.09310449659824371, -0.04156450554728508, -0.07611753046512604, -0.10602830350399017, 0.28438594937324524, 0.2078455686569214, -0.0015948029467836022, 0.003083458635956049, -0.12024582922458649, 0.2647956311702728, -0.1781063824892044, 0.18260426819324493, -0.08831286430358887, 0.13708525896072388, 0.15084820985794067, 0.1195763573050499, -0.019653743132948875, -0.2803708612918854, -0.04492086544632912, 0.06843744218349457, 0.05855568125844002, -0.23605279624462128, -0.008623032830655575, -0.17652402818202972, -0.041521959006786346, 0.09087709337472916, 0.0009919618023559451, -0.13758030533790588, -0.07015446573495865, -0.20768873393535614, 0.0419643260538578, 0.07512148469686508, -0.06894470006227493, 0.09906139224767685, 0.15404708683490753, -0.12550507485866547], [-0.16737402975559235, -0.013474250212311745, -0.004002158995717764, -0.028767943382263184, -0.09904863685369492, -0.11831783503293991, 0.024533232674002647, -0.12888570129871368, -0.13328176736831665, -0.16294260323047638, 0.20655794441699982, -0.0459311418235302, 0.10843629390001297, 0.22056984901428223, 0.24074342846870422, 0.3152753412723541, -0.1407351940870285, -0.017606565728783607, -0.35562607645988464, 0.19747410714626312, -0.12007631361484528, 0.034423090517520905, -0.29677635431289673, -0.044174205511808395, 0.03260039910674095, -0.3237576186656952, -0.09653446823358536, -0.032296713441610336, 0.14085356891155243, 0.05698733404278755, 0.07483120262622833, -0.024600675329566002, 0.01367180049419403, -0.10365267843008041, -0.11527414619922638, 0.024227356538176537, -0.2138679325580597, 0.15509752929210663, 0.08779198676347733, -0.09813962876796722, 0.19405348598957062, -0.055155228823423386, -0.15687744319438934, -0.0265677347779274, -0.127303346991539, 0.09559488296508789, -0.08668068051338196, -0.23808956146240234, 0.057381682097911835, 0.15864351391792297, -0.1196187287569046, -0.04160502925515175, 0.026940634474158287, -0.01784445531666279, -0.09914287179708481, -0.020714636892080307, -0.09730076044797897, -0.007771484088152647, -0.17949022352695465, 0.11593079566955566, -0.133956179022789, 0.13898912072181702, 0.12623390555381775, -0.03264065459370613, 0.03423849865794182, 0.016258008778095245], [0.00022198166698217392, 0.1202651709318161, -0.04814383387565613, -0.01795719563961029, 0.09585434198379517, -0.13411858677864075, 0.05009249597787857, -0.050007253885269165, 0.07028645277023315, 0.2018672078847885, -0.0673799142241478, -0.1351766437292099, -0.07129080593585968, 0.04605330154299736, -0.06911132484674454, -0.15987075865268707, 0.08032571524381638, -0.13288651406764984, -0.0747222825884819, -0.07215683907270432, 0.13006113469600677, 0.007557719014585018, 0.10036122798919678, 0.12158419191837311, 0.10993584990501404, 0.2629619836807251, 0.24352523684501648, 0.047552041709423065, -0.08279699832201004, -0.029590900987386703, 0.073835588991642, 0.07586372643709183, -0.1592690646648407, -0.11384169012308121, -0.04312295839190483, -0.051277920603752136, 0.10942438244819641, 0.13592886924743652, 0.06776884198188782, -0.11492545902729034, 0.3270202577114105, -0.2567192018032074, -0.18877890706062317, -0.006838964764028788, 0.1918083280324936, 0.1495874524116516, -0.0460299551486969, -0.01856456696987152, -0.05501255765557289, -0.10096172243356705, 0.049061525613069534, 0.1054142639040947, 0.15314747393131256, 0.028449546545743942, -0.05112738534808159, 0.13072480261325836, 0.08607225865125656, 0.07749076932668686, -0.15963132679462433, -0.08183658123016357, 0.3866194188594818, 0.030162641778588295, -0.16481350362300873, -0.3708120584487915, -0.08273882418870926, 0.03829100728034973], [-0.2089347392320633, -0.02214464731514454, -0.15733374655246735, -0.28329455852508545, -0.18650858104228973, 0.1479334980249405, 0.06367052346467972, -0.005142529029399157, 0.09174563735723495, 0.0207804124802351, 0.05571960657835007, -0.07535093277692795, 0.07014958560466766, -0.010922007262706757, -0.06299372762441635, 0.05972667038440704, -0.10454342514276505, -0.033389344811439514, -0.02460222691297531, -0.10658454149961472, 0.31000903248786926, 0.07990773767232895, 0.04838002473115921, -0.11464287340641022, -0.10906467586755753, 0.17244595289230347, 0.2003982663154602, 0.1257866770029068, -0.1568244993686676, 0.05676824972033501, -0.25765568017959595, -0.005707156378775835, 0.07333923131227493, -0.01690276525914669, 0.11660263687372208, -0.16090494394302368, -0.13236497342586517, 0.20668816566467285, 0.19155962765216827, 0.0697418823838234, 0.09973020106554031, -0.08344972878694534, 0.0664789229631424, -0.06843022257089615, 0.05433977022767067, -0.06685975939035416, -0.00650401134043932, 0.07829172164201736, 0.010665558278560638, -0.29355868697166443, 0.17568497359752655, -0.03931562229990959, -0.051320962607860565, -0.2090320587158203, 0.06697678565979004, 0.034324850887060165, 0.23175030946731567, -0.04022713378071785, -0.026070870459079742, 0.20619888603687286, 0.03203059360384941, 0.08216844499111176, 0.03693690523505211, 0.17583368718624115, 0.2041095346212387, 0.11034948378801346], [-0.05729358643293381, 0.30138444900512695, -0.08873409777879715, -0.057196810841560364, -0.04787049815058708, -0.03730977326631546, 0.22310984134674072, -0.010960368439555168, 0.03599828854203224, 0.24568916857242584, -0.0957818329334259, -0.022013690322637558, -0.16564098000526428, 0.07056750357151031, 0.19402369856834412, 0.038734015077352524, 0.009889661334455013, -0.061938922852277756, -0.014881063252687454, -0.3142412304878235, 0.21532253921031952, -0.07972097396850586, -0.01822536066174507, 0.11227364838123322, 0.12966124713420868, 0.0626453161239624, -0.16813983023166656, 0.27425599098205566, 0.0025530587881803513, -0.18723562359809875, 0.18700765073299408, -0.14213672280311584, -0.2099965214729309, 0.20412692427635193, -0.025533225387334824, -0.005497128237038851, 0.10374561697244644, -0.0034066408406943083, -0.003896166104823351, 0.12577100098133087, 0.10698919743299484, 0.06015675887465477, 0.15126539766788483, 0.06034056842327118, 0.11320213973522186, 0.06408166885375977, -0.1626049429178238, -0.08545643091201782, 0.02130642719566822, -0.061952073127031326, 0.10267843306064606, 0.14984799921512604, -0.049342188984155655, 0.16545452177524567, 0.18022210896015167, 0.03622056171298027, 0.008842146955430508, -0.16971035301685333, 0.14158056676387787, 0.2896779477596283, -0.05727865546941757, -0.21013224124908447, -0.021081212908029556, -0.010972186923027039, -0.07792707532644272, -0.13450318574905396], [-0.06194556504487991, -0.039171960204839706, 0.3837989270687103, -0.059759460389614105, -0.0636390969157219, 0.14550797641277313, -0.2414321005344391, -0.07289177179336548, -0.07139216363430023, -0.03822369500994682, 0.04484502226114273, -0.10599902272224426, 0.09763942658901215, -0.18036557734012604, 0.343770295381546, 0.013069704174995422, -0.13840897381305695, 0.04873490706086159, -0.04847041144967079, 0.0831291601061821, 0.010283115319907665, -0.007531235925853252, -0.16219794750213623, -0.0022124056704342365, -0.08057976514101028, -0.03825640678405762, 0.14974480867385864, -0.036816779524087906, 0.15444575250148773, 0.18127986788749695, 0.2537729740142822, 0.07434167712926865, 0.017122432589530945, -0.08207117766141891, -0.04884086176753044, 0.024174809455871582, -0.013354476541280746, -0.40539994835853577, 0.10597940534353256, -0.05119673162698746, 0.14980380237102509, -0.009170896373689175, 0.1727791726589203, -0.09533068537712097, -0.04450325295329094, -0.08939927071332932, 0.26618820428848267, -0.05822315439581871, -0.02303776890039444, -0.365861713886261, -0.040129486471414566, -0.137378990650177, 0.12673768401145935, -0.053600724786520004, -0.1407659500837326, -0.11525397002696991, -0.08261320739984512, -0.14816507697105408, 0.06579551845788956, 0.00439275661483407, -0.24352629482746124, 0.13305646181106567, 0.028041206300258636, -0.03391680493950844, 0.07549361884593964, -0.12607157230377197], [0.07082536816596985, 0.15297831594944, 0.07823099941015244, -0.008467714302241802, -0.15235655009746552, 0.02470937930047512, 0.2522551715373993, 0.22192668914794922, 0.1406272053718567, -0.20591533184051514, -0.00200293050147593, 0.0706794336438179, -0.012240778654813766, 0.04911325126886368, -0.09484831243753433, 0.0864252820611, 0.1750113070011139, -0.07274201512336731, 0.1214577779173851, 0.18757903575897217, 0.2705521881580353, 0.13245895504951477, 0.23117990791797638, 0.09289023280143738, 0.12591536343097687, -0.11098537594079971, 0.08745123445987701, 0.07091572880744934, -0.1647675484418869, -0.05098998546600342, 0.15419860184192657, -0.12449302524328232, -0.33860647678375244, -0.05314306914806366, -0.03507412225008011, -0.06927221268415451, -0.081194207072258, 0.17837442457675934, -0.015348471701145172, -0.05381353944540024, 0.04743586480617523, 0.09760355204343796, 0.030949821695685387, -0.09899654239416122, -0.03806004673242569, -0.023751812055706978, 0.10624415427446365, 0.1513100564479828, 0.06053708493709564, 0.15557540953159332, 0.0014898244990035892, -0.13834767043590546, 0.24935778975486755, 0.04468420147895813, 0.006500552408397198, -0.17026059329509735, 0.07294154912233353, 0.052919741719961166, -0.04329444840550423, -0.02790060080587864, -0.15010105073451996, -0.08336842805147171, -0.24289502203464508, 0.09422637522220612, 0.11011109501123428, -0.04372674599289894], [-0.003157226135954261, -0.04895581305027008, -0.17689582705497742, 0.028042253106832504, 0.1952473521232605, 0.13926832377910614, -0.001352805644273758, 0.04700332507491112, 0.1425975114107132, 0.11539671570062637, -0.07960242033004761, -0.0315764956176281, -0.15186293423175812, -0.04187488555908203, -0.10756121575832367, 0.12464705854654312, 0.13006216287612915, -0.1726730316877365, -0.10791807621717453, -0.15286287665367126, 0.2194288820028305, 0.02147047407925129, 0.045751091092824936, 0.2801142632961273, 0.19997207820415497, 0.054232753813266754, -0.14098820090293884, 0.04111839458346367, 0.20148910582065582, -0.29016005992889404, -0.07430259883403778, 0.1795964390039444, 0.0618620403110981, -0.18529373407363892, -0.12398898601531982, -0.21745645999908447, -0.05163205415010452, 0.21469898521900177, -0.277522474527359, -0.182924285531044, -0.12774309515953064, -0.07241322100162506, -0.17088095843791962, -0.0632452517747879, 0.10132917761802673, -0.060226574540138245, 0.2898522913455963, -0.10392224788665771, 0.053004857152700424, -0.16765810549259186, 0.10566191375255585, 0.03570340573787689, -0.1794731318950653, 0.11110927164554596, 0.0189504437148571, -0.08326221257448196, -0.08993717283010483, -0.02994377724826336, 0.1058623194694519, 0.028465550392866135, 0.13225635886192322, 0.015933949500322342, -0.2361961305141449, 0.1057823970913887, -0.019440706819295883, -0.03154294565320015], [-0.1701612025499344, 0.16839075088500977, -0.24510227143764496, 0.0403481125831604, 0.1602696031332016, -0.09073810279369354, 0.06537457555532455, -0.0785447210073471, 0.20801666378974915, -0.028600014746189117, -0.07271196693181992, -0.10754167288541794, -0.14378461241722107, 0.10108871757984161, 0.19773778319358826, 0.0891944095492363, 0.2572017014026642, 0.3373154401779175, 0.2314741313457489, -0.009862329810857773, 0.011752760037779808, 0.11177249997854233, 0.010519983246922493, 0.5103626847267151, 0.1207282692193985, 0.0523047000169754, -0.009403089992702007, 0.037441905587911606, -0.027057381346821785, 0.041965384036302567, -0.33985838294029236, -0.12499633431434631, 0.05673367157578468, 0.11247582733631134, 0.0340147539973259, -0.14606496691703796, 0.16985945403575897, 0.060440730303525925, -0.05077572539448738, -0.017196353524923325, 0.05203990638256073, 0.06490209698677063, 0.029711134731769562, 0.058304913341999054, -0.17817308008670807, -0.022996248677372932, -0.07941535115242004, 0.024881528690457344, -0.039678268134593964, -0.009737225249409676, 0.07141347229480743, -0.15388666093349457, -0.05392846465110779, 0.09512341022491455, -0.19773970544338226, -0.09228925406932831, -0.1078004390001297, -0.04330168664455414, -0.04772305488586426, 0.13030900061130524, 0.05988876894116402, -0.22970542311668396, -0.24165946245193481, -0.135447695851326, -0.09879255294799805, -0.14729799330234528], [-0.026916133239865303, 0.08995887637138367, -0.24206042289733887, -0.2894456386566162, 0.010345620103180408, -0.18319018185138702, -0.101363904774189, -0.0802474319934845, 0.281953901052475, -0.2875808775424957, -0.11100979894399643, -0.016887499019503593, 0.001391142257489264, -0.1455429494380951, -0.08182967454195023, -0.11836961656808853, -0.028001712635159492, 0.11177588254213333, -0.047936856746673584, -0.05244867503643036, 0.0035756833385676146, 0.06303127855062485, 0.03718468174338341, 0.06780269742012024, 0.21387247741222382, 0.009162896312773228, 0.002402459504082799, 0.17299175262451172, -0.10768537223339081, 0.17007222771644592, -0.15802925825119019, -0.05371585488319397, -0.1793327033519745, -0.0021647466346621513, -0.041972409933805466, -0.10809126496315002, -0.02057347074151039, 0.0838453620672226, -0.1306823492050171, -0.001734620425850153, -0.19935350120067596, 0.000748271297197789, 0.11077599972486496, -0.25681188702583313, 0.19068141281604767, 0.09254010021686554, 0.061340827494859695, -0.26795268058776855, 0.19035591185092926, 0.009197919629514217, 0.10526136308908463, 0.0207222867757082, 0.014187331311404705, 0.22323398292064667, 0.11782819777727127, 0.14864593744277954, 0.04109584540128708, -0.22206734120845795, 0.12243484705686569, 0.015332188457250595, 0.10657338798046112, -0.025050843134522438, -0.04543324187397957, -0.23377841711044312, -0.18285667896270752, -0.07796425372362137], [-0.09110859036445618, -0.048381906002759933, -0.39489448070526123, -0.12400935590267181, 0.026988685131072998, -0.0375274121761322, 0.009311278350651264, -0.06154705211520195, 0.018967969343066216, 0.22690653800964355, -0.12593843042850494, 0.023904966190457344, -0.11537834256887436, 0.09324943274259567, -0.14473256468772888, -0.022053595632314682, -0.12199220806360245, -0.15379750728607178, 0.1930193454027176, 0.12511678040027618, 0.05999036505818367, 0.0840221419930458, 0.16887620091438293, -0.008442028425633907, 0.0633494034409523, 0.013871295377612114, -0.2605503499507904, -0.0008923925925046206, 0.2403590977191925, 0.058095794171094894, -0.04662299156188965, -0.1514258086681366, -0.26170259714126587, 0.02248711884021759, -0.1475597620010376, -0.01360778696835041, 0.24257495999336243, -0.03094606287777424, 0.12060357630252838, -0.09588626772165298, -0.1686672419309616, 0.10457222163677216, 0.043478261679410934, -0.011487489566206932, 0.017996007576584816, -0.16089458763599396, -0.05734677240252495, 0.03932889550924301, 0.1797264814376831, -0.062203556299209595, -0.05901694670319557, 0.006115681957453489, 0.040680211037397385, 0.08846160024404526, -0.1451176553964615, 0.000577111728489399, -0.17443276941776276, -0.005923899821937084, -0.06383224576711655, -0.04711803048849106, 0.10954368114471436, 0.033113133162260056, -0.08421532064676285, -0.14806251227855682, 0.3830951154232025, 0.009641464799642563], [-0.10943655669689178, -0.10456366091966629, 0.17834341526031494, -0.0564144141972065, -0.4037042558193207, -0.15094491839408875, -0.1306459903717041, 0.01542371604591608, -0.10205335170030594, 0.11259780079126358, 0.09735660254955292, -0.006828863639384508, 0.008455892093479633, -0.0077674356289207935, -0.04293292388319969, 0.12915927171707153, 0.1183817908167839, 0.008970350958406925, -0.14647743105888367, 0.24379375576972961, 0.07896817475557327, 0.17465552687644958, 0.050419557839632034, -0.01426720805466175, 0.02998720481991768, -0.11287236213684082, 0.14083237946033478, -0.14233380556106567, 0.07250159233808517, 0.037916772067546844, -0.0764930248260498, 0.009304875507950783, 0.21907150745391846, -0.02010413073003292, 0.03705945983529091, 0.17769843339920044, -0.07355567067861557, -0.10226617008447647, -0.08888379484415054, -0.011082246899604797, 0.07616996020078659, -0.1355869323015213, 0.2676424980163574, 0.1265757828950882, 0.27470555901527405, 0.12851582467556, -0.17083103954792023, 0.07827344536781311, -0.05944947898387909, 0.19121381640434265, -0.19523382186889648, -0.03343728184700012, -0.20942895114421844, 0.12409348785877228, -0.05211576446890831, -0.24014471471309662, -0.09915360808372498, -0.09613876044750214, -0.009758448228240013, -0.1083308756351471, 0.12567713856697083, -0.060825563967227936, 0.04863053932785988, -0.01906190812587738, 0.19745934009552002, -0.15701286494731903], [0.16781842708587646, 0.09792876243591309, -0.08868277072906494, -0.0588899701833725, 0.01793167181313038, 0.10673122853040695, 0.036637384444475174, 0.007232465781271458, 0.048238225281238556, -0.07481454312801361, -0.09335582703351974, -0.12866823375225067, -0.12742212414741516, -0.0401831716299057, 0.09599467366933823, 0.058841533958911896, -0.1030680388212204, -0.17919324338436127, -0.2856188416481018, 0.08723597973585129, 0.04907660931348801, -0.15187202394008636, 0.04082309082150459, -0.2177247852087021, -0.23747040331363678, 0.1073906421661377, -0.027373213320970535, -0.3125016987323761, -0.21017661690711975, -0.110913947224617, 0.2149946689605713, -0.036665964871644974, 0.34236785769462585, 0.14723807573318481, 0.11979738622903824, -0.10331431776285172, 0.016595177352428436, 0.06308618187904358, -0.23321408033370972, -0.19188763201236725, -0.016138577833771706, 0.01870201900601387, 0.18979933857917786, -0.09802611172199249, -0.1077277660369873, -0.024377435445785522, -0.10078111290931702, 0.006367802154272795, -0.07849549502134323, 0.09313229471445084, -0.2963625192642212, -0.03169608116149902, 0.18121463060379028, -0.022190485149621964, -0.009937581606209278, -0.05998831242322922, -0.024544360116124153, -0.029777176678180695, 0.03159882873296738, -0.03698532655835152, -0.04773438349366188, 0.09306669235229492, -0.026698827743530273, -0.08891404420137405, 0.22821474075317383, -0.07122082263231277], [0.0021749294828623533, 0.256760835647583, -0.25426211953163147, -0.026275625452399254, 0.011099044233560562, 0.03709603101015091, -0.050716694444417953, -0.12920652329921722, 0.07948285341262817, 0.12895749509334564, -0.21176527440547943, -0.08509991317987442, 0.14385154843330383, -0.06758036464452744, -0.12941652536392212, 0.09476815164089203, 0.11724891513586044, 0.026824921369552612, 0.12673915922641754, 0.05759818106889725, -0.014810792170464993, 0.14142417907714844, 0.11180926859378815, 0.251867413520813, 0.08121222257614136, 0.19060513377189636, -0.2551124691963196, 0.466856986284256, -0.1505529284477234, -0.16406457126140594, -0.023899339139461517, 0.0860741138458252, 0.016270458698272705, -0.24879316985607147, -0.09770034998655319, 0.03560107201337814, 0.10404247790575027, -0.011606999672949314, 0.007291702553629875, -0.1480904072523117, -0.19316446781158447, -0.05090709030628204, 0.0900520607829094, 0.0064523788169026375, 0.1130812019109726, 0.04856618121266365, -0.1479097157716751, -0.24903438985347748, -0.23961840569972992, 0.11583994328975677, -0.038994334638118744, -0.08343730121850967, 0.1832856833934784, -0.0880703404545784, -0.04772239178419113, -0.10770853608846664, 0.2511895000934601, -0.00022423012705985457, -0.061254359781742096, 0.1777670979499817, -0.07328467071056366, -0.02419128268957138, -0.0598905086517334, 0.012373083271086216, -0.04222680628299713, 0.09451352804899216], [0.0938696563243866, 0.07498107850551605, -0.0037995525635778904, 0.024173948913812637, 0.07854080945253372, 0.18879133462905884, -0.04819227755069733, -0.12194576114416122, 0.15504729747772217, -0.07397075742483139, -0.005237807985395193, 0.08481437712907791, -0.17040148377418518, -0.02097056247293949, -0.36948007345199585, -0.03625069931149483, -0.1054338812828064, 0.07417386770248413, -0.22246691584587097, -0.06415599584579468, 0.22487729787826538, -0.17166286706924438, 0.0689302310347557, 0.12872342765331268, 0.21126273274421692, 0.04599177464842796, -0.09216002374887466, 0.041431598365306854, -0.15364289283752441, 0.02776564285159111, -0.18232126533985138, -0.0982283279299736, -0.029643138870596886, -0.006529807113111019, -0.026088297367095947, 0.04695938900113106, 0.25584280490875244, -0.22496533393859863, -0.10075368732213974, -0.013082418590784073, 0.04228959605097771, -0.0995151475071907, -0.09547178447246552, -0.0020461773965507746, 0.09601554274559021, -0.2132132351398468, -0.16662169992923737, -0.09934743493795395, 0.18757542967796326, -0.08366498351097107, 0.1698983609676361, -0.05663558840751648, 0.08047965914011002, 0.19654127955436707, -0.056051962077617645, -0.11591740697622299, 0.15160194039344788, 0.2761702835559845, -0.06762931495904922, 0.0008317605243064463, -0.10796210169792175, -0.256925493478775, -0.02824232541024685, 0.007193162105977535, 0.04835778847336769, 0.11855696886777878], [-0.18417905271053314, 0.21565943956375122, 0.2708657681941986, 0.06612980365753174, -0.05620260536670685, -0.033634692430496216, 0.08508184552192688, -0.04855747148394585, -0.31318309903144836, -0.18201076984405518, 0.08681483566761017, 0.08731396496295929, -0.07465746253728867, 0.014782089740037918, 0.2041548192501068, -0.21824900805950165, -0.2553371787071228, -0.04923389106988907, -0.01704452559351921, 0.09208837896585464, 0.02232959307730198, -0.10039445757865906, 0.015177439898252487, -0.18539583683013916, -0.1759730726480484, -0.2024117261171341, 0.3424225449562073, -0.08832422643899918, 0.18868707120418549, -0.0510643795132637, -0.1574297398328781, 0.3368060290813446, 0.005102191120386124, 0.09281034767627716, 0.14619708061218262, -0.10992947965860367, 0.19488270580768585, 0.12349404394626617, -0.030391238629817963, -0.026699356734752655, -0.21002286672592163, -0.0019036545418202877, 0.10022873431444168, 0.1120646744966507, -0.037525586783885956, -0.028684189543128014, -0.0596345029771328, -0.2154719978570938, -0.06553788483142853, -0.01797671429812908, -0.09680875390768051, 0.10778046399354935, -0.015260172076523304, -0.08466528356075287, -0.18546293675899506, -0.0649968683719635, -0.04309249669313431, -0.08278710395097733, 0.08673042804002762, -0.16104575991630554, -0.14224854111671448, 0.14638839662075043, 0.012295952066779137, -0.007256383541971445, -0.027420882135629654, 0.20469266176223755], [0.11485495418310165, -0.15667445957660675, 0.078842893242836, -0.1102444976568222, 0.09962932020425797, 0.06100081279873848, 0.1300106942653656, -0.0051935273222625256, 0.08988618105649948, -0.07560189068317413, -0.3370717167854309, 0.2935003638267517, 0.11138779670000076, -0.006953349336981773, -0.01801064796745777, 0.1155305728316307, 0.024719614535570145, -0.11538969725370407, 0.05829386040568352, -0.18487760424613953, 0.19083622097969055, 0.03925595059990883, -0.06753722578287125, 0.17937885224819183, 0.09688955545425415, -0.10915524512529373, 0.0012367983581498265, -0.17448194324970245, 0.08230548352003098, -0.15989238023757935, -0.1406400501728058, -0.078048937022686, -0.11444522440433502, -0.15566013753414154, 0.06741834431886673, 0.11118487268686295, 0.11842948943376541, -0.037581946700811386, -0.08006950467824936, -0.10519559681415558, 0.0505400225520134, -0.022951630875468254, 0.18886585533618927, -0.09384823590517044, -0.09426045417785645, 0.1318446397781372, -0.18695399165153503, -0.034890491515398026, -0.0644114688038826, -0.02469600923359394, 0.16728197038173676, 0.05547305569052696, 0.27425798773765564, -0.08025629073381424, -0.025276480242609978, 0.030373016372323036, -0.11373287439346313, 0.010539602488279343, 0.02839696779847145, -0.020259859040379524, 0.4435010552406311, -0.13603736460208893, 0.2132650911808014, 0.10215504467487335, 0.038280319422483444, 0.19445200264453888], [0.17006747424602509, -0.14721959829330444, -0.07147472351789474, -0.03776497766375542, -0.22235870361328125, 0.07269740104675293, -0.0031964390072971582, 0.013072537258267403, 0.10403233021497726, 0.0813230350613594, -0.13970834016799927, -0.2704778015613556, 0.26877349615097046, -0.1045013964176178, -0.23690372705459595, -0.16310258209705353, -0.14280933141708374, 0.014911874197423458, -0.11666636168956757, -0.05236920714378357, 0.0666019394993782, -0.09975355863571167, -0.06318219006061554, 0.24847163259983063, 0.18775393068790436, 0.028365347534418106, 0.004428897984325886, 0.0300962645560503, 0.05060010030865669, 0.004098051693290472, -0.14814084768295288, -0.043158721178770065, -0.1553671956062317, 0.15834234654903412, -0.019364597275853157, 0.08551144599914551, 0.017704084515571594, 0.122096948325634, -0.210860937833786, 0.1751815676689148, 0.06081216409802437, 0.07827895879745483, -0.08830960094928741, 0.16581235826015472, -0.06068214774131775, 0.1309663951396942, 0.09575392305850983, 0.28163474798202515, -0.0797746479511261, 0.13925503194332123, -0.030655870214104652, 0.03509894013404846, 0.20492704212665558, -0.020015571266412735, -0.19754546880722046, -0.189596489071846, -0.07326258718967438, -0.29367461800575256, 0.1521788388490677, 0.12531857192516327, -0.05142764374613762, 0.08078449964523315, -0.05090215802192688, -0.13524559140205383, -0.02800201252102852, 0.19248153269290924], [-0.11333783715963364, -0.109009750187397, 0.09187377989292145, 0.08227436244487762, 0.11841340363025665, 0.020643778145313263, -0.027560174465179443, 0.32966259121894836, 0.006224862765520811, 0.12849824130535126, 0.11580633372068405, 0.2641228437423706, 0.1326119601726532, 0.1866045743227005, -0.09463325142860413, -0.009502447210252285, -0.27675768733024597, 0.0762438252568245, -0.014020967297255993, -0.14527110755443573, 0.23859909176826477, -0.17107489705085754, 0.12147172540426254, -0.11562315374612808, 0.09585551172494888, 0.17838342487812042, -0.08184951543807983, 0.2702275812625885, 0.04272180050611496, 0.012531404383480549, -0.07614489644765854, 0.03242671489715576, 0.10407058894634247, -0.018837247043848038, 0.00830607395619154, -0.08416064083576202, -0.01575521193444729, -0.11425045132637024, 0.011928027495741844, -0.020645828917622566, 0.053016435354948044, 0.13777174055576324, 0.10552247613668442, 0.021189134567975998, -0.0802912786602974, 0.10349775105714798, 0.07083077728748322, -0.11516095697879791, -0.13215121626853943, -0.08697781711816788, 0.06612233817577362, 0.010016785934567451, 0.021120861172676086, 0.17653559148311615, -0.021766936406493187, 0.14958304166793823, 0.013834995217621326, -0.19239242374897003, -0.08634806424379349, -0.0558263324201107, 0.052627336233854294, -0.030329905450344086, -0.3082340359687805, -0.08501056581735611, 0.07320016622543335, 0.36956414580345154], [0.13316474854946136, 0.055858954787254333, -0.04704255238175392, 0.07784420251846313, -0.2874152958393097, -0.13871492445468903, -0.15499582886695862, 0.1302768886089325, -0.30381667613983154, -0.14447008073329926, 0.17100706696510315, -0.035635851323604584, 0.20448507368564606, -0.11857208609580994, 0.17865422368049622, -0.05026135966181755, -0.03678521141409874, -0.03376372903585434, -0.055007945746183395, 0.0599362775683403, 0.0072776624001562595, -0.03128359839320183, -0.11369065940380096, -0.09085366129875183, -0.34371218085289, 0.023687629029154778, 0.10904157161712646, -0.24572968482971191, 0.2513297200202942, 0.14501798152923584, 0.1184883564710617, -0.17617236077785492, 0.09205108135938644, -0.19433000683784485, 0.023921789601445198, -0.12771600484848022, 0.19150979816913605, -0.07132594287395477, 0.03665471822023392, -0.2522065341472626, 0.03404548764228821, 0.19561001658439636, -0.10752630978822708, -0.05329242721199989, 0.07101449370384216, 0.05979190766811371, -0.14272578060626984, -0.04115648195147514, -0.027193451300263405, 0.06745686382055283, 0.3233504593372345, 0.04294944182038307, -0.09060690551996231, -0.09228474646806717, 0.03747224807739258, -0.11362673342227936, 0.060644686222076416, -0.10160081088542938, 0.05117008835077286, 0.10798701643943787, -0.08833774924278259, 0.10548694431781769, -0.16499899327754974, 0.13272719085216522, -0.14750662446022034, -0.09704125672578812], [-0.05311460793018341, 0.07126817852258682, 0.045077305287122726, -0.004136784002184868, 0.04890839383006096, -0.2785772383213043, -0.010741176083683968, 0.15036185085773468, -0.2675849199295044, -0.29263752698898315, 0.0328470915555954, -0.2489972859621048, 0.012803103774785995, -0.2006208598613739, -0.003168876748532057, 0.05501296743750572, 0.012722005136311054, 0.3119504153728485, -0.1029185801744461, 0.034254107624292374, -0.015082140453159809, -0.11803914606571198, -0.031979188323020935, -0.16601429879665375, -0.06402841955423355, -0.0740291103720665, -0.0558781623840332, 0.02749582566320896, 0.006553799845278263, -0.011657604947686195, 0.16876207292079926, 0.07697965949773788, -0.038168903440237045, -0.1493787318468094, 0.009489691816270351, 0.12305507063865662, 0.013143695890903473, 0.1474064588546753, 0.15370739996433258, 0.14945834875106812, 0.01812852919101715, 0.1653924137353897, 0.18957172334194183, -0.07698265463113785, 0.11785297095775604, -0.15755683183670044, 0.1540265679359436, -0.18671804666519165, -0.21994633972644806, -0.06068788468837738, -0.1912446767091751, 0.10351772606372833, -0.16435176134109497, -0.14262937009334564, -0.051921967417001724, -0.07187268137931824, -0.307529479265213, 0.10501421242952347, -0.044100321829319, 0.3725428581237793, 0.07907253503799438, -0.1716700792312622, 0.02349865809082985, 0.020711300894618034, 0.06355933099985123, -0.08498029410839081], [-0.20397739112377167, -0.003611956024542451, 0.2952965199947357, 0.04991795867681503, 0.030136533081531525, -0.05064037814736366, -0.16349810361862183, -0.10226418823003769, -0.03059416450560093, 0.07832175493240356, 0.2813427746295929, 0.10262662172317505, 0.1907176375389099, 0.09246595948934555, 0.010685215704143047, 0.11813778430223465, 0.038524508476257324, -0.03888934850692749, 0.04406726360321045, 0.2357800155878067, -0.04827677458524704, -0.2917134761810303, -0.04524058848619461, 0.014166407287120819, -0.09538251906633377, -0.03773973882198334, 0.2027403712272644, -0.2341752052307129, 0.003836255520582199, 0.19592520594596863, 0.15011093020439148, 0.14859497547149658, 0.06733366847038269, 0.138414666056633, -0.1306045800447464, -0.12041463702917099, 0.05364122614264488, -0.06825734674930573, -0.08595917373895645, -0.010960730724036694, 0.033777762204408646, 0.23096370697021484, 0.11677124351263046, -0.013069934211671352, -0.03547775372862816, -0.12072587013244629, 0.053562480956315994, -0.09296901524066925, 0.1437446027994156, 0.3370068669319153, -0.22950054705142975, 0.0660402774810791, -0.02240373007953167, -0.07297588139772415, 0.12491122633218765, -0.0924554094672203, 0.015866737812757492, -0.017460767179727554, -0.073106549680233, 0.18698503077030182, 0.32164210081100464, 0.3828471601009369, 0.17895950376987457, 0.1980729103088379, 0.04357580840587616, -0.15053711831569672], [0.11036130040884018, 0.026788273826241493, -0.08963823318481445, 0.05827348306775093, 0.18418295681476593, -0.2341809868812561, 0.2662269175052643, -0.1895345002412796, 0.3638822138309479, -0.08668525516986847, 0.13968010246753693, 0.1842809021472931, 0.04281134903430939, -0.1007634699344635, -0.08881138265132904, -0.09846752136945724, -0.06663747131824493, 0.034910231828689575, -0.011409342288970947, -0.16109538078308105, 0.052106525748968124, 0.01820719614624977, -0.1861637979745865, 0.09950339049100876, -0.1363951712846756, 0.16824589669704437, -0.09774001687765121, -0.00477974908426404, 0.09562160074710846, -0.006759887095540762, 0.057515956461429596, 0.008093965239822865, -0.06119251251220703, -0.14255402982234955, -0.29066216945648193, -0.1666044443845749, 0.02572004497051239, 0.058816391974687576, -0.11254008859395981, 0.19534346461296082, 0.05061332508921623, -0.20436440408229828, 0.11818846315145493, 0.14430050551891327, 0.09415046125650406, -0.03914244472980499, -0.0970517173409462, 0.06114700809121132, -0.06899027526378632, 0.020589498803019524, 0.04424164071679115, 0.03795670345425606, 0.04079117998480797, -0.1402410864830017, -0.011746464297175407, 0.08626564592123032, 0.09412235766649246, 0.07381746917963028, 0.060689426958560944, -0.08650743961334229, -0.1123524010181427, -0.08183708041906357, -0.14625270664691925, -0.03654748946428299, 0.21567070484161377, -0.07393261045217514], [0.043220940977334976, -0.11952609568834305, 0.23931533098220825, -0.07104181498289108, 0.010595918633043766, 0.07095358520746231, 0.028537258505821228, 0.2039181888103485, -0.11799202859401703, -0.01911933906376362, 0.1920899897813797, 0.016235366463661194, -0.2571365237236023, 0.24169883131980896, 0.11457712948322296, -0.08820538967847824, -0.06613188982009888, -0.04212917760014534, 0.1380453258752823, 0.10846737772226334, -0.02329971455037594, 0.24206191301345825, -0.27441567182540894, 0.0074701085686683655, -0.3433886170387268, -0.02765796333551407, -0.02876952663064003, -0.0918029397726059, -0.15974800288677216, -0.05531303584575653, -0.038551222532987595, -0.062158744782209396, -0.007328628096729517, -0.06099856272339821, 0.003395787440240383, 0.005298878066241741, 0.1381533443927765, -0.1560860425233841, -0.1067577376961708, -0.020593805238604546, -0.007958957925438881, -0.06679368764162064, -0.022043541073799133, -0.08047590404748917, 0.25131112337112427, -0.16902749240398407, 0.02996303141117096, 0.04806944355368614, -0.002925611799582839, -0.02961546741425991, -0.21091921627521515, 0.12472836673259735, 0.13723614811897278, 0.07396615296602249, 0.23097868263721466, -0.00924889836460352, -0.09704314172267914, -0.11601142585277557, 0.01855635643005371, -0.004125292878597975, -0.08219994604587555, 0.10979621112346649, 0.030336396768689156, 0.02732856757938862, -0.039297014474868774, 0.489311158657074], [-0.04491541534662247, 0.10855772346258163, 0.009755590930581093, 0.29706892371177673, -0.2935022711753845, 0.05148034915328026, -0.17223748564720154, -0.344905287027359, -0.20092834532260895, -0.1307281106710434, -0.07867283374071121, 0.11507795006036758, -0.21351948380470276, 0.019350431859493256, 0.12389954924583435, 0.15481440722942352, -0.10927527397871017, 0.25204944610595703, 0.15337038040161133, -0.024955665692687035, 0.19694724678993225, -0.006707165855914354, -0.12421243637800217, -0.19145604968070984, 0.21883417665958405, 0.15027260780334473, 0.016073307022452354, 0.014527318067848682, 0.06974514573812485, -0.0595008060336113, -0.027289604768157005, -0.06764271855354309, 0.00390860578045249, 0.020514296367764473, -0.025779791176319122, -0.061309512704610825, -0.005562930833548307, 0.12521453201770782, 0.019815795123577118, -0.014608407393097878, -0.05610162764787674, -0.07873082160949707, -0.09595619142055511, -0.06966788321733475, 0.10532785952091217, -0.08101261407136917, 0.07717836648225784, 0.09691543877124786, 0.004129371140152216, 0.09540820121765137, 0.014002891257405281, 0.3752947747707367, 0.2433774173259735, -0.2108985185623169, 0.15893509984016418, 0.1705656498670578, -0.05945576727390289, -0.008667828515172005, -0.06383249908685684, -0.006396072916686535, -0.0012054903199896216, 0.13807663321495056, -0.15073145925998688, 0.030502889305353165, -0.083277128636837, -0.12591968476772308], [-0.14348599314689636, -0.08489695936441422, 0.0991644486784935, 0.032317083328962326, -0.13923807442188263, -0.042829930782318115, -0.17159627377986908, 0.15535235404968262, -0.025986669585108757, 0.05491773411631584, -0.1245218962430954, 0.21432407200336456, -0.08532125502824783, -0.07084909826517105, 0.23649831116199493, 0.011250579729676247, 0.13768452405929565, 0.03294067829847336, -0.10369753837585449, 0.2458099126815796, -0.1538887470960617, -0.3108752369880676, -0.09006902575492859, -0.33054032921791077, -0.02982526831328869, 0.003505466505885124, 0.11216219514608383, -0.16286471486091614, -0.04695430397987366, 0.03321857750415802, 0.024562641978263855, 0.08470644801855087, -0.01162027008831501, -0.09794092923402786, -0.3294428586959839, -0.17161066830158234, 0.03834092617034912, 0.004199634771794081, 0.05603081360459328, 0.20134472846984863, -0.13139145076274872, 0.002243439666926861, -0.18567465245723724, -0.045581329613924026, -0.01867462322115898, 0.1245068684220314, -0.14667393267154694, 0.09330007433891296, -0.06629791855812073, -0.12777447700500488, -0.09322088211774826, -0.21424883604049683, 0.04737621173262596, -0.06627192348241806, 0.1585511416196823, -0.25707289576530457, -0.09254851192235947, -0.14494337141513824, -0.09665598720312119, 0.05322703346610069, 0.0010738583514466882, -0.07054376602172852, 0.1040208637714386, 0.027261022478342056, -0.008059186860918999, 0.06800564378499985], [0.22481007874011993, 0.08049193024635315, -0.0573091059923172, -0.049509063363075256, -0.2602546215057373, 0.006229967810213566, 0.2040644884109497, -0.07384275645017624, -0.026366952806711197, 0.0719296932220459, -0.19738727807998657, -0.02043560892343521, 0.07040440291166306, 0.02156412973999977, -0.13460767269134521, 0.1452924609184265, -0.060708608478307724, -0.17729416489601135, 0.1720018833875656, 0.16598059237003326, 0.2095000445842743, 0.1790906935930252, 0.0352926105260849, 0.225982666015625, -0.051157183945178986, 0.21940048038959503, -0.027007894590497017, -0.21294789016246796, -0.1857704520225525, -0.17109431326389313, -0.007390792015939951, 0.08459301292896271, 0.02821934036910534, 0.07910243421792984, -0.10567594319581985, -0.03768511489033699, -0.2226821780204773, -0.27689555287361145, 0.06565199047327042, 0.3078731894493103, -0.1367196887731552, -0.010521603748202324, -0.08825948089361191, -0.11592469364404678, -0.11035146564245224, 0.10292027145624161, 0.003202119842171669, -0.16933874785900116, 0.16999398171901703, 0.04756461828947067, 0.02501981519162655, -0.014941916801035404, -0.018593421205878258, 0.020003240555524826, -0.2448803335428238, 0.1184334084391594, 0.09656931459903717, -0.06693058460950851, -0.011624163947999477, 0.1468529850244522, 0.03041660599410534, -0.17673839628696442, -0.10189522802829742, -0.16750267148017883, -0.14932368695735931, 0.06250680238008499]]

Nombre del Parámetro: module.0.module.0.0.bias
Pesos:
[-0.04992736503481865, 0.007307562045753002, -0.08965571224689484, 0.09153179824352264, 0.007960502989590168, -0.07346595078706741, 0.061415717005729675, -0.034328002482652664, -0.014154319651424885, 0.07053209096193314, 0.09490008652210236, 0.11031317710876465, 0.004305562935769558, -0.07916104793548584, -0.09460829943418503, -0.07613594084978104, 0.03601355105638504, -0.06115570664405823, 0.0255366750061512, -0.024800186976790428, 0.07376757264137268, -0.017698509618639946, 0.09502534568309784, -0.09211862832307816, -0.15575900673866272, 0.0666671097278595, -0.03506097570061684, 0.03616200387477875, -0.06047046557068825, 0.0575338713824749, -0.11034140735864639, -0.09150530397891998, 0.06356111913919449, 0.038347527384757996, 0.04953262582421303, 0.0702333003282547, 0.0704745203256607, -0.03823940455913544, -7.767851639073342e-05, 0.08411164581775665, -0.014353876933455467, 0.07310429215431213, -0.07300247251987457, 0.07114903628826141, 0.02561403438448906, 0.07424625009298325, 0.07031581550836563, 0.06790859997272491, -0.10396283119916916, 0.007434593513607979, 0.056767918169498444, 0.11959395557641983, -0.07668135315179825, 0.09755182266235352, 0.07272490113973618, -0.11218441277742386, -0.049798984080553055, 0.0240111593157053, -0.04632586985826492, 0.01743113435804844, -0.06611283123493195, -0.18981286883354187, -0.07450885325670242, 0.08354479819536209]

Nombre del Parámetro: module.0.module.0.2.weight
Pesos:
