Nombre del Parámetro: module.0.module.0.0.weight
Pesos:
[[-0.08017315715551376, -0.060303639620542526, -0.02349715866148472, 0.08351144194602966, 0.0639900490641594, 0.006944472435861826, 0.28586339950561523, 0.18126294016838074, 0.14981886744499207, 0.10703423619270325, -0.2362898290157318, 0.14969052374362946, 0.16418398916721344, -0.18157656490802765, -0.3469429016113281, 0.10734471678733826, 0.25996509194374084, -0.3275544345378876, -0.1164013147354126, 0.27372246980667114, -0.15601089596748352, 0.26221227645874023, 0.07446592301130295, 0.05765436962246895, 0.04320765286684036, -0.021430833265185356, -0.038882266730070114, -0.07996588200330734, 0.10415062308311462, -0.2848025858402252, 0.23459011316299438, -0.16605614125728607, -0.17902852594852448, 0.024328671395778656, 0.009991544298827648, 0.1891433596611023, -0.06296083331108093, -0.038342200219631195, 0.0952180027961731, -0.15002788603305817, 0.19581608474254608, 0.037854861468076706, -0.06569664925336838, -0.0030298621859401464, 0.12019374966621399, -0.05025783181190491, 0.16401846706867218, -0.014040950685739517, -0.0005119763663969934, -0.15139992535114288, 0.005431642290204763, -0.19708968698978424, -0.2906705141067505, 0.04428965598344803, -0.1360158622264862, 0.02048337832093239, 0.10585730522871017, -0.1240418404340744, -0.04473767802119255, -0.21089600026607513, -0.1165047287940979, 0.15266433358192444, -0.08703163266181946, 0.24093973636627197, 0.22498328983783722, -0.028813684359192848], [0.20835036039352417, 0.2463969588279724, -0.241225466132164, 0.13581885397434235, -0.012591228820383549, -0.06632265448570251, -0.08729477226734161, 0.044131211936473846, 0.014274287037551403, 0.07333657145500183, -0.08436784148216248, 0.0105616245418787, 0.048836659640073776, -0.05894654989242554, -0.06424969434738159, -0.22433029115200043, 0.29305124282836914, -0.2710851728916168, -0.22891823947429657, 0.023546574637293816, 0.3003130257129669, 0.0765400230884552, -0.05716826021671295, -0.034326259046792984, -0.01506547350436449, 0.001361195812933147, -0.04425926133990288, -0.2378152459859848, 0.016977256163954735, -0.10592138767242432, 0.04709514603018761, -0.4143907129764557, -0.12376084178686142, -0.15882129967212677, 0.0924263522028923, 0.08069097250699997, -0.15948036313056946, -0.028082648292183876, 0.07036812603473663, 0.10275878757238388, 0.1493181586265564, 0.10284985601902008, -0.18317334353923798, 0.07906503975391388, 0.1170707643032074, -0.06800287961959839, 0.04331691190600395, 0.09517008066177368, 0.1410713493824005, -0.04889826104044914, 0.11558257043361664, 0.10644881427288055, 0.2027725875377655, 0.005618903785943985, 0.3448289930820465, -0.177498921751976, 0.045134399086236954, -0.001864047721028328, 0.18991662561893463, -0.074880450963974, 0.05657944455742836, -0.02190057747066021, -0.218928724527359, -0.14359255135059357, -0.050866175442934036, -0.12680871784687042], [0.08321574330329895, 0.07343842089176178, 0.15605318546295166, 0.014456052333116531, 0.11435586214065552, 0.12599895894527435, -0.2915717363357544, 0.15205955505371094, -0.11644403636455536, 0.21424134075641632, -0.0028876077849417925, -0.053711410611867905, 0.060292646288871765, 0.2994835376739502, -0.09293639659881592, -0.13699424266815186, -0.1858336180448532, -0.052346814423799515, 0.13010960817337036, -0.16495680809020996, -0.18816760182380676, 0.01793021708726883, -0.02646940015256405, -0.06494719535112381, 0.009041187353432178, -0.04240843653678894, -0.05178767070174217, -0.05464581400156021, -0.11238652467727661, -0.18137487769126892, -0.1241525262594223, 0.16078594326972961, 0.09547215700149536, 0.24830201268196106, 0.2238573431968689, 0.16010817885398865, 0.08327320963144302, -0.05862843245267868, 0.06405485421419144, 0.027468951418995857, 0.01217520423233509, 0.1291363537311554, 0.25802361965179443, -0.04282703623175621, -0.07325910031795502, -0.14684417843818665, 0.03212474659085274, 0.12447132170200348, -0.1890837699174881, -0.09766128659248352, -0.058209117501974106, -0.002415392315015197, -0.11580131202936172, -0.11922994256019592, 0.08556614816188812, 0.031542789191007614, 0.1238473579287529, 0.2099570631980896, 0.10105621814727783, 0.05535681173205376, 0.11457889527082443, -0.06387598812580109, -0.09967111051082611, -0.07614055275917053, 0.18229901790618896, 0.2308046668767929], [-0.26011478900909424, -0.31201431155204773, 0.22531479597091675, 0.15700559318065643, -0.06820634007453918, -0.03650646656751633, -0.14417891204357147, 0.24602490663528442, -0.07172331213951111, 0.26956936717033386, 0.12269655615091324, 0.019437311217188835, -0.22584104537963867, -0.016902247443795204, 0.1349821537733078, -0.0939682200551033, -0.05394570156931877, 0.13586236536502838, -0.11323043704032898, 0.00843882467597723, -0.06542219966650009, -0.22358043491840363, -0.02931380458176136, 0.13180042803287506, 0.061361782252788544, 0.07852638512849808, -0.05642087385058403, 0.2072218507528305, 0.15334002673625946, 0.010953284800052643, 0.08175045996904373, 0.30612194538116455, 0.16403932869434357, 0.06435152888298035, 0.10348774492740631, 0.026738209649920464, -0.13450348377227783, 0.08515128493309021, -0.006247308570891619, 0.009696259163320065, -0.171091690659523, 0.0957680344581604, -0.16892196238040924, 0.17081458866596222, 0.04552408680319786, -0.0736880972981453, 0.06720679253339767, -0.03479031100869179, 0.07072606682777405, 0.2183811515569687, -0.24389411509037018, 0.06067849323153496, -0.20880445837974548, -0.03101968951523304, 0.2581007778644562, -0.13871926069259644, -0.02598467469215393, -0.06778479367494583, -0.13188977539539337, -0.014420097693800926, -0.020220713689923286, -0.10801374912261963, 0.01711716130375862, 0.03143244981765747, 0.000550003896933049, -0.014106571674346924], [0.016197286546230316, -0.10459326207637787, -0.12990742921829224, -0.06903833895921707, 0.0494142547249794, -0.10483262687921524, 0.11449745297431946, -0.2431446611881256, -0.0034921346232295036, -0.02228900045156479, 0.05223918706178665, -0.13447971642017365, -0.03639798238873482, -0.2822618782520294, -0.19677191972732544, 0.100713811814785, -0.022240683436393738, -0.0604187436401844, 0.1373666375875473, 0.038634151220321655, -0.11788707226514816, 0.07481350004673004, 0.006489775609225035, -0.10122047364711761, 0.06998439133167267, -0.13599935173988342, 0.08998352289199829, -0.12069543451070786, -0.12446098774671555, -0.1861300766468048, 0.30184072256088257, 0.0045326752588152885, -0.1353524923324585, 0.01707608252763748, 0.056603871285915375, -0.003622178453952074, -0.08732417225837708, -0.06993583589792252, 0.20608823001384735, 0.013172104954719543, -0.17977498471736908, 0.23571164906024933, -0.1689824014902115, -0.11610070616006851, 0.053241223096847534, -0.08081994205713272, -0.3723190426826477, 0.15251880884170532, -0.11872007697820663, 0.006397211458534002, -0.11611907184123993, -0.13886289298534393, 0.14147844910621643, -0.05369368568062782, 0.10237129032611847, -0.14772140979766846, -0.2656421661376953, -0.13567838072776794, -0.06326428055763245, -0.12656544148921967, -0.05428798869252205, -0.13726262748241425, -0.04083804786205292, -0.14045214653015137, 0.02965242974460125, -0.07265567779541016], [0.05685286596417427, -0.02324310876429081, 0.03195469453930855, -0.23728179931640625, 0.1493092030286789, 0.15769252181053162, -0.23467697203159332, 0.0015360710676759481, -0.242198646068573, 0.14824174344539642, -0.02548792026937008, 0.08178231865167618, -0.04284530505537987, 0.028172127902507782, 0.11008604615926743, -0.26898425817489624, -0.03929430991411209, 0.08517827093601227, 0.13405553996562958, 0.031178919598460197, -0.017180679365992546, -0.0036309133283793926, 0.12012392282485962, 0.06787359714508057, -0.1119423657655716, 0.10143101960420609, 0.11703603714704514, 0.11918901652097702, 0.14105461537837982, 0.16656851768493652, -0.04412190616130829, -0.13551990687847137, 0.025362616404891014, -0.015675002709031105, 0.19304843246936798, -0.252913236618042, 0.017931023612618446, -0.03152432292699814, 0.05155143141746521, -0.1292228102684021, -0.13490623235702515, -0.11980925500392914, -0.15222853422164917, 0.07982240617275238, -0.027114778757095337, -0.2723972797393799, 0.02312169224023819, -0.19187448918819427, -0.10319957137107849, -0.039816614240407944, -0.4186844229698181, 0.06040233373641968, -0.06125504523515701, 0.06652361154556274, -0.3151148855686188, 0.07631905376911163, 0.0060096122324466705, 0.1416427046060562, -0.06252983212471008, 0.016270972788333893, -0.09307335317134857, 0.08043967187404633, -0.11234566569328308, -0.00816524587571621, 0.041201312094926834, 0.044838666915893555], [0.01061741728335619, -0.09949391335248947, -0.21080231666564941, 0.05668745934963226, -0.08148759603500366, -0.031602732837200165, 0.054783549159765244, -0.20425009727478027, 0.10770203918218613, 0.0006461619050242007, -0.24311165511608124, 0.034545592963695526, 0.12792065739631653, 0.19646641612052917, -0.1024644672870636, -0.14261838793754578, 0.07784385979175568, 0.09748765081167221, 0.05045598745346069, -0.04965536296367645, -0.0124586783349514, -0.09740745276212692, -0.13455303013324738, -0.09704429656267166, 0.00016053994477260858, -0.21365071833133698, 0.13434523344039917, 0.1801988035440445, 0.09717144072055817, 0.04707019031047821, 0.23724880814552307, 0.2863730490207672, 0.12867391109466553, -0.15610425174236298, -0.046144746243953705, 0.07889601588249207, -0.11976449191570282, 0.15600334107875824, 0.10282731056213379, 0.22215142846107483, 0.13140909373760223, -0.002628991613164544, -0.012624640949070454, 0.08701874315738678, 0.1495497226715088, 0.017810767516493797, 0.18013495206832886, 0.0636054128408432, 0.02593589574098587, 0.1272801160812378, -0.07383289188146591, -0.02465057000517845, 0.19949033856391907, 0.1502418965101242, -0.006581865716725588, 0.15591441094875336, 0.01871470734477043, 0.23008908331394196, 0.017465252429246902, 0.005366418976336718, -0.23056559264659882, 0.2968240976333618, -0.23160038888454437, -0.12697434425354004, -0.026821041479706764, -0.0028563451487571], [-0.23815800249576569, 0.30456143617630005, 0.048025332391262054, -0.12420472502708435, -0.10857447981834412, 0.18958112597465515, 0.11480628699064255, -0.06258901208639145, -0.00833952147513628, -0.013863200321793556, 0.07017466425895691, -0.05044511705636978, -0.16760320961475372, 0.15540897846221924, 0.2707364857196808, -0.08617321401834488, -0.10120388120412827, -0.03456854075193405, 0.07495123147964478, -0.04738634079694748, 0.09625919163227081, 0.16641183197498322, -0.08557416498661041, -0.07218879461288452, -0.14281761646270752, -0.2473600059747696, 0.026705479249358177, -0.04684552550315857, 0.04309454187750816, -0.2636786699295044, 0.32533517479896545, -0.17859236896038055, -0.025999700650572777, -0.0005795863689854741, -0.2090277075767517, -0.06480250507593155, 0.012484455481171608, -0.14089412987232208, 0.0750996544957161, -0.1617351472377777, -0.03654112294316292, -0.01996181719005108, 0.05013972148299217, 0.04618210718035698, -0.02987091988325119, -0.11955838650465012, 0.011320987716317177, 0.16667540371418, 0.027372978627681732, 0.1379278004169464, -0.07338313013315201, -0.14463883638381958, -0.2078305333852768, -0.045667052268981934, 0.026373136788606644, -0.0012408933835104108, 0.13336120545864105, -0.2090481072664261, 0.2583577334880829, 0.17733187973499298, -0.13333773612976074, -0.08029792457818985, 0.310166597366333, -0.04069450870156288, -0.0042122439481318, -0.10423077642917633], [0.05436953157186508, 0.24827153980731964, -0.1962428241968155, 0.10932189226150513, 0.056436095386743546, -0.2304825484752655, -0.008101110346615314, -0.045177847146987915, -0.010726002044975758, -0.24680791795253754, -0.2672240734100342, 0.4504796862602234, 0.01397034153342247, -0.035830579698085785, -0.12931101024150848, 0.18092598021030426, 0.20470766723155975, -0.03642023354768753, -0.20446129143238068, -0.12461391091346741, -0.1326361894607544, -0.04404166340827942, -0.020128050819039345, -0.0732150748372078, -0.11988681554794312, 0.09898186475038528, 0.2617443799972534, 0.03824319317936897, -0.019913533702492714, -0.1534256786108017, 0.14359018206596375, -0.12279500812292099, -0.12448682636022568, 0.1110973209142685, 0.04103441163897514, -0.010824157856404781, 0.011475671082735062, -0.008401555009186268, -0.14365047216415405, -0.1076526939868927, 0.005392193794250488, 0.1402318775653839, 0.055273111909627914, 0.016443565487861633, -0.013907789252698421, -0.055214639753103256, 0.00249141501262784, 0.22512242197990417, 0.022651473060250282, 0.17397397756576538, -0.1146945133805275, 0.04143926501274109, 0.04218944162130356, -0.135761559009552, -0.15571042895317078, -0.17960529029369354, 0.2957778871059418, -0.12561702728271484, 0.0761382058262825, -0.19644658267498016, 0.02890918403863907, -0.0510290302336216, -0.06161981448531151, -0.06746875494718552, -0.14215286076068878, -0.019329309463500977], [0.023816315457224846, 0.14233657717704773, -0.21041129529476166, -0.1451430767774582, 0.04777710139751434, 0.24121011793613434, -0.03343953937292099, -0.1408080756664276, 0.0004909097333438694, -0.24727505445480347, 0.019183797761797905, 0.18845872581005096, -0.06924676895141602, -0.16337737441062927, -0.2833438515663147, -0.21051713824272156, 0.020017102360725403, -0.0065056318417191505, -0.032898347824811935, 0.11533188819885254, -0.163957878947258, 0.1331225037574768, 0.16639575362205505, 0.0957694724202156, 0.003703165566548705, -0.022580742835998535, -0.13730578124523163, 0.016329417005181313, -0.10130209475755692, -0.1270979791879654, -0.1645268052816391, 0.030584027990698814, -0.07807381451129913, 0.20560222864151, -0.040582891553640366, -0.09713346511125565, -0.0858960673213005, 0.0007129653822630644, -0.12464342266321182, 0.22577977180480957, 0.12688124179840088, -0.06744470447301865, 0.022547230124473572, -0.013076693750917912, 0.10489405691623688, -0.019733160734176636, 0.15654705464839935, -0.17908142507076263, -0.005416058469563723, -0.009918119758367538, 0.0008499324903823435, -0.10860766470432281, -0.0026376848109066486, -0.05519314855337143, 0.34232959151268005, 0.0858825072646141, 0.00973078515380621, -0.08929117769002914, 0.14036378264427185, -0.18539878726005554, -0.020471634343266487, -0.19441939890384674, -0.11132486164569855, 0.1799100637435913, -0.17228087782859802, -0.07460325211286545], [0.13250260055065155, -0.11040869355201721, 0.11179506778717041, -0.152047261595726, 0.32341060042381287, -0.05155486240983009, 0.0971980094909668, -0.13648761808872223, -0.2184028923511505, -0.1538267731666565, 0.17217226326465607, -0.027881965041160583, -0.010080122388899326, -0.03155353292822838, 0.22979804873466492, 0.06051289290189743, -0.05398816242814064, 0.08614139258861542, -0.0016736055258661509, -0.06126377359032631, 0.03870311379432678, -0.032567188143730164, -0.24801631271839142, 0.10925325006246567, 0.08581504970788956, 0.003769863164052367, -0.15978287160396576, 0.1557731330394745, 0.0024714211467653513, 0.008486572653055191, -0.2264632284641266, 0.058287981897592545, 0.005552701186388731, 0.12743057310581207, 0.07736138254404068, -0.00457239942625165, 0.004335352685302496, 0.12067824602127075, -0.18187206983566284, -0.1210535392165184, 0.09158994257450104, -0.03040946088731289, 0.05213401839137077, 0.24009694159030914, 0.29330724477767944, -0.048705507069826126, 0.11769013851881027, 0.11426091194152832, 0.034435078501701355, -0.04921206831932068, -0.058732084929943085, 0.26224786043167114, -0.0807829201221466, -0.16064608097076416, -0.04494599997997284, -0.003562303725630045, -0.07847418636083603, -0.10508482158184052, -0.002637911820784211, 0.10697922855615616, -0.14095747470855713, 0.07985922694206238, -0.04346400871872902, -0.23798049986362457, 0.2497933954000473, 0.2056116908788681], [0.06352543085813522, -0.03626638278365135, -0.25362321734428406, 0.11395104229450226, -0.01566058024764061, 0.047853123396635056, -0.00044979804079048336, -0.14814171195030212, -0.15700781345367432, -0.09329935908317566, -0.0752984881401062, 0.14701567590236664, 0.03929443657398224, 0.08840632438659668, 0.09317728877067566, 0.2158602774143219, 0.12843847274780273, -0.0949581116437912, -0.09101337194442749, 0.15877847373485565, -0.03691989928483963, -0.04800378158688545, -0.07405733317136765, -0.1026434451341629, 0.1108517050743103, -0.24956199526786804, -0.10306321829557419, -0.25014978647232056, 0.16653482615947723, -0.19984550774097443, 0.19875025749206543, -0.017929302528500557, 0.02029336243867874, -0.05336718633770943, 0.24021412432193756, 0.026140497997403145, 0.12704060971736908, 0.06685508787631989, 0.034457288682460785, -0.08507959544658661, 0.2895870506763458, -0.04523429274559021, -0.06772208213806152, 0.04430161044001579, -0.21902363002300262, 0.22653675079345703, -0.16666126251220703, -0.1602080911397934, 0.03138107806444168, 0.25698643922805786, 0.02146097831428051, -0.06063736602663994, -0.08011145144701004, 0.1835024505853653, 0.1182364970445633, -0.12075618654489517, -0.2944929599761963, 0.12264182418584824, -0.10120925307273865, -0.036192916333675385, -0.07392662763595581, 0.035710837692022324, -0.14429375529289246, 0.2109154611825943, 0.03312470018863678, 0.008612694218754768], [0.044230908155441284, -0.016119826585054398, -0.12424390763044357, 0.15822701156139374, -0.18866197764873505, 0.08658942580223083, 0.2918500006198883, -0.17656590044498444, -0.020186735317111015, -0.04047006741166115, 0.13143743574619293, 0.16421380639076233, 0.06615134328603745, -0.2261093407869339, -0.21132196485996246, 0.15359118580818176, 0.09398965537548065, -0.06052784621715546, -0.15677988529205322, -0.07144857943058014, 0.10057669132947922, -0.0528009831905365, -0.03934868052601814, -0.29722100496292114, -0.20401142537593842, 0.009992723353207111, -0.0670023038983345, -0.23119862377643585, -0.07540065795183182, -0.054757144302129745, 0.1792367845773697, -0.2919834554195404, 0.22316496074199677, 0.08224774152040482, 0.07276838272809982, 0.06273068487644196, -0.024112656712532043, -0.06663623452186584, -0.11430275440216064, 0.14582259953022003, -0.1516248732805252, 0.008426805958151817, -0.032241545617580414, 0.29744046926498413, -0.10881806164979935, -0.046409714967012405, -0.014479017816483974, 0.027679290622472763, -0.09828437864780426, -0.033102236688137054, -0.04775652289390564, 0.13751418888568878, -0.05817312002182007, -0.03278367593884468, 0.0896586999297142, 0.29981744289398193, 0.07377882301807404, 0.1672338992357254, -0.07511314004659653, -0.02173333428800106, -0.0635705515742302, -0.09327904880046844, -0.030774563550949097, 0.01430374477058649, -0.031159499660134315, -0.1088617742061615], [0.12885165214538574, 0.11352874338626862, 0.19027021527290344, -0.03837724030017853, 0.1798047125339508, 0.059083063155412674, 0.04767352342605591, 0.052503764629364014, -0.09941000491380692, 0.06600844860076904, -0.2813549339771271, 0.13792316615581512, 0.14342156052589417, -0.08769984543323517, 0.024325860664248466, 0.103249691426754, -0.21813982725143433, 0.11260474473237991, -0.009715094231069088, 0.056777745485305786, 0.03180422633886337, 0.11996786296367645, 0.016353391110897064, -0.15670910477638245, 0.050326041877269745, -0.10529528558254242, 0.08092369884252548, 0.1862793266773224, 0.3110588490962982, -0.07322143763303757, -0.12505348026752472, 0.10803834348917007, -0.04912805184721947, -0.2058659940958023, 0.12668873369693756, 0.14644993841648102, 0.028071410953998566, 0.047489192336797714, -0.02837877720594406, 0.03742443397641182, -0.2788862884044647, 0.050409212708473206, 0.03705962374806404, -0.16699258983135223, -0.07723543792963028, -0.04591565579175949, 0.02128487452864647, -0.02754361741244793, 0.05029704421758652, 0.021700644865632057, 0.06052517890930176, 0.20328310132026672, 0.06139048561453819, 0.04030264914035797, 0.35160595178604126, 0.16908489167690277, -0.1841679811477661, -0.19504918158054352, 0.07766225188970566, -0.010690874420106411, -0.20566973090171814, 0.2342711240053177, -0.02877502329647541, 0.1771947294473648, -0.04349687695503235, 0.1278945356607437], [0.0688457041978836, 0.19178858399391174, 0.09399301558732986, -0.21734407544136047, -0.13723064959049225, -0.028273599222302437, 0.16858485341072083, 0.08414061367511749, -0.23816658556461334, -0.13150762021541595, -0.018580418080091476, -0.29578158259391785, 0.021725250408053398, 0.18397031724452972, 0.052055682986974716, 0.04058565944433212, -0.09341391921043396, 0.21551336348056793, -0.1405770480632782, -0.036774300038814545, 0.12576547265052795, -0.23038607835769653, 0.005409487057477236, -0.1620146483182907, 0.07767430692911148, -0.053095776587724686, -0.004211755935102701, 0.0037225186824798584, -0.13667531311511993, -0.07051138579845428, -0.06676265597343445, 0.20676203072071075, 0.025660140439867973, -0.050676532089710236, -0.12091118842363358, 0.025162197649478912, -0.05162989720702171, -0.1250792294740677, 0.17052419483661652, 0.20390497148036957, -0.11249197274446487, -0.11269666254520416, 0.13916625082492828, -0.08964937925338745, -0.05018845945596695, -0.2619037926197052, 0.12601180374622345, -0.19858504831790924, 0.16882294416427612, -0.040314532816410065, -0.14702092111110687, 0.12892548739910126, -0.19611449539661407, 0.11853943765163422, -0.01698021963238716, -0.18938720226287842, -0.18777447938919067, -0.1395798921585083, -0.035816848278045654, -0.002460614312440157, 0.15495248138904572, -0.14354190230369568, -0.1219434142112732, 0.04504908248782158, -0.025691485032439232, 0.019779639318585396], [-0.014970673248171806, -0.2164067178964615, 0.07441360503435135, -0.05554310232400894, 0.12542010843753815, 0.026364745572209358, 0.03441351279616356, -0.027537262067198753, -0.007228619884699583, 0.13295644521713257, -0.06712070852518082, 0.07318061590194702, 0.09468711912631989, 0.10233807563781738, 0.011323369108140469, 0.005836571101099253, 0.0506647452712059, -0.11710028350353241, -0.28282812237739563, 0.030186209827661514, -0.16002407670021057, 0.04645100608468056, 0.16565877199172974, 0.04759933054447174, 0.030480049550533295, -0.13586384057998657, 0.07231337577104568, 0.10249481350183487, -0.24226924777030945, 0.012251347303390503, -0.26706820726394653, -0.020327452570199966, 0.08289498835802078, 0.07220321893692017, -0.07482704520225525, -0.11719486862421036, -0.030278364196419716, 0.0786380022764206, -0.21368154883384705, 0.03651826083660126, -0.11375050246715546, 0.15083461999893188, -0.06961612403392792, 0.1185680404305458, -0.1552172750234604, 0.027405166998505592, -0.2311466485261917, 0.04324164614081383, 0.18012510240077972, 0.1035434752702713, 0.008560060523450375, -0.19884762167930603, 0.089225172996521, 0.0822933241724968, -0.016773905605077744, 0.04284350946545601, 0.11838405579328537, 0.005068212281912565, 0.14379875361919403, 0.25012630224227905, -0.07045382261276245, -0.05383964255452156, -0.12072613835334778, 0.010319679975509644, 0.012070363387465477, -0.18217986822128296], [0.010442633181810379, -0.10078635811805725, -0.13422103226184845, -0.05103885754942894, -0.14763112366199493, -0.06833747774362564, -0.19538262486457825, 0.023324361070990562, -0.005209837108850479, 0.2801366448402405, -0.007048355415463448, -0.1722211092710495, 0.05916908010840416, 0.07543472945690155, 0.2936985492706299, 0.16989490389823914, -0.0111981937661767, 0.34875959157943726, 0.046664126217365265, 0.05432720109820366, -0.07580848038196564, 0.09288551658391953, 0.0968322902917862, 0.24825067818164825, -0.034067753702402115, -0.0987364873290062, 0.17502829432487488, 0.012918240390717983, 0.17747537791728973, 0.14879059791564941, -0.04911132901906967, 0.011088146828114986, 0.13913056254386902, 0.09629271924495697, 0.09400613605976105, -0.27371275424957275, -0.09695686399936676, -0.2359185516834259, -0.025726063176989555, 0.21065093576908112, 0.1181493028998375, 0.10916437208652496, 0.2615957260131836, 0.04895453527569771, 0.10334323346614838, -0.14140760898590088, -0.01755845732986927, 0.11374463886022568, -0.045300815254449844, -0.1324848234653473, 0.05847938358783722, 0.19412729144096375, -0.06352303922176361, -0.047187671065330505, -0.07967746257781982, -0.0007921346114017069, 0.05145500972867012, -0.15253846347332, -0.06483017653226852, 0.06591188162565231, -0.07273223251104355, -0.07618719339370728, 0.08168677240610123, 0.12219064682722092, 0.14094732701778412, 0.02629770152270794], [-0.09639721363782883, 0.14950987696647644, 0.12799803912639618, 0.105894535779953, -0.11593714356422424, 0.07410041242837906, -0.07605642825365067, 0.13003544509410858, -0.4693251848220825, 0.2257445752620697, 0.1447715014219284, -0.03763914853334427, -0.014133277349174023, 0.01555871032178402, 0.10155192017555237, -0.009960544295608997, 0.08449845016002655, 0.10646988451480865, 0.07997472584247589, -0.065526083111763, -0.13283367455005646, -0.07959908246994019, -0.15893062949180603, 0.1692602038383484, 0.10535142570734024, -0.12700480222702026, 0.14115247130393982, 0.22206737101078033, -0.31963589787483215, 0.11081483960151672, -0.2330748438835144, 0.021736307069659233, -0.19073307514190674, -0.03747255355119705, -0.2553049921989441, 0.11534032225608826, -0.04862548038363457, -0.08313216269016266, -0.028501154854893684, -0.07923293113708496, 0.12133482843637466, -0.04872811958193779, -0.002703240141272545, -0.10414963960647583, -0.1160726249217987, -0.15913601219654083, -0.09304364770650864, 0.03114759363234043, 0.008075536228716373, -0.10556570440530777, -0.13690868020057678, 0.17434538900852203, -0.14159609377384186, 0.05288732796907425, -0.18040747940540314, -0.0009288900182582438, -0.09607712924480438, 0.04804151877760887, 0.08260197937488556, 0.13751202821731567, -0.17616680264472961, -0.2939454913139343, 0.3213529586791992, -0.0714443102478981, -0.06562105566263199, 0.2577279806137085], [-0.27501142024993896, 0.16117048263549805, 0.09757115691900253, -0.051934823393821716, 0.11517959833145142, 0.03321237862110138, 0.0025190282613039017, -0.10966795682907104, -0.02290601283311844, 0.09582703560590744, -0.2693130671977997, -0.29080796241760254, -0.1340380162000656, -0.046159692108631134, 0.10767889767885208, -0.011234214529395103, -0.21826186776161194, 0.213065043091774, -0.0635279193520546, -0.004556791856884956, -0.23763272166252136, -0.04046154394745827, -0.04948686808347702, -0.014475765638053417, -0.04022371768951416, 0.13228793442249298, 0.11601758003234863, 0.055566176772117615, 0.07744487375020981, 0.0986151397228241, -0.1302909404039383, -0.08884245157241821, -0.06745395809412003, 0.0348082035779953, 0.04923703521490097, -0.00522014731541276, -0.024070657789707184, 0.17267611622810364, -0.06530816853046417, 0.0063311150297522545, 0.05674830451607704, -0.22568577527999878, -0.0883665382862091, 0.13865616917610168, -0.3073667883872986, -0.021905159577727318, -0.019185857847332954, 0.21582359075546265, 0.1128612756729126, -0.26071909070014954, 0.20410729944705963, 0.014740853570401669, -0.22278648614883423, -0.04010460525751114, -0.05928906053304672, -0.08184435963630676, -0.03704086318612099, 0.05139123275876045, -0.08250628411769867, -0.10137119889259338, -0.10631930828094482, -0.2089892476797104, 0.07444285601377487, -0.11066379398107529, 0.0796390250325203, 0.05466042459011078], [0.05879747122526169, 0.041791800409555435, -0.02613101154565811, -0.16950303316116333, -0.011987279169261456, 0.03423193469643593, -0.12941139936447144, 0.2882402539253235, -0.0839528888463974, 0.11606714874505997, 0.14081493020057678, -0.005549480672925711, -0.2851491868495941, -0.21849475800991058, 0.1408475786447525, 0.01998247392475605, -0.08863222599029541, 0.10656095296144485, -0.03875391557812691, -0.03143767639994621, -0.05841326713562012, -0.0243684072047472, 0.1316273808479309, -0.2696405053138733, 0.0253005214035511, -0.27493324875831604, 0.07663736492395401, 0.23728911578655243, -0.04452654346823692, -0.056935641914606094, -0.1449640542268753, 0.18005482852458954, 0.08903265744447708, -0.026290711015462875, -0.036274176090955734, -0.02646005153656006, 0.09088481217622757, 0.16142955422401428, 0.16692887246608734, 0.0115557461977005, 0.04859228804707527, -0.3033151924610138, 0.00922225322574377, 0.2051403522491455, 0.1567348688840866, -0.15927468240261078, -0.0723736509680748, 0.09834475815296173, -0.044886015355587006, -0.11200695484876633, 0.14588770270347595, -0.03936431184411049, 0.09806589037179947, 0.2951238751411438, -0.08271463215351105, -0.07432763278484344, 0.11716711521148682, 0.013782822526991367, 0.01895933598279953, 0.10670408606529236, 0.20537154376506805, -0.3061794340610504, 0.25673913955688477, -0.08083514869213104, 0.1776707023382187, 0.11855992674827576], [-0.06878465414047241, 0.07504807412624359, 0.06297976523637772, -0.08915329724550247, -0.10913939774036407, -0.10052847862243652, 0.007054874207824469, 0.07553216069936752, -0.13406598567962646, -0.04653843119740486, 0.012651028111577034, -0.19507049024105072, -0.001998127205297351, 0.12117839604616165, -0.20265206694602966, 0.11772413551807404, 0.1420792043209076, 0.16221363842487335, 0.21188324689865112, 0.08068331331014633, 0.041239164769649506, 0.1716977208852768, 0.21904082596302032, 0.011760982684791088, 0.06627288460731506, 0.14108583331108093, -0.08310859650373459, -0.09287034720182419, 0.04442770779132843, -0.2902062237262726, 0.05476177856326103, -0.14317744970321655, 0.1588040292263031, 0.09198642522096634, 0.011322603560984135, 0.11211182922124863, -0.3075945973396301, 0.35057249665260315, 0.07147451490163803, -0.0035218980628997087, 0.034622810781002045, -0.08701636642217636, -0.055114973336458206, 0.15368632972240448, -0.0935606136918068, 0.04347444325685501, 0.05266844108700752, 0.055725131183862686, -0.03530362620949745, 0.0531209371984005, -0.05289439857006073, -0.01820654422044754, 0.16006487607955933, -0.10219358652830124, -0.0944051519036293, -0.08479996025562286, -0.04816751182079315, -0.05102964863181114, 0.19473589956760406, 0.15840601921081543, -0.07540836185216904, -0.07280093431472778, 0.09436497092247009, 0.045268259942531586, -0.2558228671550751, 0.10217415541410446], [-0.030181871727108955, 0.060561880469322205, -0.018366070464253426, -0.11130271852016449, -0.029472041875123978, 0.06912149488925934, -0.04457782581448555, 0.256683886051178, -0.02575640007853508, -0.09957606345415115, 0.11431713402271271, -0.11014486104249954, -0.027344150468707085, -0.06061412766575813, -0.07327355444431305, -0.22433248162269592, 0.1371913105249405, 0.14193004369735718, 0.06477455049753189, -0.0033271899446845055, 0.01278259139508009, -0.22985945641994476, 0.03334320709109306, 0.0746564194560051, -0.17654471099376678, -0.01700674742460251, 0.1631493717432022, -0.059549327939748764, 0.041294291615486145, 0.031091216951608658, -0.05647014454007149, 0.31933873891830444, 0.00995450560003519, -0.19528824090957642, -0.14835110306739807, -0.12675347924232483, 0.040507737547159195, 0.15769062936306, -0.10192778706550598, -0.3201535940170288, 0.015735099092125893, -0.0051378365606069565, 0.20025910437107086, 0.04649761691689491, -0.17744895815849304, -0.013011172413825989, -0.09607762098312378, 0.0020507951267063618, -0.16797702014446259, -0.10802372545003891, -0.01376632135361433, 0.21909035742282867, 0.10663507878780365, -0.11511927098035812, 0.15513332188129425, -0.04086359962821007, -0.00916418619453907, -0.037492673844099045, -0.12025907635688782, 0.11267905682325363, -0.13607999682426453, -0.13723596930503845, 0.052537448704242706, 0.17647863924503326, 0.2638857662677765, 0.026781724765896797], [-0.07682549208402634, 0.015755942091345787, -0.10518744587898254, -0.2075478881597519, 0.1418183296918869, 0.14257952570915222, -0.012228772044181824, 0.1732916533946991, -0.13324035704135895, 0.21848487854003906, 0.1877269744873047, 0.05626155808568001, -0.05676495283842087, -0.05481749773025513, 0.01387501135468483, -0.25599849224090576, -0.37711191177368164, 0.09944874793291092, -0.005967804696410894, 0.0017754558939486742, -0.09927020967006683, 0.11420596390962601, 0.19643272459506989, -0.09772830456495285, 0.07334849238395691, 0.07595528662204742, 0.08166055381298065, -0.13264453411102295, 0.027372952550649643, -0.1456032693386078, -0.022822706028819084, 0.1282469779253006, -0.13451284170150757, -0.0863652378320694, -0.24422863125801086, -0.06475569307804108, -0.14039793610572815, -0.05644245818257332, -0.0558827668428421, 0.01603098399937153, 0.058751180768013, 0.13057489693164825, -0.04459138587117195, -0.05001857131719589, -0.020339807495474815, 0.2434508502483368, 0.15276077389717102, 0.10676170140504837, 0.1986735612154007, 0.0223709587007761, -0.030400795862078667, 0.2840285897254944, -0.15717251598834991, 0.04239567369222641, -0.10099491477012634, 0.10609957575798035, 0.12536215782165527, -0.025718891993165016, -0.1904468685388565, 0.2696988880634308, 0.17411403357982635, -0.164034903049469, -0.22366636991500854, -0.08343709260225296, -0.0404876284301281, 0.36730068922042847], [0.04081626608967781, -0.05798481032252312, 0.2897077798843384, 0.15362942218780518, 0.0582108199596405, 0.13485312461853027, 0.2764754891395569, 0.1397179812192917, -0.15010714530944824, -0.03440919145941734, 0.2536836862564087, -0.1289733648300171, -0.1129167452454567, 0.00691427756100893, 0.10382400453090668, -0.13625963032245636, -0.1432543843984604, 0.23238079249858856, 0.15063153207302094, -0.13659489154815674, -0.2147306203842163, -0.11110647022724152, 0.21474963426589966, 0.10550134629011154, -0.023507962003350258, 0.038560789078474045, 0.2122698277235031, 0.07481247931718826, -0.0032275908160954714, 0.03391846641898155, -0.042645372450351715, -0.005822841078042984, -0.16054123640060425, 0.1292733997106552, 0.154628723859787, -0.1103123277425766, -0.10482914000749588, -0.06196910887956619, 0.09285356849431992, 0.06784931570291519, 0.19472217559814453, -0.06049153581261635, 0.1293255239725113, -0.005194501951336861, -0.04125138744711876, -0.12950991094112396, 0.0025351359508931637, -0.04282765835523605, 0.20465590059757233, 0.20488211512565613, 0.11063322424888611, 0.16690455377101898, 0.13108205795288086, 0.029746834188699722, 0.02599613554775715, -0.01944761723279953, 0.030545370653271675, 0.126199409365654, -0.013288985937833786, -0.06622675061225891, 0.010872137732803822, 0.3413360118865967, -0.10000798106193542, 0.03986214101314545, 0.13658219575881958, -0.06609151512384415], [-0.14370189607143402, 0.00018417584942653775, 0.29217585921287537, -0.00973290391266346, -0.1569644659757614, 0.25829145312309265, -0.13748444616794586, 0.04183884337544441, -0.08521892130374908, -0.18362632393836975, -0.03984673321247101, -0.2398320734500885, -0.10600221902132034, 0.06683441251516342, 0.12672576308250427, -0.05265079811215401, 0.09027783572673798, -0.14158624410629272, 0.04084090515971184, 0.0645308643579483, -0.09456311911344528, 0.18958884477615356, 0.20702530443668365, -0.031196612864732742, 0.03842794895172119, -0.07922808080911636, 0.033194564282894135, 0.06301639974117279, -0.17189867794513702, 0.1500706821680069, -0.14846257865428925, 0.14213256537914276, 0.09682539105415344, -0.08911503106355667, -0.021359659731388092, -0.0908973291516304, -0.020275356248021126, 0.18704518675804138, 0.06523006409406662, 0.10806478559970856, -0.24197715520858765, 0.0891522616147995, -0.0691092237830162, -0.02712715044617653, 0.10801234096288681, 0.045752815902233124, 0.12923309206962585, 0.1709522306919098, 0.021566759794950485, 0.12793582677841187, -0.14821253716945648, 0.1657075136899948, -0.058505237102508545, 0.020381219685077667, -0.08793500810861588, 0.004213942680507898, -0.01309996098279953, 0.11503006517887115, -0.2636949121952057, 0.02065032161772251, 0.17496450245380402, -0.09845884889364243, 0.09892524033784866, 0.07586009800434113, 0.3950003981590271, 0.19241636991500854], [-0.2099456936120987, -0.22518318891525269, -0.21246469020843506, 0.14459267258644104, -0.21538273990154266, 0.05032569169998169, 0.030216867104172707, -0.1673036366701126, -0.04299549385905266, -0.027951309457421303, -0.35870251059532166, -0.006561057176440954, -0.12338514626026154, 0.04614674299955368, -0.29618367552757263, 0.06654239445924759, -0.15301749110221863, -0.10399835556745529, -0.03365965187549591, -0.03815751150250435, 0.3356023132801056, -0.16338114440441132, 0.19814026355743408, 0.0227997824549675, 0.07790829986333847, 0.16951757669448853, 0.0469551607966423, -0.19058246910572052, -0.011724368669092655, -0.044809188693761826, -0.002925498876720667, -0.10133089870214462, -0.056971266865730286, 0.1183713972568512, -0.025474809110164642, 0.033150508999824524, 0.05114971846342087, -0.05282197147607803, -0.1297345608472824, -0.11907369643449783, 0.06976673752069473, -0.04940240457653999, 0.036776524037122726, -0.01724802516400814, 0.39702093601226807, -0.0330219604074955, -0.06929026544094086, 0.13211841881275177, -0.12992875277996063, 0.1294240951538086, -0.027356086298823357, -0.0018186850938946009, 0.04713115841150284, 0.2667354345321655, 0.13511385023593903, 0.020261766389012337, -0.05982491746544838, 0.06359288841485977, 0.09614647179841995, 0.06845090538263321, -0.042884595692157745, -0.003549924585968256, 0.12500084936618805, 0.03289465978741646, 0.09378602355718613, -0.10096123069524765], [0.08210191875696182, 0.3500373661518097, -0.08252458274364471, 0.1358908861875534, 0.21279321610927582, -0.13907714188098907, 0.07662668824195862, -0.005002568010240793, 0.261564701795578, 0.04758100584149361, 0.028409581631422043, -0.04900200664997101, 0.08842405676841736, -0.1396108865737915, -0.16296762228012085, 0.18144232034683228, -0.014932841062545776, -0.06040610373020172, 0.07988385111093521, -0.07651306688785553, 0.15099170804023743, -0.07082454860210419, 0.3594343960285187, -0.0656534731388092, 0.08982664346694946, -0.21034538745880127, 0.008152801543474197, 0.030939549207687378, -0.025913670659065247, 0.19117194414138794, 0.1335943639278412, -0.24228103458881378, -0.11447936296463013, -0.019651029258966446, -0.10014653950929642, 0.048555970191955566, 0.05560789629817009, 0.08432319760322571, -0.017677361145615578, -0.024367857724428177, 0.02444586716592312, -0.05792009085416794, 0.0994519516825676, 0.10641535371541977, 0.1449897140264511, 0.07496471703052521, -0.11525101959705353, -0.09733235090970993, 0.1133037656545639, -0.002891441574320197, -0.22710859775543213, -0.17377811670303345, -0.2107071429491043, -0.16712230443954468, 0.22968487441539764, -0.06777787953615189, 0.10675179213285446, 0.139914408326149, 0.01578257605433464, 0.04434708505868912, -0.0525025837123394, -0.043976493179798126, -0.13974212110042572, 0.0686873123049736, -0.12873834371566772, 0.1749313324689865], [0.05711524561047554, -0.19796019792556763, 0.09413038194179535, -0.054847925901412964, 0.04003112018108368, 0.0823276937007904, -0.010851578786969185, -0.07587946951389313, -0.13452599942684174, 0.09239564090967178, -0.13877637684345245, 0.02604503743350506, 0.020071541890501976, 0.012713133357465267, 0.19989310204982758, -0.10364313423633575, -0.051589325070381165, -0.14381669461727142, -0.016312643885612488, -0.22012923657894135, -0.050944190472364426, 0.06398915499448776, 0.1869114488363266, -0.033078357577323914, 0.1530947983264923, 0.22973860800266266, 0.1395455002784729, 0.14175903797149658, -0.1256553828716278, -0.12448155134916306, 0.027009321376681328, 0.03079800494015217, 0.24226441979408264, -0.05755924805998802, 0.006087294779717922, -0.06565747410058975, -0.13276202976703644, -0.09229445457458496, 0.11721955239772797, -0.08474703878164291, 0.08523239940404892, -0.2243223935365677, 0.07997997105121613, -0.13085365295410156, 0.09014645218849182, 0.15087874233722687, -0.07605833560228348, -0.11305544525384903, -0.0019507086835801601, -0.09088099747896194, 0.01655336655676365, 0.11313008517026901, -0.03346870839595795, -0.3012349307537079, 0.03383081033825874, -0.06478449702262878, 0.30221089720726013, 0.18932664394378662, -0.1770850270986557, 0.017643824219703674, -0.16213656961917877, -0.353712260723114, 0.21271447837352753, -0.06959063559770584, 0.13872653245925903, -0.14725938439369202], [-0.0525783896446228, 0.08864788711071014, 0.2760556936264038, -0.22195012867450714, -0.09875621646642685, -0.15283726155757904, 0.01729639247059822, 0.0738389641046524, -0.1637473851442337, -0.029224270954728127, 0.1272195428609848, 0.13274899125099182, -0.08778136968612671, 0.06045602634549141, 0.19809943437576294, -0.14636211097240448, 0.04582535848021507, 0.22802959382534027, 0.039007145911455154, 0.22299735248088837, 0.05444775149226189, -0.04551923647522926, 0.23154443502426147, -0.0647704005241394, 0.17188632488250732, 0.06039101630449295, 0.18348199129104614, 0.13011425733566284, 0.10416311770677567, 0.05411703139543533, -0.0018616043962538242, 0.21010036766529083, 0.20375123620033264, 0.13440628349781036, -0.09320814907550812, 0.2012900859117508, 0.13694432377815247, -0.18563435971736908, -0.09804585576057434, -0.05674225091934204, 0.03844769299030304, 0.18927299976348877, -0.1003064438700676, -0.006628749892115593, 0.01897922158241272, 0.04153163731098175, 0.050349775701761246, 0.07566524296998978, -0.06585971266031265, -0.20599685609340668, 0.10614972561597824, -0.022401584312319756, -0.1090075820684433, 0.023001372814178467, -0.054947659373283386, 0.01255577988922596, -0.29669272899627686, 0.3103567659854889, 0.03927113488316536, 0.044495753943920135, 0.04267372563481331, 0.005711257457733154, -0.029569407925009727, -0.047619227319955826, 0.1472509503364563, -0.15868155658245087], [-0.0843101218342781, 0.04675911366939545, -0.11414559930562973, -0.2243005931377411, 0.030741654336452484, 0.0006381065468303859, -0.07589647173881531, 0.1133333146572113, -0.2618561387062073, 0.06719613075256348, 0.185182586312294, -0.4532987177371979, -0.08596550673246384, -0.022374039515852928, 0.055046066641807556, -0.02821017988026142, -0.053270090371370316, 0.16409103572368622, -0.002000670414417982, -0.27918124198913574, -0.10383676737546921, 0.03345955163240433, -0.1310877948999405, 0.02848881669342518, 0.05121287703514099, 0.11387980729341507, 0.040687717497348785, 0.27518874406814575, 0.09628137201070786, 0.0883314460515976, 0.00114575051702559, 0.21754895150661469, 0.07560320943593979, -0.014930992387235165, 0.0976736769080162, 0.04992803558707237, -0.11847716569900513, -0.1466599553823471, -0.08264469355344772, -0.12999482452869415, -0.09832920879125595, -0.012168750166893005, -0.08237665891647339, -0.03468918800354004, 0.022100668400526047, 0.21699200570583344, -0.02411612868309021, -0.011891494505107403, 0.26821911334991455, -0.14693304896354675, -0.18087711930274963, -0.0027375377248972654, 0.01918356493115425, 0.1478041410446167, 0.07683280855417252, 0.22652122378349304, 0.05318371579051018, 0.13026100397109985, 0.22050315141677856, 0.023742085322737694, 0.16246993839740753, 0.07174453884363174, 0.08245134353637695, 0.2726083993911743, 0.29414424300193787, 0.07122945785522461], [0.005282188765704632, -0.038819555193185806, 0.09184828400611877, -0.13992571830749512, 0.1118881031870842, -0.04052319377660751, 0.07118002325296402, 0.26086118817329407, -0.11345267295837402, -0.07155536115169525, 0.11054818332195282, 0.02390330843627453, 0.07023400813341141, 0.32892492413520813, 0.1754252314567566, 0.030072247609496117, 0.02726191282272339, 0.07948312908411026, -0.14531193673610687, -0.2875819206237793, 0.09484998881816864, -0.06808099150657654, -0.01859261281788349, 0.00265820836648345, 0.10454111546278, 0.1374373584985733, 0.0733918771147728, -0.03996927663683891, 0.033948950469493866, -0.03767967224121094, -0.001803374383598566, 0.04746616631746292, -0.2649446129798889, 0.01141624990850687, 0.13656745851039886, -0.35959404706954956, 0.054215505719184875, 0.23653098940849304, 0.04277658462524414, 0.06854981184005737, 0.07142287492752075, 0.11516031622886658, 0.10219350457191467, 0.008699667640030384, 0.15003807842731476, 0.03832266479730606, -0.1374601572751999, 0.04763394966721535, -0.03567807748913765, -0.24965739250183105, 0.011983617208898067, -0.017531616613268852, 0.03856172412633896, -0.034404195845127106, 0.05838390812277794, 0.39452648162841797, -0.053657203912734985, 0.07014758884906769, -0.10426868498325348, -0.21963216364383698, -0.11617240309715271, -0.05831664055585861, 0.0737994983792305, -0.18955644965171814, -0.36938878893852234, 0.018559174612164497], [0.2036454826593399, -0.14810512959957123, -0.31154853105545044, 0.01383519172668457, 0.07056808471679688, -0.001030437182635069, 0.23413871228694916, 0.024813350290060043, 0.15105381608009338, -0.042316146194934845, -0.17927779257297516, 0.1823074370622635, -0.05326537787914276, 0.17956967651844025, -0.01677667908370495, 0.2096857875585556, -0.01722876913845539, -0.17843571305274963, 0.1246548444032669, 0.1708541363477707, 0.0007528500282205641, 0.11143207550048828, -0.16949716210365295, -0.04245900362730026, -0.029170213267207146, 0.12242798507213593, 0.10738913714885712, -0.0273637305945158, -0.09677620232105255, 0.12685659527778625, 0.29862287640571594, -0.14374062418937683, -0.17779818177223206, 0.2308630645275116, -0.21528539061546326, 0.07534472644329071, 0.005452592391520739, 0.050694502890110016, 0.06006631627678871, -0.02891458012163639, -0.11958806216716766, 0.12515556812286377, -0.06769605726003647, 0.20780666172504425, -0.07476934045553207, -0.08769357949495316, 0.13292855024337769, -0.11529088765382767, 0.02016887255012989, -0.021873924881219864, 0.08493895083665848, 0.0309441015124321, 0.20766159892082214, 0.007401557173579931, 0.26180604100227356, -0.15186068415641785, 0.004566751420497894, 0.1422387659549713, 0.08525992184877396, -0.01774045079946518, 0.061738017946481705, -0.08573414385318756, 0.11182352900505066, 0.15317600965499878, -0.0901881605386734, 0.07679353654384613], [-0.006579799111932516, -0.11580775678157806, -0.1743956357240677, -0.22362478077411652, 0.0402396135032177, 0.1498020738363266, 0.07803960889577866, -0.06258375942707062, -0.08906073868274689, -0.07935546338558197, -0.01937873102724552, 0.056235551834106445, 0.13395489752292633, 0.152940571308136, -0.09649297595024109, -0.028236612677574158, 0.07217466086149216, -0.16161221265792847, -0.13490387797355652, -0.011231386102735996, 0.08283663541078568, -0.12147662043571472, 0.16615170240402222, 0.07112960517406464, 0.17920953035354614, -0.15821945667266846, 0.14381834864616394, -0.21736419200897217, 0.25710296630859375, 0.11347385495901108, -0.04998982325196266, -0.06090778112411499, -0.07431047409772873, 0.06077141687273979, 0.01531763095408678, 0.3697126805782318, -0.12903615832328796, -0.13623599708080292, -0.014094636775553226, 0.10614967346191406, -0.0827348604798317, 0.06274235993623734, -0.09698908030986786, 0.15452031791210175, -0.18945829570293427, 0.0026532544288784266, 0.0041423458606004715, 0.012965436093509197, -0.12876495718955994, -0.05663948506116867, 0.027228333055973053, -0.23836089670658112, 0.027512943372130394, 0.001677691238000989, 0.021313734352588654, -0.18290722370147705, 0.3415174186229706, -0.15982575714588165, -0.23700189590454102, -0.14167439937591553, -0.11448721587657928, 0.30918192863464355, 0.05948823317885399, -0.029977768659591675, 0.09532218426465988, 0.11813516914844513], [0.08211162686347961, 0.07780217379331589, 0.19118711352348328, -0.30277588963508606, -0.39917975664138794, 0.18707811832427979, -0.03512132167816162, 0.01727289892733097, -0.13130569458007812, 0.1660836935043335, -0.1938336044549942, 0.02451971545815468, 0.05097441375255585, -0.13228197395801544, 0.2157401591539383, -0.18176274001598358, -0.06706669926643372, 0.14976085722446442, -0.058193810284137726, -0.07392250001430511, 0.08554434776306152, -0.03135215863585472, -0.04003419354557991, 0.004823538474738598, -0.07665939629077911, -0.005093570798635483, -0.17007549107074738, 0.07167608290910721, -0.22668397426605225, -0.00288297887891531, 0.21777352690696716, 0.10609464347362518, 0.02191365882754326, 0.15688563883304596, -0.09698706865310669, -0.10677427798509598, -0.08398304879665375, 0.05450316518545151, -0.20169106125831604, -0.06933712959289551, 0.09845691919326782, -0.04806016385555267, 0.0661993995308876, -0.01431488711386919, 0.08158030360937119, 0.03674314543604851, -0.23757298290729523, -0.10409127175807953, 0.1689348667860031, -0.04757828265428543, 0.018313828855752945, 0.014167379587888718, 0.105201356112957, -0.15233270823955536, -0.04503892362117767, -0.049359168857336044, 0.0008334190933965147, -0.00458155432716012, 0.048910655081272125, -0.17811812460422516, 0.23144203424453735, 0.026207899674773216, -0.07994743436574936, -0.0027049880009144545, 0.07148363441228867, 0.3558081090450287], [0.09035380184650421, 0.06258423626422882, -0.10534355044364929, 0.04303507134318352, -0.09900643676519394, -0.30407944321632385, 0.047551169991493225, -0.11805374175310135, 0.015462281182408333, -0.1482645869255066, 0.04411189630627632, -0.12163020670413971, 0.07367875427007675, 0.02262207865715027, -0.2525034546852112, 0.057183314114809036, -0.1684841811656952, -0.3245282471179962, -0.15077608823776245, 0.3731103539466858, 0.05594349279999733, 0.2533057630062103, -0.15183955430984497, 0.13213831186294556, -0.06285033375024796, -0.00779959000647068, 0.285700261592865, -0.1888849437236786, 0.06314504146575928, -0.031846072524785995, 0.06390783190727234, -0.006875946186482906, 0.19108642637729645, -0.010908479802310467, -0.05560766160488129, 0.11999540776014328, 0.047333814203739166, 0.10402563214302063, 0.020229538902640343, -0.058608800172805786, 0.14366844296455383, -0.1076243668794632, -0.11753463000059128, -0.004459526855498552, 0.09362153708934784, -0.2507316470146179, -0.12049401551485062, -0.07997167855501175, 0.09567949920892715, 0.25985604524612427, -0.0037794203963130713, -0.2006116658449173, -0.004519854672253132, -0.16026903688907623, 0.17859064042568207, 0.20491346716880798, 0.013041644357144833, 0.04653855413198471, -0.15209776163101196, -0.08619474619626999, 0.004501728340983391, 0.02788894809782505, -0.12034064531326294, 0.034119438380002975, -0.05522770434617996, -0.018371596932411194], [0.06297218799591064, 0.024154137820005417, 0.13305680453777313, -0.15077157318592072, 0.23295551538467407, -0.06798291206359863, 0.0483604334294796, -0.09204159677028656, 0.026236698031425476, 0.28846031427383423, -0.12101606279611588, 0.1322600394487381, -0.06403490155935287, 0.01480957306921482, -0.06180058419704437, -0.1394461691379547, 0.1821967363357544, 0.2152428776025772, -0.24576206505298615, -0.23345014452934265, 0.045970141887664795, -0.05403804033994675, -0.09318433701992035, 0.0680546686053276, 0.0036950577050447464, -0.05348031595349312, 0.20989643037319183, -0.09378412365913391, -0.09465856105089188, 0.08467119932174683, 0.02316862903535366, -0.09369447827339172, -0.2855231463909149, 0.16199596226215363, -0.04528852179646492, -0.12817247211933136, -0.2148703783750534, 0.03205050528049469, 0.004606291651725769, 0.010989122092723846, -0.043705057352781296, -0.25959309935569763, 0.19109590351581573, -0.0668642669916153, -0.06266279518604279, 0.17636996507644653, 0.15360072255134583, -0.10723938047885895, -0.14987988770008087, 0.04333067685365677, -0.012598872184753418, 0.14522765576839447, 0.030765293166041374, -0.1510159969329834, 0.041651371866464615, 0.1841675490140915, -0.07392969727516174, 0.03414372727274895, 0.01293223537504673, 0.032463569194078445, 0.15860621631145477, -0.011121273040771484, 0.18999409675598145, -0.3606930375099182, -0.08316447585821152, -0.04614251106977463], [-0.20395691692829132, -0.11635909974575043, 0.08351194858551025, 0.09619420766830444, 0.1022845134139061, 0.03936189413070679, 0.18733090162277222, 0.23303796350955963, -0.2514832615852356, 0.011809050105512142, 0.01660291664302349, -0.24721390008926392, 0.18140429258346558, -0.011147869750857353, 0.2402162402868271, -0.20456987619400024, -0.2598283290863037, -0.0022666421718895435, 0.06591100245714188, 0.15146996080875397, -0.05551902577280998, -0.05493079125881195, -0.0026198814157396555, -0.0063366456888616085, -0.1470072865486145, 0.02454361319541931, -0.01902017928659916, 0.23711219429969788, 0.21512727439403534, -0.166370689868927, -0.007092967629432678, -0.09082283079624176, 0.09040728956460953, -0.09126310795545578, -0.09378460794687271, -0.07639072090387344, 0.03283457085490227, 0.10905605554580688, -0.3096526563167572, 0.27843907475471497, 0.08244847506284714, 0.03930024430155754, -0.042538389563560486, -0.2115512192249298, 0.02400272898375988, 0.008868468925356865, -0.08633452653884888, -0.09684955328702927, -0.24386979639530182, -0.10526023805141449, -0.18184764683246613, 0.024344313889741898, 0.10197456926107407, 0.02359219826757908, -0.0266233142465353, -0.1373176872730255, 0.0029420899227261543, 0.11108837276697159, 0.019438952207565308, 0.06231226399540901, 0.23344658315181732, -0.013719397597014904, 0.07106654345989227, -0.00570721784606576, 0.176380917429924, 0.09842917323112488], [0.13940966129302979, -0.17545048892498016, 0.29027020931243896, -0.07850738614797592, -0.1346580982208252, 0.1182454377412796, 0.04585561528801918, -0.16369371116161346, -0.15794700384140015, 0.11647946387529373, 0.12934620678424835, -0.47473302483558655, 0.1958819478750229, -0.023082030937075615, 0.2559216320514679, -0.3174912929534912, -0.036774568259716034, 0.07822984457015991, -0.06875284761190414, 0.1095573753118515, -0.15306854248046875, -0.23995305597782135, 0.12273706495761871, -0.20371824502944946, 0.13950663805007935, 0.014804890379309654, 0.020946571603417397, 0.20853747427463531, 0.140292227268219, 0.12500402331352234, -0.1856735497713089, 0.24528931081295013, 0.02956322766840458, -0.06378228217363358, 0.0415024571120739, -0.11932113021612167, 0.17537738382816315, 0.09092365950345993, 0.09777979552745819, -0.27887460589408875, 0.07018587738275528, 0.2671254575252533, 0.02159976214170456, 0.11403582245111465, -0.004896753001958132, -0.09147985279560089, 0.18354912102222443, 0.14163628220558167, -0.027360985055565834, -0.032095860689878464, 0.049172114580869675, -0.024789128452539444, -0.1447499841451645, 0.0007570001762360334, -0.027144763618707657, -0.008050410076975822, -0.0316137932240963, -0.009604559279978275, 0.10402235388755798, 0.15541408956050873, 0.10851753503084183, -0.17629466950893402, -0.012482981197535992, 0.1910589337348938, 0.01114184781908989, 0.1042274683713913], [0.11278235912322998, 0.3101402521133423, -0.24279983341693878, 0.13804808259010315, 0.3699028193950653, 0.043119702488183975, 0.0687577873468399, 0.0589880645275116, 0.012024493888020515, 0.14032943546772003, -0.05963236838579178, 0.025862708687782288, 0.18874801695346832, 0.018760357052087784, -0.010862521827220917, -0.008980266749858856, -0.008667097426950932, 0.1298660933971405, -0.23840366303920746, -0.017111243680119514, 0.1452612578868866, 0.2391265481710434, 0.16583916544914246, -0.1140698790550232, -0.20676209032535553, 0.1667434424161911, -0.07079600542783737, -0.1313152015209198, -0.3365621268749237, 0.026663314551115036, 0.15743865072727203, 0.012181811966001987, 0.013723642565310001, 0.0656527727842331, -0.08410981297492981, 0.16362623870372772, 0.040369149297475815, -0.022742072120308876, 0.04713601991534233, 0.020725881680846214, 0.08795332163572311, -0.00585176469758153, -0.22869087755680084, 0.0775078609585762, 0.10155265778303146, 0.058838773518800735, -0.06898459047079086, 0.00883252639323473, -0.1376194953918457, 0.2747892141342163, 0.08162783831357956, -0.06698906421661377, 0.015703357756137848, -0.062230028212070465, 0.04630385339260101, 0.023792073130607605, -0.1579078584909439, -0.21872134506702423, -0.1052660420536995, -0.16880476474761963, -0.02547934651374817, 0.11192268133163452, 0.14307479560375214, 0.10194944590330124, -0.12085167318582535, -0.041016049683094025], [-0.1542450189590454, 0.22240982949733734, -0.039914898574352264, -0.042341142892837524, -0.1820506602525711, -0.09635353088378906, 0.09882686287164688, -0.18572649359703064, 0.1503087431192398, 0.14438356459140778, 0.05911726877093315, 0.20295153558254242, -0.13585329055786133, -0.01212080754339695, -0.0862555205821991, -0.180571511387825, 0.03779234364628792, 0.08503695577383041, -0.07105012238025665, -0.22440777719020844, 0.06036335602402687, 0.21082115173339844, 0.016272643581032753, 0.005322109442204237, 0.21780790388584137, 0.38469749689102173, -0.1651385873556137, 0.10470873862504959, -0.046884842216968536, -0.014047647826373577, 0.1288328617811203, -0.20026633143424988, -0.1284930557012558, -0.04844725504517555, -0.06182883679866791, 0.01962939277291298, -0.09978607296943665, 0.16410601139068604, 0.015212326310575008, 0.06920067220926285, 0.023684512823820114, 0.11202068626880646, 0.08969774097204208, -0.06726756691932678, -0.048064541071653366, -0.25482502579689026, -0.1117648109793663, -0.18357588350772858, -0.09760354459285736, 0.16065071523189545, 0.08083311468362808, -0.11146072298288345, 0.09698864817619324, 0.19643649458885193, 0.026554640382528305, 0.06923802196979523, 0.23246687650680542, -0.034362196922302246, -0.1376826912164688, 0.29804104566574097, -0.013124852441251278, -0.36522868275642395, 0.09348878264427185, -0.05814654752612114, 0.32646194100379944, 0.14240960776805878], [0.07917395979166031, -0.006041022948920727, -0.2443382292985916, 0.057580653578042984, -0.04350438341498375, -0.05658663064241409, 0.09502048790454865, -0.04049062356352806, 0.2605852782726288, -0.034086406230926514, 0.032277874648571014, 0.16341714560985565, 0.08895381540060043, 0.14289990067481995, 0.018936248496174812, -0.15268534421920776, -0.1662587821483612, 0.1821962296962738, -0.16088464856147766, 0.13149459660053253, -0.01031822245568037, -0.06547833234071732, 0.033026814460754395, 0.12096964567899704, 0.37593913078308105, -0.07286732643842697, -0.059813134372234344, 0.07782789319753647, -0.10935605317354202, -0.027911899611353874, -0.17294402420520782, -0.2876794636249542, 0.11020593345165253, 0.012864846736192703, 0.0947379469871521, 0.03851436451077461, -0.07044198364019394, 0.127267986536026, 0.07383708655834198, -0.13942191004753113, -0.12615595757961273, 0.0146793182939291, 0.14300274848937988, -0.09814868122339249, 0.0323420912027359, 0.1766158491373062, 0.04094962030649185, 0.12224733829498291, -0.011201783083379269, 0.03965704143047333, -0.24996541440486908, 0.06449045240879059, 0.11552990972995758, -0.05187428370118141, -0.12259777635335922, 0.06932850927114487, 0.004826167598366737, 0.05957791954278946, -0.024844877421855927, -0.23593886196613312, 0.03531442955136299, -0.10205570608377457, 0.16887028515338898, 0.017808988690376282, 0.1666833758354187, -0.10210378468036652], [0.15506337583065033, 0.11685997992753983, 0.1703997552394867, -0.1679600477218628, -0.14302408695220947, 0.09398451447486877, -0.09066751599311829, 0.3052462041378021, 0.038960836827754974, 0.0792551040649414, -0.03008669801056385, -0.13711094856262207, 0.02628675103187561, 0.013945160433650017, 0.2485467493534088, -0.01736554130911827, -0.11794326454401016, 0.02560834214091301, 0.18155810236930847, 0.007864699698984623, -0.09770882874727249, -0.31875503063201904, -0.08581806719303131, -0.1140938326716423, 0.1322735846042633, 0.07903742790222168, 0.02216511219739914, 0.0746869146823883, 0.03623535856604576, 0.09083268791437149, -0.24745070934295654, 0.1774958074092865, -0.1387023627758026, 0.25725892186164856, 0.006233651656657457, -0.25568097829818726, -0.06257117539644241, 0.06275668740272522, -0.008355250582098961, 0.20157428085803986, 0.08052528649568558, -0.03950698673725128, -0.35489052534103394, -0.15348856151103973, -0.005529461894184351, 0.042228881269693375, 0.07640952616930008, 0.10949791967868805, -0.03270130977034569, 0.022725524380803108, -0.1726064831018448, 0.017539793625473976, -0.08084888011217117, -0.15420885384082794, -0.0884675532579422, 0.13908514380455017, 0.0029938099905848503, 0.05125334486365318, -0.009753855876624584, 0.20565283298492432, -0.15370012819766998, -0.03532075509428978, 0.024917621165513992, 0.042935360223054886, 0.3478069305419922, -0.047126736491918564], [-0.07444439083337784, 0.24841313064098358, -0.22274407744407654, 0.14307303726673126, -0.11832507699728012, -0.04597468674182892, 0.43149426579475403, 0.05244038626551628, -0.09533865004777908, -0.01749989204108715, -0.210112065076828, 0.042543768882751465, -0.22481653094291687, -0.07417237758636475, -0.16634197533130646, -0.13457077741622925, 0.10466683655977249, 0.008065641857683659, -0.09323610365390778, -0.07489833980798721, -0.07714290916919708, 0.2536097764968872, -0.07465171068906784, 0.05177723988890648, 0.10614342987537384, -0.19098639488220215, -0.11562381684780121, 0.02439560741186142, -0.10131783783435822, 0.24171724915504456, 0.04799899831414223, -0.05766429007053375, 0.07180965691804886, 0.07680737227201462, 0.10460646450519562, -0.020235396921634674, 0.10871295630931854, -0.04893465340137482, 0.17386740446090698, -0.03285348042845726, -0.01400903519243002, -0.057300761342048645, -0.09640233963727951, -0.018754899501800537, 0.04145080968737602, 0.12424810230731964, -0.01506478525698185, 0.018383029848337173, -0.3118308484554291, -0.0206835325807333, 0.042884912341833115, -0.012149708345532417, -0.0057716211304068565, -0.16873274743556976, 0.061055414378643036, -0.04349478706717491, 0.10600057989358902, -0.1881740242242813, 0.01701890304684639, 0.22043897211551666, 0.06224488094449043, -0.015677709132432938, -0.21882078051567078, 0.020090851932764053, -0.23226559162139893, 0.044585421681404114], [-0.0649212971329689, 0.1812364012002945, -0.29028624296188354, 0.035926733165979385, 0.040336161851882935, -0.13711658120155334, 0.041464854031801224, -0.1256551891565323, 0.15912961959838867, 0.05336970090866089, -0.04916827753186226, -0.13148683309555054, -0.2507492005825043, -0.18604826927185059, 0.06721798330545425, 0.23288172483444214, 0.0866292268037796, -0.033235080540180206, -0.11183830350637436, -0.06444555521011353, 0.22233334183692932, -0.05219824239611626, 0.12579289078712463, -0.09468918293714523, -0.044779255986213684, 0.0018382257549092174, -0.012177132070064545, 0.061832230538129807, -0.3866864740848541, -0.17100144922733307, 0.015101463533937931, -0.14428593218326569, -0.007160149049013853, 0.12167643755674362, 0.09539781510829926, -0.08892843872308731, -0.11400629580020905, 0.005864867940545082, -0.09762180596590042, -0.20051296055316925, 0.025189729407429695, 0.11435239017009735, -0.0386442132294178, -0.2567821443080902, -0.07520943135023117, -0.07626213133335114, 0.263067364692688, -0.25242534279823303, -0.22474327683448792, 0.06318007409572601, 0.12051163613796234, 0.02452242374420166, 0.21030335128307343, -0.025809893384575844, 0.030200490728020668, 0.15249404311180115, 0.22193850576877594, 0.04536069929599762, 0.032301321625709534, -0.16747894883155823, -0.08028164505958557, -0.0811801552772522, -0.09556616842746735, -0.13374802470207214, -0.23990297317504883, 0.146998330950737], [-0.04887527972459793, 0.07568143308162689, 0.03266676142811775, 0.011821710504591465, -0.07322391122579575, 0.08852573484182358, 0.07833024114370346, -0.099528968334198, 0.20497533679008484, 0.14002934098243713, 0.11120405048131943, 0.034937407821416855, -0.10485149174928665, 0.09010346233844757, 0.01850399374961853, -0.0652245432138443, 0.2374134510755539, -0.039776019752025604, 0.04332677274942398, -0.03488607704639435, -0.1927657127380371, -0.2253003716468811, -0.03442902863025665, -0.15370222926139832, 0.15463390946388245, -0.10806609690189362, 0.014981529675424099, -0.11441025137901306, 0.06084255874156952, -0.11976240575313568, -0.0651477798819542, -0.05601045489311218, 0.29739686846733093, 0.043262992054224014, -0.12194579839706421, 0.17757843434810638, 0.08829589933156967, 0.015016469173133373, -0.1234225183725357, -0.0031139315105974674, -0.08218246698379517, -0.08558552712202072, -0.10134375095367432, -0.1399652361869812, 0.2862740159034729, -0.19624750316143036, -0.055644690990448, 0.062872014939785, 0.16176313161849976, -0.05611788108944893, 0.0797688439488411, 0.10326273739337921, 0.2589532136917114, -0.02644304931163788, 0.07029031962156296, 0.09262891113758087, -0.1792062669992447, -0.0047033559530973434, -0.2069123387336731, -0.03146294131875038, 0.030062688514590263, 0.04447467625141144, -0.16801917552947998, 0.3434511721134186, -0.2011222392320633, 0.033690210431814194], [0.008905529044568539, -0.030573073774576187, 0.285893052816391, -0.07215436547994614, 0.17430131137371063, 0.3647501468658447, -0.08485410362482071, -0.011477045714855194, -0.1037401407957077, 0.07716675847768784, 0.09577041864395142, -0.0903230607509613, -0.049618180841207504, 0.10651952028274536, -0.24606168270111084, 0.15293985605239868, 0.03643418475985527, 0.3344392776489258, 0.03331045061349869, 0.04069533199071884, 0.18110854923725128, -0.1296187937259674, -0.17510980367660522, 0.02070600911974907, 0.18889284133911133, -0.008549647405743599, 0.05857912451028824, 0.27730345726013184, 0.08294279128313065, -0.007536781020462513, -0.004506316501647234, -0.065952368080616, 0.1289123296737671, -0.10800677537918091, -0.12410544604063034, -0.30649375915527344, -0.0045812674798071384, -0.12181496620178223, 0.014785459265112877, -0.01727708987891674, 0.10418736934661865, 0.025934485718607903, -0.16812609136104584, -0.12787467241287231, 0.03158007562160492, -0.020981982350349426, 0.08676590770483017, 0.12973341345787048, -0.05876355618238449, 0.10109089314937592, 0.09286206215620041, -0.07918910682201385, 0.05756082758307457, -0.07321502268314362, 0.023924851790070534, 0.05962250754237175, 0.09075979143381119, 0.1002190038561821, -0.14091366529464722, 0.07234851270914078, 0.2852875888347626, -0.12396705150604248, 0.04195254668593407, 0.07532458007335663, 0.10496904700994492, 0.13299258053302765], [0.0947236716747284, 0.13650882244110107, 0.050594352185726166, 0.06662777811288834, 0.07663194090127945, 0.0777023509144783, -0.13703502714633942, 0.08074191957712173, -0.07415293902158737, -0.010697077959775925, -0.04232563078403473, -0.221283957362175, 0.07801982015371323, -0.08425234258174896, 0.2095942497253418, -0.01614365540444851, -0.06859305500984192, -0.06120182201266289, 8.586589683545753e-05, 0.016694920137524605, -0.09630686044692993, -0.1343764364719391, 0.021441644057631493, 0.09096240997314453, 0.3101731240749359, -0.0014204721665009856, -0.25958162546157837, 0.18586820363998413, 0.23898784816265106, -0.009329532273113728, -0.06314065307378769, 0.357690691947937, -0.050077542662620544, 0.07192336767911911, -0.14432264864444733, -0.18572582304477692, -0.211993008852005, -0.09487143903970718, -0.1084783747792244, -0.03089270554482937, -0.03619988262653351, -0.029669199138879776, 0.13777554035186768, 0.21202781796455383, -0.11623017489910126, -0.24042193591594696, -0.11233200132846832, 0.10271964967250824, -0.09673603624105453, -0.03929302096366882, -0.035200029611587524, 0.13947556912899017, -0.007957893423736095, 0.019730133935809135, -0.15897276997566223, 0.1855478286743164, -0.15249353647232056, 0.188605397939682, -0.1611824929714203, 0.08334937691688538, 0.35710787773132324, 0.17397181689739227, 0.16476203501224518, -0.0005633793771266937, -0.027005614712834358, -0.12487379461526871], [-0.17852266132831573, 0.1597672700881958, 0.23888374865055084, -0.08637437224388123, -0.0046751671470701694, 0.08023707568645477, -0.23524697124958038, 0.08757786452770233, -0.14137104153633118, 0.02039557509124279, 0.11399906128644943, -0.28810685873031616, 0.029766276478767395, -0.07368109375238419, -0.02982427179813385, -0.16279742121696472, -0.10003022104501724, -0.12248985469341278, 0.10009454935789108, 0.14876051247119904, -0.07698510587215424, 0.030549457296729088, -0.17008402943611145, -0.1590632051229477, 0.3789708614349365, 0.08798933774232864, 0.2580108344554901, 0.18630564212799072, -0.06170634180307388, 0.030619671568274498, 0.08307846635580063, 0.06173700466752052, 0.061430979520082474, 0.082212895154953, 0.11781347543001175, -0.20171405375003815, 0.08420012891292572, -0.026467708870768547, -0.17015130817890167, 0.11609123647212982, -0.0984649807214737, 0.04691130667924881, 0.15663564205169678, 0.20289543271064758, 0.13518337905406952, 0.18077176809310913, -0.005322219338268042, -0.17019353806972504, -0.052628058940172195, 0.019078580662608147, 0.1318640261888504, 0.2133803516626358, -0.057948026806116104, 0.12579300999641418, -0.17253214120864868, -0.17761802673339844, -0.009615751914680004, -0.008360986597836018, -0.06000562012195587, 0.07204041630029678, -0.09580493718385696, -0.011660346761345863, 0.07262354344129562, 0.1487499624490738, 0.08024168759584427, -0.07826041430234909], [0.047129906713962555, 0.11397198587656021, 0.11575029790401459, 0.025981368497014046, -0.10343927890062332, 0.37059444189071655, 0.0917704701423645, 0.09515047818422318, -0.01610535942018032, 0.14217980206012726, 0.0567026361823082, -0.0413445308804512, 0.12637341022491455, 0.07430897653102875, 0.20760419964790344, 0.08927140384912491, -0.04666837677359581, 0.0548674613237381, 0.14478226006031036, 0.0838998407125473, -0.09648870676755905, 0.014823897741734982, -0.16082453727722168, -0.02663223072886467, 0.017418954521417618, 0.12920191884040833, 0.24530920386314392, 0.029765523970127106, 0.15577280521392822, -0.013356801122426987, -0.4876042604446411, 0.23487713932991028, 0.20628982782363892, 0.026285121217370033, -0.0033957664854824543, -0.07508833706378937, -0.2892269790172577, 0.08841424435377121, 0.012748640961945057, -0.23401346802711487, -0.09770388901233673, 0.10985128581523895, 0.09595045447349548, 0.08170899003744125, 0.1777952015399933, 0.10115136951208115, -0.05119484290480614, -0.13490626215934753, -0.018245486542582512, -0.18240468204021454, -0.09873625636100769, -0.13105542957782745, -0.09564866870641708, 0.21973508596420288, 0.06106123700737953, -0.13919812440872192, -0.05541209876537323, 0.07995650172233582, -0.14298714697360992, 0.038805726915597916, 0.18412506580352783, 0.031767088919878006, -0.1761469691991806, -0.15947583317756653, 0.10110069811344147, -0.10563711822032928], [0.1793082356452942, -0.002938698511570692, 0.17890475690364838, -0.028345366939902306, 0.04534728080034256, 0.005824568681418896, -0.026757683604955673, 0.0973794087767601, -0.22849754989147186, 0.07304761558771133, 0.06708195805549622, 0.014357119798660278, 0.008587434887886047, -2.7146752472617663e-05, 0.05723751336336136, -0.06931864470243454, -0.18416154384613037, -0.25888997316360474, 0.14648298919200897, -0.30294933915138245, 0.0606241300702095, -0.07767322659492493, 0.07832188904285431, 0.21517696976661682, -0.041343994438648224, -0.02675851806998253, 0.04446783661842346, 0.19583433866500854, 0.2162042111158371, 0.1739320009946823, -0.009158764965832233, 0.014844966121017933, 0.20305512845516205, 0.1753641664981842, -0.1893468201160431, -0.09886350482702255, -0.25977393984794617, 0.11676608771085739, -0.046338651329278946, -0.01768227107822895, 0.001661286223679781, 0.04524492844939232, 0.007950772531330585, -0.12095557153224945, -0.06562679260969162, 0.14740659296512604, 0.026942651718854904, 0.1592598557472229, -0.10975214093923569, 0.07734306156635284, 0.17862872779369354, 0.056589946150779724, -0.08128130435943604, 0.24215520918369293, -0.16242313385009766, 0.06078830361366272, -0.07981305569410324, -0.07614216953516006, 0.014963466674089432, -0.19783884286880493, -0.08411365747451782, -0.18433398008346558, -0.1275349259376526, 0.07408164441585541, 0.1016339585185051, 0.004041987005621195], [0.07644530385732651, 0.0840223953127861, -0.22065293788909912, 0.008173678070306778, -0.1793268471956253, 0.1594301164150238, -0.13979317247867584, -0.010216573253273964, -0.14417585730552673, 0.07420481741428375, -0.013214482925832272, -0.07288742065429688, -0.08625895529985428, -0.192243754863739, -0.005381128750741482, 0.16714271903038025, -0.03431379422545433, -0.05749963968992233, -0.047888416796922684, 0.06907929480075836, 0.022677402943372726, -0.049508530646562576, -0.02502962201833725, 0.13268691301345825, -0.13814888894557953, 0.009521625936031342, 0.02823818102478981, 0.1311032623052597, -0.08985787630081177, -0.13779816031455994, 0.2419218271970749, -0.24799910187721252, -0.18415045738220215, 0.06677788496017456, -0.09684652090072632, 0.34885260462760925, 0.28055712580680847, 0.22060717642307281, 0.07120832800865173, 0.04790657386183739, -0.04918249696493149, 0.0020630250219255686, 0.21452510356903076, -0.0021990316454321146, -0.0036316001787781715, 0.09116105735301971, 0.1814470738172531, 0.032745081931352615, -0.010220442898571491, 0.05500248074531555, -0.045668404549360275, -0.20415374636650085, 0.11938401311635971, -0.08060365170240402, 0.006244518328458071, 0.08546970039606094, -0.04479534178972244, -0.1624353677034378, -0.15264299511909485, 0.12875472009181976, 0.0003774851793423295, 0.041809920221567154, -0.15862737596035004, -0.049609728157520294, -0.06512453407049179, -0.25410616397857666], [0.012015716172754765, -0.0010400386527180672, -0.1357901245355606, 0.1057090237736702, 0.0948517769575119, -0.007583255879580975, -0.13605105876922607, 0.009913739748299122, -0.13101506233215332, -0.10079493373632431, 0.03505589812994003, 0.032128967344760895, 0.10729414969682693, -0.017590779811143875, -0.08444538712501526, 0.09059024602174759, 0.024640459567308426, 0.19464316964149475, -0.2730875611305237, -0.11161448806524277, -0.19940871000289917, 0.026784928515553474, -0.03136865422129631, -0.037256497889757156, -0.02852134220302105, -0.18504264950752258, -0.12499209493398666, -0.28476306796073914, 0.24786479771137238, 0.1427624374628067, 0.17834587395191193, -0.040823616087436676, 0.07169415056705475, 0.21640945971012115, -0.18290548026561737, -0.12663120031356812, 0.07580357044935226, 0.20331747829914093, 0.08909548819065094, -0.14393413066864014, -0.1802581548690796, 0.10278096795082092, -0.03363024815917015, -0.26278799772262573, 0.06002324819564819, -0.12675240635871887, 0.08370376378297806, -0.14738669991493225, 0.13812966644763947, -0.06318061053752899, 0.19446900486946106, 0.04394087195396423, -0.11189565062522888, 0.016222238540649414, 0.03589599207043648, -0.21024848520755768, -0.06808433681726456, 0.17693974077701569, 0.05329316109418869, -0.040286190807819366, -0.16802583634853363, 0.2617398798465729, 0.16695214807987213, -0.20373131334781647, -0.040040839463472366, -0.14708100259304047], [0.22112634778022766, -0.24894431233406067, -0.022643132135272026, 0.07049001008272171, -0.08895859867334366, 0.06798871606588364, -0.0656818225979805, 0.03827611729502678, 0.03925600275397301, 0.00385299907065928, 0.0712621882557869, -0.10509230196475983, 0.01619148440659046, 0.015274529345333576, 0.09115936607122421, -0.05003531649708748, 0.10115137696266174, 0.12983176112174988, 0.06149129942059517, 0.06294706463813782, -0.14898543059825897, 0.050406746566295624, -0.012039093300700188, -0.055473558604717255, 0.32100826501846313, 0.21131931245326996, 0.1078561469912529, -0.08727193623781204, 0.03797243908047676, -0.021216334775090218, 0.06065851077437401, 0.019845986738801003, 0.1620875895023346, -0.144963800907135, -0.2563297152519226, -0.016675002872943878, 0.11776991933584213, 0.04271397367119789, -0.16590730845928192, 0.06266190111637115, -0.10938010364770889, -0.24594485759735107, 0.0028479055035859346, -0.012003765441477299, -0.08604876697063446, -0.012409282848238945, -0.05396556481719017, 0.13623425364494324, -0.23026703298091888, 0.016540369018912315, -0.12236475944519043, -0.026514193043112755, -0.2737981081008911, 0.12467209994792938, 0.11524675786495209, -0.02537713758647442, 0.15720605850219727, -0.08129926025867462, 0.18186326324939728, -0.24625925719738007, -0.08724699914455414, 0.3829342722892761, -0.3074405789375305, -0.0492367260158062, 0.14086362719535828, -0.008019275031983852], [-0.0929652601480484, -0.03515813499689102, -0.1401580572128296, -0.08426269888877869, 0.15346866846084595, 0.1359078288078308, -0.03191770985722542, 0.26258715987205505, 0.05258822813630104, -0.08251366019248962, -0.023160420358181, 0.04076565429568291, 0.04538256302475929, -0.08812259882688522, 0.1319408118724823, -0.06738699972629547, -0.12986263632774353, -0.01483915839344263, -0.013042561709880829, -0.39209720492362976, -0.02742638997733593, -0.0218636654317379, 0.00993293896317482, 0.11419834941625595, 0.17487017810344696, 0.016713930293917656, 0.18922533094882965, 0.0066070714965462685, -0.13759231567382812, -0.003961807116866112, -0.009601633064448833, -0.09436948597431183, 0.12941214442253113, -0.22139160335063934, 0.09090036898851395, -0.12632624804973602, -0.07518342137336731, 0.030896974727511406, -0.1402219533920288, 0.0195720586925745, 0.07270777970552444, 0.0907515436410904, 0.026357579976320267, 0.0717906653881073, -0.08249086141586304, -0.1882406771183014, 0.25135406851768494, -0.04682563990354538, 0.016504177823662758, -0.02993663027882576, 0.11044871807098389, -0.19146884977817535, -0.10783929377794266, -0.25645142793655396, -0.03316019847989082, 0.011705179698765278, -0.4075296223163605, -0.06821036338806152, 0.058276329189538956, 0.11557633429765701, 0.08137224614620209, 0.13949552178382874, -0.0679805651307106, 0.021497080102562904, 0.049459002912044525, 0.1555687040090561], [0.19332660734653473, 0.059228233993053436, 0.19917568564414978, 0.09688126295804977, 0.05035117641091347, 0.13678742945194244, -0.0946655347943306, 0.006212511099874973, -0.11944781243801117, 0.03604380413889885, -0.11092076450586319, -0.11859143525362015, -0.2373550832271576, 0.0683317631483078, 0.03728512302041054, -0.11149223893880844, -0.14292223751544952, 0.09718581289052963, -0.03570050746202469, 0.05971129983663559, -0.16919374465942383, -0.374617338180542, 0.05628112331032753, 0.1841972917318344, 0.07677101343870163, 0.03541608527302742, 0.1380995661020279, 0.016271555796265602, 0.08570104837417603, -0.09201984852552414, -0.10026589035987854, 0.09976278990507126, 0.1995055079460144, -0.11820165812969208, -0.1271616369485855, -0.08493568003177643, -0.030195327475667, 0.03969371318817139, 0.20007362961769104, 0.06279376149177551, -0.006448602303862572, 0.26272961497306824, -0.052334267646074295, 0.19337673485279083, 0.007194620091468096, 0.08626925200223923, -0.15454722940921783, -0.28817763924598694, 0.039053868502378464, -0.2045261561870575, 0.04873478785157204, 0.1405300498008728, -0.1369316428899765, -0.041396111249923706, -0.20490504801273346, 0.20452654361724854, 0.02325824648141861, -0.16093716025352478, 0.18344421684741974, 0.08482097089290619, 0.002591493306681514, 0.1320437639951706, 0.13498634099960327, -0.08326949179172516, 0.24363389611244202, 0.11022742092609406], [0.09504695981740952, 0.25966426730155945, -0.020420100539922714, -0.25355082750320435, 0.07434650510549545, 0.13158206641674042, 0.23990829288959503, 0.07924787700176239, -0.03268636018037796, 0.27848318219184875, -0.05674900487065315, -0.1455671638250351, -0.10038450360298157, -0.12603561580181122, -0.08812635391950607, -0.05417776480317116, 0.13611629605293274, 0.01915157213807106, 0.23454681038856506, -0.11011952906847, 0.01922869309782982, 0.03282829374074936, 0.11183586716651917, 0.28311535716056824, 0.02236519567668438, 0.09133350104093552, -0.014375187456607819, 0.059832584112882614, -0.10553302615880966, -0.024785947054624557, 0.019623562693595886, 0.07945398986339569, 0.0752914696931839, -0.01760341413319111, 0.19552820920944214, -0.1142943724989891, 0.23157444596290588, 0.11808457225561142, -0.27933499217033386, 0.10283838957548141, 0.035096216946840286, 0.10353044420480728, 0.041412144899368286, -0.1640326827764511, -0.10270345956087112, -0.034768037497997284, 0.016024015843868256, 0.08115088939666748, 0.1947108656167984, 0.10331619530916214, -0.044515304267406464, 0.1027374416589737, -0.22972126305103302, 0.1048605814576149, -0.025936050340533257, -0.028848227113485336, 0.0753704234957695, 0.004917283542454243, -0.10910771042108536, 0.06232816353440285, 0.07094013690948486, -0.2494722157716751, 0.5033351182937622, -0.3676372766494751, -0.0906618982553482, 0.019861584529280663], [-0.047594524919986725, -0.07673273980617523, -0.10309267789125443, 0.14028072357177734, -0.06372926384210587, 0.07254308462142944, 0.02086319774389267, -0.3204737901687622, 0.00943373516201973, 0.2224024385213852, 0.19928224384784698, 0.13905327022075653, -0.15944038331508636, 0.002798693487420678, -0.074974425137043, 0.056577328592538834, -8.239727321779355e-06, -0.10553550720214844, -0.04176666960120201, 0.017250152304768562, 0.24155893921852112, 0.09877219051122665, 0.002248041797429323, -0.11008401960134506, 0.03251948952674866, -0.059910766780376434, 0.15655402839183807, 0.023088034242391586, 0.059841711074113846, 0.01755768433213234, -0.12344153970479965, 0.24217131733894348, -0.10382510721683502, -0.03994112089276314, 0.029135284945368767, -0.06953437626361847, -0.01286475919187069, 0.3273860216140747, -0.06293338537216187, 0.1655653417110443, 0.021732542663812637, 0.06077270582318306, 0.0007769781514070928, -0.053546980023384094, -0.020928476005792618, -0.06835951656103134, -0.014777934178709984, 0.03635512664914131, -0.035910144448280334, -0.12679973244667053, -0.050463784486055374, 0.04736262932419777, -0.12022870779037476, -0.2474174052476883, -0.18660472333431244, -0.14027059078216553, -0.06145835667848587, 0.0822853073477745, 0.1705041080713272, -0.1193956583738327, 0.16005432605743408, 0.14238466322422028, -0.027831416577100754, 0.27799439430236816, 0.08237245678901672, -0.1439739316701889], [0.3222377300262451, -0.009841685183346272, 0.3090916872024536, -0.009089581668376923, -0.20340271294116974, -0.0745040625333786, -0.08909060060977936, -0.0253756120800972, -0.08075889199972153, 0.011452252976596355, -0.01494995690882206, -0.042127229273319244, -0.1389949470758438, -0.06131473556160927, 0.08881101757287979, -0.10045082122087479, -0.3025871813297272, 0.22582410275936127, -0.12052993476390839, -0.2563462555408478, -0.1063767671585083, 0.06679317355155945, -0.12461299449205399, 0.019983859732747078, 0.013449491001665592, -0.1761244237422943, 0.027397265657782555, -0.09428524225950241, -0.09317438304424286, -0.055443305522203445, -0.04621411859989166, 0.05884353071451187, -0.05779891461133957, -0.14765815436840057, -0.02854173816740513, -0.003037779126316309, -0.13690301775932312, -0.042903635650873184, -0.19543948769569397, -0.07770577073097229, 0.1491495817899704, 0.11418869346380234, -0.10017736256122589, 0.05324395000934601, -0.02968434803187847, -0.017214827239513397, 0.1961437314748764, 0.02807854302227497, -0.11604287475347519, -0.1975989043712616, -0.10862134397029877, -0.021392619237303734, 0.03379645571112633, 0.10592218488454819, 0.016956016421318054, -0.1406748741865158, 0.08419080078601837, 0.13674432039260864, -0.19427965581417084, 0.06749676913022995, -0.09611081331968307, 0.0681508332490921, 0.2091466784477234, 0.124515600502491, -0.16218777000904083, -0.10694699734449387], [-0.04001587629318237, 0.07349597662687302, -0.025887206196784973, -0.23935741186141968, 0.12747804820537567, -0.04787145182490349, -0.06292113661766052, -0.1459573656320572, 0.2634735405445099, -0.10030067712068558, 0.07978709042072296, 0.03065497986972332, 0.11721416562795639, 0.040001265704631805, -0.0019116230541840196, 0.14686429500579834, -0.014901821501553059, -0.08219069987535477, -0.20508991181850433, -0.188752219080925, -0.02199784480035305, -0.047486547380685806, -0.030433671548962593, 0.19459305703639984, -0.11529530584812164, 0.033545300364494324, 0.008713802322745323, 0.19959530234336853, 0.004779231734573841, -0.0797867551445961, -0.03684192895889282, -0.07974937558174133, 0.06231943890452385, 0.12664631009101868, -0.11250563710927963, -0.01872616820037365, 0.12536749243736267, 0.06810355931520462, 0.276645302772522, 0.06859724223613739, 0.28129422664642334, 0.07625338435173035, -0.09453417360782623, 0.006765421014279127, -0.11944477260112762, 0.04686836525797844, -0.06376906484365463, 0.022802986204624176, -0.14294315874576569, -0.16018065810203552, -0.1311372071504593, 0.3204888105392456, -0.08627381175756454, 0.12769682705402374, 0.2344326674938202, -0.10871709138154984, -0.13526463508605957, 0.011550519615411758, -0.011496498249471188, -0.0011673131957650185, 0.04113853722810745, 0.34832942485809326, -0.08826327323913574, 0.061162110418081284, -0.18012161552906036, -0.015781110152602196], [-0.02229897677898407, -0.05045569688081741, -0.07384537160396576, -0.14832668006420135, 0.01889549009501934, 0.18872034549713135, -0.038364656269550323, 0.15738385915756226, 0.20944710075855255, -0.09028362482786179, -0.027998460456728935, -0.1831793189048767, -0.1535874307155609, 0.04236874356865883, -0.1608150452375412, 0.048961471766233444, 0.04083842411637306, 0.068535715341568, -0.1615731418132782, -0.04904639348387718, -0.13930663466453552, 0.11614857614040375, -0.018243122845888138, -0.21461133658885956, -0.1542685627937317, -0.020749054849147797, -0.03882474824786186, 0.18677110970020294, 0.06719264388084412, 0.17458301782608032, 0.013537420891225338, -0.1751016527414322, -0.14813750982284546, -0.09605439752340317, -0.012870783917605877, 0.2343558818101883, -0.17202886939048767, -0.055466849356889725, -0.1514820009469986, -0.006083144806325436, 0.16698229312896729, 0.17917823791503906, 0.10233773291110992, -0.04707016050815582, 0.06645025312900543, -0.018182244151830673, -0.22772246599197388, -0.06954659521579742, -0.09503195434808731, 0.23369000852108002, 0.001348437974229455, 0.11547253280878067, -0.16958653926849365, -0.13952460885047913, -0.11080825328826904, 0.003986600320786238, -0.13016733527183533, 0.02585471421480179, 0.02027251198887825, 0.02351202443242073, -0.2789660394191742, -0.03977363929152489, 0.017555445432662964, -0.15133345127105713, -0.14313603937625885, -0.023114921525120735], [-0.06263890862464905, 0.08056716620922089, -0.03549576923251152, 0.18159563839435577, -0.06193859130144119, 0.0819343850016594, 0.06353100389242172, -0.16768811643123627, 0.039541225880384445, 0.00924715306609869, 0.08492998033761978, 0.16047610342502594, -0.03157065808773041, 0.04454784467816353, -0.22497625648975372, 0.28237229585647583, -0.033240724354982376, -0.2908748984336853, -0.18290771543979645, 0.2529548704624176, -0.11349692195653915, 0.02454281970858574, 0.12910142540931702, -0.2096613198518753, 0.05213373154401779, 0.15683315694332123, -0.1463674008846283, -0.16383765637874603, 0.06758227944374084, 0.28120583295822144, 0.2845747172832489, 0.06513914465904236, 0.17523817718029022, -0.14911410212516785, 0.022096699103713036, 0.029163286089897156, -0.010031807236373425, -0.09627491980791092, 0.020131196826696396, -0.06090329587459564, 0.21712549030780792, -0.05975518748164177, 0.07822968065738678, -0.01861409656703472, -0.06919121742248535, -0.0201499592512846, 0.12956275045871735, 0.11253858357667923, 0.09153066575527191, -0.12936940789222717, -0.2156284898519516, -0.15248772501945496, 0.3394877016544342, 0.03657500818371773, 0.12316121906042099, -0.10922480374574661, -0.1404108703136444, -0.2037813812494278, 0.06482359766960144, -0.06192104145884514, -0.1439397931098938, 0.06670710444450378, -0.008678939193487167, -0.14266996085643768, -0.0247502364218235, -0.10085423290729523], [0.04161878302693367, 0.05907893180847168, -0.07289392501115799, 0.06991060078144073, 0.18115530908107758, 0.23487569391727448, 0.09628040343523026, -0.023226194083690643, 0.20034365355968475, -0.24788109958171844, -0.003391196485608816, 0.1381516456604004, -0.010956878773868084, -0.25017231702804565, 0.035057272762060165, 0.03568499907851219, 0.038210585713386536, -0.11365843564271927, -0.2143789827823639, 0.2942711114883423, 0.14312726259231567, 0.01371022965759039, -0.03606453537940979, 0.1950943022966385, -0.013818085193634033, 0.05274409055709839, 0.0787438303232193, -0.19248488545417786, -0.15088100731372833, 0.03033488430082798, 0.34135347604751587, -0.0007709370693191886, -0.0003609975101426244, 0.009068268351256847, 0.245265930891037, 0.3059368431568146, -0.20923669636249542, 0.0633515790104866, 0.08459635078907013, 0.045966651290655136, -0.05063023045659065, -0.07590699940919876, 0.04022879898548126, -0.21720433235168457, 0.003318613627925515, -0.08359318971633911, -0.12862861156463623, 0.17971830070018768, -0.038845259696245193, -0.020322386175394058, 0.03195318579673767, -0.08623447269201279, -0.11253456771373749, 0.09928255528211594, -0.028211403638124466, -0.083490751683712, 0.16527868807315826, 0.06008581444621086, 0.18362931907176971, 0.24172092974185944, -0.13553601503372192, -0.08873529732227325, -0.12099944800138474, 0.16885331273078918, -0.2082023173570633, 0.07790684700012207], [-0.008211738429963589, 0.14014264941215515, 0.03437412530183792, 0.10446937382221222, -0.009789851494133472, 0.1007971242070198, 0.11035216599702835, 0.05595630034804344, 0.10557051002979279, 0.04303872212767601, 0.08186749368906021, -0.14306898415088654, -0.05959472060203552, -0.17722851037979126, -0.03644339740276337, -0.13565905392169952, 0.011561302468180656, 0.0399135947227478, -0.2532622814178467, -0.11706513911485672, 0.062268536537885666, 0.08779940754175186, -0.006194474175572395, 0.1526917666196823, -0.10095023363828659, 0.1189550906419754, 0.08909070491790771, 0.07380182296037674, 0.1204240694642067, -0.2507157325744629, -0.0632171705365181, 0.07198290526866913, -0.05824780464172363, 0.10087289661169052, -0.09316860139369965, -0.1373482197523117, 0.15801964700222015, -0.23654982447624207, 0.03444361686706543, 0.15292108058929443, -0.14315763115882874, -0.04084370657801628, 0.07439333200454712, 0.09523948282003403, -0.020298724994063377, 0.15420955419540405, 0.06143180653452873, 0.02855144627392292, 0.03857726603746414, 0.05691670998930931, -0.06043631583452225, -0.170043483376503, 0.09152661263942719, -0.007577696815133095, -0.0810869038105011, -0.14169806241989136, -0.18523119390010834, 0.13572204113006592, 0.01583302579820156, 0.042501214891672134, -0.3630554974079132, -0.14361967146396637, 0.15676744282245636, -0.07669918239116669, -0.09619016945362091, 0.45789486169815063], [-0.1282578557729721, -0.1992962658405304, 0.1455729752779007, 0.18549984693527222, 0.0704774409532547, 0.12548980116844177, -0.04351387917995453, -0.0011197790736332536, 0.12397267669439316, -0.0857970118522644, -0.16222579777240753, -0.03474147990345955, -0.08002181351184845, -0.16366608440876007, 0.10158400237560272, -0.03241148963570595, 0.09377357363700867, 0.15726257860660553, 0.08410236984491348, -0.17240607738494873, 0.25736597180366516, 0.2506985068321228, -0.04434880614280701, -0.03830570727586746, 0.26335904002189636, -0.018618013709783554, 0.10796928405761719, -0.19693627953529358, 0.10420463979244232, 0.12178356945514679, -0.017842356115579605, 0.010211142711341381, 0.14543761312961578, 0.22033001482486725, -0.11738856881856918, 0.16803310811519623, 0.15940557420253754, 0.0613241046667099, 0.019705310463905334, 0.04936711862683296, 0.2237449586391449, 0.1753968745470047, 0.041957590728998184, 0.01633000373840332, -0.12149976193904877, -0.03580130264163017, -0.03206966444849968, -0.13897833228111267, 0.08718974888324738, -0.0180625319480896, -0.3303562104701996, 0.018851783126592636, 0.1849289834499359, 0.023367855697870255, -0.15369117259979248, 0.11510570347309113, 0.2553870379924774, -0.07285800576210022, -0.010761977173388004, -0.11044418066740036, 0.0036633810959756374, -0.29851865768432617, -0.002995370654389262, -0.034108661115169525, 0.1049613282084465, -0.1368362009525299]]

Nombre del Parámetro: module.0.module.0.0.bias
Pesos:
[-0.04520539194345474, -0.11606641113758087, 0.12864282727241516, 0.10920342057943344, -0.10496003180742264, 0.12004394829273224, 0.008578570559620857, 0.007161423563957214, -0.13094177842140198, -0.11738099157810211, 0.11559576541185379, -0.0942714735865593, -0.13147273659706116, -0.06424643844366074, 0.20813782513141632, 0.11893634498119354, 0.10923949629068375, 0.04043422266840935, 0.09046845138072968, 0.05821799859404564, -0.060110773891210556, 0.1494027078151703, 0.11008886992931366, 0.09996602684259415, 0.025558538734912872, -0.06354282051324844, -0.10500635206699371, 0.09634190797805786, 0.12094799429178238, 0.1157986968755722, 0.05393608286976814, -0.10248877853155136, -0.022633535787463188, 0.10084354132413864, -0.13844570517539978, -0.011807918548583984, 0.11733882874250412, 0.1141781136393547, -0.10787351429462433, -0.0888407900929451, -0.00604242691770196, 0.08435852080583572, -0.09008928388357162, -0.058761317282915115, 0.0614268034696579, 0.08660749346017838, 0.13143548369407654, 0.1197129413485527, 0.10280455648899078, 0.11352220177650452, -0.11921540647745132, 0.033216383308172226, 0.07852862030267715, -0.04848461598157883, 0.12968972325325012, 0.01052665151655674, 0.04438192397356033, 0.17684651911258698, -0.10912706702947617, -0.052220024168491364, -0.1017334833741188, -0.11867333203554153, -0.02564064785838127, 0.046493906527757645]

Nombre del Parámetro: module.0.module.0.2.weight
Pesos:
