Nombre del Parámetro: module.0.module.0.0.weight
Pesos:
[[0.007229662965983152, -0.1231226697564125, 0.1572052538394928, -0.0020976001396775246, 0.01779438927769661, -0.07168343663215637, -0.023276956751942635, -0.13737262785434723, 0.09429722279310226, 0.044270288199186325, -0.30053985118865967, -0.11473751068115234, 0.3118138611316681, 0.3266313970088959, -0.15886589884757996, -0.05342146381735802, 0.13475511968135834, 0.05563782528042793, -0.023826992139220238, -0.2230994552373886, -0.04843848571181297, 0.25129610300064087, 0.15352828800678253, 0.1684037148952484, 0.2066255509853363, 0.2987774610519409, -0.19632112979888916, -0.20547670125961304, 0.004783658776432276, -0.04969685897231102, -0.03151433542370796, -0.19650405645370483, -0.02399061806499958, 0.17057263851165771, 0.10984524339437485, 0.11565199494361877, -0.06767204403877258, 0.17123284935951233, 0.197906032204628, 0.06683634221553802, 0.04149636998772621, 0.10236143320798874, -0.05552630499005318, 0.06958585977554321, -0.0884586051106453, -0.049736663699150085, -0.003544841893017292, 0.1913365125656128, 0.014966647140681744, 0.2101234793663025, -0.13589799404144287, -0.12906469404697418, -0.053088441491127014, 0.017768044024705887, -0.1685444563627243, -0.0039030492771416903, 0.2299252301454544, 0.18890395760536194, 0.0632990226149559, -0.208475723862648, -0.02168555185198784, 0.19407549500465393, -0.24099308252334595, -0.021001126617193222, -0.27991965413093567, -0.054993972182273865], [-0.1780397593975067, 0.03305243328213692, 0.2074785679578781, -0.0817234143614769, -0.007271342910826206, 0.04679426923394203, -0.0771777555346489, 0.04522290825843811, -0.16909684240818024, 0.1267973929643631, -0.015107017941772938, -0.0207689069211483, 0.2861000597476959, -0.12697960436344147, -0.012003744952380657, -0.07673970609903336, 0.15113243460655212, 0.09104738384485245, 0.08744703978300095, -0.16261090338230133, -0.1101842075586319, 0.19309253990650177, -0.10798030346632004, 0.15495742857456207, 0.15630550682544708, 0.06461988389492035, 0.18314331769943237, 0.0438896119594574, -0.23237955570220947, 0.31892839074134827, 0.045227114111185074, -0.06884477287530899, -0.21200327575206757, -0.22347068786621094, 0.04869928956031799, -0.2247239500284195, -0.23849759995937347, 0.14363627135753632, -0.09047618508338928, 0.10970095545053482, -0.05580379068851471, 0.005010442342609167, 0.1476048082113266, 0.03905267268419266, 0.05229461193084717, 0.042774416506290436, 0.1399102509021759, 0.18118877708911896, 0.1109113097190857, -0.03564462438225746, -0.05616156756877899, 0.051752351224422455, -0.042334143072366714, -0.21364673972129822, -0.10709318518638611, -0.05792001262307167, 0.09502275288105011, 0.06668876111507416, -0.016576876863837242, 0.10949672758579254, 0.05954835191369057, 0.2247209995985031, -0.04652787744998932, -0.06622980535030365, -0.028695307672023773, 0.045679058879613876], [-0.011508091352880001, 0.08394413441419601, 0.017322147265076637, 0.20364420115947723, -0.017723791301250458, 0.012920924462378025, 0.1684340238571167, -0.11535236984491348, -0.18906614184379578, -0.13912782073020935, 0.07945127040147781, 0.09274115413427353, -0.2719380259513855, -0.14026552438735962, 0.04284347593784332, -0.09775758534669876, 0.01598089002072811, 0.20335149765014648, -0.01889861933887005, -0.027377277612686157, 0.08500877767801285, 0.03567177429795265, -0.10904394835233688, -0.16252219676971436, -0.1391712874174118, 0.07311203330755234, 0.12387795001268387, 0.05434799566864967, -0.01720128394663334, 0.08399491757154465, -0.04963598772883415, -0.007697018329054117, 0.0021059883292764425, 0.03228051960468292, 0.23419274389743805, -0.04238651320338249, -0.05056346580386162, 0.26431047916412354, -0.0011693780543282628, -0.11054438352584839, 0.054956551641225815, 0.16780464351177216, -0.2139248251914978, 0.2720147967338562, 0.19238761067390442, 0.11991305649280548, 0.0750565379858017, -0.03590615838766098, -0.2630915641784668, 0.022245388478040695, 0.06769798696041107, 0.01951998472213745, -0.20090551674365997, 0.010749004781246185, 0.26249805092811584, 0.07636593282222748, 0.038018614053726196, -0.13184405863285065, 0.1350177526473999, 0.017857642844319344, -0.015303472056984901, 0.08291483670473099, -0.07667350023984909, -0.09265883266925812, 0.011064503341913223, 0.015342854894697666], [-0.005789391230791807, 0.043186597526073456, 0.1712246984243393, 0.2436251938343048, -0.13459564745426178, -0.18140529096126556, 0.04804765433073044, -0.049804478883743286, -0.21506236493587494, 0.1891840547323227, 0.03301035985350609, 0.15252359211444855, -0.08488596230745316, 0.027756068855524063, -0.031176183372735977, -0.22112302482128143, -0.12286876887083054, -0.19724993407726288, -0.1600261628627777, -0.005882640834897757, 0.12287738174200058, 0.12513668835163116, 0.04087246581912041, -0.13322168588638306, -0.13437022268772125, -0.11317718774080276, -0.16451896727085114, 0.10123938322067261, -0.020641924813389778, 0.0392063669860363, 0.13164331018924713, 0.09778520464897156, 0.11718988418579102, 0.014615069143474102, 0.16838335990905762, -0.09360592812299728, -0.059929125010967255, -0.12076979130506516, 0.06256607919931412, 0.02936033345758915, -0.19293338060379028, 0.17208091914653778, 0.019778618589043617, -0.08902178704738617, 0.06934740394353867, -0.14717894792556763, -0.14764779806137085, 0.11269857734441757, 0.15599188208580017, -0.10032140463590622, 0.26695695519447327, 0.11715598404407501, 0.14886552095413208, -0.33432406187057495, 0.25538119673728943, 0.11066676676273346, 0.061315134167671204, -0.06523458659648895, 0.08534150570631027, 0.017542842775583267, -0.19037675857543945, -0.3074433207511902, 0.004914517980068922, -0.012435821816325188, 0.20011724531650543, 0.003850311040878296], [0.2695068120956421, 0.05980997905135155, -0.16817739605903625, -0.003409241558983922, 0.12892745435237885, 0.06523521989583969, -0.12198402732610703, 0.005328887142241001, -0.09428370743989944, 0.02458881214261055, 0.05601382255554199, 0.08331287652254105, -0.14322710037231445, -0.10808543860912323, 0.11848974227905273, -0.016776664182543755, 0.0920616015791893, -0.33384308218955994, -0.024299241602420807, 0.14703091979026794, -0.037062834948301315, 0.0051873959600925446, 0.061599597334861755, 0.11109797656536102, 0.10396422445774078, 0.11173608899116516, 0.072098508477211, -0.04837974160909653, -0.09224414080381393, -0.0568305067718029, 0.020574020221829414, 0.12325696647167206, -0.008404034189879894, -0.04947606846690178, 0.09120646864175797, 0.049032051116228104, -0.02266830950975418, -0.031300559639930725, 0.16001470386981964, 0.0654262900352478, -0.0970236286520958, 0.08375270664691925, 0.2286224216222763, 0.34762609004974365, 0.07234285771846771, 0.0774918869137764, 0.09783410280942917, 0.18595653772354126, 0.01836174912750721, -0.1785954385995865, -0.1580103635787964, -0.06300139427185059, 0.07225865125656128, 0.20508544147014618, 0.1084003821015358, -0.10268673300743103, -0.01876814290881157, -0.26804319024086, -0.22500237822532654, -0.016931260004639626, -0.02622353658080101, -0.3456825613975525, -0.036266375333070755, -0.0016556751215830445, -0.029052626341581345, 0.15273800492286682], [-0.1533287763595581, 0.34858086705207825, 0.2145194113254547, -0.08323738723993301, -0.08641541749238968, 0.02446131408214569, 0.012399749830365181, -0.31305357813835144, -0.011457615531980991, 0.06254672259092331, 0.0755031481385231, -0.017208611592650414, -0.09829539805650711, 0.1600370556116104, -0.21485905349254608, -0.026184411719441414, -0.10047497600317001, 0.03483754023909569, -0.04545389488339424, 0.0795096680521965, 0.0243800301104784, -0.030964063480496407, 4.912505028187297e-05, -0.02571410872042179, -0.06809747964143753, -0.044752560555934906, 0.2042979598045349, 0.13609793782234192, -0.08157670497894287, -0.25361230969429016, -0.020368296653032303, -0.021427052095532417, 0.06447173655033112, -0.03378499299287796, -0.03147730231285095, -0.03076551854610443, -0.030547363683581352, -0.11279618740081787, 0.20720791816711426, 0.09661352634429932, 0.03890599310398102, 0.16304026544094086, 0.33901888132095337, -0.003814016468822956, 0.10527817159891129, 0.06431300193071365, -0.09005837142467499, -0.08279874920845032, -0.07471699267625809, 0.29664650559425354, -0.05387153476476669, -0.11048996448516846, -0.12685951590538025, 0.024412555620074272, 0.07320686429738998, -0.0780598521232605, 0.06227366626262665, 0.08063599467277527, -0.050088148564100266, 0.035383034497499466, 0.20232880115509033, -0.05134589597582817, 0.0421423614025116, 0.04742416366934776, 0.048650067299604416, -0.023908592760562897], [-0.19396379590034485, 0.08896718919277191, 0.019154878333210945, -0.05604386329650879, -0.14561617374420166, -0.025927379727363586, 0.07955261319875717, -0.06562478840351105, 0.0037277662195265293, 0.18390347063541412, 0.015776893123984337, 0.08637287467718124, -0.1732749044895172, -0.05417250096797943, 0.17139378190040588, 0.13251258432865143, -0.08203914761543274, -0.07895475625991821, -0.12723742425441742, 0.1485702097415924, 0.04799557849764824, 0.300396203994751, -0.04879079759120941, -0.30082905292510986, 0.025180412456393242, -0.16510455310344696, -0.29207083582878113, 0.03364505618810654, -0.027425197884440422, -0.16649921238422394, 0.3641367256641388, 0.019222019240260124, -0.0877629965543747, -0.023670384660363197, 0.057272400707006454, 0.1574825942516327, 0.03370678424835205, 0.10856947302818298, -0.20059987902641296, -0.019226014614105225, -0.03520617261528969, 0.03527999669313431, 0.04596782848238945, 0.17063814401626587, -0.0769563540816307, -0.09453433007001877, -0.12737742066383362, -0.04244868457317352, -0.0007027793326415122, 0.03472112491726875, -0.15548187494277954, 0.06148857623338699, -0.03034687042236328, 0.11456504464149475, 0.0561092272400856, 0.2169671207666397, -0.18659837543964386, -0.06907342374324799, -0.19634278118610382, 0.1533862054347992, 0.002188917715102434, 0.14868682622909546, 0.11987189203500748, 0.027987364679574966, 0.1580827534198761, -0.00030233728466555476], [0.07110907882452011, -0.05749405547976494, 0.06912761181592941, 0.11717310547828674, -0.24482013285160065, 0.15144924819469452, 0.007303597871214151, -0.13337454199790955, -0.26026615500450134, -0.05278141424059868, -0.04328089952468872, 0.14385990798473358, -0.08865593373775482, 0.27816545963287354, 0.04407620429992676, 0.04033683240413666, -0.11708180606365204, -0.2763773798942566, 0.21452930569648743, 0.04109571501612663, -0.14924396574497223, 0.07008151710033417, 0.15023541450500488, 0.16637103259563446, -0.08501596003770828, -0.02404637634754181, 0.14460007846355438, 0.04035113379359245, -0.16596835851669312, -0.16894857585430145, -0.10657793283462524, -0.0409105010330677, -0.1320568174123764, 0.05323357507586479, -0.017525723204016685, 0.07581963390111923, -0.04598455876111984, 0.0837443396449089, -0.09902885556221008, -0.1147223711013794, -0.08880357444286346, -0.17722757160663605, 0.011584975756704807, 0.011843772605061531, -0.1330036222934723, 0.1427863985300064, -0.046267203986644745, -0.1155264750123024, -0.11949873715639114, -0.15754647552967072, 0.07657308876514435, 0.006238250061869621, 0.028275949880480766, 0.047794438898563385, -0.11532802879810333, -0.2534685730934143, 0.00843925029039383, -0.1395156979560852, 0.02211582474410534, 0.161920428276062, -0.277845561504364, 0.2007758766412735, 0.14073128998279572, -0.21860919892787933, 0.03800119832158089, 0.08356605470180511], [0.0720621794462204, -0.26469069719314575, 0.20040348172187805, 0.08112088590860367, 0.15504443645477295, 0.07980478554964066, 0.19546467065811157, 0.02718806266784668, 0.2864002287387848, -0.029383886605501175, -0.020501164719462395, 0.15161719918251038, -0.04731673374772072, -0.07562949508428574, -0.32514849305152893, -0.10109546035528183, -0.15174110233783722, -0.08323641121387482, -0.1312905251979828, -0.153408944606781, 0.06557364016771317, -0.01618417724967003, 0.10187293589115143, 0.10932916402816772, 0.08463045209646225, -0.09370066225528717, 0.13586631417274475, -0.21097199618816376, 0.10213958472013474, -0.11278905719518661, -0.23909710347652435, -0.0032433837186545134, -0.060935575515031815, 0.028051862493157387, 0.021557657048106194, 0.042756687849760056, -0.02870055101811886, -0.09079205989837646, -0.23925720155239105, 0.269674688577652, 0.05904926359653473, -0.05277718976140022, 0.032541289925575256, 0.07526522874832153, 0.07833801954984665, -0.13655158877372742, 0.23512466251850128, -0.012514805421233177, 0.12390743941068649, -0.07155591994524002, -0.05523350462317467, -0.08291338384151459, -0.3269682228565216, -0.03245338052511215, -0.19468455016613007, -0.03504130616784096, 0.14919036626815796, 0.14503814280033112, -0.005950891878455877, 0.13192756474018097, 0.10446976125240326, 0.051570042967796326, -0.11303567886352539, 0.2192297726869583, 0.03099757619202137, -0.06536395847797394], [-0.09582499414682388, 0.2572450041770935, 0.16333095729351044, -0.12113035470247269, 0.10363846272230148, -0.018543677404522896, -0.048636067658662796, -0.22924178838729858, -0.058424197137355804, -0.14035700261592865, -0.034686412662267685, 0.052561722695827484, -0.04308242350816727, 0.06382543593645096, -0.07784129679203033, 0.04719949886202812, -0.19375161826610565, 0.10496364533901215, -0.0372946560382843, -0.009063913486897945, -0.05898100882768631, -0.24551020562648773, 0.0488714762032032, 0.001335620298050344, -0.11181946843862534, -0.0480695404112339, -0.22145675122737885, 0.028297094628214836, -0.134524866938591, 0.031063156202435493, 0.06119383126497269, 0.044394850730895996, -0.30978015065193176, 0.15536494553089142, 0.09031832963228226, -0.10651843249797821, -0.028914207592606544, 0.015768952667713165, 0.013951110653579235, -0.05083221197128296, 0.1837845891714096, -0.020315231755375862, -0.08597686886787415, 0.08862052857875824, 0.18963362276554108, 0.029910948127508163, -0.03483537212014198, 0.23075371980667114, 0.17252719402313232, -0.2031678408384323, 0.10319127142429352, 0.17559368908405304, 0.18496982753276825, 0.16318930685520172, -0.02637414075434208, -0.10814797133207321, -0.22861775755882263, -0.1076175644993782, -0.09663356840610504, 0.17220711708068848, -0.075058713555336, -0.07924213260412216, -0.12933245301246643, -0.08032409846782684, 0.21199050545692444, 0.0020236230921000242], [-0.017657779157161713, -0.03638169914484024, 0.3253995478153229, 0.13392725586891174, -0.06116766482591629, 0.0636446550488472, -0.22293506562709808, -0.05619051679968834, -0.08401583880186081, 0.011840972118079662, -0.10974615812301636, -0.014341889880597591, -0.059811465442180634, -0.04431437328457832, 0.09030430763959885, -0.08275671303272247, 0.062009260058403015, -0.09925725311040878, 0.057766467332839966, 0.031082075089216232, 0.07945180684328079, -0.03317369148135185, -0.021484315395355225, -0.14659243822097778, 0.12492355704307556, 0.014295917935669422, 0.1160784587264061, 0.2758537530899048, -0.08081688731908798, -0.08355468511581421, 0.06303630024194717, 0.20842546224594116, 0.16794300079345703, -0.12111233174800873, 0.36084601283073425, 0.1815129965543747, 0.03393492102622986, -0.10811221599578857, -0.08502046018838882, -0.047459717839956284, 0.09494933485984802, -0.20369760692119598, -0.0909368246793747, -0.26672688126564026, 0.057723090052604675, -0.1619282066822052, 0.11796081811189651, 0.2044956088066101, -0.13788045942783356, -0.10648740082979202, -0.0682586282491684, 0.03013654053211212, -0.1135639175772667, 0.222843736410141, -0.056872107088565826, 0.005628788378089666, -0.21798503398895264, 0.10056938976049423, 0.02550414204597473, -0.16565339267253876, 0.06194714084267616, 0.10178493708372116, -0.052596624940633774, 0.004306709859520197, 0.0531403124332428, 0.18085408210754395], [0.0004509054124355316, 0.16382093727588654, -0.2014315128326416, 0.03300396353006363, -0.017421314492821693, -0.06077361851930618, 0.008363616652786732, 0.06149255856871605, 0.016874536871910095, 0.004329256247729063, -0.10285615921020508, -0.005698523484170437, -0.1635538786649704, 0.036323271691799164, 0.07259614020586014, 0.04127772897481918, 0.051352325826883316, 0.017479315400123596, -0.06308378279209137, -0.00978828314691782, -0.18260709941387177, 0.07505445182323456, -0.06466670334339142, -0.030604828149080276, 0.023478643968701363, -0.09112478047609329, 0.09006503969430923, -0.2499788999557495, -0.10752534866333008, -0.07181280851364136, -0.13354215025901794, -0.1350184828042984, 0.07402009516954422, 0.012350953184068203, 0.15370556712150574, -0.2318432331085205, 0.014907000586390495, 0.18196210265159607, 0.011709646321833134, 0.1366245299577713, -0.08778521418571472, 0.004645060747861862, 0.08659321069717407, -0.16563643515110016, -0.02412772923707962, -0.0703096091747284, -0.3014717698097229, -0.0178622305393219, -0.16192641854286194, -0.27669182419776917, -0.1652986854314804, 0.004947438836097717, -0.01971864141523838, -0.08079452067613602, 0.06468268483877182, -0.3988497853279114, -0.2914143204689026, 0.06781545281410217, -0.03352478891611099, 0.048244379460811615, -0.19700145721435547, 0.041087351739406586, -0.23370113968849182, 0.09572114795446396, -0.13037215173244476, -0.0024238601326942444], [-0.009410006925463676, -0.3414730727672577, 0.24128583073616028, -0.044252682477235794, -0.006539737805724144, 0.08156664669513702, -0.13076750934123993, -0.022751543670892715, 0.059642817825078964, 0.21614493429660797, -0.016829589381814003, 0.024778593331575394, 0.012976482510566711, -0.13614675402641296, 0.10602063685655594, 0.03362041339278221, 0.07904835790395737, 0.12965214252471924, 0.1109064444899559, -0.039318181574344635, -0.20293770730495453, -0.07691332697868347, -0.0764254704117775, -0.16407671570777893, 0.02464146912097931, 0.16562695801258087, 0.02185438945889473, -0.1490141749382019, -0.0014979834668338299, 0.10751858353614807, 0.16913463175296783, 0.18238691985607147, -0.054233651608228683, -0.023748308420181274, -0.11220614612102509, 0.2620552182197571, 0.050049807876348495, 0.010458308272063732, 0.10665697604417801, -0.013616291806101799, 0.07188937067985535, -0.027144167572259903, 0.05968198552727699, -0.2084762454032898, 0.14360734820365906, -0.0541544035077095, -0.12266845256090164, -0.15788611769676208, -0.1978258341550827, -0.07616840302944183, -0.05930192396044731, -0.24495993554592133, -0.2184981405735016, 0.13361212611198425, -0.03559637442231178, -0.29393234848976135, 0.11596813797950745, -0.22521764039993286, 0.22192689776420593, 0.30499136447906494, 0.00032173111685551703, -0.17427536845207214, -0.03226083144545555, 0.3391144275665283, 0.19598788022994995, -0.014264850877225399], [-0.008975904434919357, -0.06782913953065872, -0.028360990807414055, 0.11603879183530807, -0.012098836712539196, 0.02719731815159321, 0.11741187423467636, 0.05829037353396416, -0.012632753700017929, -0.06838278472423553, 0.0451539121568203, 0.040365610271692276, 0.12752695381641388, 0.04391038417816162, 0.0712229534983635, -0.1625155359506607, 0.0570632629096508, -0.08694954216480255, -0.07753437012434006, -0.014638405293226242, 0.1678978055715561, -0.11043161898851395, 0.14676356315612793, -0.4083782136440277, -0.06485410034656525, 0.0717802494764328, -0.16327613592147827, 0.015688994899392128, 0.11698812991380692, 0.09772346168756485, -0.09959010779857635, -0.006122954655438662, 0.042676955461502075, -0.03140813857316971, 0.06800944358110428, -0.017289122566580772, 0.003906968981027603, 0.1589980572462082, 0.13456349074840546, -0.12646229565143585, -0.28606802225112915, -0.06929793953895569, 0.2561512887477875, -0.023150084540247917, 0.033361807465553284, 0.03470206633210182, 0.2283650040626526, -0.0918004959821701, 0.06274676322937012, 0.12163633853197098, 0.001685925293713808, 0.031159013509750366, 0.056730277836322784, 0.012913466431200504, -0.2542295455932617, -0.30931004881858826, -0.13457836210727692, 0.04293302074074745, -0.004976703319698572, 0.05239460989832878, 0.21083424985408783, 0.06570801883935928, 0.033299874514341354, 0.10181408375501633, 0.17345501482486725, -0.04890105128288269], [-0.0816279947757721, -0.1320755034685135, 0.26994332671165466, -0.02329225279390812, -0.11455205082893372, -0.147719144821167, 0.12596602737903595, -0.16108813881874084, -0.05631864815950394, 0.08424678444862366, 0.010968758724629879, -0.012645258568227291, -0.17803524434566498, -0.16087085008621216, 0.09948121756315231, 0.19592522084712982, 0.022760365158319473, 0.061339955776929855, 0.24169036746025085, 0.09333859384059906, 0.025473397225141525, -0.08416718989610672, 0.032957181334495544, 0.061954397708177567, -0.005006152205169201, -0.07490842044353485, -0.11016266793012619, 0.04178640618920326, 0.05151088163256645, -0.1904052346944809, -0.11344074457883835, 0.16772006452083588, 0.12279140949249268, -0.1418386995792389, -0.15600697696208954, 0.0339721143245697, -0.18905143439769745, 0.0014531291089951992, 0.003489140886813402, -0.09363319724798203, -0.18460631370544434, 0.20400385558605194, -0.13663145899772644, -0.12098273634910583, 0.04647975042462349, 0.25165918469429016, 0.10990914702415466, 0.16381217539310455, 0.02551816962659359, 0.055360425263643265, -0.19906660914421082, 0.13829857110977173, 0.03507979214191437, -0.1499030888080597, -0.1392223834991455, -0.08162283152341843, -0.13519996404647827, -0.04606527090072632, -0.1123594418168068, -0.1515260636806488, 0.006280129309743643, -0.03100879304111004, 0.049003247171640396, 0.36232367157936096, 0.040113240480422974, 0.09666744619607925], [0.2516876459121704, 0.05849102512001991, -0.1356210559606552, -0.0858038142323494, 0.037430137395858765, -0.014278064481914043, -0.10121379047632217, -0.0568830743432045, -0.06588276475667953, -0.031315140426158905, 0.035737067461013794, 0.08607925474643707, -0.23971284925937653, -0.18583166599273682, 0.04656148701906204, 0.11815422028303146, 0.022458171471953392, 0.12286920845508575, -0.04495420306921005, -0.02623598650097847, 0.08469752967357635, 0.1417854279279709, 0.15156276524066925, 0.10585573315620422, -0.1309034824371338, -0.19741734862327576, -0.05274008959531784, -0.14746001362800598, -0.19744285941123962, 0.17177742719650269, 0.08882606029510498, -0.13146533071994781, 0.06193660944700241, -0.07351742684841156, 0.10839393734931946, 0.25667521357536316, -0.19870474934577942, -0.23399555683135986, 0.10963220149278641, 0.030191129073500633, -0.07489916682243347, 0.12552763521671295, -0.03800373151898384, -0.17111724615097046, 0.1877957433462143, -0.07930837571620941, 0.029363473877310753, -0.08175042271614075, -0.035561639815568924, 0.0946400985121727, 0.12036272883415222, -0.10854945331811905, 0.1302442103624344, 0.2201649695634842, -0.11630699783563614, -0.1399058699607849, -0.01837935857474804, 0.061800867319107056, 0.06290742754936218, -0.006399724166840315, -0.0458672009408474, 0.12154673784971237, 0.14788606762886047, -0.06355257332324982, 0.14397405087947845, -0.09219225496053696], [0.10453763604164124, -0.04711037129163742, -0.10214449465274811, 0.1227840706706047, 0.002617497928440571, 0.0585993155837059, 0.09325827658176422, 0.04033922404050827, 0.08570528030395508, 0.14263015985488892, -0.013245400041341782, 0.12735527753829956, -0.22089697420597076, 0.20442676544189453, -0.19353164732456207, 0.127284437417984, 0.2278401106595993, 0.05209182947874069, 0.19022522866725922, -0.09440592676401138, -0.02263820730149746, -0.020362481474876404, -0.04961009323596954, -0.06616352498531342, 0.1734374612569809, 0.2033608853816986, -0.1403219848871231, -0.0019472179701551795, 0.0960841104388237, 0.032248638570308685, -0.04656543955206871, -0.21454216539859772, 0.010368125513195992, -0.23056621849536896, 0.019501343369483948, -0.008344114758074284, 0.008693893440067768, -0.06853603571653366, -0.13867223262786865, 0.24459035694599152, 0.10688485205173492, -0.20085883140563965, -0.1231902614235878, -0.05226002633571625, 0.1721031665802002, 0.2093479484319687, -0.14556832611560822, 0.0758889764547348, 0.11504419893026352, 0.0838097408413887, 0.1526004821062088, -0.005217568948864937, 0.027645954862236977, -0.08533595502376556, -0.07462740689516068, -0.06781195849180222, 0.11768101155757904, 0.056077927350997925, -0.23370008170604706, -0.05666082352399826, 0.11759886890649796, -0.09380897134542465, -0.11569985002279282, -0.33383312821388245, 0.002420926233753562, -0.1282578408718109], [-0.0927094966173172, -0.03089817240834236, -0.2552076578140259, 0.05129844695329666, -0.08337212353944778, 0.13571007549762726, -0.10725941509008408, -0.21408289670944214, 0.04234953969717026, -0.025716792792081833, -0.11575805395841599, 0.19173136353492737, -0.12136495113372803, 0.025164563208818436, -0.016548514366149902, -0.09241069853305817, -0.024807218462228775, 0.24587883055210114, 0.12566103041172028, -0.2183985412120819, 0.154564768075943, 0.06446477770805359, -0.012932478450238705, -0.13746942579746246, 0.10912024229764938, -0.17291243374347687, 0.269503653049469, -0.0049452525563538074, -0.012686110101640224, 0.08960191905498505, 0.1157907247543335, 0.21818259358406067, 0.027326250448822975, 0.08117271959781647, 0.08318667113780975, -0.063609778881073, 0.26007434725761414, -0.049437228590250015, 0.1893005073070526, -0.06799616664648056, -0.025266263633966446, -0.0836666002869606, -0.16634833812713623, 0.05947265401482582, 0.011990689672529697, -0.0023526924196630716, -0.0910259559750557, 0.056234974414110184, 0.29644668102264404, 0.07277200371026993, -0.10582047700881958, -0.10690520703792572, 0.06594491004943848, -0.1603529304265976, 0.01541252713650465, 0.015151948668062687, -0.07087580114603043, 0.09174185246229172, -0.03867970407009125, 0.07298898696899414, -0.05302923172712326, -0.06843701004981995, 0.27615809440612793, 0.21558359265327454, 0.0920063704252243, 0.12731994688510895], [-0.06285824626684189, -0.2971392869949341, 0.005761648062616587, -0.19424580037593842, -0.06718992441892624, 0.1908363252878189, 0.0823390781879425, -0.15307095646858215, 0.07065551728010178, -0.05692671611905098, 0.05287324637174606, 0.1848747879266739, -0.0005500729312188923, 0.024675913155078888, 0.14840449392795563, -0.2809089422225952, 0.015597451478242874, -0.11557438224554062, -0.08830960094928741, -0.00845299568027258, -0.1449557989835739, -0.06608675420284271, -0.17785465717315674, 0.03426336124539375, 0.06544485688209534, -0.15344518423080444, 0.10263128578662872, -0.21636690199375153, 0.007714784704148769, -0.11410912126302719, 0.06095702946186066, 0.0017377884360030293, 0.17078691720962524, -0.06030869483947754, -0.2860485315322876, -0.03968100994825363, 0.0563785582780838, 0.16704042255878448, 0.0961034744977951, 0.010712278075516224, -0.1177758201956749, 0.04163747280836105, -0.0930221900343895, -0.15273673832416534, 0.15032105147838593, -0.042168207466602325, -0.019114209339022636, 0.08465136587619781, 0.15617893636226654, 0.11123188585042953, -0.013845209032297134, 0.11394296586513519, -0.0725536122918129, 0.11669210344552994, 0.005639390088617802, 0.14500877261161804, -0.019114911556243896, -0.1276203989982605, 0.07965003699064255, -0.19331170618534088, -0.05215561389923096, 0.12831686437129974, -0.23017390072345734, -0.1243390440940857, 0.25643593072891235, -0.017480401322245598], [0.21738387644290924, 0.16215582191944122, 0.04007074609398842, 0.01509280689060688, 0.047654472291469574, 0.21992836892604828, 0.001488998532295227, 0.04419932886958122, 0.13144326210021973, 0.25428494811058044, 0.038849249482154846, -0.0846024602651596, -0.00608103908598423, -0.05930594727396965, -0.24063920974731445, -0.01595487631857395, 0.11867112666368484, 0.05906985327601433, 0.046157754957675934, 0.14086051285266876, 0.13474777340888977, 0.051001183688640594, -0.10782795399427414, 0.1913709193468094, -0.0673370286822319, 0.2881418466567993, 0.20344926416873932, -0.11124115437269211, 0.08353215456008911, -0.14336588978767395, -0.0006299005472101271, -0.024533670395612717, -0.09065397828817368, 0.12487714737653732, -0.09673833101987839, 0.12302082777023315, 0.11847886443138123, 0.2652142643928528, -0.15615200996398926, -0.0484691858291626, -0.08168423920869827, 0.06042785570025444, 0.007380438502877951, -0.017627790570259094, -0.03027402050793171, -0.24383306503295898, 0.06361522525548935, 0.16633273661136627, 0.07345592230558395, 0.19142574071884155, 0.1659817397594452, -0.027021920308470726, 0.10540267080068588, -0.18553420901298523, -0.19541439414024353, -0.030564062297344208, -0.2298356294631958, -0.12299599498510361, 0.12081395834684372, -0.017471836879849434, -0.08016124367713928, 0.07137148082256317, -0.0071556963957846165, -0.03222542256116867, 0.06188780069351196, -0.08206842094659805], [0.01774723082780838, 0.1987435668706894, -0.004409334156662226, 0.08547750860452652, -0.14642846584320068, 0.08807867765426636, -0.1646016240119934, 0.14900724589824677, 0.06939928233623505, -0.23386463522911072, 0.12391990423202515, 0.06514466553926468, -0.12915100157260895, 0.10551588982343674, -0.06263785809278488, -0.04051780328154564, -0.0548383928835392, -0.08364550024271011, -0.21798129379749298, 0.11247768253087997, 0.12296432256698608, -0.12446364015340805, -0.0764099657535553, -0.16604803502559662, -0.14137499034404755, 0.12667341530323029, -0.11850748211145401, -0.030270995572209358, -0.21871842443943024, -0.007490202318876982, 0.2510298192501068, 0.04634782671928406, -0.04984208196401596, -0.07255792617797852, -0.06910080462694168, -0.0035924131516367197, 0.10917454212903976, 0.16594332456588745, 0.06495670229196548, 0.15098987519741058, -0.08316618204116821, 0.1633177548646927, -0.1275661289691925, -0.25730809569358826, -0.007527831010520458, 0.2450716495513916, 0.18456017971038818, 0.2165284901857376, -0.08675762265920639, -0.007308406289666891, -0.1238570436835289, 0.08742055296897888, -0.055093128234148026, 0.07412439584732056, 0.17934662103652954, -0.038286592811346054, 0.12437841296195984, 0.06282050907611847, -0.1088564470410347, 0.111849844455719, -0.16485294699668884, -0.029109664261341095, 0.33655330538749695, 0.12553076446056366, 0.08251126110553741, 0.08503689616918564], [-0.05725497007369995, -0.061193592846393585, -0.008634375408291817, 0.13604877889156342, -0.2341178059577942, -0.17426933348178864, -0.012542787939310074, -0.029405811801552773, 0.06025603413581848, 0.04976985603570938, 0.12095113843679428, -0.11086441576480865, 0.015387306921184063, 0.11690010875463486, -0.03883777931332588, 0.07481736689805984, -0.1548326462507248, 0.024965019896626472, 0.096314437687397, -0.021609770134091377, -0.07635609805583954, -0.26984721422195435, 0.03380657732486725, 0.1391052007675171, 0.07589221000671387, -0.03263356536626816, 0.12008029222488403, -0.3356940448284149, 0.2708571255207062, 0.22155582904815674, -0.09078404307365417, -0.2157796025276184, -0.2039322853088379, -0.10925827920436859, 0.09729298949241638, 0.2250484973192215, -0.04496721178293228, 0.10016798973083496, 0.01720358431339264, 0.02832004614174366, -0.11027537286281586, -0.2346203476190567, 0.12978030741214752, -0.07343267649412155, 0.15733027458190918, -0.23287373781204224, 0.04975642263889313, 0.07358289510011673, -0.08778472244739532, 0.1332969218492508, -0.3084852993488312, 0.00929250381886959, 0.07081247121095657, -0.07545768469572067, 0.05813136696815491, 0.19442136585712433, -0.029776480048894882, -0.00996346678584814, 0.06923370063304901, -0.025724070146679878, -0.11016334593296051, 0.05812613293528557, 0.0008975017117336392, -0.09523050487041473, -0.0573030523955822, 0.13492831587791443], [0.14583775401115417, 0.10146599262952805, 0.025483857840299606, -0.0908852070569992, -0.21044893562793732, -0.052164237946271896, -0.011411026120185852, -0.021644609048962593, 0.2869783639907837, -0.042876746505498886, -0.1563771665096283, -0.2243884950876236, -0.027693502604961395, -0.05626662075519562, -0.04676783084869385, 0.14780455827713013, 0.1887071430683136, 0.049617692828178406, -0.0704159140586853, -0.030134042724967003, 0.11862889677286148, 0.020439108833670616, -0.09166868776082993, 0.01851288415491581, 0.2980583608150482, 0.1284334808588028, 0.04903842508792877, 0.1474175602197647, -0.16322705149650574, -0.13771198689937592, -0.16724812984466553, -0.04007243365049362, -0.16169461607933044, 0.15627172589302063, 0.07574168592691422, -0.08643581718206406, 0.06069193407893181, -0.31594130396842957, -0.04917329549789429, -0.02238057553768158, -0.34909534454345703, -0.08991043269634247, -0.05544726550579071, 0.02181677520275116, -0.04366183280944824, -0.01831711083650589, 0.10431262850761414, -0.0022248884197324514, 0.09620200842618942, 0.04921954497694969, -0.14943927526474, 0.2154500037431717, 0.032439567148685455, -0.0979362353682518, 0.12436669319868088, -0.13483895361423492, 0.28947320580482483, -0.048281971365213394, 0.20695500075817108, 0.04967169836163521, 0.029895732179284096, 0.06873597204685211, -0.19316184520721436, -0.23843778669834137, 0.0480460524559021, -0.09051799029111862], [0.07719389349222183, 0.09339888393878937, 0.03740885853767395, 0.07229086756706238, -0.2178950160741806, -0.0635688453912735, -0.004486090037971735, -0.06182842701673508, -0.051809340715408325, -0.015353109687566757, 0.32573726773262024, -0.23046107590198517, -0.01235343236476183, -0.013433348387479782, 0.24313102662563324, 0.12705351412296295, -0.28518393635749817, -0.05420335382223129, 0.19205015897750854, -0.006894489284604788, 0.08444478362798691, 0.07496626675128937, -0.21909815073013306, -0.04611850157380104, 0.14670853316783905, 0.15095672011375427, 0.005532495677471161, -0.049431778490543365, -0.1900825947523117, -0.06472135335206985, 0.02166486717760563, -0.10260331630706787, 0.10581548511981964, -0.054278094321489334, -0.00898242648690939, -0.15234312415122986, -0.04546601325273514, -0.037518151104450226, 0.08199650049209595, 0.008043387904763222, -0.13803070783615112, -0.105315200984478, 0.003294808091595769, 0.10972525924444199, 0.015479417517781258, -0.007621210068464279, -0.07914454489946365, 0.048467040061950684, 0.17997048795223236, -0.16678152978420258, 0.24289555847644806, -0.11553706228733063, -0.2252328246831894, 0.2697807252407074, -0.06570585072040558, 0.02679543010890484, -0.12243296205997467, 0.10769052803516388, 0.09619831293821335, -0.09958407282829285, 0.07233113050460815, -0.11216353625059128, 0.18788908421993256, 0.1630508005619049, 0.21818239986896515, -0.02190316841006279], [0.05678882077336311, 0.02989736944437027, 0.17682591080665588, 0.06563998758792877, 0.19758592545986176, 0.16565044224262238, 0.14845304191112518, -0.11200223118066788, 0.01161907333880663, 0.13191735744476318, -0.08977436274290085, 0.02024686522781849, -0.12784458696842194, -0.062531977891922, 0.025121113285422325, 0.2274162471294403, -0.11410227417945862, -0.15535156428813934, -0.07430823892354965, -0.13043659925460815, 0.09675507992506027, -0.20079971849918365, -0.3130744993686676, -0.21682342886924744, 0.03985573351383209, -0.14191772043704987, -0.013083284720778465, -0.05224103108048439, 0.12088817358016968, 0.2044575959444046, 0.059637267142534256, 0.1935848742723465, 0.03231676667928696, -0.06635525822639465, -0.20058585703372955, -0.056402720510959625, 0.06122925132513046, 0.017814943566918373, 0.18068374693393707, 0.13033390045166016, 0.028539547696709633, 0.02559301070868969, 0.17892256379127502, 0.13896311819553375, -0.006802304647862911, 0.011883963830769062, -0.0618797205388546, 0.08887157589197159, -0.07227866351604462, -0.11010448634624481, -0.026879534125328064, 0.06030535697937012, 0.18363456428050995, -0.04347662255167961, -0.05432349815964699, 0.030408911406993866, 0.013547269627451897, 0.10850121080875397, 0.1842481940984726, -0.0768803283572197, -0.1564326286315918, 0.22075501084327698, 0.07313205301761627, -0.20293553173542023, -0.2816261351108551, -0.028931036591529846], [0.06423366069793701, -0.1307334303855896, -0.16957992315292358, -0.044433292001485825, 0.08263634890317917, 0.38049882650375366, 0.04928240552544594, 0.07563638687133789, -0.02355545200407505, -0.03674091026186943, -0.16567841172218323, -0.21701765060424805, 0.041318707168102264, -0.01895231567323208, -0.16437304019927979, 0.2542722225189209, -0.049271587282419205, -0.12202829867601395, 0.0714048445224762, 0.023447223007678986, -0.2130868285894394, -0.17147570848464966, 0.1608625054359436, -0.06546062231063843, -0.10714400559663773, -0.01663622260093689, -0.1121009811758995, -0.19552622735500336, -0.12555086612701416, -0.06626882404088974, 0.01554918009787798, 0.004225137643516064, -0.1274043768644333, 0.019359346479177475, 0.11250162869691849, 0.06334708631038666, -0.05960613116621971, 0.05022745952010155, -0.03058377094566822, -0.15892809629440308, -0.1553027182817459, -0.07829361408948898, -0.006314745172858238, 0.0777892917394638, 0.1974242776632309, -0.07137054204940796, -0.09581869095563889, 0.06867912411689758, 0.1077798530459404, -0.018652355298399925, 0.03074439987540245, -0.18008953332901, -0.16394072771072388, -0.23407679796218872, 0.0880579873919487, 0.0942937582731247, 0.16692043840885162, 0.046649836003780365, 0.01423714030534029, -0.16636407375335693, 0.13259027898311615, 0.16723838448524475, -0.0917472168803215, 0.1275848150253296, -0.12949307262897491, -0.08787547051906586], [-0.08906345069408417, -0.17827440798282623, -0.2919420599937439, 0.31950002908706665, 0.3242112994194031, -0.19366855919361115, -0.23520353436470032, -0.046173639595508575, 0.12804929912090302, -0.1334654539823532, 0.08032143115997314, -0.12170230597257614, -0.19643260538578033, -0.04018539562821388, -0.04348132014274597, 0.137373149394989, 0.005005666986107826, -0.0015115038258954883, -0.011215654201805592, -0.1203368604183197, -0.14083753526210785, 0.05323111638426781, -0.10938254743814468, -0.005776291713118553, -0.17475394904613495, -0.05707338824868202, -0.0826648473739624, -0.10738841444253922, -0.11530885100364685, -0.15063714981079102, -0.06031288951635361, 0.01861107163131237, 0.02190301939845085, -0.11689019203186035, -0.06709496676921844, 0.04457953944802284, -0.09652189165353775, 0.15285472571849823, -0.006554784253239632, -0.0901561751961708, 0.09413407742977142, -0.040540896356105804, 0.1360481083393097, 0.037688687443733215, -0.21682065725326538, -0.043397851288318634, -0.07763694226741791, 0.11685526371002197, 0.10140613466501236, 0.14948736131191254, -0.026699835434556007, 0.051998429000377655, -0.03003881312906742, -0.04989633336663246, -0.18588630855083466, 0.006882202345877886, 0.14542405307292938, 0.03200400620698929, 0.23864039778709412, 0.1208542063832283, -0.05748831480741501, -0.09344122558832169, -0.17081914842128754, -0.08845145255327225, 0.0296640582382679, 0.21272137761116028], [-0.29510533809661865, 0.07192034274339676, 0.008975919336080551, 0.18507826328277588, -0.15097647905349731, 0.13443352282047272, -0.19839349389076233, 0.1979287713766098, -0.1265985369682312, 0.0944468230009079, -0.0634477436542511, 0.18301701545715332, -0.10311663895845413, -0.24042241275310516, -0.0871240571141243, -0.18292151391506195, -0.1380581557750702, 0.041268136352300644, 0.2736000716686249, 0.3314612805843353, -0.14732672274112701, -0.026773620396852493, -0.12720759212970734, -0.015930525958538055, 0.024486446753144264, -0.2535279095172882, -0.27566298842430115, 0.13060320913791656, -0.0375826321542263, -0.005127074662595987, -0.032879602164030075, 0.040382348001003265, 0.02197260595858097, 0.14511965215206146, -0.05660981312394142, 0.03417884558439255, 0.03501325845718384, -0.007986107841134071, 0.07800359278917313, 0.01847545988857746, 0.021446598693728447, 0.08539580553770065, 0.09562873095273972, 0.0917828381061554, 0.12191540747880936, -0.097177654504776, 0.0633203387260437, 0.03220044821500778, 0.05285164713859558, 0.2034289836883545, -0.04805263131856918, 0.08040996640920639, -0.17080377042293549, 0.3176289200782776, 0.04491381719708443, -0.23819269239902496, -0.06501325964927673, -0.10933054238557816, 0.07648392021656036, -0.15367674827575684, -0.19471900165081024, -0.058725323528051376, 0.1945386826992035, 0.02527177892625332, -0.029391266405582428, -0.0977117046713829], [-0.196958526968956, -0.3663708567619324, -0.05873908847570419, -0.20051158964633942, -0.3265034556388855, 0.163038432598114, 0.11056827008724213, -0.18887893855571747, 0.3042946457862854, 0.02079021744430065, -6.344763824017718e-05, -0.036290548741817474, 0.20636846125125885, -0.40501296520233154, -0.09368351101875305, 0.12961240112781525, -0.049281422048807144, -0.15270955860614777, -0.05981658026576042, -0.17463073134422302, 0.05759349465370178, -0.0018918487476184964, 0.0728810727596283, 0.033297110348939896, 0.10590814054012299, 0.3802415132522583, 0.0038099687080830336, 0.05617256462574005, 0.09335581958293915, -0.12682761251926422, -0.18807372450828552, -0.07312528789043427, 0.1774871051311493, 0.001425006310455501, 0.13672581315040588, 0.21075695753097534, -0.05455777794122696, 0.08729518949985504, 0.1331588625907898, 0.14954711496829987, 0.2453790307044983, 0.05990711599588394, 0.043576326221227646, -0.05322665348649025, 0.07713943719863892, -0.15038645267486572, 0.00320398504845798, -0.07050705701112747, 0.04706087335944176, 0.1159467026591301, 0.113728828728199, 0.10513732582330704, -0.02026704140007496, -0.13225635886192322, 0.04047640785574913, -0.22094179689884186, 0.07187390327453613, -0.017418142408132553, -0.043591007590293884, 0.0007749690557830036, 0.05374309420585632, 0.015035653486847878, 0.11887368559837341, -0.07705709338188171, 0.08692167699337006, 0.1969154328107834], [0.05392765253782272, -0.1527412384748459, -0.00943782553076744, 0.08456768095493317, 0.09849954396486282, 0.11920329183340073, -0.032752543687820435, 0.050200141966342926, -0.11416857689619064, -0.10664422810077667, 0.06669933348894119, -0.0956534668803215, -0.03424011543393135, 0.09686309844255447, 0.2853233516216278, 0.039214324206113815, 0.17920641601085663, 0.014092374593019485, -0.11661269515752792, -0.03617842495441437, -0.10221447795629501, 0.017795942723751068, 0.026912707835435867, 0.29695039987564087, 0.041550163179636, -0.026922648772597313, -0.07651224732398987, 0.005062345881015062, 0.327788382768631, -0.09565118700265884, -0.017314763739705086, 0.008711263537406921, -0.3272634744644165, 0.09213906526565552, 0.28807568550109863, -0.13636861741542816, 0.027175026014447212, -0.10537408292293549, 0.1405230015516281, 0.16475388407707214, -0.03713503107428551, 0.07491734623908997, 0.11052072793245316, -0.11121135205030441, 0.027680978178977966, 0.10288082808256149, -0.12637564539909363, 0.12468139827251434, 0.04021085053682327, 0.13644227385520935, 0.1455618292093277, 0.06935518980026245, -0.24776867032051086, -0.06548478454351425, -0.0903724730014801, 0.06245746836066246, -0.1578080952167511, -0.05489763990044594, 0.03705616667866707, 0.17137114703655243, -0.16987593472003937, 0.18736566603183746, 0.09667964279651642, -0.09584571421146393, -0.2302204817533493, -0.06605985015630722], [-0.025206098333001137, -0.15022611618041992, 0.0775299221277237, 0.04661253094673157, 0.0682804211974144, -0.14715909957885742, 0.13573111593723297, 0.07134125381708145, 0.1140337586402893, 0.08975731581449509, 0.04525989666581154, -0.0368693508207798, 0.06515025347471237, 0.17128196358680725, 0.03302931785583496, -0.0824861153960228, 0.15638159215450287, 0.1591891050338745, -0.3638545870780945, 0.017528589814901352, -0.031690940260887146, -0.09740106761455536, -0.2776428461074829, -0.08127733319997787, 0.008363818749785423, 0.28369611501693726, 0.04399201646447182, 0.04789723828434944, -0.2330964207649231, 0.03168841451406479, -0.1921231746673584, 0.16822554171085358, -0.04715190455317497, 0.1264001876115799, -0.054965078830718994, 0.08596143126487732, -0.12052798271179199, -0.09518539905548096, -0.009095032699406147, -0.07542499154806137, -0.013067425228655338, -0.18037596344947815, -0.0972120389342308, 0.14599406719207764, 0.26723092794418335, -0.1361924111843109, -0.11034800112247467, -0.19625157117843628, 0.11174257844686508, 0.27581846714019775, -0.09174999594688416, 0.03061024285852909, 0.07996165752410889, -0.04249867796897888, -0.06254329532384872, -0.07090027630329132, 0.06338711827993393, 0.17026859521865845, -0.14694593846797943, -0.0019504023948684335, 0.009855306707322598, 0.011453457176685333, 0.10368511080741882, 0.11667902022600174, -0.02997748740017414, 0.06843273341655731], [-0.027997419238090515, 0.14588764309883118, -0.10521259903907776, -0.06261242926120758, -0.0975789800286293, 0.08196835219860077, -0.14889031648635864, -0.06926382333040237, -0.22092679142951965, 0.04475214704871178, 0.04098529741168022, 0.23705843091011047, -0.1476639062166214, 0.16767986118793488, -0.0888957604765892, -0.002631746931001544, 0.03282645717263222, -0.025196878239512444, 0.055941130965948105, 0.13771797716617584, 0.1618347465991974, -0.05615098029375076, -0.20744149386882782, -0.04049386456608772, -0.02416876144707203, 0.06589597463607788, -0.20422868430614471, 0.02421378716826439, 0.013793565332889557, -0.19071976840496063, -0.05768035352230072, -0.02440643310546875, 0.059872984886169434, 0.05081712827086449, 0.03062756359577179, -0.2674848139286041, -0.37361493706703186, -0.10822156816720963, 0.13574154675006866, -0.1037837564945221, -0.05013235658407211, 0.06946217268705368, -0.09470006823539734, -0.12540090084075928, -0.11688558012247086, -0.22737400233745575, 0.17984506487846375, -0.04257991909980774, 0.044466715306043625, -0.2938357889652252, -0.06317950785160065, -0.030049502849578857, 0.08409138768911362, 0.1503029614686966, 0.08490458130836487, 0.10064730793237686, -0.008441000245511532, -0.14678247272968292, 0.03279897943139076, 0.32492953538894653, 0.15980669856071472, 0.06830102950334549, 0.12491704523563385, -0.06671030074357986, -0.19667287170886993, 0.09217094630002975], [-0.09919490665197372, -0.06870821863412857, -0.027675243094563484, -0.06352060288190842, 0.4341816008090973, 0.0035903158131986856, -0.030395178124308586, -0.20152339339256287, 0.2073224037885666, 0.11192601919174194, 0.14106254279613495, -0.05879661440849304, 0.17189240455627441, -0.0390336699783802, -0.04725373163819313, -0.05395091697573662, -0.21711121499538422, -0.16719329357147217, -0.032203059643507004, -0.08360423892736435, 0.017096051946282387, 0.18454237282276154, 0.0830649584531784, 0.058866579085588455, 0.024398429319262505, 0.1257021427154541, -0.11162728816270828, -0.15591350197792053, 0.09265052527189255, 0.04125060513615608, -0.11684292554855347, 0.029770174995064735, -0.07444341480731964, -0.07734761387109756, -0.0027206726372241974, -0.2237711399793625, 0.01782599277794361, -0.012633541598916054, -0.09729675948619843, -0.0693320706486702, -0.04373593628406525, -0.2532213032245636, -0.1836831271648407, -0.16912445425987244, 0.09060038626194, 0.024426834657788277, -0.02655809000134468, 0.04303877428174019, -0.18449567258358002, 0.260710209608078, -0.21704450249671936, -0.0911492332816124, -0.03490954264998436, -0.11687766015529633, 0.09917236864566803, -0.0995795726776123, 0.01613754965364933, -0.15319977700710297, 0.09315794706344604, -0.09550274163484573, -0.13450470566749573, 0.020306481048464775, 0.10115928947925568, -0.08340666443109512, -0.184294193983078, -0.2729959785938263], [0.20516830682754517, 0.2531450688838959, 0.1020103320479393, -0.06312047690153122, 0.16500337421894073, 0.04685350880026817, -0.19158188998699188, -0.10149382054805756, -0.21985071897506714, 0.19019818305969238, -0.15972115099430084, 0.010052685625851154, -0.07069125026464462, -0.03288593143224716, 0.20081289112567902, -0.24002061784267426, 0.055826786905527115, -0.01105187926441431, 0.08866254985332489, -0.034174419939517975, -0.015391822904348373, -0.17810241878032684, -0.10054963082075119, 0.030386341735720634, -0.19190502166748047, -0.20478735864162445, -0.11315707117319107, -0.16765032708644867, 0.03526890650391579, -0.11306992173194885, -0.017300119623541832, -0.1343233734369278, 0.07643952965736389, -0.00761088402941823, 0.048936717212200165, 0.13322632014751434, -0.08669819682836533, 0.14147095382213593, -0.0528617687523365, -0.03821800649166107, 0.04791878163814545, -0.20982728898525238, 0.09445729106664658, 0.11870335787534714, -0.23490498960018158, 0.10438651591539383, 0.026345178484916687, -0.03437936678528786, 0.07304251939058304, -0.12982986867427826, -0.028405698016285896, 0.2630701959133148, -0.1261402815580368, 0.012677598744630814, 0.30237647891044617, -0.057711608707904816, 0.06996868550777435, 0.10738227516412735, -0.09874054789543152, 0.18751493096351624, -0.06424789130687714, -0.01925004832446575, 0.32144179940223694, 0.00033129972871392965, 0.07971504330635071, -0.1394576132297516], [-0.051343970000743866, 0.04258355125784874, 0.08739333599805832, -0.05643158778548241, -0.19754590094089508, 0.006568120326846838, 0.19080758094787598, 0.1870826929807663, -0.07231813669204712, -0.07418841868638992, -0.014819717034697533, -0.030078129842877388, -0.005866861902177334, -0.07415461540222168, -0.06548935920000076, 0.02390415593981743, -0.2110058069229126, 0.11278792470693588, -0.1626577079296112, -0.1279926896095276, -0.05505110323429108, -0.031210124492645264, -0.3103904128074646, 0.04565632715821266, -0.18182988464832306, -0.1314927637577057, 0.08054272085428238, 0.19094619154930115, 0.12156201899051666, -0.08391831070184708, 0.2401265650987625, 0.17530348896980286, 0.13894407451152802, -0.13113655149936676, 0.1906815767288208, 0.08069504052400589, -0.1710433065891266, 0.09913083910942078, 0.15412083268165588, -0.15325482189655304, -0.11781281977891922, -0.15656252205371857, -0.13693684339523315, -0.03955585137009621, -0.16014288365840912, -0.009950133040547371, 0.05895319953560829, 0.10018065571784973, 0.10137199610471725, 0.03533449023962021, 0.034900080412626266, -0.20197711884975433, 0.006737447809427977, 0.1454724669456482, 0.05024364963173866, -0.1917581707239151, -0.01618511974811554, -0.10303250700235367, -0.21817521750926971, 0.02144472301006317, -0.027186037972569466, -0.20834457874298096, 0.031856637448072433, -0.08888918906450272, -0.013244959525763988, -0.1587175875902176], [-0.028824852779507637, -0.06760843098163605, 0.04829872399568558, 0.02520202472805977, -0.16017529368400574, 0.14628171920776367, -0.015113047324120998, -0.03697693720459938, 0.28406810760498047, -0.1340990662574768, 0.02234814316034317, -0.09048949927091599, -0.05983935296535492, -0.23512746393680573, -0.06567671149969101, -0.1946941465139389, 0.04991988092660904, -0.11169559508562088, 0.05433056131005287, -0.02911735698580742, 0.08272115141153336, 0.02965659275650978, -0.05119920149445534, -0.1074519157409668, 0.17286841571331024, 0.05240146070718765, 0.008546068333089352, -0.09203903377056122, 0.12301740795373917, 0.03235479071736336, -0.01786438561975956, 0.10312024503946304, -0.3899306058883667, 0.057865872979164124, -0.03311901539564133, -0.028040708974003792, -0.3985061049461365, -0.002149234525859356, -0.043865036219358444, -0.04791022464632988, 0.198401540517807, 0.07129304111003876, 0.07381957024335861, -0.13613738119602203, -0.18255266547203064, 0.04442663490772247, -0.0891297310590744, -0.18721097707748413, 0.023409225046634674, 0.019724048674106598, 0.03025882877409458, -0.19960777461528778, 0.04596539959311485, -0.08913382142782211, -0.027048952877521515, -0.0314883328974247, 0.029948893934488297, 0.01066626887768507, -0.06461213529109955, -0.4782269299030304, -0.08903615921735764, 0.003398980712518096, -0.03635960817337036, -0.003638294991105795, 0.2260073870420456, 0.05696799233555794], [-0.083918996155262, -0.04839320853352547, -0.017523078247904778, -0.05502939596772194, -0.0442730151116848, 0.02102893590927124, -0.005975205451250076, -0.039412327110767365, -0.06382890790700912, 0.16013693809509277, -0.07023949921131134, -0.08959832042455673, -0.06628897786140442, 0.1397736370563507, -0.18587414920330048, 0.027982253581285477, -0.14895935356616974, 0.184293732047081, -0.21896356344223022, -0.222221240401268, -0.16943307220935822, 0.1605767011642456, 0.14635983109474182, -0.020785529166460037, 0.09274518489837646, 0.24352490901947021, 0.015375153161585331, -0.1503305435180664, 0.1565125435590744, 0.1243494302034378, -0.12448753416538239, 0.08872376382350922, -0.15074214339256287, -0.10327903181314468, -0.11319059133529663, 0.20063214004039764, 0.1603609174489975, -0.15999537706375122, 0.06775489449501038, 0.0547645129263401, -0.04585271701216698, -0.0733509436249733, 0.003077179891988635, 0.017669495195150375, -0.1789339780807495, 0.12563486397266388, 0.24478498101234436, -0.07420273870229721, 0.1071057841181755, -0.03316802158951759, -0.006956641096621752, 0.07114563882350922, -0.18454520404338837, -0.04241439327597618, 0.012778311967849731, -0.13957801461219788, -0.06422911584377289, -0.19292761385440826, 0.13248798251152039, -0.2728096842765808, 0.14391988515853882, 0.1681586354970932, -0.12535713613033295, -0.059801120311021805, -0.04626919701695442, 0.12895676493644714], [-0.08397137373685837, 0.2536775469779968, -0.20636560022830963, -0.18603689968585968, -0.07865914702415466, -0.22119304537773132, -0.022775474935770035, 0.024162182584404945, -0.11085657775402069, -0.018353652209043503, -0.1841057389974594, 0.2300487607717514, -0.2883126437664032, -0.13959752023220062, 0.1639627367258072, -0.1069602221250534, -0.15673072636127472, -0.17560505867004395, -0.00870375894010067, 0.21209947764873505, -0.008811171166598797, -0.40364688634872437, 0.07789221405982971, -0.1180783063173294, 0.013469280675053596, 0.09618403762578964, 0.07762298732995987, 0.2836838662624359, 0.019727757200598717, 0.005254925228655338, 0.22176848351955414, 0.05497930943965912, 0.040905579924583435, -0.08629367500543594, 0.01632549613714218, -0.06267987936735153, -0.16446705162525177, 0.003687189891934395, 0.03385632857680321, 0.07642532885074615, 0.0035864603705704212, -0.047181278467178345, -0.011387748643755913, 0.03145880624651909, -0.15587171912193298, -0.02541854977607727, -0.0858277976512909, 0.15241384506225586, -0.06284911930561066, 0.033653151243925095, 0.14202484488487244, 0.04965224117040634, -0.07958532124757767, 0.03464658185839653, -0.08055673539638519, 0.03512883186340332, 0.05394105985760689, -0.020361460745334625, 0.1622704565525055, 0.10604266077280045, -0.15447987616062164, 0.06639207154512405, -0.019529549404978752, 0.20874075591564178, 0.1447368562221527, -0.2178032249212265], [-0.07117235660552979, 0.07334035634994507, -0.10667318105697632, -0.08631277084350586, -0.13435307145118713, -0.03702801465988159, -0.23810333013534546, -0.0902177020907402, -0.15088585019111633, -0.14543911814689636, 0.036692894995212555, -0.12465797364711761, -0.15376722812652588, 0.16036853194236755, 0.09063734859228134, 0.08528685569763184, -0.04978087544441223, -0.07684791088104248, 0.09452059119939804, -0.13567765057086945, 0.04942670091986656, -0.019805394113063812, -0.13560563325881958, -0.016599169000983238, -0.03305505961179733, -0.05207356438040733, 0.015391668304800987, 0.05706904083490372, -0.0994652658700943, 0.17082789540290833, -0.10116168856620789, 0.3162168562412262, 0.1642715334892273, 0.18105657398700714, 0.13921670615673065, 0.11572578549385071, -0.03957214951515198, 0.20655155181884766, -0.33855655789375305, 0.224545419216156, -0.09722065925598145, 0.1141102984547615, 0.14973856508731842, -0.14303700625896454, 0.032834507524967194, -0.029513012617826462, -0.05836021900177002, -0.11485030502080917, 0.056014563888311386, -0.06056747958064079, 0.09600421041250229, 0.10227268934249878, 0.09687444567680359, 0.1463848054409027, -0.060717418789863586, 0.04108720272779465, 0.09962648153305054, -0.29618576169013977, -0.12483943998813629, -0.0150370541960001, 0.08656838536262512, -0.08822230249643326, 0.10304509103298187, 0.1614246368408203, -0.07153605669736862, -0.21070942282676697], [-0.04636412486433983, -0.10178646445274353, -0.09550631791353226, 0.3234657049179077, 0.059920500963926315, -0.0900769755244255, -0.17944179475307465, -0.12555968761444092, -0.3905295133590698, -0.1685735434293747, -0.025168361142277718, -0.025416472926735878, 0.22228975594043732, -0.2117941975593567, 0.004711541812866926, 0.24783748388290405, 0.02525150775909424, -0.04493846371769905, -0.024230914190411568, -0.006014563143253326, -0.09549078345298767, -0.049680281430482864, -0.021954700350761414, -0.05939186364412308, 0.06400508433580399, 0.19612906873226166, 0.13717563450336456, -0.26025769114494324, 0.04148692637681961, -0.00334922899492085, -0.040031105279922485, 0.04367164149880409, 0.015575610101222992, -0.15603633224964142, -0.20288339257240295, 0.09084858745336533, 0.036051101982593536, -0.11183314770460129, -0.0671786516904831, -0.017084529623389244, 0.05358756706118584, 0.1674416959285736, -0.05268574506044388, -0.12079080939292908, -0.038616571575403214, -0.13441351056098938, 0.04158623144030571, -0.13072319328784943, 0.14503400027751923, -0.02426154725253582, -0.036355093121528625, -0.041398871690034866, -0.15875431895256042, -0.019309712573885918, 0.04536006599664688, -0.04593157023191452, -0.1279505342245102, 0.07735089957714081, -0.19884440302848816, -0.021216297522187233, -0.2774983048439026, 0.12028248608112335, -0.11834486573934555, 0.008826231583952904, -0.07047104835510254, -0.3045889139175415], [0.16283206641674042, 0.27928751707077026, -0.1126999482512474, 0.004843651317059994, -0.03700001910328865, -0.12975256145000458, 0.15375612676143646, -0.026262281462550163, 0.024956293404102325, -0.27002015709877014, 0.0022611438762396574, 0.08785893768072128, -0.11801695078611374, -0.16958849132061005, -0.12787987291812897, -0.2636038661003113, -0.08653425425291061, -0.014516381546854973, -0.05277765914797783, 0.062489695847034454, -0.19943980872631073, 0.12647682428359985, -0.15051773190498352, 0.09788048267364502, 0.2490413784980774, -0.005585948005318642, -0.23667152225971222, 0.011912229470908642, -0.16570597887039185, -0.021174276247620583, 0.0457540899515152, 0.12784594297409058, 0.18396492302417755, 0.040628090500831604, -0.13304241001605988, 0.1506548374891281, 0.001942248665727675, -0.0400063619017601, 0.02549600973725319, 0.020609725266695023, 0.11199134588241577, -0.22124603390693665, 0.11713380366563797, -0.058574505150318146, 0.10185301303863525, 0.044040076434612274, 0.04044819995760918, 0.08796942234039307, -0.0352402962744236, -0.004574262071400881, 0.21723707020282745, -0.05615402013063431, 0.09325461089611053, -0.2415427267551422, 0.10599429905414581, -0.008166641928255558, -0.08047245442867279, -0.09988801181316376, 0.01216893084347248, 0.09368941932916641, 0.308881938457489, 0.17213252186775208, 0.11150456964969635, 0.08200996369123459, -0.1327153891324997, 0.10715219378471375], [0.17054785788059235, -0.17437903583049774, 0.05734914913773537, 0.1194067895412445, -0.2457932084798813, 0.11408410966396332, -0.039028387516736984, 0.053866270929574966, 0.13555657863616943, 0.22373513877391815, -0.04062611237168312, -0.06429329514503479, 0.01080070249736309, -0.05299268290400505, 0.022718390449881554, -0.05833118036389351, -0.1488855630159378, -0.07645194232463837, -0.23703080415725708, -0.1018153578042984, -0.13850773870944977, 0.006967699155211449, 0.07203949242830276, -0.12516950070858002, 0.06634031236171722, -0.0040289717726409435, 0.06995484232902527, 0.17485542595386505, -0.06213762238621712, 0.14087232947349548, -0.31009116768836975, -0.07071639597415924, 0.06877202540636063, 0.025104239583015442, -0.057857342064380646, -0.09491148591041565, 0.02354670874774456, -0.044868189841508865, -0.09550264477729797, -0.29513469338417053, 0.2390344887971878, 0.16311468183994293, 0.025939809158444405, -0.08924563229084015, -0.010751362890005112, 0.11042912304401398, -0.04297677055001259, 0.26139897108078003, 0.06639382243156433, 0.2146954983472824, -0.1774711161851883, -0.10371324419975281, 0.10513754934072495, -0.03536810725927353, -0.01772124134004116, 0.06610246002674103, 0.012019418179988861, 0.05037955567240715, 0.01952040195465088, 0.17771269381046295, 0.281711220741272, 0.0190032497048378, -0.012544279918074608, -0.0021695424802601337, 0.04175536334514618, -0.14731986820697784], [-0.10343405604362488, 0.19635111093521118, 0.09025072306394577, 0.07561520487070084, 0.07830540090799332, 0.07999827712774277, -0.14129027724266052, 0.003313202876597643, 0.21165622770786285, -0.07910105586051941, -0.16779601573944092, 0.09020105004310608, -0.06130918860435486, 0.029270313680171967, 0.12379024922847748, 0.08389423042535782, 0.0023188102059066296, 0.051981568336486816, -0.07870438694953918, 0.07390664517879486, -0.1596541553735733, 0.20489433407783508, 0.16257013380527496, -0.18358871340751648, -0.054310839623212814, -0.010080232284963131, 0.2218172699213028, 0.04468804970383644, 0.19986587762832642, -0.04219377040863037, 0.013186614029109478, -0.01300981268286705, 0.032479122281074524, 0.05566118285059929, -0.23742429912090302, 0.04261765256524086, -0.2513604462146759, 0.04500515013933182, -0.03864919766783714, -0.10467833280563354, -0.1977206915616989, -0.0900331512093544, 0.07978521287441254, -0.08292494714260101, 0.18186895549297333, -0.02947448380291462, -0.022688589990139008, 0.13578693568706512, -0.02918992005288601, -0.137874037027359, 0.33041420578956604, 0.13876499235630035, -0.04030930623412132, 0.09413544833660126, 0.09682419896125793, 0.08673298358917236, 0.006855172570794821, 0.06299986690282822, -0.13221842050552368, 0.061357446014881134, -0.08126197755336761, -0.17298270761966705, 0.1432381272315979, -0.07581183314323425, -0.14895173907279968, 0.058819614350795746], [-0.01351533830165863, -0.05729655921459198, 0.14579367637634277, 0.03001769445836544, 0.05107844993472099, -0.2445736676454544, -0.14806045591831207, 0.06804636865854263, 0.09115839004516602, 0.07111828774213791, 0.12064222991466522, 0.12086494266986847, -0.13843944668769836, -0.11921603977680206, -0.1393612176179886, -0.031473491340875626, 0.08900677412748337, 0.014016252011060715, -0.024066567420959473, -0.18628938496112823, -0.1873462200164795, -0.22555048763751984, 0.11342202872037888, 0.010879225097596645, -0.03184513747692108, 0.09641146659851074, 0.0035843674559146166, 0.29743048548698425, -0.12086198478937149, -0.14890001714229584, 0.218424454331398, -0.127462238073349, 0.04391196370124817, 0.05184212699532509, 0.0789036825299263, -0.07551967352628708, 0.06113487854599953, 0.13705295324325562, 0.040434036403894424, -0.05384229123592377, -0.15286217629909515, 0.028750909492373466, 0.1450333595275879, -0.08323991298675537, 0.042250439524650574, 0.10532917082309723, -0.012564767152071, -0.22343352437019348, 0.25495004653930664, -0.14690861105918884, -0.0257057286798954, -0.15062516927719116, 0.016804439947009087, 0.10359326004981995, 0.15527009963989258, 0.13887587189674377, -0.18158315122127533, -0.12577921152114868, 0.011428316123783588, -0.12381521612405777, -0.07153941690921783, 0.15359725058078766, 0.18876329064369202, -0.05367729812860489, -0.07463636249303818, -0.04264005273580551], [-0.03793208673596382, -0.1581379622220993, 0.0161102544516325, -0.04324689880013466, -0.11694690585136414, 0.005779923405498266, -0.18275362253189087, -0.058154311031103134, -0.06113392114639282, 0.09771015495061874, -0.02858087234199047, -0.021590614691376686, -0.051094524562358856, -0.05734674260020256, -0.1339312195777893, 0.05144451558589935, -0.12043386697769165, 0.12121996283531189, -0.2389688491821289, 0.4802858531475067, 0.10586205869913101, 0.0283962395042181, 0.004380805883556604, 0.1345180720090866, 0.08714809268712997, 0.04199070855975151, -0.019584791734814644, -0.07352007925510406, 0.2191251516342163, 0.04774748161435127, -0.03366228565573692, 0.29912176728248596, 0.20811723172664642, -0.07771357893943787, 0.10733181983232498, -0.060576483607292175, -0.008164056576788425, 0.17975027859210968, -0.05195733904838562, -0.02883669175207615, 0.0014871427556499839, -0.08910854905843735, 0.03244319558143616, -0.0013053681468591094, 0.0966092199087143, 0.2816214859485626, -0.11988614499568939, -0.12713494896888733, 0.12622733414173126, -0.1626518815755844, 0.03418353572487831, -0.13015484809875488, 0.04249485954642296, 0.024166464805603027, -0.007283145561814308, -0.012515630573034286, 0.03467197343707085, 0.2432984709739685, 0.13396500051021576, -0.03294118866324425, 0.09698430448770523, 0.002152710687369108, 0.05568840727210045, -0.05114797502756119, 0.22999240458011627, 0.0657728835940361], [-0.13934066891670227, 0.037554603070020676, -0.1436712145805359, -0.047372251749038696, 0.043063342571258545, -0.09169620275497437, -0.18750134110450745, 0.0005475835641846061, -0.15098799765110016, -0.05241371691226959, -0.20062197744846344, -0.2004372775554657, -0.15304413437843323, 0.11302254348993301, 0.10686180740594864, -0.033847082406282425, -0.00877409242093563, -0.22251111268997192, -0.08236898481845856, 0.0919729620218277, -0.06824816018342972, -0.12849049270153046, -0.05805999040603638, 0.042140062898397446, 0.07753793895244598, -0.21884016692638397, 0.03303573280572891, 0.07360445708036423, -0.03443194925785065, -0.00406175572425127, 0.1478630006313324, -0.24811674654483795, 0.0009238864295184612, 0.0508541613817215, -0.06513487547636032, 0.08437355607748032, -0.055881015956401825, 0.09687665104866028, 0.012761300429701805, 0.041391730308532715, -0.015963338315486908, 0.18706026673316956, -0.2523821294307709, 0.10445453971624374, 0.1279108226299286, -0.02349827066063881, 0.13747382164001465, -0.11452361196279526, -0.1095399335026741, -0.23501990735530853, 0.09208796918392181, -0.08584964275360107, -0.16709180176258087, -0.22011131048202515, -0.23730897903442383, -0.10822084546089172, -0.20486989617347717, -0.08147621154785156, 0.049358561635017395, -0.009030463173985481, 0.1070537269115448, -0.30802223086357117, 0.30155402421951294, -0.20857004821300507, -0.0027519750874489546, -0.057969022542238235], [0.11528914421796799, 0.11389783024787903, -0.19765330851078033, 0.03179623931646347, 0.17790007591247559, 0.10051660984754562, 0.29959291219711304, -0.0630127489566803, -0.009303474798798561, -0.1424025297164917, -0.1068727970123291, 0.02640538662672043, 0.11964695155620575, 0.2021336406469345, -0.0752120316028595, -0.035201240330934525, -0.047784607857465744, 0.09306526184082031, 0.08350705355405807, 0.06296128034591675, -0.09983797371387482, -0.05414797365665436, -0.14000672101974487, 0.09248784184455872, 0.024714261293411255, 0.10251495242118835, -0.08547850698232651, 0.21351563930511475, 0.054918136447668076, 0.09794645011425018, 0.14588230848312378, 0.0024653312284499407, 0.04152567684650421, -0.16430599987506866, 0.05906013399362564, 0.07151420414447784, -0.060837943106889725, -0.12793952226638794, -0.27570003271102905, -0.1526089906692505, -0.10570332407951355, 0.2805662155151367, 0.1559429168701172, -0.08431202918291092, 0.015214497223496437, -0.06901771575212479, -0.15871985256671906, -0.005021005403250456, 0.052332427352666855, -0.10521139949560165, -0.22329002618789673, 0.1685209572315216, -0.16457025706768036, 0.15070705115795135, 0.05724172666668892, -0.10089299082756042, -0.059528596699237823, 0.035127151757478714, 0.1630583256483078, -0.0008162935264408588, 0.04210120439529419, -0.17069724202156067, 0.24487435817718506, -0.024789677932858467, 0.12963348627090454, 0.11243393272161484], [-0.11398880183696747, 0.02810128964483738, 0.05911858752369881, 0.19659490883350372, -0.019717125222086906, 0.12154465168714523, 0.2543705999851227, 0.06933671236038208, 0.042569126933813095, -0.009646302089095116, -0.3539503812789917, -0.07995666563510895, 0.13206781446933746, 0.0053825280629098415, -0.01331967581063509, -0.00047796344733797014, 0.03447204828262329, -0.029193498194217682, -0.14034995436668396, -0.19366353750228882, 0.1727939248085022, 0.13889096677303314, 0.12521009147167206, 0.36424779891967773, 0.2632881999015808, 0.15890325605869293, 0.10140574723482132, -0.21346589922904968, -0.08865580707788467, -0.21849411725997925, -0.04656921699643135, -0.22240497171878815, -0.31051042675971985, -0.14638054370880127, 0.07327538728713989, 0.03752551227807999, 0.001837103976868093, 0.09062403440475464, 0.023676548153162003, -0.053848396986722946, 0.09555618464946747, -0.09550631791353226, 0.05979146063327789, -0.1129659116268158, 0.10972095280885696, 0.19592639803886414, 0.059875041246414185, -0.18372739851474762, 0.07440557330846786, 0.10678236931562424, 0.0004253921506460756, 0.1403181105852127, 0.2804296910762787, 0.0952700823545456, -0.05835796147584915, 0.1191587969660759, 0.12289977073669434, -0.03349621593952179, 0.26306793093681335, 0.03545035794377327, 0.06008029356598854, -0.09776367247104645, -0.1361299455165863, 0.04469062387943268, -0.33062708377838135, -0.1372932344675064], [0.2273305058479309, 0.205302894115448, 0.09065038710832596, -0.013166594319045544, 0.10150571912527084, -0.04269665852189064, -0.0973181501030922, 0.20425641536712646, -0.007706640753895044, -0.13493280112743378, -0.21445181965827942, 0.27625951170921326, 0.19028595089912415, -0.02536654658615589, -0.029230915009975433, 0.277399480342865, -0.0860920324921608, -0.04936593398451805, 0.0533391535282135, -0.08582498133182526, -0.14594371616840363, 0.08946569263935089, -0.1264132857322693, -0.055948834866285324, 0.018407056108117104, 0.1624450981616974, 0.025344399735331535, -0.2134302705526352, 0.04774508997797966, -0.08941705524921417, -0.17836521565914154, -0.1118411123752594, 0.06989405304193497, 0.17605507373809814, 0.18232327699661255, 0.0397617407143116, -0.009623004123568535, -0.0018098186701536179, 0.14523771405220032, 0.0012975467834621668, 0.05657190829515457, -0.00701654888689518, -0.0024783143308013678, -0.06117047369480133, 0.04598550125956535, 0.16072559356689453, -0.07492227107286453, -0.09412821382284164, -0.010525766760110855, -0.09728389233350754, -0.14896005392074585, 0.05737954378128052, -0.15200483798980713, -0.055613093078136444, -0.4003785252571106, 0.11650481075048447, 0.04970908537507057, -0.26126861572265625, 0.08490868657827377, -0.0466608926653862, -0.02251250483095646, -0.08238576352596283, 0.14309924840927124, 0.02057655155658722, 0.1502445787191391, 0.030390826985239983], [0.15124820172786713, -0.03908418118953705, -0.09708667546510696, -0.1422395259141922, -0.08029816299676895, -0.2020237147808075, -0.08141068369150162, 0.1406797468662262, -0.21763396263122559, -0.13770265877246857, 0.26493290066719055, 0.08380910009145737, 0.016705818474292755, 0.07027707993984222, -0.1855233609676361, 0.03412729874253273, 0.054935354739427567, 0.07728410512208939, 0.06297533214092255, -0.014821932651102543, 0.08573412895202637, 0.06014188379049301, 0.19554343819618225, -0.14689777791500092, 0.29228368401527405, -0.10757073014974594, 0.07300114631652832, 0.0783340185880661, -0.07297807186841965, -0.2234603762626648, 0.006795451045036316, 0.23359626531600952, -0.1273067593574524, -0.14526407420635223, -0.049380283802747726, 0.10797101259231567, -0.0733710303902626, 0.15829995274543762, 0.14263053238391876, -0.1412559300661087, 0.051488183438777924, 0.04506441950798035, -0.03136434033513069, 0.09719458222389221, 0.016182171180844307, -0.16022807359695435, -0.2234693169593811, 0.10926967859268188, -0.09763689339160919, -0.0729069635272026, 0.00047694670502096415, 0.24224045872688293, -0.03328515589237213, 0.01511566061526537, 0.011998937465250492, -0.09917081892490387, -0.01508504617959261, 0.023951569572091103, 0.03960787132382393, -0.025833051651716232, 0.1631697118282318, -0.09181921929121017, 0.22167055308818817, -0.053882814943790436, -0.011684771627187729, -0.22171002626419067], [-0.17543424665927887, -0.33264395594596863, 0.1657882034778595, -0.16742117702960968, 0.20363005995750427, 0.06152324378490448, 0.12148185074329376, 0.010327520780265331, -0.17178115248680115, -0.08662014454603195, -0.004245346412062645, 0.06173163279891014, 0.009400058537721634, -0.05434222146868706, -0.22965610027313232, 0.1138262078166008, 0.13039931654930115, -0.061398595571517944, -0.03154776617884636, 0.06664232909679413, 0.023365002125501633, -0.039525777101516724, -0.11090588569641113, -0.14350013434886932, 0.14271272718906403, -0.05645783618092537, 0.12981978058815002, -0.2373446524143219, -0.028678735718131065, 0.15264678001403809, -0.09439170360565186, -0.27492913603782654, -0.07552897930145264, 0.19189023971557617, -0.011129778809845448, 0.18293499946594238, -0.018551981076598167, -0.03623679652810097, -0.10283350199460983, 0.03483515605330467, -0.04716602712869644, -0.09674161672592163, 0.06838180869817734, -0.12326610833406448, -0.28331971168518066, 0.15399307012557983, -0.09056077897548676, 0.17373628914356232, 0.023555845022201538, 0.26185742020606995, 0.17964209616184235, -0.18136179447174072, -0.008159405551850796, 0.007254245225340128, 0.21883715689182281, 0.015255498699843884, -0.1872912347316742, -0.005062664393335581, 0.12912459671497345, 0.011003545485436916, -0.013474605046212673, -0.07439602166414261, -8.752245048526675e-05, 0.059791818261146545, -0.07340201735496521, 0.10035832226276398], [-0.14060798287391663, -0.18394386768341064, -0.22014276683330536, 0.02940589375793934, -0.018442701548337936, -0.0056889415718615055, -0.03536244109272957, -0.0782240480184555, 0.0937759131193161, 0.13476626574993134, 0.023789597675204277, 0.07655827701091766, 0.2341688573360443, -0.10806342959403992, -0.11518247425556183, -0.020592695102095604, -0.02093229442834854, 0.22531265020370483, -0.20007315278053284, -0.1798810213804245, 0.23247332870960236, -0.07885035872459412, -0.10195969045162201, 0.1630326211452484, 0.1297622174024582, 0.11894745379686356, -0.012913599610328674, 0.08243110775947571, -0.07169320434331894, -0.07692582905292511, -0.17440584301948547, -0.13636143505573273, -0.04984420910477638, 0.12947742640972137, -0.011509607546031475, 0.1756046712398529, -0.012177109718322754, -0.15025216341018677, -0.025188259780406952, -0.14478100836277008, -0.1530965268611908, -0.04032287746667862, 0.19231967628002167, -0.007045564707368612, 0.07310009747743607, 0.1665533483028412, -0.08265715837478638, 0.21190592646598816, -0.33533936738967896, -0.14712649583816528, -0.03049291856586933, -0.09834785014390945, -0.09092620760202408, -0.08963530510663986, -0.19006402790546417, 0.08119416981935501, 0.21354623138904572, -0.03323638439178467, -0.17162974178791046, -0.14351235330104828, 0.06002937629818916, 0.08950699120759964, -0.09395276755094528, 0.06145298108458519, 0.07451337575912476, -0.05453644320368767], [0.10016393661499023, 0.16945675015449524, -0.02500654011964798, -0.1540389508008957, -0.15666499733924866, 0.09525236487388611, -0.0016774405958130956, -0.11022471636533737, -0.08886364847421646, -0.11622986942529678, -0.016321441158652306, -0.023534007370471954, -0.08110341429710388, 0.05938343703746796, -0.005931389052420855, 0.008684242144227028, 0.26033711433410645, 0.08704211562871933, -0.2306177318096161, 0.04117993265390396, 0.026943255215883255, 0.13910067081451416, 0.05751468986272812, -0.09998559206724167, -0.22264324128627777, -0.0337967611849308, -0.14872634410858154, 0.391480028629303, -0.10096490383148193, 0.05193463712930679, -0.26495954394340515, -0.029267316684126854, 0.025376446545124054, -0.2704729735851288, -0.058820731937885284, 0.005295434035360813, -0.09485112875699997, 0.09319598972797394, 0.10161862522363663, 0.17438700795173645, -0.020675981417298317, -0.19376154243946075, -0.013412431813776493, 0.05892227590084076, 0.05652419105172157, -0.08429894596338272, -0.011989534832537174, 0.04506588727235794, 0.08617924898862839, -0.17696477472782135, -0.17500148713588715, -0.07162388414144516, -0.03223530203104019, 0.06970620155334473, -0.016927774995565414, 0.19203625619411469, -0.09076155722141266, -0.10342513024806976, 0.1814713329076767, -0.022641804069280624, -0.1778285950422287, -0.21952582895755768, 0.14215640723705292, 0.17445901036262512, 0.0637785792350769, -0.0891842469573021], [-0.0012281779199838638, 0.02961401455104351, 0.12228583544492722, 0.05183817446231842, -0.08896948397159576, 0.0483306348323822, 0.008920668624341488, -0.13072681427001953, 0.1993408352136612, 0.1689092069864273, 0.008478136733174324, 0.060130659490823746, 0.07416027039289474, -0.03953219950199127, -0.25183141231536865, 0.053100794553756714, 0.175227090716362, -0.07395541667938232, -0.22467701137065887, -0.07473007589578629, -0.2651671767234802, -0.13144314289093018, -0.11764474958181381, 0.029221374541521072, 0.16737711429595947, -0.11118028312921524, -0.05751500278711319, -0.08332998305559158, 0.036943789571523666, 0.027877509593963623, -0.12819494307041168, 0.05493946000933647, -0.03818504884839058, -0.3149745464324951, 0.16468922793865204, -0.11671092361211777, 0.1387832760810852, -0.006467645987868309, -0.001825112965889275, -0.1002437025308609, -0.06917155534029007, 0.08743134140968323, -0.16954195499420166, 0.060438696295022964, -0.1390419453382492, -0.08301329612731934, 0.02672196552157402, -0.1303403675556183, -0.2093537449836731, 0.14303159713745117, 0.3378106951713562, 0.016222132369875908, 0.07328186184167862, 0.1146388053894043, -0.06309140473604202, 0.04343436658382416, 0.08443699777126312, -0.05770014971494675, -0.09590712934732437, -0.05554419383406639, 0.05130555480718613, 0.03240058198571205, 0.1602318435907364, 0.26221778988838196, 0.15482449531555176, 0.1352754682302475], [0.053494974970817566, -0.10924796015024185, 0.21128888428211212, -0.21216854453086853, -0.010927990078926086, -0.017935244366526604, -0.10133261233568192, -0.1044493019580841, -0.25194811820983887, -0.2813822329044342, -0.153194397687912, 0.03096952848136425, -0.26421892642974854, -0.0882398709654808, -0.07451162487268448, -0.003135165898129344, -0.022628795355558395, -0.05386463552713394, 0.06071508303284645, -0.05036824941635132, -0.04197969660162926, 0.14211663603782654, -0.09724710881710052, 0.08141594380140305, -0.039073750376701355, 0.04148717597126961, -0.0864253044128418, -0.007941650226712227, 0.2009078860282898, 0.07915499806404114, 0.06513205915689468, -0.17016281187534332, -0.09862858057022095, -0.02402307279407978, -0.00959433801472187, -0.23069660365581512, 0.3292922377586365, 0.09194083511829376, -0.02174200490117073, -0.25891637802124023, -0.09348908066749573, -0.06659991294145584, 0.21482618153095245, -0.03872569650411606, 0.0712333396077156, -0.1671791970729828, 0.09459082782268524, -0.04332204535603523, -0.12297747284173965, -0.003317206632345915, -0.039338357746601105, 0.014840378426015377, 0.002438883064314723, 0.022727616131305695, -0.10983722656965256, 0.019226163625717163, 0.1295630782842636, 0.15227966010570526, -0.14324642717838287, 0.03828434646129608, -0.08410029858350754, -0.1655796766281128, -0.05777319148182869, -0.040138475596904755, -0.025911472737789154, -0.006084689404815435], [0.08367942273616791, -0.1408865749835968, -0.004098034463822842, -0.01977258175611496, -0.09821926057338715, -0.21418528258800507, 0.12900635600090027, -0.0372982956469059, 0.07116250693798065, 0.0349435955286026, -0.2791072726249695, -0.017103025689721107, 0.2546008825302124, -0.19096483290195465, -0.028552409261465073, -0.09940928220748901, -0.025963712483644485, 0.16255901753902435, 0.07139350473880768, -0.03345764800906181, -0.020774368196725845, -0.03177707642316818, 0.059356290847063065, -0.07068836688995361, -0.09594973921775818, 0.04453737661242485, -0.0014372309669852257, -0.10316989570856094, -0.15334519743919373, -0.10670863837003708, -0.25425106287002563, 0.2604071795940399, -0.24793080985546112, -0.07708649337291718, -0.03434497490525246, 0.01340560894459486, 0.1250016838312149, 0.04883044958114624, -0.058526113629341125, 0.2695050835609436, -0.19543378055095673, 0.07565408945083618, 0.011913864873349667, -0.08683625608682632, -0.06939905136823654, -0.01476841140538454, -0.05031764879822731, 0.04048940911889076, -0.09265350550413132, 0.1822187900543213, -0.023598603904247284, -0.29162827134132385, -0.07253465056419373, 0.12890657782554626, -0.07456499338150024, 0.1233719140291214, -0.021740684285759926, 0.06583346426486969, -0.014922285452485085, 0.05562978610396385, 0.2034858614206314, -0.06877224892377853, 0.11628144979476929, -0.3321523070335388, -0.03631613776087761, 0.05388346314430237], [-0.18430501222610474, 0.0041016023606061935, 0.3288933336734772, 0.01817294768989086, -0.20291414856910706, -0.11420870572328568, -0.042662542313337326, 0.08303943276405334, 0.03882623463869095, -0.2015945166349411, -0.09901973605155945, 0.15625156462192535, -0.07231935113668442, -0.016214314848184586, 0.20568408071994781, 0.13346855342388153, 0.1629471778869629, -0.041714634746313095, -0.15806785225868225, 0.0051732538267970085, 0.241423562169075, -0.10109294950962067, 0.16022992134094238, 0.19529543817043304, -0.21453841030597687, 0.0871354341506958, -0.00842476636171341, -0.21993190050125122, -0.0021732798777520657, 0.020994585007429123, 0.009862151928246021, -0.04667644947767258, 0.05673157796263695, -0.11954721808433533, -0.047739382833242416, -0.09781133383512497, 0.11473587155342102, -0.07048319280147552, -0.12774866819381714, -0.0958123579621315, 0.13713258504867554, 0.008273310028016567, 0.024800244718790054, 0.07879694551229477, -0.07731978595256805, -0.19426225125789642, -0.21033862233161926, 0.18209248781204224, 0.09632780402898788, -0.06113620474934578, -0.03725791350007057, -0.10424017906188965, -0.06298020482063293, 0.032387204468250275, 0.01870623789727688, -0.2388336956501007, 0.09301037341356277, -0.2637360990047455, 0.042083051055669785, -0.21049854159355164, 0.15083816647529602, 0.19572678208351135, 0.20730113983154297, -0.016574092209339142, -0.07483193278312683, 0.061696141958236694], [-0.050714392215013504, 0.10423123091459274, -0.00960310734808445, -0.061804451048374176, 0.18989115953445435, -0.07422127574682236, -0.1579238921403885, -0.004263484850525856, 0.1371936947107315, -0.14333537220954895, 0.19312795996665955, 0.2907865643501282, 0.03726397454738617, 0.026887498795986176, 0.29337576031684875, 0.16412633657455444, -0.11992350965738297, -0.07618047297000885, 0.1006489023566246, 0.1846802830696106, -0.12551510334014893, 0.02148769050836563, -0.1550339162349701, 0.007710008416324854, -0.015399297699332237, -0.08156562596559525, -0.029460860416293144, 0.11765255033969879, 0.05284764990210533, -0.03392808511853218, -0.1885949969291687, -0.09263984858989716, -0.15314051508903503, -0.09853019565343857, 0.15181681513786316, 0.33332788944244385, 0.12731285393238068, 0.13008548319339752, 0.024686817079782486, 0.05129703879356384, -0.0902426689863205, 0.20575876533985138, -0.10763512551784515, 0.0009118033922277391, -0.0807846337556839, -0.025782151147723198, 0.04731990769505501, 0.010158075019717216, 0.11845575273036957, -0.18842701613903046, -0.007517095189541578, -0.1392936110496521, 0.12739776074886322, -0.061302561312913895, 0.1330491453409195, -0.15208952128887177, 0.10379323363304138, 0.1667381376028061, 0.08553774654865265, -0.026943806558847427, 0.14322160184383392, -0.018865302205085754, -0.05147901549935341, 0.0411192961037159, -0.06276793777942657, -0.15161040425300598], [0.11951003968715668, -0.2944273352622986, -0.0757129043340683, 0.14949306845664978, 0.046575769782066345, -0.11216116696596146, 0.15794339776039124, -0.05839164927601814, 0.0282374806702137, 0.07541197538375854, -0.11299113929271698, -0.1220700666308403, 0.029449881985783577, 0.004106657113879919, -0.08908603340387344, 0.11365306377410889, -0.0863458514213562, 0.02185196802020073, -0.027262886986136436, 0.32424476742744446, -0.014528411440551281, 0.13998113572597504, -0.07133537530899048, -0.009241265244781971, -0.12724828720092773, 0.0007538871723227203, 0.16141904890537262, 0.1192350760102272, -0.0332743301987648, -0.009022140875458717, 0.031942062079906464, -0.18657700717449188, -0.20128564536571503, 0.08798115700483322, 0.02126920223236084, -0.07673846185207367, 0.05731003358960152, 0.03638720139861107, 0.2205134928226471, 0.20442277193069458, 0.15130408108234406, -0.10397075116634369, 0.015583782456815243, -0.17705084383487701, -0.0884077250957489, -0.1256987601518631, 0.06384254992008209, 0.057136666029691696, -0.015863841399550438, -0.1015186607837677, -0.018077602609992027, 0.18810760974884033, 0.06901199370622635, 0.06926202774047852, -0.01753029227256775, -0.034789569675922394, 0.15823355317115784, -0.17023338377475739, -0.16571040451526642, -0.2253703474998474, 0.3587387800216675, 0.10983847826719284, 0.14417974650859833, 0.1359567940235138, 0.12004821002483368, -0.10830908268690109], [-0.19509685039520264, -0.20424912869930267, 0.17454081773757935, 0.05663767829537392, -0.11187557131052017, 0.3074617087841034, -0.04837263375520706, 0.032528385519981384, 0.044903188943862915, -0.14108170568943024, 0.037357669323682785, 0.10934711247682571, -0.10576315224170685, -0.007121371105313301, 0.027944577857851982, -0.15413518249988556, -0.13905547559261322, 0.22253310680389404, -0.045745253562927246, -0.028081443160772324, -0.1725466251373291, 0.012479627504944801, 0.06926023215055466, 0.014082520268857479, 0.03441635146737099, 0.2604062557220459, -0.014394423924386501, -0.022083228453993797, -0.16671361029148102, -0.09796719998121262, 0.06238722428679466, 0.009248526766896248, 0.1454206109046936, -0.06842517852783203, 0.08302854001522064, -0.10954946279525757, -0.04768431931734085, -0.20155005156993866, -0.034812916070222855, 0.17442624270915985, -0.08651740103960037, 0.00047448024270124733, 0.05457516387104988, 0.24724385142326355, -0.20665553212165833, -0.07525680959224701, 0.03816666826605797, 0.018146708607673645, -0.21055322885513306, 0.0005693436251021922, -0.0028393242973834276, 0.07077346742153168, 0.37918609380722046, -0.19777005910873413, -0.04139116406440735, 0.16618509590625763, -0.1010727733373642, 0.14145776629447937, 0.046739764511585236, -0.11867538094520569, 0.044183582067489624, -0.09666251391172409, 0.04118889570236206, -0.01438977476209402, 0.08632716536521912, -0.1964244544506073], [-0.17000165581703186, -0.11468043178319931, -0.011444064788520336, -0.10377822071313858, 0.0931713655591011, 0.022459128871560097, 0.18292003870010376, 0.13965778052806854, -0.02156233601272106, 0.07489866018295288, -0.019459102302789688, -0.26608696579933167, -0.017518116161227226, 0.08246857672929764, 0.10102514177560806, -0.10510580241680145, 0.057527150958776474, 0.13359114527702332, 0.1592722237110138, 0.04767376556992531, -0.14780572056770325, 0.010631920769810677, -0.034910064190626144, -0.1872943937778473, 0.18007294833660126, -0.002014582045376301, 0.10277674347162247, -0.3035055100917816, 0.14272615313529968, -0.17542916536331177, -0.25349754095077515, -0.01572110503911972, 0.06791755557060242, -0.14036236703395844, 0.09536129236221313, 0.17764152586460114, 0.17903488874435425, -0.05664937198162079, -0.02212112583220005, -0.11485893279314041, 0.2234249711036682, 0.11104361712932587, 0.2056460827589035, -0.13512828946113586, 0.10970871895551682, -0.03807719051837921, 0.15219911932945251, 0.09296288341283798, 0.0835946649312973, -0.12998616695404053, -0.06840518862009048, -0.3268706202507019, -0.06021380051970482, 0.06279004365205765, -0.2161831110715866, -0.10754474997520447, 0.21088069677352905, -0.20974542200565338, -0.02953966148197651, 0.05399451032280922, -0.26207515597343445, 0.08860376477241516, 0.17684951424598694, 0.054034747183322906, 0.21030843257904053, -0.05372745916247368], [0.03515047952532768, -0.05370509997010231, 0.0569375641644001, 0.13987818360328674, -0.005627143662422895, 0.020870817825198174, -0.14834092557430267, 0.22938242554664612, -0.1050737276673317, -0.07763782143592834, -0.24563781917095184, -0.07523053884506226, 0.12647219002246857, 0.11549802124500275, -0.04111620783805847, 0.113839291036129, -0.02856854535639286, -0.006759566254913807, -0.01999959722161293, -0.29783234000205994, 0.11621088534593582, 0.07043305039405823, -0.03147982805967331, 0.1573856920003891, 0.12132632732391357, 0.027147725224494934, -0.04081017151474953, 0.19598320126533508, 0.2484457939863205, -0.20421625673770905, -0.09513495117425919, -0.13615266978740692, -0.0959959626197815, -0.04255801439285278, -0.2028908133506775, -0.029679441824555397, -0.04348352178931236, 0.023966802284121513, -0.043005380779504776, 0.22281822562217712, -0.06309175491333008, -0.025871440768241882, -0.046977508813142776, 0.10832074284553528, 0.17503030598163605, -0.05659335479140282, -0.058409713208675385, 0.027394164353609085, -0.13045142590999603, 0.08955062925815582, -0.06150514632463455, -0.20891763269901276, 0.1600106805562973, 0.12110970914363861, 0.1940697729587555, -0.14300356805324554, 2.3623142624273896e-05, -0.10681753605604172, 0.05425748601555824, 0.0321534089744091, 0.1437128335237503, 0.19375266134738922, 0.02342948503792286, 0.11568830162286758, 0.30225932598114014, 0.11386184394359589], [-0.29054197669029236, 0.26901739835739136, 0.0724581927061081, 0.126563161611557, 0.0542626678943634, 0.13411419093608856, 0.2334267795085907, 0.06339309364557266, -0.1745927929878235, 0.06695947051048279, 0.2068616896867752, -0.041196830570697784, -0.21864406764507294, -0.20484885573387146, 0.031710051000118256, 0.007611565291881561, 0.1522655189037323, -0.13052599132061005, -0.007679266389459372, -0.0739273950457573, -0.1140839159488678, -0.06627564877271652, 0.11396362632513046, 0.1542746126651764, 0.002925962209701538, 0.008520820178091526, -0.11751895397901535, 0.08391184359788895, -0.021612923592329025, 0.1076701357960701, -0.08152047544717789, 0.21654275059700012, 0.10683833807706833, 0.2736891806125641, -0.12133089452981949, 0.057986725121736526, 0.06628458201885223, 0.07388606667518616, 0.20100174844264984, -0.0072351074777543545, -0.08886976540088654, -0.034263975918293, -0.12888769805431366, -0.1517898291349411, -0.12010328471660614, -0.10681552439928055, -0.09362573176622391, 0.030786069110035896, -0.05963281914591789, -0.15872210264205933, -0.173164501786232, 0.005790302995592356, -0.011704050935804844, 0.06499262154102325, 0.010115557350218296, 0.08401457220315933, 0.11823036521673203, 0.23735308647155762, -0.052407074719667435, 0.05944561958312988, 0.1797228902578354, -0.10521930456161499, 0.06225830689072609, -0.05255619063973427, 0.2578431963920593, -0.02841854654252529], [-0.10381773859262466, -0.1879291832447052, 0.07962433993816376, -0.05919443815946579, 0.04209461063146591, 0.058094583451747894, 0.02081732451915741, 0.2509482204914093, 0.41697555780410767, 0.030397454276680946, -0.2244066447019577, 0.009371706284582615, -0.015963366255164146, 0.2000458985567093, -0.1706252098083496, 0.05531478673219681, 0.0003207926929462701, -0.11250218749046326, 0.06990259140729904, -0.07356283813714981, 0.18749800324440002, 0.10799501836299896, -0.0715540274977684, 0.26740825176239014, 0.0312169399112463, 0.10832253098487854, 0.009489535354077816, -0.1830633580684662, -0.12376592308282852, 0.18397705256938934, -0.23331990838050842, 0.09456369280815125, -0.06071994826197624, -0.183226078748703, -0.011991486884653568, 0.08550803363323212, -0.011540994048118591, -0.05823039636015892, 0.2779598832130432, -0.141931414604187, 0.05680311098694801, -0.015808524563908577, 0.15281641483306885, -0.008279568515717983, -0.04747183993458748, 0.00805805716663599, 0.012661020271480083, -0.09488742053508759, -0.05163023993372917, 0.19513775408267975, 0.07703680545091629, 0.05752863362431526, -0.18106111884117126, -0.16701453924179077, 0.11609251797199249, 0.1629636138677597, -0.14172545075416565, -0.023169346153736115, -0.1160590723156929, 0.05797097831964493, 0.019457319751381874, 0.12800763547420502, -0.2037578523159027, -0.08733926713466644, 0.156319722533226, -0.14002537727355957]]

Nombre del Parámetro: module.0.module.0.0.bias
Pesos:
[0.041525837033987045, 0.05769059434533119, -0.041650235652923584, -0.06512447446584702, -0.024996964260935783, 0.0847848504781723, -0.022192440927028656, -0.09045453369617462, 0.019611962139606476, -0.06829862296581268, 0.0640622079372406, -0.10992858558893204, 0.006212511565536261, 0.06904123723506927, 0.03228554129600525, 0.002507396973669529, 0.018854942172765732, 0.011309480294585228, 0.08980440348386765, 0.00043475592974573374, -0.057262636721134186, 0.004830906167626381, 0.027258118614554405, -0.004086838103830814, -0.10858964174985886, 0.04200135916471481, 0.02284695953130722, -0.05583460256457329, 0.1143391877412796, -0.0023711994290351868, 0.08786065131425858, -0.034440308809280396, 0.0351959653198719, -0.11701551079750061, 0.007728826254606247, 0.11566533893346786, 0.0841202363371849, -0.0375184528529644, -0.00231407699175179, 0.05757918953895569, -0.00775718130171299, 0.11996577680110931, -0.045896995812654495, -0.02565670572221279, 0.014580333605408669, -0.085499107837677, -0.003692818805575371, 0.019957518205046654, -0.00825253501534462, 0.009965188801288605, 0.0364648699760437, 0.03524249047040939, -0.04348630830645561, 0.046327896416187286, -0.07891985028982162, 0.14537116885185242, 0.07055765390396118, -0.01174941286444664, 0.06871619820594788, 0.040603116154670715, 0.03971971198916435, 0.08868136256933212, -0.014229647815227509, -0.011055381037294865]

Nombre del Parámetro: module.0.module.0.2.weight
Pesos:
