Parameter name: module.0.module.0.0.weight
Weights:
[[0.1790132373571396, -0.12379126995801926, 0.033852871507406235, 0.024164464324712753, 0.023693805560469627, 0.02658914402127266, -0.045883990824222565, -0.26677531003952026, -0.004687925335019827, 0.3177453875541687, 0.1306832879781723, -0.02556854858994484, -0.035076603293418884, -0.08376406133174896, -0.1980821043252945, -0.04413098841905594, -0.09385676681995392, 0.0298207588493824, 0.053431566804647446, -0.18272599577903748, 0.019952069967985153, 0.32251471281051636, -0.11720798164606094, -0.0072272466495633125, 0.30986201763153076, 0.36735597252845764, 0.04173276573419571, 0.23010891675949097, -0.2104647159576416, -0.06960416585206985, -0.18038737773895264, 0.08640345185995102, 0.008189373649656773, -0.06779459118843079, -0.08204499632120132, 0.041851501911878586, -0.04146873205900192, -0.1443863958120346, 0.07656366378068924, -0.09088945388793945, -0.01222181972116232, -0.012784679420292377, 0.13593408465385437, 0.09294917434453964, 0.032171860337257385, 0.11044441163539886, 0.13750895857810974, 0.0970364660024643, -0.07907608151435852, -0.36319485306739807, 0.16360749304294586, -0.12964582443237305, 0.18318600952625275, -0.04122232273221016, 0.07922686636447906, 0.26857975125312805, -0.03616500273346901, -0.028235631063580513, -0.0939653143286705, 0.019449295476078987, 0.002051697112619877, -0.09779441356658936, -0.09289085865020752, -0.15553954243659973, -0.08870892971754074, 0.014745980501174927], [-0.18250174820423126, -0.08337825536727905, -0.299718976020813, 0.20003795623779297, 0.05941491574048996, -0.11588402837514877, 0.25076574087142944, -0.0786665678024292, 0.06191770359873772, -0.03248126432299614, -0.19078664481639862, 0.23754732310771942, -0.16379830241203308, -0.11232846975326538, 0.11000602692365646, 0.017215272411704063, 0.2593817412853241, -0.10351118445396423, 0.05782065913081169, 0.0955905169248581, 0.32032835483551025, 0.21368317306041718, 0.008273814804852009, 0.1566467583179474, 0.018086692318320274, 0.16092130541801453, -0.08220520615577698, 0.4320850372314453, -0.33128097653388977, -0.11497818678617477, -0.3853430449962616, -0.06611369550228119, -0.14844752848148346, 0.15426325798034668, 0.031807754188776016, 0.06036778911948204, -0.18554282188415527, 0.2210012674331665, 0.01631014607846737, -0.009147635661065578, -0.016950080171227455, 0.12480109930038452, -0.08200608193874359, -0.14485915005207062, 0.0875445231795311, 0.1112416535615921, 0.08756982535123825, -0.09433263540267944, 0.005864468403160572, -0.06258886307477951, 0.1752103716135025, -0.16013433039188385, 0.2583698630332947, 0.1589672565460205, -0.002585353795439005, 0.11891353875398636, -0.014090356417000294, 0.07893635332584381, 0.06251499056816101, -0.07599663734436035, -0.030966859310865402, 0.059202756732702255, -0.2439747005701065, -0.2914743721485138, -0.09581277519464493, -0.24444136023521423], [0.2789725661277771, -0.06948218494653702, 0.04412972182035446, 0.06468481570482254, 0.16989421844482422, 0.22354862093925476, 0.24481737613677979, 0.1500971019268036, -0.18134468793869019, 0.1247330829501152, -0.03431890904903412, -0.061225853860378265, 0.07289300858974457, -0.13458102941513062, -0.09067930281162262, 0.0049058664590120316, -0.15844376385211945, 0.029171358793973923, -0.001203435007482767, -0.09769269078969955, 0.16783523559570312, -0.14637602865695953, 0.07652157545089722, 0.0798904225230217, -0.005026862025260925, 0.010681526735424995, 0.11250655353069305, 0.36064183712005615, -0.025989389047026634, 0.10031887143850327, -0.08987732231616974, -0.07875905185937881, 0.04153607040643692, 0.05103107914328575, 0.047564420849084854, 0.031529854983091354, 0.22999466955661774, -0.09534747153520584, 0.07996440678834915, -0.02033746987581253, 0.22352857887744904, -0.08053038269281387, -0.07232068479061127, -0.3063223659992218, -0.020787294954061508, 0.04035547003149986, -0.20633850991725922, 0.1357821375131607, -0.1155833750963211, -0.06126505509018898, 0.05512277036905289, -0.14942768216133118, 0.14774090051651, -0.17914678156375885, -0.049600012600421906, 0.018025198951363564, 0.09021491557359695, 0.21824026107788086, -0.15845191478729248, 0.11362922191619873, 0.07002481818199158, -0.18978586792945862, -0.296360045671463, -0.07723665237426758, -0.021745726466178894, 0.09433852881193161], [0.03204219415783882, -0.10575634986162186, -0.10675691068172455, -0.13659082353115082, 0.17631211876869202, 0.19440320134162903, 0.27031680941581726, 0.0785117968916893, 0.2605369985103607, 0.2626120448112488, -0.06363509595394135, -0.15362238883972168, -0.09332605451345444, 0.1425769329071045, -0.2791828215122223, -0.12103939056396484, -0.27540522813796997, 0.12436210364103317, 0.15852221846580505, 0.18269690871238708, -0.04513992741703987, -0.019848918542265892, 0.3726598024368286, -0.04313163459300995, 0.5033085346221924, 0.3109448254108429, -0.14205962419509888, -0.07055206596851349, -0.19569289684295654, 0.018350912258028984, -0.39332911372184753, -0.10767925530672073, -0.08060435205698013, -0.07256179302930832, -0.09005903452634811, -0.024010280147194862, 0.08388882130384445, 0.14021076261997223, 0.09318752586841583, 0.023287208750844002, -0.10784593969583511, 0.1116645410656929, 0.04517741873860359, -0.1700461506843567, -0.03930962458252907, 0.050563838332891464, 0.02190510369837284, 0.2466597855091095, 0.14630822837352753, 0.00872436910867691, -0.10960069298744202, -0.14170317351818085, 0.07408921420574188, 0.07767290621995926, -0.19217051565647125, -0.30959391593933105, -0.1017691045999527, -0.018030036240816116, 0.03919598087668419, 0.09059230983257294, -0.033551305532455444, -0.14950473606586456, -0.34145423769950867, -0.22589661180973053, -0.3620198369026184, 0.009724559262394905], [0.03620566055178642, -0.11707819998264313, 0.10792884230613708, -0.13167721033096313, 0.05020662769675255, 0.09722579270601273, 0.24845966696739197, -0.042305462062358856, -0.03959517925977707, -0.10937262326478958, -0.031154705211520195, -0.10418903827667236, 0.16062197089195251, 0.15887843072414398, -0.5773283243179321, -0.3490765392780304, -0.10161978006362915, 0.21298345923423767, 0.03320356458425522, 0.03075762279331684, -0.007598413620144129, -0.0780700221657753, 0.0417197160422802, -0.007063295226544142, 0.2658568322658539, 0.009687689132988453, 0.0893244594335556, -0.005662553943693638, -0.04574389383196831, -0.10408276319503784, -0.3909207284450531, 0.01021918561309576, 0.014528688974678516, -0.02440444938838482, 0.04043545201420784, 0.0787419006228447, 0.24995164573192596, 0.06475166231393814, 0.1497218757867813, -0.09303916245698929, -0.0013674203073605895, 0.15305641293525696, 0.07375553250312805, -0.06470867246389389, 0.07831503450870514, 0.052002329379320145, 0.3920503556728363, -0.20160628855228424, -0.11836516857147217, 0.08056000620126724, 0.053094323724508286, -0.06777658313512802, 0.12130609154701233, 0.053507860749959946, -0.0809377059340477, -0.0825890600681305, 0.056246962398290634, -0.11538499593734741, 0.03271114081144333, 0.14385570585727692, 0.14847518503665924, -0.1727491170167923, 0.015534905716776848, 0.005679961293935776, -0.0608413964509964, 0.03227105364203453], [0.12230302393436432, -0.1504822075366974, 0.2200007140636444, -0.34042370319366455, 0.14031706750392914, -0.15366815030574799, 0.07265353202819824, 0.15382660925388336, -0.06214020028710365, 0.07171686738729477, -0.2555740773677826, 0.3860635459423065, 0.0576014369726181, -0.14668810367584229, -0.11457091569900513, -0.059221211820840836, -0.10149793326854706, -0.2699279487133026, 0.2261093109846115, -0.0011525102891027927, 0.24112308025360107, 0.06639577448368073, 0.13488298654556274, 0.10732673853635788, 0.36310726404190063, 0.03859087452292442, -0.1937842071056366, -0.046148691326379776, 0.004503575619310141, 0.01005737204104662, -0.28884315490722656, -0.03508339077234268, -0.12488691508769989, -0.006049268413335085, -0.07216855883598328, -0.02809688076376915, -0.06285858154296875, -0.019299278035759926, 0.05024038627743721, -0.025487765669822693, 0.14194144308567047, 0.08346863836050034, 0.1852862536907196, -0.04617482051253319, -0.06039253622293472, -0.2712317705154419, 0.1328897923231125, 0.08051424473524094, -0.012568977661430836, 0.04915294796228409, 0.04248499497771263, -0.1453833281993866, 0.002442322438582778, -0.0873614251613617, 0.10383208841085434, -0.04553207382559776, -0.14076754450798035, -0.20545880496501923, 0.03530846908688545, 0.16527502238750458, -0.09865633398294449, -0.03011501207947731, -0.19236025214195251, -0.07947904616594315, -0.05357613041996956, -0.11421052366495132], [-0.27749669551849365, -0.0033856674563139677, -0.12914220988750458, -0.16574940085411072, -0.033036522567272186, 0.3260747194290161, 0.13995492458343506, 0.1476030945777893, 0.012646126560866833, -0.024072032421827316, 0.19638143479824066, 0.21453696489334106, -0.04207809641957283, -0.28424903750419617, -0.08258964866399765, -0.19245563447475433, -0.20800185203552246, -0.1917751133441925, 0.10895241796970367, -0.005309003870934248, 0.03219222649931908, 0.10785885900259018, -0.15753614902496338, 0.007730652112513781, 0.06960556656122208, -0.1602969914674759, 0.15787328779697418, -0.3230345547199249, -0.11986976116895676, -0.16598936915397644, 0.06707661598920822, -0.06261614710092545, 0.2053384780883789, -0.09444253146648407, -0.14423270523548126, -0.012890785001218319, 0.05436863377690315, 0.29201599955558777, -0.15338526666164398, 0.006813861895352602, 0.19008855521678925, -0.20474708080291748, 0.10887064039707184, -0.02771219052374363, -0.1446629911661148, 0.13818056881427765, 0.004589292220771313, -0.023557549342513084, -0.14997445046901703, 0.13527722656726837, -0.13599500060081482, 0.06690037250518799, -0.014140518382191658, 0.004358520265668631, -0.006522622425109148, -0.010490844026207924, -0.05165763944387436, 0.01868543028831482, -0.06155391409993172, 0.06474719196557999, -0.19944532215595245, 0.11613326519727707, -0.21080198884010315, -0.09387471526861191, 0.019323449581861496, 0.060810551047325134], [0.22118882834911346, -0.19164898991584778, -0.11386894434690475, 0.31322866678237915, 0.026137495413422585, 0.09558310359716415, 0.1890658587217331, 0.1397119015455246, 0.1118897795677185, -0.004317748360335827, -0.018297558650374413, -0.08492664247751236, 0.1696932464838028, 0.028753044083714485, -0.21396620571613312, -0.23979069292545319, -0.24257691204547882, 0.10371207445859909, 0.28694021701812744, 0.1065642386674881, 0.21593980491161346, 0.24800394475460052, 0.0017922554397955537, 0.21208985149860382, 0.1489463597536087, 0.33526864647865295, -0.2391771376132965, -0.15533530712127686, 0.12428184598684311, -0.1766403615474701, -0.24853497743606567, -0.02535126358270645, -0.1454210877418518, 0.14648720622062683, -0.031750280410051346, 0.11271798610687256, 0.1627880483865738, -0.07580509781837463, -0.028805075213313103, -0.04895322769880295, 0.1793421357870102, 0.018921349197626114, -0.07596641033887863, 0.09217996150255203, 0.10491105914115906, -0.25109994411468506, -0.0919400304555893, 0.07012037187814713, -0.11059677600860596, -0.018204234540462494, -0.17245005071163177, -0.06439195573329926, 0.08945814520120621, 0.2794463634490967, 0.12418235093355179, -0.10359564423561096, -0.06340508162975311, -0.013622470200061798, 0.05143693462014198, -0.05884686857461929, 0.04913398250937462, -0.20245134830474854, 0.010650177486240864, -0.1916903853416443, -0.23133641481399536, -0.11857978999614716], [-0.018208729103207588, -0.04559530317783356, 0.118461474776268, -0.05391479283571243, 0.14502906799316406, 0.06374230235815048, 0.09927814453840256, 0.18492063879966736, 0.1851346492767334, -0.11441502720117569, -0.04959312826395035, 0.21054178476333618, -0.15285728871822357, -0.0599728599190712, -0.1149391159415245, 0.009613554924726486, -0.04199981689453125, -0.2016804814338684, -0.06619226187467575, 0.10058922320604324, 0.00740357069298625, 0.1151566281914711, -0.0019616137724369764, 0.5351772904396057, -0.10517320781946182, 0.25172752141952515, 0.03140750154852867, -0.2412712424993515, -0.006201681215316057, -0.11191684007644653, -0.08076389878988266, -0.3545987606048584, -0.24950866401195526, 0.05453940108418465, 0.21609851717948914, 0.15878842771053314, 0.0015021763974800706, -0.029570521786808968, 0.1983700394630432, 0.14909033477306366, -0.015424986369907856, 0.01543127465993166, 0.1513138860464096, 0.04140438511967659, 0.16492338478565216, 0.16602323949337006, 0.07216460257768631, 0.03830821067094803, -0.15736252069473267, -0.06100837141275406, 0.12081295996904373, -0.1392132192850113, -0.01081108395010233, -0.09152227640151978, -0.024874558672308922, -0.0952206403017044, 0.16897661983966827, 0.011881825514137745, 0.10341354459524155, -0.06635313481092453, -0.23884926736354828, -0.020773448050022125, -0.10635177791118622, -0.034298453480005264, -0.2395908534526825, 0.08841399103403091], [0.44373518228530884, -0.06520412117242813, 0.0014343018410727382, -0.0745018869638443, 0.04354908689856529, 0.271081805229187, 0.26910409331321716, 0.11120679974555969, 0.26340344548225403, -0.052272677421569824, 0.009861988946795464, -0.021638330072164536, 0.032425303012132645, -0.02650860697031021, -0.15099285542964935, -0.16769547760486603, 0.06250841915607452, -0.11828591674566269, -0.12012940645217896, -0.21679960191249847, -0.0595429353415966, 0.11502049118280411, -0.1663801670074463, 0.20875880122184753, 0.4158162772655487, 0.24300456047058105, -0.13551421463489532, 0.08508335053920746, -0.18408611416816711, 0.05586688593029976, -0.29570427536964417, -0.16064782440662384, -0.04595453292131424, 0.02019088715314865, -0.10241036117076874, 0.14034612476825714, -0.015539472922682762, -0.0736289992928505, 0.2319585084915161, -0.1842210590839386, -0.037239860743284225, 0.13016492128372192, -0.2716730535030365, 0.006879136431962252, -0.015525412745773792, -0.05479450523853302, 0.021446825936436653, 0.05991131067276001, 0.143626406788826, -0.041162073612213135, -0.2018769234418869, 0.09182200580835342, -0.10559041053056717, -0.024651672691106796, -0.19836144149303436, -0.038528922945261, -0.023745344951748848, -0.13521207869052887, 0.19287098944187164, 0.02232762798666954, -0.07737420499324799, -0.2545680105686188, -0.1139504536986351, 0.008346229791641235, 0.037966880947351456, -0.014896012842655182], [-0.20710447430610657, 0.19455257058143616, -0.1588970571756363, -0.11978263407945633, 0.3051670491695404, -0.12746582925319672, 0.07596894353628159, -0.10731510818004608, 0.26063501834869385, 0.16342931985855103, 0.10068739205598831, -0.05386040732264519, 0.256963312625885, -0.3933570981025696, -0.09633535146713257, -0.24522970616817474, -0.026452550664544106, -0.041570983827114105, -0.0031942271161824465, 0.07609811425209045, 0.05241855978965759, -0.1880565732717514, 0.20209136605262756, 0.024032270535826683, 0.2766616940498352, 0.20902930200099945, -0.1679004430770874, -0.20165254175662994, -0.15356291830539703, -0.0038708047941327095, -0.03825520724058151, 0.02543184533715248, 0.1078670471906662, -0.008355305530130863, 0.07470391690731049, 0.14799942076206207, -0.09300900995731354, 0.019384605810046196, -0.09079042822122574, -0.049136705696582794, 0.06871972978115082, -0.2755936086177826, -0.1286906599998474, 0.013278404250741005, 0.0957532599568367, -0.019138718023896217, -0.06080196052789688, 0.06625243276357651, 0.06309021264314651, -0.0688444972038269, 0.2754656970500946, -0.12444674223661423, 0.2966371178627014, 0.10356350988149643, -0.16841068863868713, -0.083615742623806, 0.004961410071700811, 0.04685800150036812, 0.018753163516521454, -0.04058945178985596, 0.14022879302501678, -0.2144557237625122, 0.20442038774490356, -0.12899334728717804, 0.15862160921096802, -0.050728652626276016], [-0.1977275311946869, 0.12615685164928436, 0.14327919483184814, 0.03878265991806984, 0.030114861205220222, 0.04865787923336029, -0.2985623776912689, 0.07316797971725464, -0.1619582325220108, -0.2135356217622757, -0.12285981327295303, -0.07504990696907043, -0.24487070739269257, -0.1479535549879074, 0.04706686735153198, -0.07426975667476654, -0.12208521366119385, -0.135175883769989, 0.13397283852100372, 0.26502543687820435, -0.4479776620864868, 0.0974406972527504, -0.1170746311545372, 0.1712280958890915, -0.2099401354789734, -0.26250994205474854, 0.28266388177871704, -0.0065467082895338535, 0.20362211763858795, 0.09483030438423157, 0.2559835612773895, -0.12564128637313843, -0.19506576657295227, -0.20202264189720154, -0.2591298520565033, 0.045058153569698334, 0.004099569283425808, 0.14108499884605408, -0.11944439262151718, -0.21030326187610626, 0.032957110553979874, 0.029505688697099686, 0.0007931188447400928, -0.16978183388710022, 0.14690425992012024, -0.06691794842481613, -0.1795567274093628, -0.006720888428390026, 0.0885336697101593, -0.1260778307914734, -0.009460038505494595, 0.027340974658727646, 0.041639022529125214, 0.12260261923074722, -0.20078285038471222, -0.019481679424643517, -0.08176145702600479, -0.21129560470581055, -0.09591426700353622, 0.1611330211162567, -0.036700814962387085, 0.14105138182640076, 0.15157757699489594, 0.15251532196998596, 0.10132329165935516, 0.023227129131555557], [0.006613199599087238, 0.12987807393074036, 0.043321192264556885, -0.11170922964811325, -0.002060198923572898, -0.11832468956708908, 0.0352729856967926, -0.3490060269832611, -0.27681636810302734, -0.24217328429222107, -0.08787955343723297, -0.367267370223999, 0.21385914087295532, 0.048440299928188324, 0.1985388994216919, 0.3545743227005005, 0.02117135375738144, -0.04477987438440323, 0.18558262288570404, 0.025038113817572594, 0.11726595461368561, 0.07469135522842407, -0.2407601922750473, 0.19300232827663422, -0.33106622099876404, 0.0604531466960907, 0.016538400202989578, -0.13974645733833313, 0.11715571582317352, 0.17916274070739746, 0.028723061084747314, -0.0011646915227174759, -0.05291392281651497, -0.141274556517601, 0.0471467599272728, -0.09206166863441467, -0.12404625117778778, -0.08600876480340958, 0.06760614365339279, -0.19871897995471954, -0.016584884375333786, -0.06445464491844177, -0.11485886573791504, -0.17721758782863617, 0.046837590634822845, 0.1420341432094574, 0.1393410712480545, -0.0023473305627703667, 0.12362510710954666, 0.11091585457324982, -0.06274446099996567, 0.022756094112992287, 0.03325505182147026, -0.011618176475167274, 0.010080024600028992, -0.05322401598095894, -0.14348317682743073, 0.05887191370129585, -0.14899620413780212, -0.2014729082584381, -0.11525975912809372, 0.1300031840801239, 0.07635916769504547, 0.08258056640625, 0.14321689307689667, 0.03862281143665314], [-0.03868871182203293, -0.055884964764118195, -0.16099584102630615, 0.0268644280731678, -0.004993843846023083, -0.032005615532398224, -0.1492615044116974, -0.32889118790626526, 0.02941051311790943, -0.25189751386642456, 0.3318743109703064, 0.07954283803701401, -0.15150406956672668, 0.2810768187046051, 0.26616156101226807, 0.247010737657547, -0.1103285402059555, -0.11153654009103775, -0.31000199913978577, 0.08161365985870361, -0.0740954577922821, -0.01894957758486271, -0.11885438114404678, -0.1455501914024353, -0.04724479466676712, -0.220452681183815, -0.05726611986756325, 0.24130332469940186, 0.10503460466861725, 0.11323494464159012, 0.34540855884552, 0.11111237853765488, 0.20985430479049683, 0.07968533784151077, -0.06808017194271088, 0.06903229653835297, -0.0725320428609848, -0.16412310302257538, -0.29320165514945984, -0.07163295149803162, -0.08607155829668045, -0.10195489972829819, -0.04652637615799904, -0.20937813818454742, 0.04537796974182129, -0.17156864702701569, 0.24518105387687683, 0.03153710067272186, -0.13964051008224487, 0.16060757637023926, -0.030778944492340088, -0.06046276539564133, 0.10062269866466522, 0.029732856899499893, 0.15271387994289398, -0.08729897439479828, 0.1814904361963272, -0.006913165096193552, -0.08663821965456009, -0.005184856243431568, 0.019704610109329224, 0.10976976156234741, 0.18045444786548615, 0.08018986880779266, 0.019078150391578674, -0.13184592127799988], [0.018106939271092415, 0.25624170899391174, 0.057547736912965775, 0.3569590151309967, 0.047881029546260834, -0.06093466654419899, -0.25199517607688904, -0.07295967638492584, -0.14606943726539612, -0.16748416423797607, 0.09222020208835602, 0.1765068918466568, 0.08506447076797485, 0.2055550217628479, 0.20963695645332336, 0.050620272755622864, 0.1226876825094223, 0.11848051100969315, -0.12065082043409348, -0.022897882387042046, -0.15185900032520294, 0.10186468064785004, -0.035785552114248276, 0.03793824836611748, -0.11324451863765717, -0.11761142313480377, 0.18282446265220642, 0.012731622904539108, 0.11375939100980759, 0.05673226714134216, 0.25631141662597656, 0.08612873405218124, -0.055719710886478424, -0.0076223439536988735, -0.043719567358493805, -0.30361032485961914, -0.2704060673713684, -0.1959076225757599, 0.027318613603711128, 0.011383268982172012, 0.37276291847229004, 0.15175645053386688, 0.07360158115625381, 0.002557473722845316, -0.023594394326210022, 0.06047409772872925, 0.018189992755651474, -0.05508924648165703, 0.16776277124881744, 0.26550573110580444, 0.29638543725013733, 0.11331013590097427, 0.09337907284498215, -0.08362328261137009, -0.05162474513053894, -0.11945474147796631, 0.0533972829580307, -0.11318673193454742, 0.022316550835967064, -0.08985134214162827, -0.13130976259708405, 0.09291625022888184, -0.018581122159957886, -0.046926386654376984, 0.16838738322257996, -0.008888407610356808], [-0.23464857041835785, 0.15313956141471863, 0.06510192900896072, 0.35466378927230835, -0.289993554353714, -0.01226042304188013, -0.08345085382461548, -0.19402861595153809, -0.11523815244436264, -0.035221800208091736, 0.2555345594882965, -0.17453540861606598, 0.19497741758823395, 0.010488644242286682, 0.28134557604789734, 0.07291128486394882, 0.1882897913455963, -0.011856927536427975, -0.3393031656742096, 0.14486859738826752, -0.11259784549474716, -0.32788848876953125, -0.1050855740904808, -0.25809404253959656, -0.07834167033433914, -0.3040720224380493, -0.03224444016814232, -0.08454230427742004, 0.12117332965135574, 0.09779961407184601, 0.04391636326909065, 0.11104847490787506, -0.004762562923133373, -0.07911863178014755, -0.07911675423383713, 0.08065903931856155, 0.13200002908706665, -0.18607188761234283, -0.027879346162080765, -0.11970550566911697, -0.033030301332473755, 0.0815030187368393, 0.037366632372140884, -0.0381648913025856, 0.005456451792269945, -0.03306454047560692, 0.04004211723804474, 0.04945274069905281, 0.1229671984910965, -0.06370016932487488, 0.026134533807635307, -0.327799528837204, -0.1618204116821289, -0.02885470539331436, 0.23889495432376862, 0.04971983656287193, 0.014549210667610168, -0.10246187448501587, -0.12346825003623962, -0.2685321569442749, 0.06391413509845734, 0.16267141699790955, -0.17109237611293793, -0.022242726758122444, 0.1963864117860794, 0.0008744048536755145], [0.05329844355583191, 0.010628671385347843, 0.12871608138084412, -0.13781575858592987, -0.21766160428524017, 0.18889668583869934, 0.15814028680324554, -0.025248050689697266, 0.1031731367111206, -0.06536296755075455, -0.19989542663097382, 0.020537124946713448, 0.010863994248211384, -0.007490815594792366, -0.09178506582975388, -0.007244820240885019, -0.10189048200845718, 0.26955658197402954, -0.006261628121137619, -0.05367891490459442, -0.03406795859336853, 0.10011608898639679, -0.0726507157087326, 0.06315820664167404, -0.020572971552610397, 0.3190649449825287, -0.04244484007358551, 0.044773850589990616, -0.039799850434064865, -0.13561587035655975, -0.12009929865598679, -0.2100059688091278, -0.10714927315711975, 0.03976431116461754, 0.1437901258468628, -0.02012510970234871, -0.0009333270136266947, -0.019127599895000458, -0.0017250559758394957, 0.13854777812957764, -0.1294047236442566, 0.0971841812133789, -0.17502035200595856, -0.009619059041142464, -0.2768620252609253, -0.17409777641296387, 0.020528234541416168, 0.2836225926876068, -0.006033431272953749, -0.028358308598399162, 0.086445152759552, -0.029430119320750237, 0.3554202914237976, -0.17420749366283417, 0.09484037011861801, -0.05475250259041786, -0.004892265889793634, -0.06916046142578125, 0.03690479323267937, 0.03397819399833679, 0.10083657503128052, -0.04124915227293968, -0.08012524247169495, -0.24360878765583038, 0.13691295683383942, -0.29381054639816284], [-0.07046908885240555, 0.29580965638160706, -0.27288323640823364, -0.014731773175299168, 0.07952308654785156, -0.10384819656610489, 0.025877555832266808, 0.14423514902591705, -0.048930201679468155, -0.22223162651062012, -0.04279867187142372, 0.234147310256958, -0.04729709029197693, -0.05243218317627907, 0.14958715438842773, 0.20599251985549927, 0.15419910848140717, 0.13042712211608887, -0.09595124423503876, 0.13212773203849792, -0.25815364718437195, -0.015980852767825127, -0.09299415349960327, -0.20073527097702026, -0.21379688382148743, -0.20513229072093964, 0.09494666755199432, -0.039771534502506256, 0.08656031638383865, 0.088372141122818, 0.28446540236473083, 0.2270788848400116, 0.06427203118801117, 0.031130345538258553, 0.27743175625801086, -0.26318034529685974, 0.044045958667993546, -0.040198080241680145, -0.15895572304725647, -0.23184844851493835, -0.040432631969451904, -0.10942994058132172, -0.1251242309808731, 0.13519924879074097, 0.2970558702945709, -0.07060565054416656, 0.13859105110168457, 0.014398000203073025, -0.042681530117988586, -0.05339958146214485, -0.029508104547858238, -0.004468349739909172, -0.04897024482488632, -0.2436658889055252, 0.038831111043691635, 0.3064262866973877, -0.07651301473379135, -0.004857803229242563, -0.09267079830169678, -0.0491739958524704, -0.11081240326166153, 0.14215368032455444, -0.000756955414544791, -0.13753488659858704, -0.05774199590086937, 0.009207850322127342], [-0.11556132882833481, 0.21014268696308136, -0.08422978222370148, 0.20411765575408936, -0.07114769518375397, -0.0816652923822403, -0.17503949999809265, -0.12111375480890274, -0.08243528008460999, -0.3457707464694977, 0.26072975993156433, 0.07366275787353516, -0.06831352412700653, 0.18838012218475342, 0.3501925766468048, 0.03733852505683899, 0.22499987483024597, 0.11112916469573975, 0.15897324681282043, -0.13268066942691803, 0.04522068798542023, 0.14926667511463165, 0.05312081053853035, -0.09037654101848602, -0.3105663061141968, -0.3210515081882477, 0.08456644415855408, -0.06257026642560959, -0.013472364284098148, 0.2521701157093048, 0.32169708609580994, 0.020571792498230934, 0.24900858104228973, -0.1980690360069275, 0.07878302037715912, 0.042955026030540466, 0.016682380810379982, 0.05531536042690277, 0.179966002702713, -0.03417940065264702, -0.038882482796907425, -0.059669386595487595, 0.19064617156982422, -0.07181930541992188, 0.02277348004281521, -0.24534596502780914, 0.0633857250213623, 0.15361936390399933, 0.11777202785015106, -0.011964847333729267, -0.02548946812748909, 0.06541696190834045, -0.1598527431488037, -0.23058810830116272, -0.13242366909980774, 0.07325104624032974, 0.0861087441444397, 0.04963596165180206, -0.21735574305057526, -0.16431865096092224, 0.13039392232894897, 0.19968420267105103, 0.26059237122535706, 0.0007623868295922875, 0.11292237043380737, 0.12088655680418015], [-0.1065254732966423, -0.05750873312354088, 0.27946943044662476, -0.07962162792682648, 0.13187158107757568, 0.2143751084804535, 0.09494121372699738, -0.06478545069694519, 0.2723710834980011, -0.026048168540000916, -0.10536287724971771, 0.1431819051504135, -0.2917781472206116, -0.00533968023955822, -0.10277802497148514, -0.08644134551286697, 0.0676664188504219, -0.006337189115583897, 0.0805128887295723, 0.05788132920861244, -0.009150291793048382, -0.042651593685150146, 0.08095169812440872, -0.12045849859714508, -0.008872656151652336, 0.13117559254169464, 0.1421739012002945, -0.10535816848278046, 0.043089430779218674, 0.1999283879995346, -0.11654023081064224, 0.04580594226717949, 0.11895280331373215, 0.07277613133192062, -0.25343963503837585, -0.09359795600175858, 0.3250729441642761, -0.11811563372612, 0.06709824502468109, 0.12794044613838196, 0.0925283208489418, -0.12302948534488678, -0.004011758137494326, 0.11200154572725296, 0.11545156687498093, -0.016477737575769424, -0.0080099543556571, -0.13244594633579254, 0.04213101789355278, -0.02376372367143631, -0.029936274513602257, 0.03395044058561325, -0.12628456950187683, 0.047914087772369385, 0.15618756413459778, 0.01689385250210762, 0.20226381719112396, 0.2769339084625244, -0.09677720814943314, 0.2898108959197998, -0.057004496455192566, 0.03673049062490463, 0.15074779093265533, -0.12574322521686554, 0.2087230235338211, -0.30776068568229675], [-0.05381771922111511, -0.1861199140548706, -0.15270891785621643, -0.15560902655124664, 0.08517573028802872, 0.45536479353904724, 0.09798326343297958, 0.11156057566404343, 0.18964077532291412, 0.25720441341400146, -0.07904036343097687, -0.0565490648150444, 0.10699635744094849, 0.09742501378059387, -0.3778539299964905, 0.08199489861726761, -0.13708020746707916, -0.04895719885826111, 0.11175962537527084, -0.03403612598776817, 0.3086859881877899, 0.07936088740825653, -0.08546959608793259, 0.09365811198949814, 0.4033229351043701, -0.009644519537687302, 0.0698949322104454, -0.04906165972352028, -0.1240922063589096, 0.04451467841863632, -0.5646569132804871, -0.20706230401992798, -0.21267855167388916, 0.3110066056251526, 0.11432663351297379, 0.04525536298751831, -0.004019293934106827, -0.005381814669817686, -0.03064228966832161, 0.1123112365603447, -0.05209137499332428, -0.12567675113677979, 0.11958588659763336, 0.14661848545074463, 0.057534657418727875, -0.13171622157096863, -0.15858373045921326, 0.14298078417778015, 0.15814007818698883, -0.005185515154153109, 0.12232255190610886, -0.13689740002155304, 0.12315431237220764, -0.00419219583272934, -0.16938404738903046, -0.0034472087863832712, -0.016492264345288277, -0.14501528441905975, 0.059091705828905106, 0.06408614665269852, 0.1574910432100296, -0.2727358341217041, 0.02205921709537506, -0.115668885409832, -0.05884278938174248, 0.035897377878427505], [0.09510703384876251, 0.03645879775285721, 0.07083479315042496, 0.228209987282753, -0.018430493772029877, 0.16541935503482819, -0.24894064664840698, -0.03833507373929024, -0.46173998713493347, -0.20634110271930695, -0.25316229462623596, -0.13761159777641296, 0.08019622415304184, -0.0014605801552534103, 0.40759751200675964, -0.06480264663696289, -0.03053823485970497, -0.07900038361549377, 0.013175368309020996, -0.06934044510126114, -0.12639300525188446, -0.022163279354572296, -0.04285123571753502, -0.12000520527362823, -0.1978003978729248, -0.263785183429718, -0.07821445167064667, -0.225907564163208, 0.10138711333274841, 0.12537935376167297, 0.2650824785232544, -0.06470823287963867, -0.16390985250473022, -0.0021303226239979267, -0.02886880561709404, 0.07569483667612076, -0.09273530542850494, 0.07624046504497528, -0.11675336211919785, -0.03893345594406128, 0.054871901869773865, 0.06313540041446686, -0.13916200399398804, 0.07888569682836533, -0.07020097970962524, 0.18015156686306, 0.24012009799480438, -0.01374040823429823, 0.15546153485774994, -0.2554084360599518, 0.10615253448486328, 0.029749339446425438, -0.1491847187280655, -0.27726906538009644, -0.18851859867572784, 0.09889358282089233, 0.16926345229148865, 0.0380486361682415, -0.009878246113657951, -0.04647306352853775, -0.20433443784713745, 0.02887420728802681, 0.13651666045188904, 0.07277459651231766, -0.24336253106594086, -0.2121185064315796], [0.11784692853689194, -0.3377689719200134, -0.15426750481128693, -0.0791921392083168, 0.09731215238571167, -0.04833852872252464, -0.13260143995285034, 0.19975067675113678, -0.16375450789928436, -0.16263112425804138, 0.16139081120491028, -0.08854074776172638, 0.016289252787828445, 0.07675269991159439, 0.2562907636165619, 0.038848165422677994, 0.06268244981765747, -0.05422137305140495, -0.22901466488838196, -0.0929216742515564, -0.22375069558620453, -0.03542771562933922, 0.0413932166993618, -0.17300699651241302, -0.2721172273159027, -0.10428900271654129, 0.1448260098695755, -0.19396758079528809, 0.19273728132247925, -0.021227024495601654, -0.06600677222013474, 0.0667157769203186, 0.12736472487449646, -0.18811480700969696, 0.12585267424583435, -0.04861406609416008, 0.016214804723858833, 0.009327219799160957, -0.18680450320243835, -0.19830134510993958, 0.010387317277491093, 0.33813390135765076, 0.06598548591136932, 0.025787532329559326, -0.17950662970542908, -0.04251644015312195, -0.03972161188721657, 0.1262413114309311, 0.04941898584365845, -0.18625810742378235, 0.16567881405353546, -0.0811421349644661, 0.035896483808755875, 0.06215881183743477, -0.08123297989368439, -0.035019662231206894, 0.05302954837679863, 0.1262679100036621, -0.0023327639792114496, -0.057782553136348724, -0.0718495324254036, 0.18072499334812164, 0.17343376576900482, 0.1491033136844635, 0.23666410148143768, 0.04139721021056175], [-0.12539230287075043, -0.04859434440732002, 0.17972788214683533, -0.07059670239686966, -0.021082187071442604, 0.07192834466695786, 0.06697510927915573, 0.2819792628288269, -0.1866728961467743, -0.10195083916187286, -0.12569653987884521, -0.1482657790184021, 0.09865175187587738, 0.1002063974738121, 0.1313575804233551, -0.18684491515159607, 0.03764631226658821, -0.038749534636735916, -0.13059841096401215, 0.13159552216529846, -0.1230643019080162, -0.09686683118343353, -0.13435277342796326, -0.14691044390201569, -0.0897597149014473, 0.1312256008386612, 0.14874540269374847, -0.1292632818222046, -0.23597268760204315, 0.1734604835510254, 0.306883305311203, -0.09789623320102692, 0.10596192628145218, 0.07280838489532471, -0.020328311249613762, -0.001469674170948565, -0.16062483191490173, -0.06686209887266159, 0.13302108645439148, -0.2267363965511322, 0.18820418417453766, -0.11195258051156998, 0.18689490854740143, 0.07267946004867554, -0.14783278107643127, -0.005094496067613363, -0.0013164830161258578, 0.011806466616690159, 0.06796449422836304, 0.16812585294246674, -0.4236394166946411, -0.14147436618804932, 0.049414876848459244, 0.08308230340480804, 0.030191676691174507, -0.021882811561226845, 0.060788631439208984, -0.13030189275741577, -0.04784782603383064, 0.16082489490509033, 0.009033551439642906, 0.20797570049762726, 0.24076835811138153, 0.2145557701587677, -0.1232626810669899, 0.14769095182418823], [0.16895483434200287, 0.17483560740947723, -0.05051690712571144, 0.16562288999557495, -0.19443106651306152, -0.2895294427871704, -0.15377190709114075, 0.058980342000722885, 0.0052227359265089035, -0.0906827449798584, -0.07120051980018616, -0.21770501136779785, -0.20352104306221008, 0.12011756002902985, 0.30281707644462585, 0.05308036878705025, 0.12907420098781586, -0.08352205902338028, -0.054513826966285706, 0.1114845722913742, -0.0014429109869524837, 0.04263756051659584, -0.028655027970671654, 0.08714612573385239, -0.05521421507000923, -0.28106996417045593, 0.18200615048408508, 0.03159433603286743, 0.15824410319328308, -0.2103300541639328, 0.28079065680503845, 0.2856701612472534, -0.12284217029809952, 0.22127282619476318, -0.01819940097630024, 0.07149962335824966, 0.2127721756696701, 0.023667337372899055, 0.05836939811706543, -0.1303005814552307, -0.028761595487594604, -0.2390929013490677, -0.04212413728237152, -0.025059984996914864, -0.34736135601997375, 0.05339927226305008, 0.21419382095336914, 0.036001112312078476, 0.12316974997520447, 0.003765969770029187, 0.1351010650396347, -0.09946612268686295, 0.09850625693798065, -0.12823113799095154, -0.08669669181108475, -0.00011639635340543464, -0.08634954690933228, 0.05379448086023331, -0.08123474568128586, -0.10927466303110123, -0.07808427512645721, 0.22724637389183044, 0.1859574168920517, 0.05690392106771469, 0.05127626284956932, 0.05830760300159454], [-0.06746570020914078, 0.19993650913238525, 0.038410402834415436, -0.0015573258278891444, 0.20421253144741058, 0.10870679467916489, -0.29065078496932983, -0.09230946004390717, -0.25589320063591003, -0.19532808661460876, -0.023295462131500244, 0.03511987254023552, -0.08779953420162201, -0.16914300620555878, -0.07753126323223114, 0.018938738852739334, 0.14276443421840668, -0.020373640581965446, -0.2136622965335846, -0.175795778632164, -0.13804283738136292, 0.16713865101337433, 0.04633544012904167, -0.23637448251247406, -0.5063581466674805, -0.15726394951343536, -0.1872222125530243, -0.0795045718550682, -0.005039200186729431, -0.08878613263368607, 0.17696097493171692, 0.20855440199375153, 0.022253280505537987, 0.18052081763744354, 0.09148413687944412, -0.08275971561670303, 0.010314063169062138, -0.08399655669927597, -0.02319084294140339, 0.0628579705953598, 0.0302665326744318, -0.25515174865722656, 0.1569129079580307, -0.18153169751167297, -0.03910774365067482, -0.03992518410086632, 0.027194418013095856, 0.005829364527016878, 0.10552569478750229, 0.029516329988837242, -0.04787328094244003, 0.02545536309480667, -0.047294069081544876, 0.09926537424325943, -0.12418187409639359, -0.05770831182599068, -0.11136230081319809, -0.011843911372125149, 0.0045034028589725494, -0.33222389221191406, -0.06236668676137924, 0.3218558132648468, -0.03513428941369057, 0.22914984822273254, 0.01264879945665598, -0.12106994539499283], [-0.1600077897310257, -0.05343712866306305, 0.04027685523033142, 0.11421792209148407, 0.06514078378677368, -0.10575411468744278, 0.06415873020887375, -0.10656335949897766, 0.09881776571273804, -0.19487500190734863, 0.160551056265831, 0.10963564366102219, -0.20250080525875092, -0.21135126054286957, 0.03698134422302246, -0.0481720045208931, -0.1340363621711731, -0.05631411820650101, 0.006772832944989204, -0.0668063685297966, 0.06567402929067612, -0.16773593425750732, -0.043455518782138824, -0.02892601676285267, -0.19556263089179993, -0.16625969111919403, 0.08726833760738373, -0.030321471393108368, 0.007746379356831312, -0.05521995946764946, 0.2292717844247818, 0.14150413870811462, 0.001165022375062108, -0.1296035647392273, -0.018742626532912254, -0.07774998247623444, -0.049078114330768585, -0.08284840732812881, 0.05042276903986931, 0.16604726016521454, -0.08487838506698608, 0.11467631161212921, 0.0016061129281297326, 0.0595654621720314, -0.11581739038228989, 0.13745465874671936, 0.0015047721099108458, 0.10604653507471085, -0.04231170192360878, 0.27711597084999084, -0.21735815703868866, -0.23906490206718445, -0.20257149636745453, -0.06018940359354019, 0.017338654026389122, -0.010200049728155136, -0.21038314700126648, -0.15816235542297363, -0.1611059159040451, -0.08931142836809158, -0.021076751872897148, -0.23389051854610443, 0.4333755075931549, 0.04635367542505264, -0.04827257990837097, -0.1934220790863037], [0.2796934247016907, 0.0704789012670517, -0.04585495591163635, -0.015845265239477158, -0.09757743775844574, 0.22654621303081512, -0.17017704248428345, -0.011129369959235191, 0.15741243958473206, 0.017181364819407463, -0.15941311419010162, 0.047397829592227936, 0.09791634231805801, 0.23914538323879242, -0.13737903535366058, 0.019297877326607704, -0.12613609433174133, -0.18433143198490143, 0.08413278311491013, 0.14717747271060944, 0.08191292732954025, -0.18750295042991638, 0.12172572314739227, 0.025185279548168182, 0.13653896749019623, 0.3511444926261902, 0.0863875150680542, 0.005052738822996616, -0.25653234124183655, -0.022779032588005066, -0.2103826254606247, 0.09132277220487595, 0.017543625086545944, 0.017986683174967766, 0.1538403183221817, 0.06765053421258926, 0.09253016859292984, 0.06789929419755936, -0.0444253534078598, -0.09577972441911697, 0.05365521088242531, 0.05961093679070473, 0.12732775509357452, 0.0013547915732488036, -0.14453116059303284, 0.2687271535396576, -0.023839598521590233, 0.06875476241111755, -0.03511890396475792, -0.02156546711921692, -0.08601377159357071, 0.07494214922189713, -0.05814481899142265, 0.11461713910102844, 0.11203733086585999, 0.028641553595662117, -0.018318047747015953, -0.17722411453723907, 0.019294235855340958, -0.06097324937582016, 0.1371988207101822, -0.4441908895969391, -0.08837886154651642, -0.1841852217912674, 0.10155977308750153, 0.0025617622304707766], [0.030624808743596077, -0.13822506368160248, 0.1603313684463501, 0.033638499677181244, -0.05518973618745804, 0.007083984091877937, 0.14329634606838226, 0.187611922621727, 0.25861895084381104, 0.41901910305023193, -0.061706431210041046, 0.004345382563769817, 0.07460162043571472, 0.1918344646692276, -0.12516982853412628, -0.1926567703485489, -0.0031111359130591154, -0.11223488301038742, 0.27432364225387573, -0.1186009868979454, 0.04671236127614975, 0.05149359256029129, -0.09122270345687866, 0.021537182852625847, 0.17543356120586395, 0.28312528133392334, -0.05829036608338356, -0.14061488211154938, -0.06457844376564026, -0.0979224145412445, -0.2292850762605667, -0.26110514998435974, 0.03398209065198898, -0.08873645961284637, 0.08224359899759293, -0.14199137687683105, 0.14090992510318756, 0.008376034907996655, -0.0943623036146164, -0.04688004404306412, -0.04804627597332001, -0.12631818652153015, -0.026278743520379066, -0.2913370728492737, 0.047012344002723694, 0.04969693347811699, 0.13002817332744598, 0.0772455632686615, -0.1192956268787384, 0.16347961127758026, 0.043140530586242676, -0.10221340507268906, -0.008229809813201427, 0.13369902968406677, -0.27483996748924255, 0.18408064544200897, 0.10595421493053436, -0.10664985328912735, 0.23977984488010406, 0.019719591364264488, 0.10414260625839233, -0.3349480628967285, -0.06360019743442535, -0.014131743460893631, 0.010067020542919636, -0.20293518900871277], [-0.08364283293485641, -0.14001229405403137, -0.07536836713552475, -0.16936609148979187, -0.26407590508461, -0.010656899772584438, -0.11518119275569916, 0.14126898348331451, -0.30872949957847595, -0.058485016226768494, -0.11939793825149536, -0.08215586841106415, 0.1692984402179718, -0.04360709711909294, 0.17150163650512695, -0.21156755089759827, -0.14109459519386292, 0.030007122084498405, 0.1419091671705246, 0.18346188962459564, -0.16679255664348602, 0.09207688271999359, 0.0006163635407574475, 0.26431143283843994, -0.008869879879057407, 0.2027193009853363, -0.09164081513881683, 0.10069809854030609, -0.2327560931444168, 0.13179558515548706, -0.03187672048807144, -0.02648220770061016, -0.017359009012579918, 0.17463229596614838, -0.031104490160942078, 0.10654761642217636, 0.01677723601460457, -0.11026467382907867, 0.06471682339906693, 0.30331331491470337, 0.03561076149344444, 0.16521680355072021, -0.044017136096954346, 0.007180748041719198, -0.010557135567069054, -0.13863800466060638, 0.12678927183151245, 0.058708760887384415, 0.017985226586461067, 0.13148094713687897, 0.125102698802948, 0.04782070964574814, -0.11949416249990463, 0.00274785072542727, -0.1940905898809433, 0.22097881138324738, -0.2552575469017029, 0.15573540329933167, -0.09717247635126114, -0.03249324485659599, -0.07630987465381622, -0.062229055911302567, -0.2804349958896637, -0.0704050287604332, -0.008776016533374786, 0.17028149962425232], [-0.08413797616958618, 0.04473935812711716, -0.059248920530080795, 0.28728970885276794, 0.09285786002874374, -0.14046117663383484, -0.12517179548740387, -0.4355314373970032, -0.06005927547812462, -0.2449551820755005, -0.026821579784154892, -0.034256286919116974, 0.03384026139974594, 0.11572456359863281, 0.29314985871315, 0.048432059586048126, 0.08678669482469559, 0.037781257182359695, 0.00488020246848464, 0.00713277468457818, -0.07284925132989883, -0.05870189145207405, 0.0775182843208313, -0.025284338742494583, -0.12645463645458221, -0.018108773976564407, 0.06615027785301208, 0.04085702821612358, 0.04424444958567619, 0.03424406796693802, -0.1501150131225586, -0.02075650729238987, -0.06985347718000412, 0.05485605075955391, 0.06935542821884155, 0.012537505477666855, -0.07547721266746521, -0.24822969734668732, 0.06735266745090485, -0.19508600234985352, -0.09577272832393646, -0.05821274220943451, 0.01188859436661005, 0.18440498411655426, -0.11939319223165512, -0.0791463777422905, -0.15442033112049103, 0.018753569573163986, -0.33817359805107117, 0.07419056445360184, 0.04255587235093117, -0.09630943834781647, 0.1163085550069809, -0.14674969017505646, -0.16841675341129303, 0.13725297152996063, -0.22075018286705017, 0.11472126096487045, 0.1335616260766983, 0.3518984019756317, -0.0888989195227623, 0.04081461951136589, -0.16590221226215363, 0.29135045409202576, -0.0009350242908112705, -0.10303542017936707], [0.053351376205682755, -0.24793118238449097, 0.13843853771686554, -0.10375664383172989, 0.08564580976963043, 0.09056337922811508, -0.14374567568302155, -0.04117763042449951, 0.4237409234046936, -0.04500817880034447, -0.019086400046944618, -0.09929768741130829, 0.1449800580739975, 0.20941713452339172, -0.002388155786320567, -0.16380885243415833, 0.01687127910554409, 0.12802304327487946, -0.16062062978744507, -0.22376884520053864, 0.408582478761673, -0.083940789103508, 0.002459379378706217, 0.16995671391487122, 0.12069379538297653, 0.03676201403141022, 0.06841542571783066, 0.13721784949302673, -0.15890292823314667, -0.062157999724149704, 0.04349186643958092, 0.06902707368135452, -0.06844039261341095, 0.12100286781787872, 0.02537457086145878, -0.12215336412191391, -0.0892140343785286, -0.04278222471475601, 0.0318944975733757, -0.26583269238471985, -0.16310496628284454, 0.06936845928430557, -0.029794396832585335, -0.0398450531065464, 0.06277888268232346, -0.078464075922966, 0.04526166617870331, -0.04616387188434601, -0.03683292120695114, -0.06558480113744736, 0.13217422366142273, 0.09811520576477051, 0.04260006919503212, 0.12151015549898148, 0.13696765899658203, 0.14635609090328217, -0.23442506790161133, 0.223357155919075, -0.10855664312839508, -0.20932252705097198, 0.10857942700386047, -0.16833150386810303, -0.2998577356338501, -0.14874279499053955, -0.05029691010713577, -0.2320617437362671], [-0.011554689146578312, 0.06073661521077156, 0.15021534264087677, 0.05066952854394913, -0.12498816847801208, 0.16708044707775116, 0.22916410863399506, 0.3951963186264038, 0.14993296563625336, -0.006064324174076319, -0.01977573148906231, -0.08226359635591507, 0.06671659648418427, -0.018140027299523354, -0.06038271263241768, -0.03742557018995285, -0.13362547755241394, -0.026502421125769615, 0.075142502784729, -0.08599826693534851, 0.170169860124588, -0.05558411404490471, 0.1103731021285057, 0.09624229371547699, 0.2557688057422638, 0.12856309115886688, -0.2641914188861847, 0.06235954910516739, -0.04342741146683693, -0.11581208556890488, -0.324238657951355, 0.04793534055352211, 0.03814195096492767, 0.058862026780843735, 0.01883038692176342, 0.018910042941570282, -0.12183299660682678, -0.294847697019577, -0.09435710310935974, 0.1936275213956833, -0.1974324882030487, 0.011644802056252956, 0.24191561341285706, -0.17803432047367096, 0.05656475946307182, 0.07356120645999908, 0.10966149717569351, -0.0605781190097332, -0.09389052540063858, -0.361807644367218, -0.05898110568523407, 0.15842905640602112, 0.26626351475715637, 0.10445425659418106, -0.11447867751121521, 0.011435510590672493, -0.09479273855686188, -0.03542332723736763, -0.10894989222288132, 0.2979345917701721, 0.012717037461698055, -0.22691898047924042, -0.14369386434555054, -0.18169783055782318, 0.012509927153587341, 0.10312414169311523], [-0.14319217205047607, 0.03153160586953163, -0.10920479893684387, 0.22942472994327545, -0.05728695169091225, -0.1322387456893921, -0.11209074407815933, -0.21429269015789032, -0.41652873158454895, -0.20405924320220947, 0.07439087331295013, -0.09822911769151688, -0.21227335929870605, -0.06115276739001274, 0.06998907029628754, -0.02582509070634842, 0.29982924461364746, -0.26548799872398376, -0.0006155130686238408, -0.10131321847438812, -0.1584615409374237, -0.40354663133621216, -0.06256690621376038, 0.029400363564491272, -0.21971483528614044, -0.1678934395313263, 0.15927216410636902, -0.06662870943546295, 0.13586057722568512, 0.020561283454298973, 0.30207347869873047, 0.11347755044698715, -0.008037346415221691, 0.17645497620105743, -0.06725025922060013, -0.06239158287644386, -0.06518859416246414, 0.03810865432024002, -0.08488474786281586, -0.04572075605392456, -0.015015562064945698, 0.05837830901145935, 0.08593475073575974, 0.044880460947752, 0.07343679666519165, -0.05435700714588165, 0.1468224972486496, 0.39541786909103394, 0.018893711268901825, 0.11099876463413239, -0.09718015789985657, 0.35235950350761414, -0.06429325044155121, -0.023591244593262672, 0.011151627637445927, 0.07158960402011871, 0.11861036717891693, 0.04787877947092056, 0.011827569454908371, -0.0010582482209429145, -0.1330896019935608, 0.2768535315990448, 0.14945277571678162, 0.03308376297354698, 0.17393220961093903, 0.053995370864868164], [-0.12637512385845184, -0.12635426223278046, -0.01370989065617323, 0.13459256291389465, 0.018396245315670967, -0.20264974236488342, -0.3210824429988861, -0.176984965801239, -0.4035537838935852, -0.3302881717681885, 0.009508496150374413, -0.1663529872894287, -0.09631334245204926, 0.1434890329837799, 0.29746538400650024, 0.13581782579421997, 0.25965631008148193, 0.03310304507613182, -0.1495705097913742, -0.20424173772335052, -0.01909063197672367, -0.09782297909259796, -0.04445314407348633, -0.032506443560123444, -0.10466714948415756, -0.11019086092710495, 0.15926340222358704, -0.029995672404766083, -0.04881121963262558, 0.1802929937839508, 0.39300036430358887, 0.07709620147943497, 0.004283615853637457, -0.08229558914899826, 0.14988882839679718, 0.0015899999998509884, 0.2850709557533264, -0.11218750476837158, 0.008774875663220882, 0.10675948858261108, -0.05604087933897972, -0.03406733646988869, -0.2036631852388382, -0.12110032886266708, -0.06814257055521011, -0.09313803911209106, -0.1724349558353424, -0.18648134171962738, -0.03161147981882095, -0.034572478383779526, 0.018480299040675163, 0.030617186799645424, 0.09815695136785507, -0.009959252551198006, -0.03975493460893631, 0.09614413976669312, -0.0868520438671112, -0.3801213502883911, 0.10764080286026001, -0.1822444498538971, -0.39292746782302856, 0.10523208230733871, 0.08833132684230804, -0.1186203807592392, 0.027027279138565063, 0.10192330926656723], [-0.025428010150790215, 0.07212842255830765, -0.04198751226067543, -0.04415755346417427, 0.08491865545511246, -0.40837687253952026, -0.0444149486720562, -0.20569030940532684, -0.1255681812763214, -0.26271334290504456, -0.22091183066368103, -0.09968109428882599, -0.06220664456486702, 0.2501356303691864, 0.2667589783668518, -0.002195921493694186, 0.23077723383903503, 0.08296294510364532, -0.1686878502368927, -0.14870044589042664, -0.17437946796417236, 0.19860613346099854, -0.26683664321899414, -0.17206056416034698, -0.1983727514743805, -0.4315232038497925, -0.05570560321211815, -0.07759011536836624, 0.11334779858589172, 0.045239876955747604, 0.34036985039711, -0.01187662873417139, 0.08054319769144058, 0.12956386804580688, -0.15249839425086975, 0.0007717553526163101, 0.0913718193769455, -0.23478807508945465, -0.08601468056440353, -0.042934954166412354, 0.05874386057257652, 0.09537279605865479, 0.091972716152668, 0.03807953745126724, 0.07859612256288528, 0.3320314884185791, -0.24131368100643158, 0.29599228501319885, -0.09852386265993118, -0.016722505912184715, 0.034990496933460236, 0.02314351312816143, -0.06946039944887161, -0.053137145936489105, -0.004013767000287771, -0.028881661593914032, 0.06608859449625015, 0.000542398716788739, -0.06492013484239578, -0.08453833311796188, -0.006188188213855028, 0.06703334301710129, 0.05673700571060181, -0.08368571102619171, 0.13906949758529663, 0.04428120702505112], [0.07777348905801773, -0.04813172295689583, 0.1264941692352295, 0.08297445625066757, -0.11655854433774948, -0.03986212611198425, -0.149786114692688, -0.09036557376384735, -0.3271319270133972, -0.17286726832389832, -0.28745386004447937, 0.21227434277534485, 0.029928917065262794, -0.11390943825244904, 0.24214982986450195, 0.0069819968193769455, 0.058791544288396835, 0.14367994666099548, -0.34776386618614197, 0.08845337480306625, -0.07457596808671951, -0.027017518877983093, 0.023419734090566635, 0.15420468151569366, 0.03340265154838562, -0.1688232570886612, 0.1938377469778061, -0.10430006682872772, -0.05238047242164612, -0.06776636838912964, 0.018919292837381363, 0.06047062948346138, 0.21478037536144257, -0.11759382486343384, -0.06094641610980034, -0.06590204685926437, 0.07595357298851013, -0.12482277303934097, -0.22711586952209473, -0.04124594107270241, -0.1325092762708664, -0.12137339264154434, -0.02793036587536335, 0.025877714157104492, 0.07515230774879456, -0.11872929334640503, 0.002291350392624736, 0.00824914500117302, 0.001310839899815619, 0.05741061642765999, -0.18417949974536896, 0.009422634728252888, -0.18909680843353271, -0.1312711536884308, -0.17545431852340698, -0.2356744110584259, 0.19342660903930664, -0.010272138752043247, 0.04473675414919853, -0.1264013648033142, 0.11905516684055328, 0.05246603488922119, 0.00563608855009079, 0.23629547655582428, 0.08268672227859497, 0.14119555056095123], [0.21574468910694122, 0.3281054198741913, 0.04685503616929054, 0.14882458746433258, 0.042561937123537064, -0.206558957695961, -0.2814377546310425, -0.15967963635921478, -0.1601761430501938, -0.20837260782718658, 0.1263025999069214, 0.0009770089527592063, -0.2663998603820801, -0.14266973733901978, 0.20097990334033966, 0.024802491068840027, 0.13569633662700653, 0.1742967963218689, -0.019615445286035538, 0.09401674568653107, 0.0950499027967453, -0.1249440386891365, -0.17413094639778137, -0.12755921483039856, -0.15879209339618683, -0.3869103491306305, 0.009866436943411827, -0.05898246914148331, 0.021679796278476715, 0.15649133920669556, 0.23025284707546234, -0.21798722445964813, 0.3162730038166046, 0.07592158764600754, 0.127476304769516, -0.22096993029117584, 0.011766592971980572, 0.06071682274341583, -0.09886953234672546, 0.05523409694433212, -0.11197683215141296, 0.11268989741802216, -0.058840878307819366, 0.11491832882165909, -0.15936779975891113, -0.0335979200899601, 0.05999893695116043, 0.01710662804543972, 0.07008365541696548, 0.025948219001293182, 0.03499528765678406, -0.04841323569417, 0.06621669232845306, 0.27836424112319946, 0.15189328789710999, 0.21932004392147064, 0.12740619480609894, -0.01251616608351469, -0.2588648498058319, -0.04430624097585678, -0.140790656208992, 0.12450413405895233, 0.003227104200050235, 0.19474026560783386, 0.02546210214495659, 0.10227987915277481], [-0.19030041992664337, 0.31873849034309387, -0.25062230229377747, -0.008372572250664234, 0.09159644693136215, -0.01608075201511383, 0.1208357959985733, -0.03053291141986847, -0.07880131900310516, -0.12679937481880188, -0.11781959980726242, 0.06091836094856262, -0.28524497151374817, -0.09459391981363297, 0.29738086462020874, 0.009685294702649117, -0.0034646159037947655, -0.2801150977611542, 0.15479539334774017, -0.12622563540935516, -0.18010090291500092, -0.0066379886120557785, -0.08871041983366013, 0.13901129364967346, -0.21302993595600128, -0.1764436960220337, -0.10936728119850159, -0.15064512193202972, -0.09381303936243057, -0.09947537630796432, 0.12743350863456726, 0.08610639721155167, 0.1270035207271576, -0.13993734121322632, 0.0006050681695342064, -0.19654272496700287, 0.15229935944080353, -0.16908206045627594, 0.010375099256634712, -0.03874408081173897, 0.04214126616716385, 0.08824484795331955, 0.09298998862504959, -0.0219695083796978, -0.1232084259390831, -0.15849114954471588, -0.13486918807029724, -0.23182402551174164, 0.17453403770923615, -0.012208567932248116, 0.2763407826423645, 0.1527589112520218, 0.136280357837677, -0.14265215396881104, 0.1907532513141632, 0.10064771771430969, 0.11757037788629532, 0.06524483859539032, 0.11724422127008438, -0.12352682650089264, 0.10112319141626358, 0.1398078352212906, -0.06788942217826843, 0.1355978399515152, -0.2820134162902832, 0.019422389566898346], [0.06505066156387329, 0.12062158435583115, -0.2468469887971878, -0.02108154259622097, 0.06771159172058105, 0.03369274362921715, -0.022721776738762856, -0.19914402067661285, -0.2886449098587036, -0.045478880405426025, 0.13613636791706085, -0.10386670380830765, -0.18159304559230804, -0.12910732626914978, 0.363517701625824, 0.07949701696634293, 0.38543501496315, 0.0693734809756279, -0.0437750481069088, 0.0764002799987793, -0.054192595183849335, -0.006098019424825907, -0.1277000606060028, -0.08771731704473495, -0.2806910574436188, -0.10718606412410736, 0.1455799788236618, -0.2652818262577057, 0.18248234689235687, -0.02966773696243763, 0.5329148769378662, 0.04376475140452385, -0.19697920978069305, 0.13751649856567383, -0.09629308432340622, -0.23152977228164673, -0.05464402586221695, -0.09465395659208298, -0.06445499509572983, 0.02609383501112461, 0.0017081252299249172, 0.10228928178548813, 0.030638577416539192, -0.130790114402771, -0.07078570127487183, -0.11555399000644684, 0.10466066002845764, -0.22307604551315308, -0.048845019191503525, -0.14920847117900848, 0.08413169533014297, -0.06750480085611343, -0.1906842589378357, -0.08043940365314484, -0.09184319525957108, -0.14036013185977936, -0.012731716968119144, -0.07452266663312912, -0.043636504560709, 0.19412435591220856, 0.14194875955581665, 0.06158289685845375, 0.01454547606408596, 0.048014696687459946, 0.09186885505914688, 0.15173359215259552], [-0.21000684797763824, 0.10211844742298126, 0.10851842910051346, -0.18203715980052948, 0.259716272354126, 0.10146170854568481, 0.09828063100576401, 0.32785892486572266, -0.1508125215768814, 0.007912462577223778, 0.14765192568302155, 0.009967842139303684, -0.009241878055036068, 0.11100868135690689, -0.19754871726036072, -0.15667526423931122, 0.06441260874271393, 0.033881302922964096, 0.03074030764400959, 0.057199567556381226, 0.376517117023468, 0.11597804725170135, 0.06993892043828964, 0.04206663370132446, 0.3182092010974884, 0.43310922384262085, -0.12421338260173798, 0.18508005142211914, 0.09608736634254456, -0.3114146590232849, -0.4035308361053467, -0.050700344145298004, -0.08080025017261505, -0.13642239570617676, 0.002927901688963175, 0.19505198299884796, 0.008369279094040394, 0.00395108200609684, -0.03071781061589718, 0.027101609855890274, -0.006558101158589125, -0.07605701684951782, -0.24500107765197754, -0.013893171213567257, -0.0020803390070796013, -0.00738211814314127, -0.08238549530506134, 0.16237401962280273, 0.11548738926649094, -0.06423594802618027, 0.17102693021297455, -0.01523281168192625, -0.021561354398727417, -0.06810429692268372, 0.08198968321084976, 0.12380242347717285, -0.06743541359901428, 0.03655365854501724, 0.04123999550938606, 0.28508853912353516, 0.12698809802532196, -0.18451319634914398, -0.364338219165802, -0.035588886588811874, -0.13498711585998535, -0.042584195733070374], [0.005930827930569649, -0.015868013724684715, -0.04358615353703499, -0.1684936136007309, -0.2137526124715805, -0.09729156643152237, 0.047743625938892365, 0.16815747320652008, 0.18888944387435913, 0.0094220619648695, 0.06447868049144745, -0.1973024159669876, -0.07634998857975006, -0.1708303540945053, -0.12281221151351929, 0.03352435305714607, -0.20813222229480743, 0.2136169970035553, 0.07446560263633728, -0.08236178010702133, 0.2638319134712219, -0.10905341058969498, 0.1297193318605423, -0.03725026547908783, -0.015544668771326542, 0.10036741942167282, 0.19341601431369781, 0.07136573642492294, -0.14677755534648895, -0.06582310050725937, -0.35974225401878357, -0.047397226095199585, 0.061123695224523544, 0.0824468582868576, -0.16165584325790405, -0.08962052315473557, -0.14380457997322083, -0.18005982041358948, 0.09098172187805176, -0.09711144864559174, 0.22843283414840698, -0.11362763494253159, -0.1040029227733612, -0.07132662087678909, 0.10771641135215759, -0.07682666927576065, 0.06822770088911057, 0.19344425201416016, -0.07868225872516632, -0.3198283314704895, 0.17185695469379425, 0.00813361443579197, -0.09885285794734955, 0.08194366097450256, -0.008311795070767403, -0.030103327706456184, 0.11008291691541672, -0.1449814885854721, 0.24079298973083496, -0.03270633891224861, -0.011510522104799747, -0.1252482682466507, -0.15704593062400818, -0.07339326292276382, -0.18981555104255676, -0.07543165981769562], [0.13267545402050018, -0.20715397596359253, 0.055591072887182236, 0.0751495510339737, -0.29014673829078674, -0.10920562595129013, -0.1392636001110077, -0.2689412832260132, -0.007313037756830454, -0.4483577311038971, -0.039448823779821396, 0.18946953117847443, -0.01922222040593624, 0.16490718722343445, 0.08568460494279861, 0.04602906480431557, 0.3314242660999298, -0.12874700129032135, 0.123362235724926, 0.013268104754388332, -0.2340402901172638, -0.1632450670003891, -0.04566628858447075, -0.24800550937652588, -0.0776711031794548, 0.0544392466545105, 0.08661866188049316, 0.013291871175169945, 0.2933238744735718, -0.030523600056767464, 0.2771325707435608, -0.11677244305610657, 0.02584349922835827, 0.13893450796604156, -0.15329495072364807, -0.024991603568196297, -0.13225165009498596, -0.010741516016423702, -0.1099773421883583, 0.03654972091317177, 0.03926165774464607, -0.05546500161290169, -0.038888514041900635, -0.1366320252418518, 0.018221521750092506, 0.012265783734619617, -0.11796353757381439, -0.028789455071091652, 0.15142633020877838, -0.06996016949415207, 0.10695565491914749, -0.1651683896780014, 0.0076718139462172985, -0.03044217638671398, -0.03169725835323334, 0.04036771133542061, 0.02001924440264702, 0.05765547230839729, -0.08896621316671371, -0.12364937365055084, -0.15662305057048798, -0.10962474346160889, 0.07029538601636887, 0.23647575080394745, -0.0962170660495758, 0.22300826013088226], [0.10330226272344589, -0.061411332339048386, -0.09215663373470306, -0.0763973668217659, -0.008298709988594055, -0.029417704790830612, 0.09175827354192734, 0.0288123469799757, 0.1257999688386917, 0.2606598436832428, -0.08455349504947662, -0.030594058334827423, 0.012505773454904556, 0.24929308891296387, -0.17455314099788666, -0.07389672100543976, -0.09705521911382675, 0.08802200108766556, 0.033406782895326614, -0.1265895664691925, -0.03401767835021019, -0.029691390693187714, 0.05529500171542168, 0.2667464315891266, 0.05945581570267677, 0.13475871086120605, 0.13413701951503754, -0.21888475120067596, -0.14595100283622742, -0.09207125753164291, -0.2423483431339264, 0.06047961115837097, 0.06542805582284927, 0.0825725868344307, 0.08328589051961899, 0.30663952231407166, -0.07800088077783585, -0.062345005571842194, -0.15029515326023102, 0.1724577695131302, 0.2123691588640213, 0.12109387665987015, -0.18528763949871063, -0.07293879240751266, 0.14286474883556366, 0.03975261002779007, -0.02492539957165718, -0.0006607072427868843, 0.19919328391551971, -0.0245582927018404, -0.20167848467826843, -0.11709696799516678, -0.007625299971550703, -0.040980271995067596, -0.045611247420310974, -0.018287209793925285, 0.0342872329056263, -0.25045740604400635, -0.3225567638874054, 0.17644113302230835, 0.06889444589614868, -0.07759053260087967, -0.09389912337064743, 0.23029235005378723, -0.1732448935508728, -0.21880808472633362], [-0.3290894031524658, -0.2103196531534195, -0.011512674391269684, 0.0764685794711113, 0.09397989511489868, 0.0918685719370842, -0.1973499059677124, 0.24382850527763367, 0.23300804197788239, 0.15576687455177307, -0.08406120538711548, 0.06806570291519165, -0.2208624631166458, -0.15933369100093842, -0.2847456634044647, 0.14370375871658325, -0.07854609936475754, 0.057125624269247055, 0.06640806794166565, -0.04774995893239975, 0.11395502090454102, 0.01050961297005415, -0.11246909201145172, -0.08968757838010788, 0.3440641164779663, 0.16855135560035706, -0.20752598345279694, -0.23020534217357635, -0.0580328069627285, 0.028931405395269394, -0.21999959647655487, 0.1371738761663437, 0.041680142283439636, 0.009930307976901531, 0.010649086907505989, 0.038338854908943176, 0.01177025306969881, 0.03565925359725952, 0.3821771442890167, -0.08585415035486221, 0.08674589544534683, 0.0243771243840456, -0.134269580245018, -0.09235632419586182, 0.06841959059238434, 0.05576961115002632, 0.07942105829715729, 0.03707265853881836, -0.07424132525920868, 0.1473306566476822, -0.15999969840049744, -0.10670417547225952, 0.1752205789089203, 0.051334936171770096, 0.12132969498634338, -0.14800819754600525, 0.08389273285865784, 0.17016296088695526, -0.03711927309632301, 0.1394519954919815, 0.04307786747813225, -0.29060518741607666, -0.07715807855129242, 0.09213555604219437, 0.12163154035806656, -0.03182051330804825], [0.19897618889808655, 0.07196389883756638, -0.2749817669391632, 0.1803225576877594, -0.07487213611602783, -0.16132278740406036, -0.22692956030368805, -0.23165562748908997, -0.40148213505744934, -0.2694539427757263, -0.07944580167531967, -0.21184141933918, 0.06508384644985199, 0.13475048542022705, 0.3061106503009796, 0.26381659507751465, 0.1264750361442566, 0.11297128349542618, -0.22769637405872345, -0.027231071144342422, -0.3048064410686493, -0.26748353242874146, -0.21012753248214722, 0.05548778548836708, -0.1339738368988037, -0.16761992871761322, -0.07360097020864487, 0.08996788412332535, 0.14089727401733398, -0.2698715031147003, 0.2548474371433258, 0.08576635271310806, 0.21779759228229523, -0.09632430970668793, 0.0008166939951479435, -0.021150976419448853, -0.17753812670707703, 0.06837620586156845, 0.23006349802017212, -0.04858378320932388, -0.07521257549524307, -0.15544436872005463, 0.22745147347450256, -0.11817145347595215, 0.035068172961473465, -0.16616258025169373, -0.10633399337530136, 0.015910444781184196, 0.12179038673639297, 0.0010667085880413651, 0.29481399059295654, -0.1832316815853119, -0.21234479546546936, 0.0798075944185257, -0.05030558630824089, 0.23969191312789917, -0.052088312804698944, 0.03517919033765793, -0.10237056761980057, 0.051853664219379425, -0.1599467545747757, 0.0823001116514206, 0.11047253012657166, -0.15204507112503052, 0.055532604455947876, -0.09379512816667557], [0.09208855777978897, 0.15002280473709106, -0.07927621901035309, -0.078038290143013, 0.09790045022964478, 0.08261697739362717, -0.10269049555063248, 0.11993978172540665, 0.009991464205086231, 0.13807326555252075, -0.29206493496894836, -0.04140767455101013, -0.12176975607872009, 0.06121175363659859, 0.02637370117008686, -0.20162703096866608, -0.1601790338754654, -0.13962826132774353, 0.0890360176563263, -0.3113633692264557, 0.11122284829616547, 0.017102327197790146, 0.13201698660850525, 0.017427895218133926, -0.13860629498958588, 0.2387097030878067, 0.009706865064799786, 0.04713885858654976, 0.07376854866743088, -0.13123719394207, -0.3259125053882599, -0.3115902543067932, -0.04351319372653961, -0.026140812784433365, -0.1569010466337204, 0.31331825256347656, -0.11541630327701569, 0.024838345125317574, 0.0022894695866853, 0.04256974905729294, -0.013462729752063751, 0.030235109850764275, -0.03772975131869316, 0.13634735345840454, 0.17720572650432587, -0.13265149295330048, 0.17301295697689056, -0.17140303552150726, 0.002291118260473013, 0.1433665007352829, -0.15077626705169678, -0.22125734388828278, 0.1884351521730423, -0.12983424961566925, -0.0010779979638755322, -0.07018615305423737, -0.09918662160634995, -0.02921588160097599, 0.12632079422473907, -0.05001096427440643, -0.03537710756063461, -0.266792893409729, -0.18484242260456085, -0.2899688482284546, -0.0057044303975999355, 0.21063683927059174], [0.08378423005342484, -0.1290743350982666, -0.25393617153167725, -0.1314060091972351, 0.03395867720246315, 0.11022402346134186, 0.06402619183063507, 0.28156358003616333, 0.10959094017744064, 0.11574546247720718, -0.04646218195557594, 0.04718657582998276, 0.11002570390701294, -0.035794876515865326, -0.38107776641845703, -0.020993990823626518, 0.08214768767356873, 0.07746129482984543, 0.40309110283851624, -0.0615384578704834, 0.03126475587487221, -0.0586022287607193, 0.11572559922933578, 0.12290637195110321, 0.30755552649497986, 0.15986570715904236, 0.029607446864247322, 0.1135142520070076, -0.14084677398204803, -0.023857684805989265, -0.20461831986904144, -0.08859807252883911, -0.1942681223154068, -0.2835940718650818, -0.08406436443328857, 0.19988007843494415, -0.06775086373090744, -0.3592868447303772, -0.07250925153493881, -0.011256422847509384, -0.19269052147865295, -0.14378540217876434, 0.005161812528967857, 0.19910357892513275, -0.1454504430294037, 0.12440332770347595, 0.06662727147340775, -0.03637494891881943, -0.017268523573875427, 0.09027272462844849, -0.005226377863436937, -0.12170135229825974, 0.1084601879119873, 0.19205671548843384, -0.06452615559101105, -0.1483433097600937, 0.17926768958568573, 0.08116301149129868, -0.10635890811681747, -0.03620290383696556, 0.019978022202849388, -0.1047479584813118, -0.2235250324010849, -0.07395638525485992, -0.031533341854810715, -0.1778881996870041], [-0.1422434002161026, 0.03911621496081352, -0.06252150982618332, -0.06753447651863098, -0.15407951176166534, 0.20843534171581268, 0.09731543064117432, -0.04504489153623581, 0.2122110277414322, 0.009552686475217342, -0.23500056564807892, -0.32604163885116577, 0.06184231489896774, -0.2429998517036438, -0.2508952021598816, -0.02608933299779892, -0.11197026818990707, -0.17400945723056793, 0.10459058731794357, 0.07668229937553406, 0.17899790406227112, 0.23869988322257996, 0.26400282979011536, -0.1355288326740265, 0.37868136167526245, 0.20565547049045563, 0.03718874230980873, 0.11342748254537582, 0.17432110011577606, -0.0823817029595375, 0.003179777180776, -0.0787779837846756, 0.14332865178585052, -0.046423688530921936, 0.3538927435874939, 0.13991022109985352, -0.02734273672103882, -0.12893176078796387, -0.0029434950556606054, -0.08337035030126572, 0.14679881930351257, 0.17205585539340973, 0.013183060102164745, 0.053151052445173264, 0.025429675355553627, 0.0296309981495142, -0.019078820943832397, -0.014004857279360294, -0.047814540565013885, 0.20051462948322296, 0.022061550989747047, -0.0381513312458992, -0.14316359162330627, 0.17851318418979645, -0.11293382942676544, -0.02695523388683796, 0.02150236815214157, -0.06407683342695236, -0.006876308936625719, 0.014936561696231365, 0.19043484330177307, -0.06687609106302261, -0.046255312860012054, -0.09428319334983826, -0.039407458156347275, -0.0443541444838047], [-0.034512702375650406, 0.03638288378715515, 0.021399781107902527, -0.030087267979979515, 0.022141223773360252, 0.09247181564569473, 0.08275354653596878, -0.04750075936317444, 0.14687851071357727, 0.033755313605070114, -0.12219495326280594, 0.13184615969657898, -0.14126747846603394, 0.04333750903606415, -0.14301098883152008, 0.18405839800834656, 0.09722993522882462, 0.016065670177340508, -0.17713215947151184, -0.01805191859602928, 0.20904015004634857, -0.08033652603626251, 0.1342923492193222, 0.03870899975299835, -0.12496823072433472, -0.06529602408409119, -0.2977132499217987, -0.07416771352291107, -0.09993837773799896, -0.06080806627869606, 0.1748954951763153, 0.07515203207731247, -0.1831682324409485, -0.2188141644001007, -0.19858594238758087, -0.04901161044836044, 0.015886275097727776, 0.08589167892932892, -0.024661870673298836, 0.00531882094219327, 0.26573655009269714, 0.10985936224460602, -0.06464458256959915, 0.061072684824466705, -0.036313675343990326, -0.1720011830329895, -0.0036585598718374968, 0.05067692697048187, -0.35569560527801514, -0.14022628962993622, 0.04109767824411392, 0.03617710992693901, 0.08064465969800949, 0.005524847190827131, -0.19208607077598572, 0.2925066649913788, 0.15778899192810059, -0.0307904202491045, -0.17004746198654175, -0.05796235799789429, 0.03496646136045456, 0.14813770353794098, 0.02045341581106186, 0.07171130180358887, 0.10415279865264893, 0.09417833387851715], [0.07981864362955093, 0.20356884598731995, -0.05474470928311348, 0.18322260677814484, 0.004480523057281971, -0.09477151185274124, -0.10458916425704956, -0.08167370408773422, -0.11082717031240463, -0.19556722044944763, -0.05588126555085182, -0.07690777629613876, 0.30841776728630066, -0.10050549358129501, 0.265745609998703, 0.20628705620765686, 0.03843946382403374, -0.10521342605352402, -0.08202137053012848, -0.03900446370244026, -0.09461919218301773, 0.09508953243494034, 0.040608033537864685, -0.35569998621940613, -0.25757619738578796, -0.23656505346298218, 0.2679552137851715, -0.1671391725540161, -0.19601397216320038, -0.15184208750724792, 0.3637813329696655, 0.09019452333450317, -0.13556532561779022, -0.0031266254372894764, -0.1310841143131256, 0.053123366087675095, 0.015320579521358013, -0.03528251498937607, 0.11597908288240433, 0.0477573499083519, -0.30089712142944336, 0.09443750977516174, -0.09821048378944397, -0.18928946554660797, 0.1573467254638672, -0.09852612018585205, -0.028207438066601753, 0.11175698041915894, 0.02204316481947899, 0.18491493165493011, 0.2080956995487213, 0.15821927785873413, 0.018546391278505325, 0.051362521946430206, 0.24268817901611328, 0.1644810289144516, 0.0717359259724617, -0.006490333471447229, -0.09740302711725235, 0.03137852996587753, -0.052273161709308624, 0.229833722114563, 0.14892487227916718, 0.15660661458969116, 0.019459674134850502, 0.1367020457983017], [-0.12800852954387665, -0.06218766048550606, 0.22273115813732147, -0.016858384013175964, 0.23827475309371948, 0.1039639413356781, 0.017204074189066887, -0.14027714729309082, 0.08388334512710571, -0.034653112292289734, 0.008081610314548016, 0.18812383711338043, -0.1377042680978775, -0.011818521656095982, 0.11636023968458176, 0.09337001293897629, 0.02840259298682213, 0.08493400365114212, 0.1862184852361679, 0.2794777452945709, 0.005170658230781555, -0.18463006615638733, -0.190888449549675, -0.19928637146949768, -0.06456774473190308, -0.2944229543209076, 0.11673753708600998, -0.14527302980422974, 0.08105922490358353, -0.20876836776733398, 0.11852961778640747, 0.3111635148525238, 0.25871604681015015, -0.042519647628068924, -0.04355943575501442, 0.10551521927118301, -0.23357026278972626, -0.06199571117758751, 0.07785357534885406, 0.09063050150871277, 0.023032600060105324, 0.06495968997478485, -0.07245445996522903, 0.005751587450504303, -0.12999849021434784, -0.011696084402501583, -0.11943787336349487, -0.12131892144680023, -0.013156063854694366, 0.06310078501701355, -0.1956683248281479, 0.13681387901306152, 0.0374046191573143, -0.012946833856403828, -0.11583652347326279, 0.10146749019622803, 0.2595463991165161, 0.049151889979839325, 0.11903364956378937, -0.286230206489563, -0.008236447349190712, 0.2791852653026581, 0.12148759514093399, -0.0725225880742073, 0.005864473059773445, 0.10059347748756409], [0.14719872176647186, -0.21791869401931763, 0.08712413907051086, -0.15735767781734467, -0.1198633462190628, -0.07201970368623734, -0.03969743102788925, -0.03659038618206978, -0.0274000596255064, 0.036909233778715134, 0.22006425261497498, 0.046430204063653946, -0.07110049575567245, -0.08242875337600708, 0.05977979302406311, 0.10572510957717896, 0.008848228491842747, 0.22042086720466614, -0.1282729208469391, 0.1421578973531723, 0.03777020797133446, -0.0006100928876549006, 0.031187985092401505, -0.02083684504032135, -0.228873610496521, 0.002549585187807679, -0.07786641269922256, -0.004432450048625469, 0.005965488497167826, 0.12925885617733002, 0.051834654062986374, -0.020344851538538933, -0.010932238772511482, 0.10756554454565048, -0.11779111623764038, 0.25565657019615173, 0.17679163813591003, -0.10244674235582352, -0.003065502969548106, -0.23470380902290344, -0.004178360104560852, 0.035636208951473236, 0.2871387302875519, 0.01722772605717182, -0.019823502749204636, 0.03634393960237503, -0.045629698783159256, -0.08592096716165543, 0.2344139963388443, 0.31452488899230957, -0.08783208578824997, 0.22325994074344635, 0.12562960386276245, -0.1708402782678604, -0.05771714076399803, 0.29913845658302307, 0.27983522415161133, -0.055542778223752975, 0.061947908252477646, 0.007025300059467554, -0.12787607312202454, -0.28531673550605774, -0.11812420934438705, -0.09711397439241409, -0.020930394530296326, -0.14609813690185547], [0.12768223881721497, 0.10580084472894669, 0.045186009258031845, -0.1674136221408844, -0.15685580670833588, 0.11325783282518387, 0.12475323677062988, 0.11665094643831253, 0.09960805624723434, 0.25728657841682434, 0.005276230629533529, -0.13713598251342773, 0.027494847774505615, 0.12298150360584259, -0.5171719193458557, -0.3140575587749481, -0.014501094818115234, -0.13361147046089172, 0.05099709704518318, 0.07386747002601624, 0.17307740449905396, 0.20452368259429932, 0.22606264054775238, 0.2070685774087906, 0.29183897376060486, 0.20078328251838684, 0.08770038932561874, -0.10660602897405624, -0.06104525178670883, 0.034952566027641296, -0.24134168028831482, 0.09840638190507889, -0.007122073322534561, 0.01867401972413063, 0.008027044124901295, -0.023775996640324593, -0.17355883121490479, 0.030785150825977325, 0.041285689920186996, -0.013042077422142029, -0.2169533222913742, 0.14617344737052917, 0.06843860447406769, -0.12256136536598206, 0.03524734824895859, -0.07169905304908752, -0.2744407057762146, -0.02642541192471981, -0.05558861419558525, -0.08573198318481445, -0.2506040036678314, -0.29535022377967834, 0.06367981433868408, -0.06270617246627808, 0.02581758238375187, -0.04587551951408386, 0.21067561209201813, 0.13163219392299652, 0.1410672962665558, 0.09315665066242218, -0.10910249501466751, -0.3929685056209564, -0.057332612574100494, -0.1300562173128128, -0.007375909015536308, -0.26421260833740234], [0.11276880651712418, -0.13256222009658813, 0.05849729850888252, -0.05366584286093712, -0.08080721646547318, 0.015206621028482914, -0.13127078115940094, -0.09747204929590225, -0.028997337445616722, -0.11715584993362427, 0.10254333168268204, -0.14116515219211578, -0.13193324208259583, -0.04713409021496773, 0.37139469385147095, -0.17802543938159943, 0.1850801557302475, 0.049254752695560455, 0.13899262249469757, 0.013355007395148277, -0.20314590632915497, -0.09000051766633987, 0.031398557126522064, -0.06856298446655273, -0.1441742181777954, -0.3046332895755768, -0.16024523973464966, 0.09552664309740067, -0.03903684392571449, -0.18762151896953583, 0.14829988777637482, -0.011851577088236809, -0.14549751579761505, -0.038030970841646194, 0.2659897804260254, -0.10722550004720688, -0.07235805690288544, 0.05513104051351547, 0.10739373415708542, -0.03734094649553299, 0.08446593582630157, -0.15667356550693512, 0.04350082203745842, 0.026288196444511414, 0.21201933920383453, -0.004090046044439077, -0.08987835049629211, -0.043289002031087875, -0.08899421244859695, 0.051773153245449066, -0.00952864345163107, 0.1467019021511078, 0.015349281020462513, -0.15060412883758545, 0.23447293043136597, -0.08467181771993637, 0.1405903398990631, -0.1834481954574585, -0.2093179076910019, -0.08235350251197815, -0.030761441215872765, 0.16688597202301025, -0.0286786500364542, 0.07179470360279083, 0.15147265791893005, -0.0162874273955822], [0.2041253000497818, -0.2073361724615097, -0.09012886136770248, 0.00510358763858676, -0.20691514015197754, 0.08182163536548615, 0.13595834374427795, 0.16247214376926422, -0.053410306572914124, 0.057918597012758255, -0.03102649189531803, 0.05290021747350693, -0.0945848748087883, 0.13612893223762512, -0.1834454983472824, -0.16911539435386658, -0.351548433303833, -0.09613730013370514, -0.04035387188196182, 0.14500705897808075, 0.3405236005783081, -0.0006649333517998457, 0.1569104939699173, -0.013046191073954105, 0.050465211272239685, 0.13053889572620392, -0.15974707901477814, -0.1752413958311081, 0.040759552270174026, -0.10114654153585434, -0.041866011917591095, -0.12797045707702637, 0.06942087411880493, -0.027289586141705513, -0.10665390640497208, -0.20997354388237, 0.0022782518062740564, -0.09357769042253494, 0.13403570652008057, -0.029905490577220917, -0.180527463555336, -0.05258886143565178, -0.11067342013120651, 0.10152404010295868, 0.22449719905853271, 0.2418108582496643, -0.1025155782699585, -0.11051010340452194, 0.1806132197380066, 0.011557063087821007, 0.05494275689125061, -0.001112142694182694, 0.13205042481422424, -0.09937985241413116, -0.11617283523082733, 0.046359024941921234, -0.11735044419765472, -0.10148735344409943, -0.02939997799694538, 0.03522057086229324, 0.10231123864650726, 0.3369225263595581, -0.1269722878932953, -0.02754879556596279, 0.13668373227119446, -0.021770033985376358], [-0.1799699068069458, -0.021763252094388008, 0.39735105633735657, 0.048652518540620804, 0.11725451052188873, 0.13737857341766357, 0.14404983818531036, 0.2055778205394745, -0.15745708346366882, 0.018939336761832237, 0.08789153397083282, 0.07447970658540726, -0.2868768274784088, -0.048551078885793686, -0.03335200622677803, 0.22292058169841766, -0.07971213757991791, -0.09993383288383484, 0.2796436846256256, -0.09834404289722443, -0.20706650614738464, 0.034704387187957764, 0.16077297925949097, 0.12155120819807053, -0.09774333983659744, -0.025422856211662292, -0.0882621631026268, -0.22655172646045685, -0.12868790328502655, -0.11654572188854218, 0.2524351477622986, 0.03755376860499382, 0.20942915976047516, 0.24839428067207336, -0.15016402304172516, -0.03119044378399849, -0.013049674220383167, 0.17242616415023804, -0.14596998691558838, -0.21909810602664948, -0.10663218796253204, 0.07762745767831802, -0.057770997285842896, 0.2967236340045929, 0.05517595261335373, -0.029792573302984238, -0.03712182492017746, -0.054666370153427124, -0.05592842772603035, 0.1583096981048584, 0.10773491859436035, -0.125965416431427, -0.13732926547527313, -0.016982944682240486, -0.06197117269039154, -0.1486995965242386, 0.11511219292879105, -0.12547868490219116, -0.0343598835170269, -0.0032610860653221607, 0.035105474293231964, 0.004963027313351631, -0.019758261740207672, 0.026596548035740852, 0.05155607685446739, 0.10245569795370102], [0.1600683182477951, -0.20327617228031158, 0.308004766702652, -0.08842311799526215, 0.0015238485066220164, 0.2017333209514618, 0.34588825702667236, 0.13754402101039886, 0.11884737759828568, 0.19160813093185425, 0.0061720130033791065, -0.042219191789627075, -0.3940989077091217, 0.06917710602283478, -0.34226661920547485, -0.1994445025920868, -0.07324911653995514, -0.11035481840372086, -0.08867814391851425, 0.08079216629266739, -0.0166051983833313, 0.16558055579662323, 0.12501533329486847, 0.02377050183713436, 0.06127304211258888, -0.038772858679294586, -0.002033480443060398, -0.2688243091106415, -0.18961410224437714, 0.15733790397644043, -0.26973408460617065, -2.5382914827787317e-05, -0.11954785883426666, -0.21024294197559357, 0.0963238999247551, 0.13627924025058746, -0.214981347322464, -0.0592874214053154, -0.04448653385043144, 0.03833843022584915, 0.09001678973436356, -0.24182020127773285, -0.16706928610801697, 0.05737528204917908, -0.05149928852915764, -0.004523689858615398, 0.041920360177755356, 0.032038815319538116, 0.03503197804093361, 0.15260004997253418, 0.030933978036046028, 0.054654624313116074, -0.033701371401548386, 0.2025364339351654, 0.058058932423591614, 0.006551054771989584, -0.020614957436919212, 0.09345436841249466, 0.05377825349569321, 0.19718682765960693, 0.06303812563419342, -0.3581167459487915, -0.05758718028664589, -0.20906050503253937, -0.10022413730621338, 0.11507108807563782], [0.16497401893138885, 0.1152121052145958, 0.0007868398679420352, 0.06376133114099503, -0.07465002685785294, -0.15486447513103485, -0.3614099323749542, -0.04689933732151985, -0.04127530753612518, -0.4103876054286957, 0.08903598040342331, -0.12315203994512558, 0.007926125079393387, -0.07315291464328766, 0.14260858297348022, 0.04398992285132408, 0.06743498146533966, 0.050737183541059494, 0.029256494715809822, -0.13585588335990906, -0.12625353038311005, -0.032750871032476425, -0.12401168793439865, 0.02829546481370926, -0.17137174308300018, -0.03004215657711029, -0.12858332693576813, -0.05062452331185341, -0.06478004902601242, 0.19373495876789093, -0.0636734887957573, 0.1525939404964447, -0.10735680907964706, 0.11244001984596252, -0.041714925318956375, -0.08755607157945633, -0.058300893753767014, 0.01210175920277834, -0.21400372684001923, -0.038680389523506165, -0.013806777074933052, 0.04291632026433945, -0.09448444098234177, -0.20602484047412872, -0.08545760810375214, 0.13501203060150146, -0.13538981974124908, -0.1294814944267273, -0.10359526425600052, 0.2240135371685028, 0.10632196813821793, -0.08389600366353989, -0.1490359902381897, -0.21760405600070953, 0.034024231135845184, 0.1582420915365219, 0.058892253786325455, 0.03726450353860855, -0.0307416170835495, 0.09243210405111313, 0.14214588701725006, 0.4254346191883087, 0.1483953893184662, -0.22790883481502533, -0.06605198234319687, 0.17663244903087616], [-0.08196141570806503, -0.047415342181921005, 0.03392581641674042, 0.12904736399650574, 0.0830267146229744, -0.3322424292564392, -0.1964905560016632, -0.16122780740261078, -0.04148012772202492, -0.20982226729393005, 0.12962274253368378, -0.13531796634197235, 0.1414881944656372, 0.018075641244649887, 0.03149532154202461, 0.0481482669711113, -0.05078957602381706, -0.3001865744590759, -0.10362184047698975, 0.0758688822388649, -0.15637260675430298, -0.016891710460186005, -0.2512314021587372, -0.191005140542984, -0.42277294397354126, -0.19660168886184692, 0.06208603456616402, 0.10417674481868744, -0.0726860836148262, -0.022425591945648193, 0.3116133213043213, 0.10480529814958572, 0.07815809547901154, -0.03609512373805046, 0.011661679483950138, -0.24412520229816437, 0.05840209499001503, -0.01810472644865513, 0.05154028534889221, 0.0711684599518776, 0.03557632490992546, -0.09309463948011398, -0.08572660386562347, 0.18904392421245575, -0.1459064483642578, -0.19624292850494385, 0.05542244762182236, -0.03458055108785629, 0.15437737107276917, -0.13968336582183838, -0.0856216624379158, 0.06700757145881653, -0.1437188982963562, -0.07442619651556015, -0.15342974662780762, -0.07433037459850311, 0.39798423647880554, -0.007633191999047995, -0.14135697484016418, 0.21678155660629272, 0.034715685993433, 0.08258112519979477, -0.14132772386074066, -0.11875735223293304, 0.18765437602996826, 0.1316210925579071], [0.04175480455160141, 0.007449970114976168, 0.1489347517490387, -0.12457214295864105, -0.38056379556655884, 0.10241106897592545, -0.004331676755100489, 0.028620831668376923, -0.15088112652301788, 0.16068114340305328, -0.09768027067184448, 0.33016252517700195, -0.07677888125181198, -0.04749182239174843, 0.10331495106220245, -0.21807903051376343, -0.00652711745351553, -0.1286000907421112, 0.047993145883083344, -0.0438152439892292, 0.08337967842817307, -0.0125114805996418, -0.23656046390533447, 0.027852270752191544, -0.1411900669336319, 0.17465128004550934, -0.03467993810772896, 0.06341682374477386, 0.008058575913310051, 0.041286252439022064, -0.15159353613853455, 0.20929168164730072, -0.06928127259016037, -0.037909653037786484, 0.059025879949331284, 0.0662863627076149, 0.06812477111816406, 0.10439922660589218, 0.05609603226184845, -0.16914451122283936, -0.1167391762137413, 0.07101894170045853, -0.024170106276869774, 0.10977086424827576, 0.08996811509132385, -0.04602614790201187, -0.14477527141571045, 0.08984831720590591, -0.031423136591911316, 0.06676498055458069, 0.17637096345424652, 0.0989488810300827, 0.027140885591506958, 0.08981898427009583, -0.23365846276283264, -0.3216998875141144, 0.02137782610952854, -0.07698874920606613, -0.23797598481178284, 0.0639081746339798, -0.11302446573972702, -0.09089506417512894, -0.06450732052326202, -0.08353344351053238, -0.3317924737930298, 0.13689276576042175], [-0.03876757621765137, -0.11163743585348129, -0.2623959183692932, 0.08930077403783798, 0.22637827694416046, 0.13452664017677307, -0.03253289684653282, 0.0730106383562088, 0.1583903580904007, 0.13336986303329468, -0.26653605699539185, -0.10808910429477692, 0.16018636524677277, -0.09446188062429428, -0.14426277577877045, -0.14462879300117493, 0.15809892117977142, 0.16131393611431122, -0.06749000400304794, 0.07281745970249176, 0.23636530339717865, 0.1439865529537201, -0.000385220511816442, 0.21316896378993988, -0.014670312404632568, 0.2700047194957733, -0.1309499442577362, 0.21366263926029205, 0.035525474697351456, 0.11426153033971786, -0.19009363651275635, -0.028408531099557877, 0.2382843792438507, -0.06731247156858444, -0.18382616341114044, 0.04390610009431839, -0.09663263708353043, 0.04046320542693138, 0.0028306804597377777, 0.01854264922440052, -0.16188053786754608, -0.10822806507349014, 0.012649277225136757, -0.057692401111125946, -0.11862394958734512, 0.02789413370192051, 0.058091215789318085, 0.13245970010757446, -0.18449078500270844, -0.036451879888772964, 0.290957510471344, 0.11573418229818344, -0.053280413150787354, -0.17708230018615723, 0.21012429893016815, -0.07091821730136871, 0.0034062678460031748, -0.2604222297668457, 0.023406516760587692, 0.1277715265750885, 0.046767376363277435, 0.055075693875551224, -0.1457720696926117, -0.027069082483649254, -0.09206892549991608, 0.044497158378362656], [-0.06756224483251572, -0.07531151175498962, 0.009671743959188461, -0.0010540761286392808, 0.0011648201616480947, 0.10339090973138809, 0.1053161546587944, 0.11513220518827438, 0.21407291293144226, 0.3627855181694031, -0.11069264262914658, 0.191692054271698, -0.14806824922561646, -0.07512690871953964, -0.4284512400627136, -0.12401758879423141, -0.14000242948532104, 0.12705549597740173, 0.15277966856956482, 0.04670599848031998, 0.30503931641578674, 0.014421908184885979, -0.03112037666141987, 0.08887983113527298, 0.14764128625392914, 0.14649401605129242, -0.17701837420463562, 0.06827880442142487, -0.4133319854736328, -0.2718621492385864, -0.1630404144525528, -0.23574288189411163, 0.0019954508170485497, -0.02750244550406933, 0.18508285284042358, 0.1717386692762375, 0.034477993845939636, -0.1495034545660019, -0.1951027363538742, -0.1857972890138626, 0.08903486281633377, 0.14653527736663818, 0.016280964016914368, -0.18308031558990479, 0.04931012913584709, -0.08231648802757263, 0.03072914481163025, -0.02722431719303131, 0.10617813467979431, -0.061168789863586426, 0.04534197226166725, 0.059515878558158875, -0.09252340346574783, -0.12319468706846237, 0.07962661236524582, -0.17304839193820953, -0.16035637259483337, 0.24408486485481262, 0.0899839997291565, 0.13951310515403748, -0.21031297743320465, -0.07969573140144348, 0.02138826996088028, -0.17295116186141968, 0.005007060244679451, 0.11270446330308914], [0.1870594024658203, 0.07510845363140106, 0.08738968521356583, 0.21075031161308289, 0.06749801337718964, -0.21650518476963043, -0.13147224485874176, 0.0121815400198102, -0.1197432428598404, -0.1935548484325409, 0.1182369813323021, -0.34461671113967896, -0.18513324856758118, -0.04468776285648346, 0.2245689034461975, 0.16389086842536926, 0.1826297789812088, -0.11448699980974197, -0.09759140014648438, 0.19114801287651062, -0.07477997988462448, -0.12187014520168304, -0.3404586911201477, -0.3540531098842621, -0.02506488934159279, -0.013643152080476284, 0.2258169800043106, -0.075069859623909, -0.0440424382686615, 0.12725697457790375, 0.19954299926757812, 0.07333321124315262, 0.07633871585130692, -0.11633985489606857, -0.019713234156370163, 0.06239929422736168, 0.014904528856277466, 0.03516172990202904, -0.10360192507505417, 0.16225062310695648, 0.020534183830022812, 0.061865802854299545, 0.2121185064315796, 0.036906514316797256, 0.20432794094085693, -0.10703355818986893, -0.017505750060081482, -0.05570405349135399, -0.12452971190214157, 0.13483498990535736, 0.08239727467298508, 0.07581457495689392, 0.0063536521047353745, -0.13269701600074768, -0.17428162693977356, -0.11923253536224365, -0.0658378079533577, 0.05397547036409378, -0.09955286234617233, -0.26042675971984863, 0.10095646977424622, 0.11645824462175369, 0.11756148189306259, 0.12248920649290085, 0.03414684534072876, -0.2581644654273987]]

Parameter name: module.0.module.0.0.bias
Weights:
[0.07732034474611282, 0.07319875061511993, 0.11689780652523041, 0.05182496830821037, 0.07998689264059067, 0.07741772383451462, -0.016229180619120598, 0.021945681422948837, 0.05056019127368927, 0.04666205868124962, 0.06944374740123749, -0.05125736445188522, -0.033345114439725876, -0.08628635108470917, -0.10307535529136658, -0.06988982111215591, 0.04528360441327095, -0.09667342156171799, -0.05466607213020325, 0.049177516251802444, 0.039197128266096115, -0.02295682579278946, -0.009844713844358921, -0.013752051629126072, -0.03022819012403488, -0.04158593341708183, -0.07706829905509949, 0.09446221590042114, 0.015486275777220726, -0.06084824725985527, -0.02421046607196331, 0.03505957871675491, 0.04948466271162033, -0.0967777892947197, -0.03258851543068886, -0.08169340342283249, -0.013283267617225647, -0.03126371651887894, -0.1099494993686676, -0.026782745495438576, 0.05056395009160042, 0.027891481295228004, -0.053888823837041855, 0.11249886453151703, 0.030836524441838264, -0.06421974301338196, 0.05377770960330963, -0.005089720245450735, 0.05418277159333229, -0.03997836261987686, -0.06278230249881744, -0.06405163556337357, 0.0555674247443676, 0.050729285925626755, -0.09434142708778381, 0.016793930903077126, -0.034281786531209946, 0.08078938722610474, -0.08453059196472168, -0.00558546744287014, 0.03321661800146103, -0.011013232171535492, 0.024978945031762123, 0.002521948190405965]

Parameter name: module.0.module.0.2.weight
Weights:
