Nombre del Parámetro: module.0.module.0.0.weight
Pesos:
[[-0.15622399747371674, -0.00781871285289526, -0.15664032101631165, -0.11163411289453506, -0.19831986725330353, 0.08166668564081192, -0.03684438765048981, 0.12421204149723053, -0.23528122901916504, -0.20872032642364502, -0.1229064092040062, -0.11517864465713501, 0.15554574131965637, 0.1141403540968895, -0.09446799755096436, -0.031012197956442833, -0.05261985957622528, -0.025797050446271896, 0.04356558248400688, 0.1549549400806427, -0.04024025425314903, -0.2506360709667206, 0.003617376321926713, -0.04511193558573723, 0.24580879509449005, -0.0639859214425087, 0.00014338230539578944, -0.017038950696587563, 0.06824743002653122, 0.06365912407636642, -0.15695279836654663, -0.16886037588119507, -0.06491535902023315, -0.14563263952732086, 0.06746527552604675, 0.06626052409410477, -0.09786378592252731, 0.18153101205825806, 0.09780457615852356, -0.07000729441642761, 0.04178779572248459, 0.1371379941701889, -0.15386542677879333, 0.05066090077161789, -0.1549982875585556, -0.023109816014766693, 0.11353707313537598, -0.013381171971559525, -0.0808105543255806, -0.2066505253314972, -0.28614988923072815, 0.17094720900058746, -0.13277806341648102, -0.25948187708854675, -0.02953759953379631, -0.1998758763074875, -0.18323442339897156, 0.24350565671920776, 0.1103249043226242, -0.14765825867652893, 0.07506713271141052, -0.09692007303237915, -0.08908110111951828, 0.03829322010278702, 0.036458659917116165, -0.015720771625638008], [-0.1125192865729332, -0.2032037377357483, -0.03486042097210884, 0.07098589837551117, -0.13218045234680176, -0.19004158675670624, 0.03552378714084625, 0.19957733154296875, 0.02188938856124878, -0.05821545794606209, -0.0920247957110405, -0.14192414283752441, 0.1128053143620491, -0.0018100817687809467, 0.06062457710504532, 0.043507833033800125, 0.11635128408670425, 0.18262606859207153, 0.32332733273506165, 0.18621528148651123, 0.07230235636234283, 0.05786924436688423, -0.07586697489023209, -0.13026979565620422, 0.03908510133624077, -0.025485768914222717, -0.18613705039024353, 0.12908123433589935, -0.21606338024139404, 0.037833284586668015, -0.1456533968448639, -0.13308745622634888, -0.06435854732990265, -0.06735135614871979, 0.04556477442383766, -0.1389671117067337, -0.13071361184120178, -0.2084410935640335, -0.002346648834645748, 0.016898365691304207, -0.11251240223646164, 0.07074479013681412, 0.19589075446128845, 0.19019117951393127, 0.1143721416592598, -0.00032432121224701405, -0.03330973535776138, 0.08643030375242233, 0.09477980434894562, 0.011204120703041553, 0.11871550232172012, -0.06720156967639923, -0.15744812786579132, 0.04925479367375374, -0.01958046481013298, 0.06425683945417404, 0.21318243443965912, 0.11461596935987473, -0.15784414112567902, -0.13674499094486237, 0.06802566349506378, 0.23775392770767212, 0.08822304755449295, -0.05715262144804001, -0.0905466079711914, -0.04219675064086914], [0.11915554851293564, 0.06838999688625336, -0.08375509828329086, -0.005849975626915693, 0.22324123978614807, -0.26384344696998596, -0.06605765968561172, -0.06204231083393097, 0.09706387668848038, -0.07707297056913376, 0.1037776917219162, 0.02880847454071045, -0.20784246921539307, 0.05549187585711479, -0.19266775250434875, -0.23084266483783722, 0.08807288110256195, 0.02815850079059601, -0.05215288698673248, 0.1260521560907364, -0.1735936850309372, -0.1477707028388977, -0.03590969368815422, -0.15758810937404633, 0.1554952710866928, -0.07888653874397278, 0.23551371693611145, -0.14855758845806122, -0.20576389133930206, -0.056514594703912735, -0.005609910469502211, -0.024262456223368645, 0.05583957955241203, -0.08266834914684296, 0.27554404735565186, -0.024469008669257164, 0.10215557366609573, 0.049953486770391464, 0.23231732845306396, -0.05053761228919029, 0.004756866954267025, -0.007862983271479607, -0.2346504181623459, 0.09045091271400452, -0.06944655627012253, 0.16719019412994385, 0.10647954791784286, 0.03376699239015579, 0.15601424872875214, -0.01484764739871025, 0.2305644303560257, -0.16507506370544434, -0.020218564197421074, 0.28520599007606506, -0.0036875782534480095, -0.08150289207696915, -0.03860759735107422, 0.026917876675724983, -0.019980954006314278, -0.01689908467233181, 0.18946872651576996, 0.033386535942554474, 0.05770879238843918, 0.17291797697544098, -0.005463153589516878, -0.07052098959684372], [0.03759327158331871, 0.06515638530254364, -0.07950899749994278, -0.04570823162794113, 0.08390414714813232, -0.13598720729351044, 0.13091380894184113, 0.012766994535923004, 0.3285922706127167, 0.0686236172914505, -0.11691059917211533, -0.04273110628128052, -0.013562208041548729, 0.02901541255414486, -0.06818192452192307, -0.04351358488202095, 0.018134506419301033, 0.1846950501203537, -0.061337873339653015, -0.24341493844985962, 0.1443791687488556, -0.1109890416264534, -0.245988130569458, -0.19372406601905823, 0.08115318417549133, 0.02482897788286209, -0.05666620656847954, 0.002227682853117585, 0.08774415403604507, 0.05552227795124054, -0.03965058550238609, 0.05127815902233124, 0.01849301904439926, -0.2651837468147278, 0.09579036384820938, -0.0030907755717635155, -0.014330131933093071, -0.1900305449962616, 0.13566410541534424, -0.19229048490524292, 0.1317826509475708, 0.188309907913208, 0.2275199145078659, -0.0642295628786087, 0.018204273656010628, 0.028683578595519066, 0.057059500366449356, -0.20337480306625366, -0.1506621092557907, -0.04499759152531624, -0.027781810611486435, -0.04256124421954155, 0.0354485809803009, 0.0436667874455452, 0.21188192069530487, -0.1686893254518509, -0.07097549736499786, 0.02499602548778057, -0.016511904075741768, 0.10489081591367722, -0.058883968740701675, -0.22826571762561798, -0.1313849687576294, -0.15498872101306915, -0.05579087510704994, 0.012732811272144318], [-0.07851046323776245, -0.051003966480493546, 0.09558624029159546, -0.04427910968661308, -0.06290347874164581, 0.16784439980983734, -0.04359179735183716, -0.11577952653169632, 0.06653261929750443, 0.037297096103429794, -0.08019434660673141, -0.00848096702247858, -0.17920731008052826, 0.07145921140909195, 0.044215310364961624, 0.096723772585392, 0.2617683708667755, -0.006373667623847723, 0.19495446979999542, -0.07011117786169052, 0.12831489741802216, 0.024392664432525635, 0.02376474067568779, -0.0551469549536705, -0.3487594425678253, 0.07220128923654556, 0.014419819228351116, -0.08644448220729828, 0.1695031374692917, -0.08666632324457169, 0.20521382987499237, -0.0836111530661583, -0.027675166726112366, -0.16012994945049286, -0.07634364068508148, 0.0762781873345375, 0.12907730042934418, 0.12941057980060577, 0.07466907054185867, -0.24484921991825104, 0.09258496016263962, -0.02384454384446144, -0.08524070680141449, 0.08057863265275955, -0.07000530511140823, 0.1386467069387436, -0.17732378840446472, -0.015657953917980194, -0.0975877121090889, 0.09410914033651352, 0.14842630922794342, -0.0022117188200354576, -0.1585617959499359, -0.1132182627916336, 0.19591152667999268, -0.14603470265865326, 0.01959524303674698, -0.0782492458820343, -0.01774795539677143, -0.09528953582048416, 0.2766002118587494, 0.12178700417280197, 0.11351614445447922, 0.38009732961654663, 0.2044232189655304, 0.08306176960468292], [-0.10427048057317734, -0.3510114252567291, -0.1415710598230362, -0.00225923047401011, -0.09942355006933212, -0.0030580211896449327, 0.061927564442157745, -0.07951324433088303, -0.08950357139110565, 0.06688633561134338, -0.0676666796207428, -0.10123281180858612, -0.014159047976136208, -0.1816049963235855, 0.08683732151985168, -0.3548153042793274, -0.05019286274909973, 0.06875789165496826, -0.15916430950164795, 0.020335832610726357, 0.03321268409490585, -0.10614272952079773, -0.12414547801017761, -0.005417891778051853, 0.045928679406642914, 0.018352875486016273, -0.03341230750083923, -0.1663089096546173, 0.09872110188007355, -0.20298048853874207, 0.04993848875164986, -0.1315058171749115, -0.06832835078239441, -0.16092215478420258, -0.17209969460964203, 0.04100797697901726, 0.13441134989261627, 0.05760182440280914, -0.07362480461597443, -0.028503388166427612, -0.25175243616104126, -0.01755574718117714, -0.041834507137537, -0.1403689980506897, -0.05052913352847099, 0.08265553414821625, -0.16531427204608917, -0.03247205540537834, 0.03084631823003292, 0.11184871196746826, 0.14428763091564178, -0.04790451005101204, -0.006435302086174488, -0.15102024376392365, -0.15555645525455475, -0.06395286321640015, 0.024988846853375435, 0.023552173748612404, 0.09812522679567337, 0.27506664395332336, -0.13616369664669037, 0.15206313133239746, 0.0628160759806633, -0.1344987004995346, -0.21809151768684387, -0.026908475905656815], [0.046265486627817154, 0.0470169372856617, -0.08526542782783508, -0.04162052273750305, -0.246848925948143, 0.0011372520821169019, -0.1722290962934494, -0.056714341044425964, 0.06280003488063812, 0.0070385742001235485, -0.10814257711172104, -0.13670583069324493, 0.03690085932612419, -0.018277151510119438, -0.01125338301062584, 0.07222363352775574, -0.22645293176174164, -0.030757134780287743, 0.0060404264368116856, -0.0027289637364447117, 0.1485539674758911, 0.08784458041191101, -0.0651538297533989, 0.028995737433433533, 0.02647033892571926, -0.09276728332042694, -0.05456509068608284, 0.3171999156475067, -0.09093721956014633, -0.11071483045816422, -0.07324627786874771, 0.15260708332061768, -0.07511991262435913, -0.01086691115051508, 0.1410111039876938, 0.10266413539648056, -0.029363371431827545, -0.1396457552909851, -0.0159185491502285, -0.01429039891809225, 0.0052723269909620285, -0.16397419571876526, -0.1377454549074173, 0.09134799987077713, -0.2197583168745041, -0.09945275634527206, 0.14240014553070068, 0.040537647902965546, 0.0024736295454204082, 0.14758433401584625, 0.07167404145002365, -0.12182745337486267, -0.09132062643766403, 0.005091680679470301, -0.1018608808517456, -0.07226907461881638, 0.272089421749115, -0.11903633922338486, 0.23031851649284363, 0.31596750020980835, 0.2898024618625641, -0.02273108810186386, -0.02520006336271763, 0.01811348646879196, 0.05881178751587868, 0.12922003865242004], [-0.15307742357254028, -0.05162438377737999, -0.08300191909074783, -0.1067436933517456, -0.022636163979768753, -0.05087537690997124, -0.06678619235754013, -0.10837624222040176, -0.26092642545700073, 0.06617020815610886, 0.0902407318353653, -0.015158027410507202, 0.18491540849208832, -0.040900956839323044, 0.14185363054275513, 0.012148299254477024, 0.11151664704084396, 0.005675946362316608, -0.22400619089603424, -0.13900958001613617, 0.0015541190514340997, -0.03714316710829735, -0.25086456537246704, 0.15102122724056244, -0.13183455169200897, 0.036436088383197784, 0.2133641391992569, 0.305232971906662, -0.18494249880313873, -0.015570775605738163, 0.17059864103794098, -0.025631148368120193, -0.18712112307548523, -0.16528254747390747, -0.19166754186153412, 0.009387467056512833, -0.07095709443092346, 0.03107970766723156, 0.11137273162603378, 0.06628073751926422, -0.07888969033956528, -0.16210176050662994, -0.02279318869113922, 0.11989232897758484, 0.1436682641506195, 0.08713407069444656, 0.15409313142299652, 0.20947375893592834, -0.16929171979427338, -0.16576416790485382, 0.1546463668346405, 0.25999683141708374, -0.08070550858974457, 0.0956529751420021, 0.04072276130318642, 0.019466644152998924, 0.1295105218887329, -0.02296382561326027, -0.23205338418483734, -0.01705026812851429, -0.15626110136508942, 0.091944620013237, -0.04616837576031685, -0.10324149578809738, -0.044123273342847824, 0.0830359235405922], [0.07158956676721573, -0.04018538072705269, -0.014915726147592068, -0.2356216460466385, -0.10280206054449081, 0.20406828820705414, 0.1145031750202179, 0.11829660087823868, -0.3820803761482239, 0.06971549242734909, -0.08063064515590668, -0.0823441669344902, -0.012016714550554752, -0.2545427978038788, -0.13404476642608643, 0.003499048762023449, -0.07769438624382019, 0.18227028846740723, -0.07737941294908524, 0.08449112623929977, -0.042989782989025116, 0.08276789635419846, -0.07997740060091019, -0.17745830118656158, 0.08614417910575867, -0.0019632140174508095, 0.004979630466550589, 0.051466718316078186, -0.16647617518901825, -0.11266560107469559, -0.33362916111946106, 0.03937888145446777, 0.21555648744106293, -0.039034683257341385, -0.07087302207946777, 0.031168892979621887, 0.13356488943099976, -0.08851153403520584, 0.09526042640209198, 0.04717634618282318, 0.15760290622711182, 0.05156400799751282, -0.19209538400173187, 0.035265929996967316, 0.09895498305559158, 0.0032777157612144947, -0.31487512588500977, -0.015482823364436626, -0.12655538320541382, 0.005643695127218962, -0.184590145945549, 0.003783025313168764, 0.08666863292455673, 0.05226152017712593, 0.20826324820518494, 0.17766843736171722, -0.015575585886836052, -0.13459601998329163, 0.038798633962869644, 0.008120015263557434, 0.04965083673596382, -0.03321825712919235, -0.17765682935714722, -0.019699232652783394, -0.07701422274112701, 0.033982641994953156], [0.032012615352869034, -0.11122019588947296, -0.11472916603088379, 0.003915078472346067, -0.014649235643446445, -0.0847790390253067, -0.07631499320268631, 0.11333166062831879, -0.002511353697627783, -0.2000090628862381, 0.3541826903820038, 0.18035674095153809, 0.2126437872648239, -0.04183471202850342, 0.19060245156288147, 0.0793769359588623, -0.1793156862258911, -0.09863956272602081, 0.023500310257077217, -0.008913212455809116, 0.301626056432724, 0.07178009301424026, 0.2656644880771637, 0.09220824390649796, -0.047075413167476654, 0.11786182969808578, -0.05388164147734642, 0.2216683030128479, -0.18243877589702606, -0.030473703518509865, -0.0520489476621151, -0.23758645355701447, 0.1938576102256775, -0.1649506539106369, -0.02112097106873989, -0.19569164514541626, -0.057787902653217316, 0.04778241738677025, -0.07534253597259521, -0.194490447640419, 0.17334122955799103, 0.05719662830233574, 0.02724076807498932, 0.2166983038187027, -0.04490715637803078, 0.01978280022740364, -0.16000667214393616, 0.06287992745637894, -0.19899117946624756, -0.10660601407289505, 0.21981298923492432, 0.12910938262939453, -0.16607367992401123, 0.16060777008533478, -0.195198655128479, 0.03052496165037155, -0.052123166620731354, -0.012526378966867924, 0.08076269179582596, 0.03771014139056206, -0.21543972194194794, -0.03567275032401085, 0.05340985581278801, -0.10634977370500565, -0.14613863825798035, -0.03900870308279991], [-0.11988156288862228, 0.04801885783672333, -0.05150493234395981, -0.1581176221370697, 0.06549942493438721, 0.0820385217666626, 0.13474757969379425, 0.2484206110239029, -0.009452473372220993, 0.017457399517297745, -0.027979815378785133, -0.025265617296099663, -0.16805700957775116, -0.2799805998802185, 0.11165159940719604, 0.12479456514120102, 0.006697606295347214, -0.04353582113981247, 0.09941495954990387, 0.07869888097047806, 0.017620839178562164, 0.08180757611989975, 0.1621810644865036, 0.038205184042453766, -0.006505073979496956, -0.16609202325344086, 0.1080353856086731, -0.2725449800491333, 0.22653746604919434, -0.05109275132417679, -0.1276605725288391, 0.12222159653902054, -0.18611961603164673, -0.13326618075370789, 0.2968025505542755, -0.03364517167210579, -0.08536820113658905, -0.09290608018636703, 0.32051700353622437, 0.13730932772159576, 0.012985801324248314, -0.1826067566871643, 0.0531868040561676, -0.1724945455789566, -0.15123669803142548, 0.041736431419849396, -0.045436255633831024, 0.07577180117368698, 0.03240632638335228, -0.2113598883152008, -0.07850561290979385, 0.029521748423576355, 0.01668832078576088, 0.15005084872245789, 0.02211352437734604, -0.11145897209644318, 0.004157910589128733, -0.05277414992451668, -0.021313419565558434, -0.023406049236655235, -0.10155168175697327, 0.1730644404888153, -0.004493591375648975, -0.05048099160194397, 0.10724205523729324, 0.19879309833049774], [-0.08493437618017197, 0.08650362491607666, 0.059543170034885406, -0.08632370084524155, -0.08752507716417313, 0.0005784437526017427, 0.16730943322181702, 0.10751968622207642, -0.07628670334815979, 0.09129057824611664, -0.05806266888976097, 0.2105247974395752, 0.14965783059597015, -0.15936127305030823, -0.05756068229675293, 0.04513166844844818, 0.034993406385183334, -0.06478217989206314, -0.0191911943256855, 0.018959783017635345, 0.27372637391090393, -0.08490217477083206, -0.10389340668916702, -0.25509950518608093, 0.13210025429725647, -0.05389571189880371, 0.09529776871204376, -0.16557684540748596, 0.16064591705799103, 0.19382959604263306, 0.029038069769740105, -0.013819511979818344, 0.04941172152757645, 0.2614772319793701, -0.020563241094350815, 0.015239382162690163, -0.24544604122638702, 0.028757847845554352, 0.05720164254307747, 0.0638413056731224, -0.2411818653345108, -0.09272031486034393, -0.055849652737379074, 0.2245623618364334, -0.08142537623643875, 0.04106704145669937, 0.07576828449964523, -0.011102731339633465, -0.0706794485449791, 0.06289729475975037, 0.13374027609825134, -0.04107276722788811, 0.1186295598745346, 0.11353889852762222, 0.14426621794700623, 0.16723176836967468, -0.11862354725599289, 0.15251611173152924, 0.20019011199474335, 0.1044534370303154, 0.17610570788383484, 0.042271822690963745, -0.09940659254789352, 0.12232290208339691, -0.17303508520126343, -0.022134365513920784], [-0.051231417804956436, 0.10574574768543243, -0.12826353311538696, -0.22403974831104279, 0.1211412101984024, 0.12347912788391113, -0.07372182607650757, 0.3448159694671631, -0.047881122678518295, 0.2450687289237976, 0.12596943974494934, -0.056930698454380035, 0.06475236266851425, 0.024184202775359154, 0.01585124433040619, -0.11794142425060272, -0.12618519365787506, 0.014834470115602016, -0.07378511875867844, 0.12736637890338898, -0.06807730346918106, -0.20568016171455383, 0.03884369507431984, -0.2400236427783966, 0.2731174826622009, 0.09611010551452637, -0.012766211293637753, -0.0009836128447204828, 0.3280922472476959, -0.03165765479207039, -0.13448311388492584, 0.08374158293008804, -0.001129971002228558, 0.3033706843852997, -0.18427026271820068, -0.21802708506584167, 0.16890141367912292, 0.12225690484046936, 0.20863787829875946, -0.12925857305526733, 0.05269193649291992, -0.10644136369228363, 0.1332276612520218, -0.10159514844417572, 0.04123294726014137, 0.05185035616159439, 0.09807515889406204, 0.23660585284233093, 0.002901518251746893, 0.1955268681049347, -0.15319058299064636, -0.1118825376033783, -0.25909072160720825, -0.07955993711948395, 0.06938989460468292, -0.0823976993560791, 0.1889871209859848, -0.156361386179924, 0.02705942653119564, -0.06028944253921509, 0.05193941667675972, -0.08952639997005463, -0.18455636501312256, 0.11624398827552795, -0.04303774610161781, 0.1828308254480362], [0.013403394259512424, -0.049566276371479034, 0.16359224915504456, -0.03553362563252449, -0.05136534571647644, 0.0033917909022420645, 0.16782674193382263, -0.03943668678402901, -0.26032447814941406, -0.02743445709347725, 0.10546442121267319, 0.133688285946846, -0.09099131077528, 0.11222987622022629, 0.10444316267967224, -0.07671496272087097, -0.03203378617763519, 0.18863551318645477, 0.14592775702476501, -0.054658107459545135, 0.05043517425656319, 0.3443623185157776, 0.09381153434515, 0.17507801949977875, 0.11253553628921509, -0.14523112773895264, -0.03673384338617325, -0.03598976880311966, -0.079652801156044, 0.22503583133220673, 0.08876276761293411, -0.2213895469903946, 0.01828620210289955, -0.004375630058348179, -0.1793297678232193, -0.08217617869377136, 0.012868865393102169, -0.004448956344276667, 0.078026682138443, -0.1497386395931244, -0.1792871206998825, 0.20609091222286224, -0.09871898591518402, -0.10363419353961945, 0.07031788676977158, -0.009119393303990364, 0.26416662335395813, 0.06083092465996742, -0.008748436346650124, 0.13006137311458588, 0.07794399559497833, 0.020365377888083458, 0.13871704041957855, -0.06333015859127045, 0.1203024834394455, -0.21481822431087494, 0.19767610728740692, -0.07984612882137299, -0.020427707582712173, 0.12700343132019043, -0.10426964610815048, -0.15791897475719452, -0.06250738352537155, -0.057692572474479675, -0.029947271570563316, 0.25283104181289673], [-0.14829093217849731, 0.18494543433189392, -0.12414021044969559, -0.05761516094207764, -0.24449029564857483, -0.021338529884815216, -0.02981959469616413, -0.26249533891677856, -0.005338139832019806, -0.12687453627586365, 0.19421160221099854, -0.04536961391568184, -0.11581958085298538, -0.2618170380592346, 0.09828991442918777, -0.02602505125105381, -0.06286907196044922, -0.0644935667514801, -0.044995639473199844, 0.15081705152988434, 0.047875385731458664, -0.1998390555381775, 0.13023872673511505, -0.31858202815055847, 0.08890415728092194, -0.09129161387681961, -0.023686625063419342, 0.04503927379846573, 0.16673590242862701, 0.12582838535308838, 0.010943586006760597, -0.07358893752098083, 0.19864530861377716, -0.044322267174720764, 0.12401197850704193, -0.017974521964788437, 0.18586766719818115, -0.17596828937530518, 0.03402768820524216, 0.025317799299955368, -0.08863547444343567, -0.10902214795351028, -0.07878870517015457, -0.0505373440682888, -0.04046676680445671, -0.21479040384292603, 0.02699294313788414, -0.0029647373594343662, 0.05578448250889778, 0.33612269163131714, -0.13507121801376343, 0.059366624802351, -0.012523749843239784, 0.025001851841807365, 0.11010217666625977, 0.036089543253183365, -0.09627676010131836, 0.1140751764178276, -0.26608866453170776, -0.12947222590446472, 0.021771421656012535, -0.06788753718137741, 0.08562429249286652, -0.05602410435676575, 0.0790979340672493, 0.09642940014600754], [-0.21150019764900208, 0.4301305413246155, 0.08919595927000046, -0.09796945005655289, 0.0022772394586354494, 0.0414765402674675, 0.025437965989112854, 0.21768434345722198, -0.006652504205703735, 0.005317245610058308, 0.04461301863193512, -0.1203870177268982, -0.002097498392686248, 0.07404307276010513, -0.21299399435520172, -0.2713428735733032, -0.026142312213778496, 0.03302156552672386, 0.008757575415074825, 0.0071435291320085526, 0.20896314084529877, -0.17000527679920197, -0.08999620378017426, 0.05519632622599602, -0.09177102148532867, 0.11043896526098251, -0.19702456891536713, -0.09402216225862503, -0.08899934589862823, -0.14847634732723236, -0.2921920120716095, -0.21678441762924194, 0.15578420460224152, 0.04091079905629158, -0.1260317713022232, 0.11806520819664001, 0.0921497792005539, -0.08148357272148132, 0.15012814104557037, 0.09285203367471695, 0.0344715416431427, -0.1616276651620865, 0.02987958863377571, -0.12201231718063354, 0.06515499204397202, -0.23882582783699036, 0.1562720090150833, 0.04702063277363777, -0.015527901239693165, -0.1444508135318756, 0.0005048661259934306, -0.17070622742176056, 0.16612130403518677, 0.1294265240430832, -0.09577304869890213, 0.006502211093902588, 0.10544893145561218, 0.06755777448415756, 0.021160980686545372, -0.016471169888973236, 0.042433761060237885, 0.09610303491353989, -0.0043691592290997505, 0.12748228013515472, 0.22563226521015167, -0.06759597361087799], [0.004954391624778509, 0.11776325851678848, -0.009837702848017216, 0.12998585402965546, 0.09670193493366241, -0.038530271500349045, 0.17217886447906494, 0.04823562875390053, 0.046100810170173645, -0.03238286077976227, -0.03942664712667465, -0.09790916740894318, -0.11739841848611832, -0.032187335193157196, 0.05619092658162117, 0.07282507419586182, 0.1062348410487175, -0.32565927505493164, 0.05473840981721878, -0.13348469138145447, 0.045285459607839584, 0.038753557950258255, -0.04386216402053833, -0.12004764378070831, -0.1341559737920761, -0.06567583978176117, 0.07596338540315628, 0.038729023188352585, -0.31920817494392395, 0.11004937440156937, -0.03297963738441467, 0.03843306005001068, 0.18878893554210663, -0.05661269649863243, -0.25394728779792786, 0.03897944837808609, 0.03695717826485634, -0.021098360419273376, 0.008468558080494404, -0.1089206263422966, -0.1996314525604248, -0.1060473844408989, 0.02959984727203846, 0.06046737730503082, -0.2842462360858917, 0.10141593217849731, 0.09103932231664658, -0.08052247017621994, 0.019446996971964836, -0.19753973186016083, -0.18296223878860474, -0.21607309579849243, -0.21096444129943848, -0.1768328845500946, -0.0937398225069046, -0.04853774979710579, -0.09902901202440262, -0.12743113934993744, -0.07531866431236267, 0.15298360586166382, -0.09890305250883102, 0.014741640537977219, 0.15466053783893585, 0.019527066498994827, -0.0624263770878315, 0.06390439718961716], [-0.08491382747888565, -0.02391958422958851, 0.15685231983661652, -0.010762528516352177, -0.005672781262546778, -0.02885008044540882, 0.12598201632499695, 0.12777069211006165, -0.10049489140510559, 0.09303132444620132, 0.14875608682632446, -0.12182215601205826, 0.05732797086238861, 0.05244746804237366, 0.2863774299621582, -0.10881345719099045, -0.18701349198818207, 0.04146710783243179, 0.016023946925997734, -0.1250227689743042, -0.088544562458992, -0.09526046365499496, 0.12661941349506378, -0.2084675133228302, 0.05041933432221413, -0.08113770186901093, 0.18770699203014374, -0.008566314354538918, 0.23369407653808594, 0.16536113619804382, -0.007854695431888103, 0.05480862781405449, 0.03170233964920044, -0.21361380815505981, -0.13679751753807068, -0.024124043062329292, 0.021877314895391464, -0.18317820131778717, -0.016966843977570534, 0.17670902609825134, 0.21750091016292572, -0.10366086661815643, -0.16260002553462982, 0.06724116951227188, 0.25642314553260803, -0.18868325650691986, 0.021049275994300842, -0.08703141659498215, 0.24797387421131134, -0.03780839592218399, -0.12837904691696167, -0.11748766154050827, -0.1272335946559906, 0.01584463194012642, 0.1152258813381195, -0.08406450599431992, -0.059637341648340225, 0.10367358475923538, 0.1590024083852768, 0.2079438716173172, 0.03640144318342209, 0.04275556281208992, -0.0674758106470108, 0.20717379450798035, 0.09230250120162964, -0.21272419393062592], [-0.013862370513379574, 0.0538732074201107, 0.08066918700933456, 0.17794032394886017, -0.06318448483943939, 0.00028917656163685024, 0.13781306147575378, -0.15723420679569244, 0.082225501537323, -0.05105291306972504, -0.31540486216545105, 0.2890763580799103, 0.09956705570220947, 0.006827480159699917, 0.27489903569221497, -0.18291448056697845, -0.002975501585751772, -0.167637899518013, -0.04771071672439575, -0.0008816411136649549, 0.14147809147834778, -0.014179171994328499, -0.08273124694824219, -0.02232993207871914, 0.0038817478343844414, 0.15464012324810028, 0.02019064873456955, 0.23458991944789886, -0.17089208960533142, -0.036763645708560944, -0.06467807292938232, -0.09835386276245117, 0.036844197660684586, -0.019189877435564995, 0.09334249049425125, -0.02349705994129181, -0.15724718570709229, 0.1931096613407135, -0.10786700993776321, 0.1250578612089157, 0.12654685974121094, 0.11009787023067474, 0.029698476195335388, -0.070132777094841, 0.20640844106674194, 0.17953872680664062, -0.10952933877706528, 0.005636025685817003, -0.009549248032271862, -0.03478617966175079, -0.0047150468453764915, -0.007270448375493288, 0.004137119278311729, 0.08904298394918442, 0.01921730861067772, -0.019596928730607033, 0.24448640644550323, 0.1169048398733139, 0.08941996842622757, -0.20128265023231506, -0.1503182351589203, -0.11083979159593582, 0.2096843272447586, 0.0064081838354468346, -0.029644101858139038, 0.3212009370326996], [0.14659909904003143, -0.0277396310120821, -0.04752447456121445, -0.10049129277467728, 0.026069721207022667, 0.17500868439674377, 0.1528521627187729, -0.10277450084686279, -0.04173685982823372, -0.0077083297073841095, 0.03254767134785652, -0.1497708410024643, -0.19329601526260376, 0.03210407495498657, -0.16625343263149261, 0.15745405852794647, -0.10683917254209518, -0.09806670248508453, -0.0010008033132180572, -0.20822292566299438, 0.08057426661252975, -0.034631118178367615, -0.20561106503009796, 0.05408868566155434, 0.02497972548007965, 0.0704822763800621, -0.04704668000340462, -0.2715199589729309, 0.03486179560422897, 0.0019972806330770254, 0.2512452006340027, 0.017454585060477257, -0.03763696178793907, 0.0654555931687355, 0.04781988635659218, -0.1287022829055786, -0.0729256421327591, 0.012512123212218285, 0.011607092805206776, -0.040948156267404556, 0.24952919781208038, -0.09335004538297653, -0.21219080686569214, 0.08238448947668076, -0.0023213792592287064, 0.11426649987697601, 0.11844513565301895, -0.044676635414361954, 0.08933958411216736, 0.02257421426475048, -0.00382719817571342, -0.3514689803123474, -0.1596357375383377, -0.05852312594652176, -0.01575632207095623, 0.07618822902441025, 0.23643851280212402, 0.1582431048154831, -0.045206181704998016, -0.21786363422870636, -0.10324884206056595, 0.08214614540338516, 0.1593378633260727, -0.26297616958618164, 0.038413386791944504, -0.08631201833486557], [-0.014714706689119339, 0.13972000777721405, -0.06142568960785866, 0.21769197285175323, 0.008144115097820759, -0.03560657426714897, 0.028669487684965134, 0.12339771538972855, -0.115209199488163, -0.06135864555835724, 0.0098339281976223, 0.18332986533641815, 0.2616419494152069, 0.06337164342403412, 0.02670205384492874, -0.22211992740631104, 0.06273632496595383, -0.19783683121204376, 0.008684555999934673, 0.060522422194480896, -0.18533922731876373, 0.3551379442214966, -0.11057231575250626, 0.018986549228429794, -0.2940526008605957, -0.058006107807159424, -0.10204928368330002, -0.18020887672901154, -0.011137804016470909, -0.0835629478096962, 0.2166825830936432, 0.1296999156475067, 0.04661116003990173, -0.052169039845466614, 0.040040817111730576, 0.04642058163881302, -0.14907746016979218, -0.19606003165245056, 0.12385737895965576, 0.0032984046265482903, 0.18832091987133026, -0.07618987560272217, -0.024937329813838005, -0.07227929681539536, 0.07627689093351364, 0.23170655965805054, 0.07671677321195602, -0.004102409351617098, -0.19720789790153503, 0.24428978562355042, 0.008874340914189816, 0.040631406009197235, -0.17472486197948456, -0.12143197655677795, -0.08177446573972702, -0.07034452259540558, 0.03489411994814873, -0.06652745604515076, -0.08180443942546844, -0.0389152429997921, 0.2218426764011383, -0.11096146702766418, 0.12060070037841797, -0.13605765998363495, -0.1170964166522026, -0.10348214954137802], [0.01093981135636568, -0.019782254472374916, -0.08585385233163834, -0.11448323726654053, -0.1522478610277176, -0.04874396696686745, 0.14300677180290222, 0.15127132833003998, 0.15644648671150208, -0.03031870163977146, -0.044056445360183716, 0.1456293910741806, -0.11833324283361435, -0.0033135816920548677, -0.033594634383916855, -0.03928713873028755, 0.02432374656200409, 0.09979385137557983, -0.25829094648361206, 0.05476349592208862, -0.2545751929283142, 0.1344960480928421, -0.07842313498258591, 0.24111847579479218, 0.08598551154136658, -0.30082234740257263, -0.11044837534427643, 0.06798683851957321, 0.0321819931268692, -0.10940246284008026, 0.13720551133155823, -0.025320205837488174, 0.04647761210799217, 0.10353367775678635, -0.02686132863163948, -0.023672016337513924, -0.10926228761672974, -0.029308872297406197, -0.11237975209951401, -0.2892252802848816, -0.018498066812753677, -0.2905997633934021, 0.08207736909389496, 0.10807278007268906, 0.1283646821975708, -0.06570886075496674, -0.03195580840110779, -0.09775149822235107, -0.041677556931972504, -0.058821648359298706, 0.005177277140319347, 0.05594511330127716, -0.041920509189367294, 0.019409427419304848, 0.13254114985466003, -0.03418741375207901, -0.015336763113737106, 0.10744854062795639, 0.033127665519714355, -0.011229894123971462, -0.12886613607406616, -0.0274348147213459, 0.336153507232666, 0.2065877616405487, 0.04897095263004303, -0.05471061170101166], [-0.11653505265712738, 0.09333807975053787, 0.06628624349832535, 0.0792892798781395, 0.16039898991584778, -0.05985862761735916, -0.09044060856103897, -0.011371547356247902, 0.014508518390357494, 0.17088937759399414, 0.0061494046822190285, 0.10172951966524124, 0.22246593236923218, 0.010848681442439556, -0.2900015711784363, 0.12177665531635284, -0.0810178816318512, 0.018674742430448532, -0.07062800228595734, -0.19621682167053223, -0.25865355134010315, 0.24070759117603302, 0.0658842921257019, 0.02802249789237976, -0.11109834164381027, 0.1166544109582901, -0.13568449020385742, 0.16176018118858337, -0.11324724555015564, 0.08682449162006378, 0.19439826905727386, -0.3212461769580841, -0.09769635647535324, -0.03301664814352989, 0.19556674361228943, -0.034692976623773575, 0.05600699782371521, 0.057416725903749466, 0.058554112911224365, 0.23219241201877594, -0.17021654546260834, -0.08748742192983627, -0.02556583285331726, 0.06917669624090195, 0.016217689961194992, -0.012458727695047855, -0.25296640396118164, 0.005360547918826342, 0.0242899339646101, -0.08623603731393814, 0.03304353356361389, -0.19254237413406372, -0.15664120018482208, -0.15827280282974243, 0.09615511447191238, -0.1287657618522644, 0.03717345744371414, 0.06099719926714897, -0.033464472740888596, 0.07831325381994247, -0.1188787966966629, -0.09582497179508209, 0.20765991508960724, -0.03623603656888008, -0.24669119715690613, 0.18448518216609955], [0.09577889740467072, -0.11229316145181656, -0.08002187311649323, 0.14172913134098053, 0.017941368743777275, 0.09336970001459122, 0.13184736669063568, -0.1349213868379593, 0.07505623251199722, -0.0545281358063221, -0.20342355966567993, 0.2541554868221283, 0.08626212924718857, 0.05756237357854843, 0.03129042685031891, 0.07056547701358795, -0.07541035860776901, -0.04895062372088432, 0.14071054756641388, -0.31388285756111145, -0.00743131386116147, 0.0021941037848591805, -0.08688659220933914, 0.2788379192352295, 0.024345984682440758, -0.018187781795859337, -0.22100616991519928, 0.04108574241399765, -0.14108023047447205, 0.07132148742675781, 0.13096623122692108, -0.03879976645112038, -0.10493583977222443, 0.07936815172433853, -0.17475222051143646, 0.056858714669942856, 0.020513273775577545, -0.1098838821053505, 0.33177486062049866, 0.10315678268671036, -0.16998639702796936, 0.08598170429468155, -0.07570509612560272, -0.012771949172019958, 0.10090025514364243, -0.02402118407189846, -0.1338711529970169, 0.03679189831018448, -0.003620911855250597, 0.040013257414102554, -0.0650794506072998, 0.09666426479816437, -0.27827006578445435, 0.21149834990501404, -0.2839016020298004, -0.07387683540582657, -0.15036535263061523, -0.1722687929868698, -0.0492820180952549, -0.09406480938196182, -0.1993739753961563, 0.14311231672763824, 0.02157745324075222, 0.0935778096318245, -0.074301578104496, -0.058483343571424484], [-0.0003296645591035485, -0.2716861963272095, -0.052937064319849014, 0.10283565521240234, 0.08892631530761719, 0.2637680172920227, 0.08724727481603622, -0.036201272159814835, -0.09728915989398956, 0.0035767252556979656, 0.13433502614498138, 0.21478374302387238, -0.04950994253158569, -0.07017707079648972, -0.10697788000106812, -0.07204915583133698, 0.18705494701862335, 0.12627913057804108, 0.03659430518746376, -0.010878677479922771, -0.0669015571475029, 0.08811692148447037, 0.03929601609706879, -0.16196824610233307, 0.11511542648077011, 0.13908211886882782, 0.13482855260372162, 0.1897771805524826, 0.0379989817738533, -0.1045016199350357, -0.06061749532818794, -0.10866624116897583, 0.09229570627212524, 0.024957995861768723, -0.065130814909935, -0.07388745993375778, -0.17681637406349182, -0.09246598184108734, -0.006536149885505438, 0.1006256714463234, 0.07825501263141632, -0.12165778130292892, 0.10933586955070496, -0.0374244786798954, -0.24428313970565796, -0.01399534847587347, 0.013717113994061947, -0.06497141718864441, -0.05231212079524994, 0.05256883054971695, -0.11201900988817215, 0.0007968610734678805, 0.04114248603582382, 0.020696312189102173, -0.15272238850593567, -0.07919721305370331, 0.10266358405351639, 0.3130626380443573, -0.1721269190311432, 0.20496001839637756, -0.06445007771253586, -0.08531169593334198, -0.1353641301393509, 0.05130839720368385, 0.24876385927200317, -0.015763549134135246], [0.3518944978713989, 0.0374421589076519, 0.09771227091550827, -0.0072409650310873985, -0.08679653704166412, 0.014430736191570759, -0.06192994490265846, 0.008254553191363811, -0.1545361876487732, 0.09082633256912231, 0.12719160318374634, -0.34509867429733276, -0.03295276314020157, 0.18069054186344147, 0.07379409670829773, -0.1083405464887619, 0.03002924658358097, 0.10607769340276718, 0.023636432364583015, 0.08884948492050171, 0.0685984268784523, 0.16136565804481506, -0.2528056502342224, -0.3282769024372101, -0.23127418756484985, -0.11181899905204773, -0.04577811807394028, -0.037557441741228104, 0.09062734991312027, -0.02251243218779564, 0.12035416811704636, -0.056971531361341476, -0.0961165651679039, 0.21003246307373047, 0.010827082209289074, -0.09344032406806946, -0.06848354637622833, 0.08301544934511185, -0.025296591222286224, -0.015923982486128807, 0.11997600644826889, -0.0022097642067819834, 0.07237003743648529, -0.0036620404571294785, -0.1729951798915863, -0.11496526747941971, -0.04870833083987236, 0.17233046889305115, 0.03707160800695419, -0.10770904272794724, -0.0813370794057846, 0.12494448572397232, 0.10096428543329239, 0.15907107293605804, -0.07986746728420258, -0.14163203537464142, -0.1278373748064041, -0.037757836282253265, 0.032842058688402176, 0.0082548251375556, -0.08802994340658188, -0.12296582758426666, 0.33129337430000305, 0.039441224187612534, -0.13382863998413086, -0.001224801642820239], [-0.05884572118520737, 0.15729542076587677, 0.13533219695091248, -0.3941538333892822, -0.2305925339460373, -0.08898046612739563, -0.10064613819122314, 0.030535688623785973, 0.2619347870349884, 0.2670070230960846, 0.019373569637537003, -0.17702557146549225, -0.030740225687623024, 0.029742134734988213, -0.08891322463750839, -0.06542885303497314, 0.22549502551555634, 0.005401961505413055, 0.03486742079257965, 0.024904504418373108, -0.09517291933298111, -0.025225311517715454, -0.02478591352701187, -0.11435623466968536, 0.2630297541618347, -0.17391006648540497, 0.21093975007534027, -0.153715580701828, 0.2847609221935272, 0.021059637889266014, -0.21277634799480438, -0.008182945661246777, 0.2444288283586502, 0.06377968937158585, -0.04888886958360672, 0.051769763231277466, 0.0338730663061142, -0.008447033353149891, 0.05565464496612549, 0.33088505268096924, 0.14447541534900665, 0.06802918016910553, -0.08734143525362015, 0.18636435270309448, -0.0732237696647644, -0.058650534600019455, 0.027337392792105675, -0.10139583051204681, -0.18216076493263245, 0.12386967241764069, -0.0012650111457332969, -0.08791635185480118, -0.03125353902578354, -0.055257100611925125, -0.32673463225364685, -0.12010252475738525, -0.050035327672958374, -0.11494982242584229, -0.05827485769987106, 0.008427979424595833, -0.03513855114579201, 0.039578910917043686, -0.1485951542854309, -0.001896175555884838, 0.1769845336675644, 0.06496742367744446], [-0.16146403551101685, 0.09077919274568558, -0.05637779086828232, 0.018273958936333656, 0.06901343166828156, 0.2287306934595108, 0.017273709177970886, -0.0641469806432724, 0.04315146058797836, 0.2226918339729309, 0.016007013618946075, -0.021960267797112465, -0.12182866036891937, 0.03481992706656456, 0.26868459582328796, 0.09866176545619965, 0.0010703052394092083, -0.06184270232915878, -0.170679971575737, 0.2842600643634796, -0.00044755826820619404, 0.0894661694765091, -0.25194051861763, 0.10615463554859161, 0.034422725439071655, -0.19930332899093628, -0.1211184486746788, 0.03778599947690964, 0.05001030117273331, 0.16996270418167114, 0.002191221108660102, -0.12542395293712616, 0.3122909665107727, 0.0149141326546669, 0.03115483932197094, 0.03939509391784668, 0.0052564023062586784, 0.1571611911058426, 0.06745566427707672, 0.010332373902201653, 0.1465175896883011, 0.1079426035284996, -0.0013321394799277186, -0.018939295783638954, -0.13419292867183685, -0.08271433413028717, -0.14790557324886322, 0.08702465891838074, 0.25146257877349854, -0.05772316828370094, 0.07401653379201889, 0.09928097575902939, -0.12975837290287018, 0.10107406973838806, 0.06937724351882935, -0.05823760852217674, 0.03889498487114906, 0.11116428673267365, -0.12299206107854843, 0.19079741835594177, 0.3028641641139984, 0.04828965291380882, -0.10512736439704895, -0.1056615337729454, 0.0034078778699040413, -0.08945365995168686], [-0.04451959952712059, -0.10437926650047302, -0.038153257220983505, -0.03804940730333328, -0.04319407045841217, -0.17172075808048248, 0.030197909101843834, 0.3422662317752838, -0.08335693180561066, 0.08136265724897385, -0.042761411517858505, 0.12161384522914886, -0.047526001930236816, 0.12333883345127106, 0.15231351554393768, -0.011444094590842724, -0.23426321148872375, -0.0016023004427552223, 0.05338277667760849, -0.08017974346876144, 0.13262569904327393, 0.12087312340736389, -0.13502594828605652, -0.037824321538209915, 0.17599430680274963, -0.062287796288728714, 0.12962454557418823, 0.06709908694028854, -0.11343125253915787, 0.18870534002780914, 0.2460145354270935, -0.10881999880075455, -0.010636767372488976, -0.051154784858226776, 0.06357935816049576, 0.202070415019989, 0.315936416387558, 0.04645928740501404, -0.07781374454498291, 0.09982375055551529, 0.026312798261642456, -0.1518215388059616, 0.1358264982700348, -0.15440678596496582, -0.08790094405412674, 0.13014446198940277, -0.18283815681934357, 0.16769134998321533, -0.17669351398944855, 0.02444593422114849, -0.0027654459699988365, -0.009407390840351582, 0.13498076796531677, -0.07692649960517883, -0.09519681334495544, 0.19633741676807404, 0.006657572463154793, 0.07323262095451355, -0.0704011395573616, -0.11872528493404388, 0.06069495528936386, -0.1016797423362732, 0.024838902056217194, 0.04621855169534683, 0.16646498441696167, -0.047588370740413666], [-0.05752093717455864, -0.035037051886320114, 0.06705797463655472, -0.4104366898536682, 0.05234343186020851, 0.20067501068115234, -0.11649588495492935, 0.09856430441141129, -0.02203097753226757, -0.06449250876903534, 0.1689210832118988, 0.20272961258888245, -0.04096933826804161, 0.20202995836734772, 0.07871737331151962, -0.03876863420009613, -0.04878102242946625, 0.10013101994991302, 0.04236645996570587, -0.20664796233177185, -0.12194986641407013, -0.04486453905701637, -0.06488469988107681, -5.53624086023774e-05, -0.08606818318367004, -0.03858104720711708, 0.045860596001148224, 0.18184272944927216, -0.107839435338974, 0.038356516510248184, -0.03252468258142471, -0.022673597559332848, 0.04305316507816315, -0.09321735799312592, 0.06906460225582123, -0.01643764227628708, -0.24353300034999847, 0.028153136372566223, -0.05164242163300514, 0.044308315962553024, -0.1756562888622284, 0.15820860862731934, 0.08980919420719147, -0.35797107219696045, 0.0290930587798357, 0.10040605068206787, 0.03387734666466713, 0.0019397593569010496, -0.058419618755578995, 0.15933792293071747, -0.07895155251026154, -0.005064616445451975, -0.07775455713272095, 0.01941504515707493, 0.03778868541121483, 0.21082235872745514, -0.05082475766539574, 0.008086579851806164, 0.057087186723947525, 0.17506130039691925, 0.11320441216230392, 0.23955585062503815, 0.31556299328804016, -0.07982514798641205, -0.10507868230342865, 0.034593380987644196], [-0.03212249279022217, -0.14596639573574066, 0.11551151424646378, -0.09396618604660034, 0.04847893863916397, 0.007498971186578274, -0.08791358023881912, 0.10944072157144547, 0.15768828988075256, -0.016488827764987946, -0.04236440360546112, 0.016110213473439217, 0.0750485360622406, -0.12227535992860794, -0.05037252977490425, 0.04283702000975609, 0.125949889421463, -0.23378822207450867, -0.10220808535814285, -0.02358418144285679, 0.06096900627017021, 0.18436630070209503, 0.15091772377490997, 0.08747074007987976, -0.05218728259205818, -0.0036721965298056602, -0.16072790324687958, 0.14333084225654602, -0.224997878074646, 0.13361778855323792, 0.17413842678070068, -0.042833004146814346, -0.2326374351978302, -0.07348764687776566, -0.1203283742070198, 0.10936793684959412, 0.0932464450597763, 0.12811438739299774, 0.09018892794847488, 0.11172562837600708, 0.06068805605173111, 0.09465988725423813, -0.0814526155591011, -0.06378265470266342, -0.1264788955450058, 0.18479403853416443, 0.06605976819992065, -0.201832115650177, 0.0122426962479949, 0.225371852517128, -0.07367446273565292, 0.13386814296245575, 0.0568939708173275, 0.14228086173534393, 0.09205895662307739, -0.20351262390613556, 0.32075995206832886, 0.02401191182434559, 0.07344984263181686, -0.015012827701866627, -0.17982611060142517, 0.04401310533285141, 0.1475435346364975, 0.041467927396297455, -0.19830067455768585, -0.33193108439445496], [-0.01852422021329403, -0.12708619236946106, 0.1515980362892151, -0.11006682366132736, -0.1513344645500183, -0.09525593370199203, -0.014833563938736916, 0.08321747183799744, 0.08410603553056717, -0.11608349531888962, -0.17062699794769287, -0.12404224276542664, 0.18630953133106232, -0.11905843764543533, -0.054643988609313965, -0.15694689750671387, -0.07865462452173233, 0.04658349230885506, -0.09067954123020172, 0.07648204267024994, 0.011424509808421135, 0.09648749977350235, -0.10147634148597717, 0.0554487369954586, 0.06452132761478424, 0.002252669772133231, 0.17205394804477692, 0.1284066140651703, 0.1290913075208664, 0.14588700234889984, -0.07996860146522522, -0.04637395963072777, 0.09717866778373718, 0.01342066191136837, -0.07259862869977951, -0.5804249048233032, 0.07344803959131241, -0.0335371196269989, 0.08788663148880005, -0.09803333133459091, 0.11595460772514343, 0.003936913330107927, -0.2606905400753021, -0.23460173606872559, -0.10396473854780197, -0.02091190591454506, -0.02330431342124939, 0.02384544163942337, 0.045937679708004, -0.0852108970284462, -0.002897057682275772, 0.10342857986688614, 0.08962357044219971, -0.1802324503660202, 0.06817495077848434, 0.3470715284347534, -0.07215309888124466, -0.017002861946821213, -0.163068488240242, 0.13534899055957794, -0.051803626120090485, 0.042841799557209015, -0.11121624708175659, 0.15918122231960297, 0.027345625683665276, 0.09651948511600494], [0.00258393632248044, -0.013765033334493637, 0.34414374828338623, 0.12613950669765472, 0.14168308675289154, -0.04357055574655533, 0.07576242089271545, 0.11227676272392273, -0.10311948508024216, -0.0037192655727267265, -0.18126633763313293, 0.01972135342657566, 0.12007100135087967, -0.06563534587621689, -0.07898449152708054, 0.11810709536075592, 0.03256016969680786, 0.16589796543121338, -0.16552305221557617, -0.024860939010977745, 0.1705404371023178, -0.21980156004428864, 0.26945340633392334, 0.13475219905376434, -0.12417753785848618, -0.23665019869804382, 0.10794343054294586, 0.13622622191905975, 0.007784675341099501, -0.1577710509300232, 0.19468513131141663, -0.18373137712478638, -0.01656770147383213, 0.14378570020198822, -0.06296364217996597, 0.08495710790157318, -0.10659836232662201, -0.016761623322963715, 0.0993417277932167, -0.0837913379073143, 0.029469246044754982, -0.013982082717120647, -0.0634688138961792, -0.12129586189985275, 0.052384451031684875, 0.15387971699237823, -0.02220521867275238, -0.05705827474594116, 0.031553953886032104, -0.03397407755255699, 0.045286089181900024, -0.10654744505882263, -0.06362752616405487, 0.009661823511123657, -0.10953395068645477, -0.02258654683828354, 0.02061520144343376, -0.04533132538199425, -0.14022010564804077, -0.03121119551360607, 0.20037521421909332, -0.17007581889629364, 0.30157727003097534, -0.3111080229282379, -0.03272952884435654, -0.05762431025505066], [0.027671078220009804, 0.09324711561203003, -0.002995549701154232, -0.16182127594947815, 0.18402111530303955, -0.00121446477714926, 0.15261493623256683, -0.05158502236008644, 0.12279883772134781, 0.04957505688071251, 0.052762720733881, 0.16187110543251038, 0.2685464322566986, -0.12213512510061264, -0.0734175369143486, 0.06771153956651688, 0.1015581488609314, -0.08697744458913803, 0.049318984150886536, -0.201431006193161, 0.14847880601882935, -0.006295929197221994, -0.05799395591020584, 0.10506277531385422, -0.0057146623730659485, -0.12142476439476013, -0.020851988345384598, -0.01500031165778637, -0.11531644314527512, -0.22911810874938965, 0.13391005992889404, 0.04745505377650261, -0.12088426947593689, -0.15008337795734406, 0.02676270343363285, -0.07428675889968872, 0.07560022175312042, -0.07906768471002579, -0.13213884830474854, -0.11826948076486588, 0.008956674486398697, 0.016416052356362343, -0.04183923825621605, 0.03759849816560745, 0.08960447460412979, -0.004880256485193968, -0.08060093969106674, 0.16064518690109253, 0.2515377700328827, 0.015074719674885273, -0.28528812527656555, -0.0013412422267720103, 0.2548109292984009, -0.030937299132347107, -0.34465399384498596, -0.1745283156633377, 0.12677101790905, 0.12097807973623276, -0.0619545541703701, -0.09887388348579407, 0.24601322412490845, 0.041862089186906815, -0.04306517541408539, 0.1377357393503189, -0.2183578610420227, 0.11556559801101685], [0.043845728039741516, -0.07949156314134598, -0.05904319882392883, -0.11117894947528839, -0.008257098495960236, -0.16485781967639923, 0.19384746253490448, 0.041921861469745636, 0.007043741177767515, 0.12009336799383163, 0.027331406250596046, 0.031136594712734222, 0.024482978507876396, 0.19820012152194977, -0.21570052206516266, -0.17967285215854645, 0.010695754550397396, 0.04729188233613968, 0.09874434024095535, 0.22288314998149872, 0.07644059509038925, -0.04800163954496384, 0.12340961396694183, 0.20675739645957947, -0.189226433634758, 0.061725858598947525, 0.22696219384670258, 0.09573035687208176, 0.02697122097015381, -0.0073450845666229725, 0.07599922269582748, 0.3298119604587555, 0.19196103513240814, 0.04575615003705025, -0.0979294702410698, 0.036670926958322525, 0.17480804026126862, -0.09695839136838913, 0.03667440265417099, 0.05049840360879898, -0.06501749902963638, 0.1335567981004715, 0.034936048090457916, 0.15266266465187073, -0.11795268207788467, -0.07168490439653397, -0.06050480902194977, 0.10764425247907639, 0.07775180041790009, 0.04373009875416756, -0.13405941426753998, 0.06523449718952179, -0.060219455510377884, 0.035654693841934204, 0.22150388360023499, 0.0406937412917614, -0.00865152943879366, 0.2899552583694458, 0.11769016832113266, -0.13933974504470825, -0.029754353687167168, 0.007549745496362448, 0.08872339129447937, -0.21505066752433777, -0.01138791348785162, 0.11520609259605408], [0.02914392575621605, 0.00869213417172432, 0.10397903621196747, -0.006257477216422558, 0.12231995910406113, 0.14686182141304016, 0.07826659083366394, -0.036683544516563416, -0.13401620090007782, -0.15381461381912231, -0.3430638015270233, 0.017492255195975304, -0.09822896122932434, -0.04566487297415733, -0.13958047330379486, -0.043233517557382584, 0.00649323221296072, -0.05328589677810669, -0.10729838907718658, -0.12372597306966782, 0.003165289293974638, 0.02110658772289753, 0.10795991867780685, -0.06286325305700302, 0.06870585680007935, 0.04277985915541649, 0.021455926820635796, -0.09876715391874313, -0.0822964683175087, 0.05140029266476631, 0.15070076286792755, 0.17443035542964935, 0.07094378769397736, -0.1336594969034195, 0.017007876187562943, -0.30039289593696594, 0.10263800621032715, 0.13164308667182922, 0.028821708634495735, 0.18242456018924713, -0.00542611675336957, -0.03102543205022812, 0.2821638286113739, 0.08885202556848526, 0.04993708059191704, -0.26795175671577454, 0.07950150221586227, 0.21320445835590363, -0.13031309843063354, 0.0799502357840538, 0.13921314477920532, 0.1719064712524414, -0.0469832569360733, -0.029321545735001564, -0.023870419710874557, -0.1339331567287445, 0.0790177583694458, -0.026991814374923706, 0.027915362268686295, 0.09227675944566727, 0.20448769629001617, -0.02692105434834957, 0.29514777660369873, -0.014894416555762291, -0.020510217174887657, -0.1448429822921753], [0.023089149966835976, 0.29892200231552124, -0.21229702234268188, 0.043215714395046234, 0.07124795019626617, -0.22686804831027985, -0.04770544916391373, 0.10968475788831711, -0.03293158859014511, -0.11403240263462067, -0.20581261813640594, 0.0879526287317276, -0.19728274643421173, 0.06094815582036972, -0.10683632642030716, 0.07626166194677353, -0.022013148292899132, -0.0313599668443203, -0.020205480977892876, -0.2199145406484604, -0.03979869931936264, 0.1471361368894577, 0.08205986022949219, -0.15085391700267792, -0.14517679810523987, -0.058510661125183105, 0.10945286601781845, -0.04247157648205757, 0.07624892145395279, -0.15087169408798218, 0.11244910955429077, -0.12151680141687393, -0.2826021611690521, 0.020762275904417038, -0.30217820405960083, 0.04222121462225914, -0.15103860199451447, 0.1158900037407875, -0.08614090085029602, 0.0035169434268027544, 0.013199609704315662, 0.19056466221809387, -0.0761757642030716, -0.020843585953116417, -0.004687285516411066, -0.06065104901790619, -0.20111559331417084, -0.10690446197986603, 0.16944511234760284, 0.08947869390249252, -0.0612591989338398, 0.18807345628738403, -0.18299704790115356, 0.1295452117919922, -0.06266437470912933, 0.06009851023554802, 0.2267884463071823, 0.011821191757917404, -0.049819465726614, 0.16386769711971283, -0.0326894074678421, 0.21826797723770142, -0.092818982899189, -0.05284952372312546, 0.07024343311786652, 0.07042276114225388], [0.37437376379966736, 0.18065795302391052, -0.22867020964622498, -0.010013439692556858, -0.040993329137563705, 0.023825395852327347, 0.08798494935035706, 0.08498519659042358, 0.057291265577077866, 0.0034098047763109207, 0.00700910110026598, -0.25703805685043335, 0.026906318962574005, -0.1918312907218933, 0.16319501399993896, 0.135590597987175, 0.027976004406809807, 0.192361518740654, -0.22106212377548218, 0.05230957642197609, -0.006354686338454485, 0.08491452038288116, 0.04298730194568634, 0.05325004830956459, -0.10558093339204788, -0.02536723017692566, 0.10394541919231415, -0.001280708471313119, 0.003906892146915197, -0.07649661600589752, -0.05243932083249092, -0.14915025234222412, 0.12367961555719376, -0.0984015166759491, 0.011981876567006111, -0.12814538180828094, 0.042825859040021896, 0.12420555204153061, 0.12026239931583405, 0.15298886597156525, -0.14581792056560516, 0.15268519520759583, 0.12528835237026215, 0.11675657331943512, 0.08503230661153793, 0.13143494725227356, 0.19739148020744324, 0.022742126137018204, 0.04053357243537903, 0.16189156472682953, -0.06889557093381882, -0.15140673518180847, 0.08034525066614151, -0.13972647488117218, -0.007010344415903091, 0.07021636515855789, -0.12514108419418335, 0.14706875383853912, 0.20370414853096008, -0.06558821350336075, 0.08343406766653061, 0.06939313560724258, -0.09504999220371246, 0.10642651468515396, 0.2628268301486969, -0.007534310687333345], [-0.19421669840812683, 0.04692370072007179, 0.05464286357164383, -0.08735226094722748, -0.021418530493974686, 0.21535997092723846, -0.10485109686851501, 0.009824130684137344, -0.0750478208065033, -0.047651831060647964, 0.015648461878299713, 0.2607748806476593, 0.08191271871328354, -0.24396167695522308, 0.06366536766290665, -0.11713826656341553, -0.18465040624141693, 0.1617659479379654, 0.051304493099451065, 0.10348878055810928, 0.08142625540494919, 0.10280469059944153, -0.03980735316872597, -0.1105772852897644, -0.07470500469207764, -0.1898937225341797, 0.07153496891260147, 0.30354970693588257, -0.40337711572647095, 0.0030801272951066494, 0.11898218840360641, 0.08815581351518631, -0.14357560873031616, 0.11974986642599106, -0.029765568673610687, 0.02706034667789936, 0.10813797265291214, -0.002801452064886689, 0.12228935956954956, -0.07332617789506912, 0.20499297976493835, 0.2380582094192505, 0.18096493184566498, -0.027620678767561913, 0.009338007308542728, -0.11083570122718811, 0.09141401201486588, -0.0589175671339035, 0.11972926557064056, -0.10694229602813721, 0.29288363456726074, 0.010015301406383514, -0.09362653642892838, -0.2637028098106384, -0.16372336447238922, 0.1816011667251587, -0.06571581214666367, 0.13951332867145538, 0.05843473970890045, -0.0966486930847168, -0.20952381193637848, -0.004149760585278273, -0.07756061106920242, 0.04388396814465523, -0.09414083510637283, 0.034975435584783554], [0.24212896823883057, -0.132709801197052, -0.07649621367454529, 0.10337265580892563, 0.1637418419122696, -0.04633951559662819, -0.07059375196695328, 0.009971581399440765, 0.1357196867465973, -0.12684562802314758, -0.11807794123888016, 0.44784432649612427, -0.05841734632849693, -0.037777941673994064, 0.13220876455307007, -0.01265870500355959, 0.17722554504871368, 0.0007434539729729295, 0.09285644441843033, -0.02887256070971489, -0.02404693327844143, -0.0025865635834634304, 0.026197491213679314, 0.12771998345851898, -0.1611814945936203, -0.0849636122584343, -0.13737553358078003, 0.10871900618076324, -0.14178624749183655, 0.14288073778152466, -0.0038359384052455425, -0.13613665103912354, -0.25868725776672363, -0.18841491639614105, -0.2504866123199463, 0.15108896791934967, -0.08946771919727325, 0.10731899738311768, -0.04894835129380226, 0.04083865508437157, 0.23139850795269012, -0.1542607843875885, -0.14052453637123108, 0.1433253139257431, 0.012983939610421658, -0.1433546543121338, -0.01681939885020256, 0.2369309365749359, -0.022365564480423927, 0.06018747389316559, 0.08323774486780167, -0.0662752091884613, 0.1434229612350464, -0.2607530355453491, 0.11885601282119751, -0.02112380787730217, -0.07278426736593246, -0.10097426176071167, -0.034391164779663086, -0.0439307726919651, -0.12199141085147858, 0.16423384845256805, 0.20771363377571106, -0.2880679666996002, -0.20837874710559845, 0.08361425995826721], [-0.21464335918426514, 0.0829385295510292, -0.1286114752292633, -0.07557249069213867, -0.07075729221105576, -0.05396096780896187, 0.25910428166389465, 0.012772037647664547, -0.08941375464200974, -0.10094215720891953, -0.08675797283649445, 0.07981530576944351, -0.09623154997825623, 0.14493681490421295, 0.06807319819927216, 0.1961524337530136, 0.062235284596681595, 0.03104352205991745, -0.07067187130451202, -0.018292980268597603, -0.06919652223587036, 0.14550195634365082, 0.005432467442005873, -0.09541518986225128, -0.1725681871175766, 0.03328617289662361, -0.018314078450202942, 0.23031678795814514, 0.2334655225276947, 0.005412195343524218, -0.17754538357257843, 0.16602905094623566, -0.02487800270318985, 0.001157384947873652, 0.07109687477350235, -0.09923948347568512, 0.1356772482395172, 0.1156487837433815, -0.2255210429430008, -0.03207457438111305, -0.09159188717603683, 0.13679684698581696, -0.18677061796188354, -0.06905066967010498, -0.02650298923254013, 0.032320961356163025, 0.018008215352892876, 0.11076539009809494, -0.03413477912545204, -0.07592812925577164, 0.19686183333396912, -0.23756076395511627, 0.10675832629203796, 0.04055321216583252, -0.1398688107728958, -0.1931537389755249, -0.07641346752643585, -0.051547061651945114, -0.07635685056447983, -0.07331426441669464, -0.10740408301353455, 0.001844660029746592, 0.026479726657271385, -0.08029816299676895, -0.06348297744989395, -0.2911887764930725], [0.17472641170024872, 0.026207298040390015, 0.022879675030708313, -0.036857496947050095, 0.22519995272159576, 0.10836084187030792, -0.012454559095203876, 0.05828248709440231, 0.07297307252883911, 0.030114538967609406, -0.07940549403429031, -0.22321197390556335, -0.19559189677238464, -0.16373835504055023, 0.03624098002910614, -0.3206445574760437, -0.019111737608909607, -0.08346350491046906, 0.031224962323904037, -0.0877876877784729, -0.062391914427280426, 0.04953032732009888, 0.14038480818271637, -0.13267336785793304, 0.012387360446155071, -0.14690737426280975, -0.05139918625354767, 0.11574287712574005, 0.2391517162322998, -0.008450641296803951, 0.07212045043706894, -0.08513275533914566, 0.16378076374530792, 0.1081753596663475, 0.09282451122999191, 0.07932959496974945, 0.038087569177150726, -0.10108773410320282, -0.1870681196451187, -0.010041753761470318, -0.11980768293142319, 0.032672759145498276, -0.1660117655992508, -0.015272933058440685, -0.022376270964741707, -0.06019572541117668, 0.11105231195688248, 0.01746443845331669, -0.29735785722732544, -0.1950807273387909, -0.12100250273942947, 0.003786863759160042, -0.10154729336500168, 0.06367431581020355, 0.03988788649439812, 0.0032055487390607595, 0.13015665113925934, 0.0674457773566246, 0.007984701544046402, -0.24791191518306732, 0.10969942808151245, 0.26516205072402954, -0.26702091097831726, 0.03679925948381424, -0.07331796735525131, -0.02140962705016136], [0.16623248159885406, 0.20023560523986816, 0.08595626801252365, -0.18442384898662567, -0.004365311004221439, -0.04747462272644043, 0.12474627792835236, 0.0338570773601532, -0.12772488594055176, 0.08723118901252747, -0.05821193754673004, -0.06077828258275986, -0.12396859377622604, 0.05072009935975075, 0.019129516556859016, -0.13392773270606995, -0.01160549744963646, 0.1826605200767517, -0.10416968166828156, 0.058501217514276505, 0.15994688868522644, -0.15892288088798523, 0.12148726731538773, 0.0032498924992978573, -0.11783535778522491, 0.08808040618896484, -0.16733787953853607, 0.025952987372875214, -0.07817289978265762, 0.31226933002471924, -0.1499791443347931, 0.12554931640625, -0.10071387887001038, 0.14397487044334412, 0.20742398500442505, 0.055227264761924744, -0.022617407143115997, -0.03142429515719414, -0.02671576663851738, -0.06885246187448502, -0.004516121931374073, -0.10927286744117737, -0.07851501554250717, 0.06255438923835754, 0.0852159783244133, 0.17346738278865814, -0.15872828662395477, -0.04685378819704056, -0.03015994466841221, 0.10919861495494843, -0.07500053942203522, 0.12206908315420151, -0.10897528380155563, -0.16548018157482147, -0.19451771676540375, -0.12515197694301605, 0.01741853356361389, 0.074457086622715, -0.21312762796878815, 0.26380839943885803, -0.009579049423336983, 0.18779683113098145, -0.18724869191646576, 0.15867255628108978, 0.06895744800567627, 0.003040064126253128], [-0.14240048825740814, 0.11425770074129105, -0.1284564584493637, 0.3271900713443756, 0.14918233454227448, -0.016241831704974174, 0.017722878605127335, 0.09697999805212021, 0.002405625768005848, 0.05885891616344452, 0.08136338740587234, -0.1567741483449936, 0.2357519119977951, -0.06968139857053757, 0.06286057829856873, -0.05477980524301529, -0.06177037954330444, 0.39172476530075073, 0.10249068588018417, -0.16941820085048676, 0.07911300659179688, -0.07198934257030487, -0.11818103492259979, 0.09387772530317307, 0.20269547402858734, -0.02239352837204933, 0.1569925844669342, 0.13543860614299774, -0.17640210688114166, 0.01778893545269966, -0.0926414206624031, 0.15938100218772888, 0.06627802550792694, 0.13079378008842468, 0.11520133167505264, -0.07467687129974365, 0.021708959713578224, 0.15629203617572784, -0.08183646947145462, -0.021972060203552246, 0.06605679541826248, -0.044600993394851685, -0.1782572865486145, 0.02289881557226181, -0.23416295647621155, -0.13955560326576233, 0.017716027796268463, -0.1940072774887085, -0.10586664080619812, 0.25596484541893005, -0.05134628713130951, 0.0554475337266922, 0.11382955312728882, 0.1281341314315796, 0.09308736026287079, -0.11181274056434631, -0.08681971579790115, -0.02154720015823841, 0.020918844267725945, -0.089760921895504, 0.06533399969339371, 0.21816274523735046, 0.1825745850801468, -0.0673721581697464, 0.10450702160596848, 0.014386440627276897], [0.060917437076568604, -0.1431664526462555, 0.0467943474650383, 0.07377438247203827, -0.0450894832611084, -0.004303535912185907, 0.0013286846224218607, 0.06992647796869278, -0.03261676803231239, 0.3344668745994568, -0.15203794836997986, 0.21706631779670715, -0.05961106717586517, -0.03473567217588425, 0.1183025985956192, 0.130686953663826, -0.09413265436887741, -0.08279432356357574, -0.08800581097602844, -0.003983086906373501, -0.21131779253482819, -0.07787428796291351, 0.02280849777162075, 0.19251345098018646, -0.3559868037700653, 0.0419498085975647, 0.10335154831409454, -0.20498628914356232, -0.21923425793647766, 0.043520957231521606, -0.03269055485725403, -0.09346950054168701, -0.2553770840167999, -0.1299864947795868, -0.10298071801662445, -0.08989448845386505, -0.09100300818681717, 0.00871753878891468, -0.1359538733959198, -0.0951055958867073, -0.03943729028105736, 0.04166541248559952, 0.02852156199514866, -0.07283534854650497, -0.13634370267391205, -0.21140748262405396, 0.10467183589935303, -0.11506354808807373, -0.18056872487068176, 0.12366804480552673, 0.07713247835636139, -0.10320714861154556, -0.0970701053738594, 0.11149101704359055, -0.027228204533457756, 0.01034835446625948, 0.0932941734790802, 0.10982004553079605, -0.22915177047252655, -0.2328832596540451, 0.0935378298163414, -0.24667410552501678, 0.1299637258052826, 0.10454880446195602, -0.29937946796417236, -0.01971408911049366], [-0.1516990065574646, -0.3359488248825073, -0.13999712467193604, 0.006933342199772596, 0.08257509768009186, -0.29341667890548706, -0.09105794131755829, -0.07439813762903214, -0.1675483137369156, 0.14776740968227386, -0.06719691306352615, 0.04995116963982582, -0.131784126162529, 0.12891565263271332, 0.01790429651737213, 0.1212119460105896, 0.06975069642066956, 0.08421202003955841, -0.10241668671369553, -0.07931075990200043, -0.0274443831294775, -0.03638028725981712, 0.07802794128656387, -0.1289076954126358, -0.2077043354511261, -0.12382563203573227, -0.2337731271982193, 0.05871308222413063, -0.08988113701343536, 0.1163734719157219, 0.09334538131952286, 0.09718836843967438, 0.3329070508480072, -0.02104787528514862, 0.0269605852663517, -0.1335730254650116, -0.1472323089838028, 0.11330442130565643, 0.2035241723060608, -0.04432130977511406, 0.09324706345796585, -0.10648340731859207, -0.07582510262727737, -0.11161749809980392, 0.03557378426194191, -0.1270844042301178, 0.0451849102973938, -0.08347507566213608, -0.019836341962218285, 0.053774163126945496, 0.0015829536132514477, 0.05627916380763054, 0.16939647495746613, -0.041262734681367874, -0.16146966814994812, 0.09453366696834564, 0.03567565605044365, 0.06911786645650864, 0.28621983528137207, -0.14038707315921783, -0.003463605185970664, -0.011892378330230713, -0.03569268435239792, 0.01692386530339718, -0.0020723266061395407, 0.1610420048236847], [0.17207232117652893, 0.20091307163238525, -0.07130283117294312, -0.04545444995164871, -0.19102351367473602, 0.049389783293008804, -0.015330675058066845, 0.17816269397735596, -0.20440445840358734, 0.3708067536354065, 0.006884660106152296, 0.032945532351732254, 0.04196035489439964, -0.07454876601696014, 0.12353364378213882, -0.0721757560968399, 0.07646067440509796, 0.03527446463704109, 0.34256711602211, 0.06844257563352585, 0.04658181965351105, -0.09744391590356827, 0.11120204627513885, -0.03608669340610504, 0.23836302757263184, 0.09398598223924637, -0.18499909341335297, 0.17783808708190918, 0.02546503394842148, -0.193222314119339, 0.0105147585272789, 0.10087651014328003, 0.15634216368198395, -0.10356655716896057, 0.0012130578979849815, -0.16731612384319305, 0.12894949316978455, 0.15114404261112213, 0.012089326977729797, 0.08946903049945831, -0.006590412929654121, -0.03983888775110245, -0.04783749207854271, -0.1008465513586998, 0.05372822284698486, 0.06471814960241318, 0.11524524539709091, -0.2777159810066223, 0.12980635464191437, -0.27097243070602417, 0.15614639222621918, 0.21940752863883972, 0.004778663627803326, -0.08380533009767532, -0.017439158633351326, 0.13674280047416687, -0.04302513599395752, 0.04879581183195114, -0.0880802646279335, 0.057772863656282425, 0.023912053555250168, 0.008152831345796585, 0.0723535418510437, -0.012291510589420795, -0.06844329833984375, 0.023239171132445335], [0.1556534320116043, -0.13929152488708496, -0.06903180480003357, -0.05547938495874405, 0.15553922951221466, -0.15773452818393707, 0.050547122955322266, -0.03986314311623573, -0.3167390823364258, 0.019735662266612053, 0.11404181271791458, 0.2252463400363922, 0.2055833339691162, -0.044270966202020645, 0.04148280248045921, 0.07521595805883408, 0.10947844386100769, -0.28806665539741516, -0.10261120647192001, -0.16417963802814484, 0.06506092846393585, -0.03012242168188095, -0.1586221605539322, 0.11872605979442596, -0.05588153377175331, -0.12329132854938507, 0.00779802817851305, 0.07418212294578552, -0.009192341938614845, 0.0190732479095459, -0.16644668579101562, -0.17983558773994446, -0.09623260051012039, 0.18325474858283997, 0.13098269701004028, -0.00042575731640681624, 0.19383782148361206, -0.22211381793022156, -0.036637116223573685, -0.018023664131760597, 0.06621307134628296, 0.1973835974931717, 0.12930625677108765, -0.04536590725183487, -0.011054467409849167, -0.15183116495609283, -0.03804391622543335, -0.18939658999443054, -0.032573871314525604, -0.0774640366435051, 0.1956915259361267, 0.13496817648410797, -0.10273849964141846, -0.18941965699195862, 0.05995501950383186, -0.03875524923205376, 0.21332159638404846, -0.0634487122297287, 0.06272047013044357, 0.010346290655434132, -0.048993319272994995, 0.15260717272758484, 0.20583951473236084, 0.043742869049310684, 0.08884239941835403, 0.03792141005396843], [0.03759021311998367, 0.16256916522979736, -0.12238495796918869, 0.15105661749839783, -0.3880839943885803, 0.1551128625869751, 0.24959495663642883, 0.03313201293349266, 0.11915615200996399, -0.011448351666331291, 0.261076956987381, -0.28537115454673767, -0.0870223343372345, 0.11194425821304321, 0.02488948218524456, -0.07165159285068512, -0.07607114315032959, -0.01745893619954586, 0.012326713651418686, -0.03438210487365723, -0.16916927695274353, -0.2645516097545624, 0.1798614114522934, -0.08942802250385284, 0.039835721254348755, -0.06600997596979141, 0.1482381373643875, 0.005396377295255661, 0.09438802301883698, 0.0518471822142601, -0.09828681498765945, 0.05406695231795311, 0.06004948541522026, 0.14238207042217255, 0.029023336246609688, 0.0023631181102246046, 0.024616451933979988, 0.025337522849440575, 0.2965417504310608, 0.05345745012164116, 0.10728349536657333, 0.09925846755504608, 0.027998583391308784, -0.056421153247356415, -0.03340484946966171, -0.01300320215523243, -0.16537997126579285, 0.04595925286412239, -0.17202846705913544, -0.11385170370340347, 0.04900691285729408, -0.011112416163086891, 0.28683510422706604, -0.11260981857776642, -0.016874173656105995, 0.051429472863674164, 0.20357806980609894, 0.05762752890586853, 0.026524337008595467, 0.1466955840587616, 0.0847024992108345, 0.18754976987838745, -0.11460987478494644, 0.1439957618713379, -0.1435917764902115, 0.05375923216342926], [0.08885810524225235, -0.1503361463546753, -0.03209870681166649, -0.17942778766155243, 0.008187591098248959, -0.013158801011741161, 0.04719476401805878, -0.024483008310198784, 0.1136183813214302, 0.1896994262933731, -0.025976385921239853, 0.010342428460717201, 0.10641451925039291, 0.012406425550580025, -0.02746542915701866, 0.010039953514933586, -0.4319213628768921, -0.1972278356552124, 0.0960879772901535, 0.1645357310771942, -0.023143677040934563, 0.0604550763964653, 0.023261770606040955, -0.21655699610710144, -0.04882127419114113, 0.035560693591833115, 0.075872503221035, 0.09356873482465744, -0.22886349260807037, -0.07540758699178696, -0.024509254842996597, -0.052691224962472916, -0.04417404904961586, 0.1755947768688202, -0.15255270898342133, -0.09081773459911346, -0.09295868873596191, -0.015430871397256851, 0.07509787380695343, -0.016450928524136543, -0.0475776307284832, -0.09490541368722916, -0.04510214179754257, -0.15334124863147736, 0.187331423163414, 0.006924320477992296, -0.017412396147847176, -0.06616991013288498, -0.0771058201789856, -0.028788724914193153, 0.1516352891921997, 0.08603331446647644, 0.12933236360549927, -0.030814213678240776, 0.04946552962064743, -0.3590848445892334, -0.18095630407333374, 0.06872497498989105, -0.06885981559753418, -0.05357908084988594, 0.13854095339775085, 0.19169563055038452, 0.021427113562822342, -0.1292828619480133, 0.25279831886291504, 0.03509886562824249], [-0.008339970372617245, -0.027307847514748573, 0.2109878659248352, -0.19644859433174133, 0.12411978095769882, -0.05013247951865196, 0.10706675052642822, 0.015511484816670418, -0.1626836508512497, -0.16275565326213837, 0.05802220478653908, 0.1703151911497116, 0.1511937379837036, 0.024572381749749184, 0.2547222673892975, -0.16225825250148773, -0.23064137995243073, -0.019804125651717186, 0.04641607031226158, 0.04588604345917702, -0.15348175168037415, -0.06228531524538994, -0.09945051372051239, 0.019954772666096687, -0.0965048298239708, -0.0004619991814251989, -0.20058904588222504, 0.2084563970565796, -0.029910333454608917, -0.10439974814653397, 0.13993395864963531, 0.0028574925381690264, -0.09563340991735458, -0.07949071377515793, -0.04607260227203369, -0.15223060548305511, -0.07794933021068573, 0.1727943867444992, 0.20527808368206024, -0.024878693744540215, -0.15647265315055847, 0.00733993761241436, 0.15215499699115753, 0.3209012746810913, -0.21880756318569183, -0.08761249482631683, -0.20034725964069366, -0.26768118143081665, -0.006130532827228308, -0.010480828583240509, 0.0062718442641198635, -0.027230994775891304, 0.18459436297416687, -0.09143299609422684, 0.020367396995425224, 0.10738879442214966, 0.15564699470996857, -0.17199760675430298, -0.10521836578845978, -0.13826899230480194, -0.06610386818647385, -0.019100621342658997, -0.09901571273803711, -0.14110498130321503, 0.09985806792974472, -0.045139867812395096], [0.11908189952373505, -0.08031782507896423, -0.03582388907670975, 0.15347500145435333, -0.12193738669157028, 0.23530317842960358, -0.17035897076129913, 0.2009192407131195, -0.07771028578281403, 0.15384608507156372, -0.11706005781888962, 0.095670685172081, 0.21094360947608948, 0.17828775942325592, -0.1325695961713791, -0.11747036874294281, 0.11558058112859726, -0.15335753560066223, -0.11731882393360138, -0.10955847054719925, -0.0604693703353405, -0.017395220696926117, 0.09740935266017914, -0.10257460922002792, -0.06424372643232346, -0.12632036209106445, -0.11678373068571091, 0.09472335129976273, -0.06339713931083679, 0.13216441869735718, 0.0698203593492508, -0.029454052448272705, -0.10768571496009827, -0.13935935497283936, 0.07438506186008453, -0.07664770632982254, 0.1664768010377884, -0.0512106753885746, 0.024519596248865128, -0.2703433632850647, -0.07888288795948029, 0.08136848360300064, 0.025214698165655136, 0.07278788089752197, 0.005096977110952139, -0.03709406405687332, 0.004527611657977104, 0.03207992762327194, 0.09085434675216675, 0.043567340821027756, 0.07064532488584518, -0.09679026901721954, 0.14989054203033447, 0.31483063101768494, -0.028140094131231308, 0.11736490577459335, -0.11145128309726715, 0.04591783136129379, -0.028768813237547874, -0.014722198247909546, -0.03256906196475029, 0.1024760976433754, 0.03203297406435013, -0.23322008550167084, 0.20756593346595764, 0.08519193530082703], [-0.06199361011385918, -0.08661194145679474, -0.12388472259044647, -0.06606224179267883, 0.08657369017601013, -0.027836346998810768, 0.19776655733585358, 0.17708347737789154, 0.00967415887862444, -0.04155693203210831, 0.16038377583026886, -0.21258381009101868, -0.008516388013958931, -0.1884726881980896, -0.11741005629301071, -0.12703005969524384, 0.1945744752883911, -0.25150540471076965, 0.1455821841955185, -0.00622202455997467, -0.054580431431531906, -0.14689573645591736, -0.05866321548819542, 0.12956812977790833, -0.04868211969733238, -0.13928665220737457, -0.18860021233558655, 0.12873739004135132, -0.20411451160907745, 0.07213203608989716, 0.18902631103992462, 0.0456816703081131, -0.14690911769866943, 0.08207004517316818, 0.028654908761382103, -0.0975094735622406, -0.17301218211650848, 0.15875080227851868, -0.16865591704845428, 0.14848312735557556, 0.07859274744987488, 0.11410097032785416, -0.07756451517343521, -0.09449097514152527, 0.08378876745700836, -0.10925667732954025, -0.10853815823793411, 0.08086065948009491, -0.052301663905382156, 0.11959725618362427, 0.21004028618335724, -0.12692970037460327, -0.10219711810350418, 0.09038789570331573, 0.04353473335504532, 0.020114241167902946, -0.13081081211566925, -0.029280202463269234, -0.023900067433714867, 0.06625697016716003, 0.12589459121227264, -0.3458244204521179, -0.006189664360135794, 0.020409347489476204, 0.14963297545909882, 0.09442779421806335], [-0.10171322524547577, -0.15145330131053925, -0.013587621971964836, -0.010946971364319324, -0.06876407563686371, -0.1345852017402649, -0.05815112963318825, -0.14145171642303467, -0.11225558817386627, 0.11705594509840012, -0.12399539351463318, -0.03449413552880287, -0.026878470554947853, -0.08237461000680923, 0.06100314483046532, -0.057539843022823334, -0.017593178898096085, -0.1691112220287323, 0.2120562195777893, -0.30486926436424255, -0.03164415806531906, 0.1356799155473709, 0.12014247477054596, 0.08250699192285538, 0.04696374014019966, -0.041960567235946655, 0.10153008252382278, 0.1226363405585289, -0.10290301591157913, -0.16519339382648468, -0.13170084357261658, -0.08676407486200333, 0.05509450286626816, 0.12976814806461334, 0.17048496007919312, 0.10116218030452728, -0.0732642263174057, 0.2406991422176361, 0.1241212710738182, -0.2674393653869629, 0.10095290839672089, 0.060781080275774, 0.13853922486305237, 0.1921168565750122, 0.16930459439754486, -0.005004681646823883, 0.04314923286437988, 0.160049706697464, 0.010889197699725628, 0.10917014628648758, -0.13157762587070465, -0.03901192545890808, 0.09984429180622101, -0.013135003857314587, 0.11068263649940491, 0.09348171204328537, -0.09740740805864334, 0.09069579094648361, -0.20424427092075348, 0.15051105618476868, -0.1066792905330658, 0.0023353726137429476, 0.016678757965564728, -0.05979184806346893, -0.10805879533290863, -0.21307869255542755], [-0.011553606949746609, -0.20589947700500488, 0.04206014797091484, 0.12169399857521057, -0.1690979301929474, -0.1043049544095993, -0.07296788692474365, 0.08916269242763519, -0.18801778554916382, -0.16375814378261566, 0.01551043801009655, 0.3202299177646637, -0.12576283514499664, -0.06482834368944168, 0.0070203691720962524, 0.060216717422008514, -0.08698974549770355, -0.04840884357690811, 0.011063423939049244, 0.05251893401145935, 0.1025998443365097, -0.010406152345240116, -0.12397456914186478, 0.1754954606294632, -0.27691975235939026, 0.02079964429140091, -0.07387176901102066, 0.1445564329624176, -0.027893438935279846, -0.03848059102892876, 0.22838746011257172, -0.12409196048974991, -0.15262918174266815, 0.012023870833218098, 0.03190290927886963, -0.04016644135117531, 0.16577668488025665, 0.21352893114089966, -0.1057189404964447, 0.1656886637210846, 0.14487260580062866, 0.08530604094266891, 0.15250512957572937, 0.06708855926990509, 0.1761796474456787, 0.04092022776603699, 0.18544042110443115, -0.20426495373249054, -0.0993906781077385, -0.10958550870418549, -0.2199116200208664, -0.12529000639915466, -0.07405584305524826, 0.1294611245393753, -0.021425407379865646, -0.19175638258457184, -0.09879995137453079, -0.17079290747642517, -0.16778843104839325, 0.23900622129440308, -3.161477070534602e-05, 0.3570040166378021, -0.08433806151151657, -0.01597725972533226, -0.20275472104549408, 0.1721460074186325], [-0.16885393857955933, 0.03785134106874466, -0.2754884660243988, -0.07006901502609253, 0.04753851518034935, 0.1395302563905716, 0.042096517980098724, -0.16012248396873474, 0.05445044860243797, 0.1201443299651146, -0.19203971326351166, 0.25721123814582825, 0.023732244968414307, 0.002568719210103154, 0.020195726305246353, -0.09562269598245621, -0.032149530947208405, 0.05186297371983528, 0.15320302546024323, -0.056066203862428665, -0.08292175829410553, -0.10262639075517654, 0.0995064303278923, 0.0833752304315567, -0.34244802594184875, -0.11111028492450714, 0.0358128659427166, -0.09526289254426956, -0.16683150827884674, 0.172501802444458, 0.15807552635669708, -0.30672216415405273, -0.14289817214012146, 0.09099995344877243, 0.058160096406936646, -0.1873103529214859, 0.036954235285520554, -0.06861314177513123, -0.2292262762784958, 0.07309627532958984, 0.041716840118169785, -0.05358453467488289, 0.04132829234004021, 0.15275529026985168, 0.009055652655661106, 0.2576545774936676, 0.09871513396501541, 0.0033732440788298845, 0.05936264619231224, -0.09462718665599823, -0.15223486721515656, 0.1481652855873108, 0.03987835720181465, -0.0200375746935606, -0.0019939204212278128, 0.0453718826174736, 0.1753917783498764, -0.3338155746459961, 0.09023840725421906, 0.050023823976516724, -0.07353014498949051, -0.12447427958250046, 0.09952794760465622, -0.11374353617429733, 0.027217721566557884, -0.15354429185390472], [-0.0032691541127860546, -0.2494763284921646, -0.08682269603013992, 0.005612844135612249, -0.006676569115370512, 0.11735372245311737, 0.23417934775352478, 0.05002892389893532, 0.14529050886631012, 0.0008669173112139106, 0.08407766371965408, 0.02550799958407879, 0.04923798143863678, 0.21647390723228455, -0.06014525517821312, -0.21429777145385742, 0.07731954753398895, -0.00845392420887947, -0.2013148069381714, -0.14321976900100708, 0.2570129930973053, 0.31888800859451294, 0.0704553872346878, -0.025457413867115974, -0.1313994824886322, 0.035652004182338715, 0.07715111970901489, 0.03261207416653633, -0.0855577141046524, -0.01846059039235115, -0.10519678890705109, -0.05799229443073273, -0.1797763705253601, -0.006373194511979818, 0.15750287473201752, 0.07482096552848816, -0.02694621868431568, 0.2476535141468048, 0.061090629547834396, 0.040730010718107224, -0.09641897678375244, -0.16263726353645325, -0.012197322212159634, 0.010241741314530373, 0.12019120156764984, -0.1812824010848999, 0.09877544641494751, -0.21178334951400757, 0.21772052347660065, -0.001957997214049101, 0.044860996305942535, 0.11786554753780365, -0.12010014057159424, -0.07611269503831863, -0.0036631752736866474, 0.17005836963653564, -0.02276747114956379, -0.1876470297574997, -0.09897811710834503, -0.20829643309116364, 0.1700277179479599, -0.1470247358083725, 0.06904307007789612, -0.09335803985595703, -0.11004558205604553, 0.06270254403352737], [0.04998009651899338, 0.1019449308514595, -0.1936851292848587, -0.11762735247612, -0.014764588326215744, -0.008294191211462021, -0.3231492340564728, -0.13502618670463562, 0.05232768505811691, -0.1919582486152649, 0.021200459450483322, -0.0690460354089737, 0.17166785895824432, -0.08412260562181473, 0.1464402973651886, -0.08195679634809494, 0.10444973409175873, 0.0862366333603859, 0.12277912348508835, -0.019932443276047707, 0.10227116197347641, 0.09522348642349243, 0.03853083401918411, 0.04292568564414978, -0.008367693051695824, -0.045766815543174744, 0.013092856854200363, -0.2413964867591858, 0.054494358599185944, 0.18172764778137207, -0.15944869816303253, 0.22475804388523102, -0.0031483725178986788, 0.15485598146915436, -0.07518637925386429, -0.05778392031788826, 0.1430024653673172, 0.17292238771915436, 0.0780063048005104, -0.014326986856758595, -0.11549656093120575, -0.07947602868080139, -0.015796471387147903, -0.038916103541851044, 0.1322733461856842, -0.05858840048313141, -0.1530061811208725, -0.15614053606987, -0.13898791372776031, -0.25188735127449036, -0.09391120076179504, -0.2270885556936264, -0.015652209520339966, 0.13068784773349762, -0.0026389374397695065, -0.021411539986729622, 0.09047950059175491, 0.3282962441444397, -0.06020978093147278, 0.09508576989173889, 0.14324666559696198, -0.07829627394676208, 0.029486943036317825, -0.09025172889232635, 0.06232481822371483, -0.034929703921079636], [-0.08620133996009827, -0.2108815312385559, -0.0696202740073204, 0.05570904538035393, 0.03530844673514366, 0.2409830540418625, -0.2911767363548279, 0.34421831369400024, -0.030290644615888596, -0.16383610665798187, -0.06481634080410004, 0.09147849678993225, -0.1419234573841095, 0.1086711511015892, 0.09796439111232758, -0.014363106340169907, -0.12301827222108841, -0.07009860128164291, 0.013757195323705673, -0.16458000242710114, 0.05244344100356102, -0.04305245354771614, -0.13827703893184662, 0.0709424540400505, -0.16165302693843842, -0.11981696635484695, 0.06147557124495506, 0.06313372403383255, -0.018925201147794724, -0.08257173001766205, -0.05533013120293617, 0.03177781403064728, 0.16127395629882812, 0.12153179198503494, -0.034899238497018814, -0.1464831829071045, 0.0010809118393808603, -0.1562289297580719, -0.0037414769176393747, 0.1674862951040268, -0.125493124127388, 0.062216341495513916, -0.08576560020446777, 0.2108052372932434, 0.09818009287118912, 0.14490093290805817, -0.058430448174476624, -0.07637955993413925, 0.15687090158462524, 0.09586527198553085, 0.140020489692688, 0.15178260207176208, 0.17231398820877075, -0.16102032363414764, 0.10415942221879959, -0.16076409816741943, 0.009332796558737755, 0.03558172285556793, -0.18129581212997437, -0.030597299337387085, -0.10084635019302368, -0.15959112346172333, 0.026850121095776558, 0.06765496730804443, -0.1642359048128128, 0.11202104389667511], [0.06221994012594223, -0.026433955878019333, -0.28146401047706604, 0.021078843623399734, 0.02925996109843254, -0.06190425902605057, -0.13036522269248962, -0.04074261710047722, 0.05096054822206497, 0.11707573384046555, -0.06362036615610123, 0.10605491697788239, 0.059140898287296295, 0.03440065309405327, 0.0011825158726423979, -0.029146958142518997, -0.06227812170982361, 0.042303528636693954, -0.10535100847482681, 0.06309781223535538, 0.27559080719947815, 0.023157276213169098, 0.10444637387990952, 0.056668661534786224, -0.013301250524818897, 0.09678349643945694, -0.04999830946326256, -0.06252864748239517, 0.03600628674030304, -0.06357643753290176, 0.26805761456489563, 0.058310363441705704, 0.027420734986662865, -0.06834318488836288, 0.09406876564025879, 0.1114061176776886, -0.28252682089805603, -0.07766004651784897, 0.06148431450128555, 0.09240289777517319, -0.05584004148840904, 0.3097670376300812, -0.14767193794250488, -0.0018083850154653192, -0.05272598937153816, -0.18632018566131592, 0.02387956716120243, 0.12194237112998962, -0.050691671669483185, -0.16306667029857635, -0.06884539127349854, -0.17696444690227509, 0.04611368477344513, -0.1471661478281021, 0.07932574301958084, 0.0070439595729112625, 0.09224299341440201, -0.19689758121967316, -0.28211790323257446, 0.09066852182149887, -0.0824207067489624, 0.012138827703893185, 0.17011426389217377, 0.21706096827983856, 0.05785908177495003, -0.17953932285308838], [0.06038207933306694, -0.1705862581729889, 0.2770586311817169, 0.12467589974403381, -0.16017644107341766, -0.09328226000070572, 0.03492027148604393, 0.12956026196479797, 0.12244366109371185, 0.01574220508337021, 0.1549987941980362, 0.2623143792152405, 0.06697507202625275, -0.146304652094841, 0.06997880339622498, 0.059216953814029694, -0.13892747461795807, 0.14969201385974884, 0.004019856918603182, -0.16574615240097046, -0.07299424707889557, -0.08052417635917664, -0.1587018221616745, -0.13960330188274384, -0.14469590783119202, -0.008596441708505154, -0.1951313465833664, -0.06788069009780884, -0.03888274356722832, -0.09470246732234955, -0.19964712858200073, 0.06558797508478165, 0.05377672612667084, 0.012100760824978352, 0.09935978055000305, -0.01061011292040348, 0.12745270133018494, 0.20357663929462433, 0.03907819837331772, 0.022689681500196457, -0.14617076516151428, 0.1317625343799591, -0.22522835433483124, 0.023190313950181007, -0.005246005952358246, -0.004131310619413853, 0.15260612964630127, 0.25909423828125, -0.01203724555671215, -0.08701235800981522, -0.036838509142398834, 0.31326502561569214, -0.07153195887804031, -0.12047865241765976, 0.07136111706495285, 0.13859638571739197, 0.13779732584953308, 0.17890390753746033, -0.014117628335952759, 0.05192934349179268, -0.0627627745270729, -0.04399044066667557, -0.015974147245287895, -0.09917287528514862, 0.20743341743946075, -0.049304407089948654], [0.060226842761039734, -0.0925513207912445, -0.018289245665073395, -0.08155984431505203, -0.1685006022453308, -0.17077532410621643, 0.022213470190763474, -0.08795477449893951, -0.004114200361073017, -0.07427945733070374, -0.04470045119524002, 0.07683808356523514, 0.1665884554386139, 0.09113806486129761, 0.07817205786705017, -0.11070539057254791, -0.005969973746687174, 0.0630367323756218, -0.16131006181240082, -0.28220149874687195, -0.02319270372390747, -0.004304634407162666, 0.19387266039848328, 0.030634770169854164, -0.04273927956819534, -0.11009044945240021, -0.22454902529716492, -0.21214629709720612, -0.2211264967918396, -0.16468149423599243, 0.011903232894837856, 0.028742806985974312, 0.08229095488786697, 0.129203662276268, -0.07980528473854065, -0.010498711839318275, -0.019803373143076897, -0.005021791905164719, -0.12749755382537842, 0.17007304728031158, 0.14655709266662598, 0.0017270699609071016, 0.20270773768424988, -0.0955125018954277, -0.361075222492218, 0.13056349754333496, 0.027086518704891205, 0.13609977066516876, 0.21607068181037903, -0.08263345807790756, 0.11391492933034897, -0.04874163493514061, -0.10479407012462616, 0.07961814105510712, 0.2491270750761032, -0.09187550842761993, -0.14039796590805054, 0.00799623690545559, -0.11998944729566574, -0.17368222773075104, 0.15102502703666687, -0.03872722014784813, -0.03087756782770157, 0.007916543632745743, -0.011746718548238277, 0.043964970856904984], [-0.07205786556005478, -0.05245925486087799, -0.153530091047287, -0.0798678919672966, 0.2858310341835022, -0.0008289006655104458, 0.14903412759304047, -0.09102953970432281, 0.03264268860220909, -0.05381873622536659, -0.0071754418313503265, -0.28493252396583557, 0.1133802980184555, 0.04400470852851868, -0.06661912798881531, 0.06830853968858719, -0.19076327979564667, 0.04119565337896347, -0.008868778124451637, 0.09572282433509827, -0.1014745756983757, 0.009354421868920326, 0.09418443590402603, -0.14586499333381653, 0.1657031923532486, -0.0018166129011660814, -0.19698135554790497, -0.002931349677965045, 0.2580690383911133, 0.026205724105238914, -0.2148933708667755, 0.11589401960372925, 0.0063014402985572815, 0.026411989703774452, -0.13667458295822144, 0.1676659733057022, 0.14128071069717407, -0.02651250921189785, 0.02766207419335842, 0.08137829601764679, 0.16763143241405487, 0.03474631533026695, -0.023651981726288795, 0.1447353959083557, -0.061835307627916336, 0.16036126017570496, 0.2790346145629883, -0.07794827967882156, -0.06868357211351395, 0.021167894825339317, 0.07352292537689209, 0.0452299602329731, 0.16983018815517426, 0.11956068128347397, -0.05350612848997116, 0.2939608097076416, -0.12942290306091309, 0.20382802188396454, -0.19807462394237518, 0.05288226529955864, 0.045000214129686356, -0.037027258425951004, 0.18056069314479828, 0.15777385234832764, 0.0005950377089902759, 0.20939324796199799], [0.281592458486557, -0.01955179125070572, -0.11406812816858292, -0.020652715116739273, 0.06969188898801804, 0.02674051560461521, 0.08464601635932922, -0.05108526349067688, 0.10228123515844345, -0.21594636142253876, -0.10314323753118515, -0.03968042880296707, 0.31488269567489624, 0.2026514858007431, -0.16368065774440765, 0.24193553626537323, -0.026343652978539467, 0.1026468351483345, 0.16102182865142822, 0.030677657574415207, 0.055412113666534424, -0.10522317886352539, -0.02893228828907013, -0.04585975036025047, -0.1126808300614357, -0.26344430446624756, 0.094975546002388, -0.10351525992155075, -0.10545317828655243, -0.07896751165390015, 0.11643818020820618, -0.04475612938404083, 0.2256249040365219, -0.11645368486642838, 0.08061724901199341, 0.13342298567295074, 0.034814298152923584, 0.1821436733007431, -0.10449949651956558, 0.014256699942052364, -0.028337908908724785, -0.22401650249958038, 0.06395760178565979, -0.15396925806999207, 0.0405033715069294, -0.1366773396730423, 0.039976585656404495, -0.0540054515004158, -0.012941217049956322, 0.13500435650348663, 0.1835256963968277, 0.02111762762069702, -0.019202830269932747, 0.07940148562192917, 0.12860755622386932, 0.017618246376514435, 0.10833802074193954, -0.021025190129876137, -0.14064152538776398, -0.0006622400251217186, -0.33752140402793884, -0.013752615079283714, -0.18170705437660217, 0.012570546008646488, -0.15209248661994934, -0.06517956405878067]]

Nombre del Parámetro: module.0.module.0.0.bias
Pesos:
[0.08612250536680222, -0.09135432541370392, 0.1403883546590805, 0.06304168701171875, 0.021063482388854027, -0.03943479806184769, 0.01146658044308424, -0.11426350474357605, 0.028500430285930634, -0.07145270705223083, 0.0921560600399971, 0.07889464497566223, 0.09922993928194046, -0.10586965084075928, 0.11500167846679688, 0.14918312430381775, -0.12561015784740448, 0.09961562603712082, -0.11301059275865555, 0.08876126259565353, -0.05198243632912636, -0.0797731950879097, -0.11424580216407776, 0.02811925858259201, 0.09686334431171417, 0.10687683522701263, 0.0912368968129158, 0.0186843890696764, -0.07002737373113632, -0.12025174498558044, -0.07129734754562378, 0.07508593797683716, -0.05684339627623558, -0.08076934516429901, 0.07883813232183456, -0.0728137269616127, -0.09008143097162247, 0.09242803603410721, -0.10109834372997284, -0.11373944580554962, 0.06837362796068192, 0.09405522048473358, 0.023546727374196053, -0.010556288063526154, -0.12887907028198242, -0.07729912549257278, 0.09146135300397873, -0.07831525802612305, 0.08459734916687012, -0.04589571803808212, -0.11030498147010803, -0.11526453495025635, -0.07308334857225418, -0.012167645618319511, -0.07335871458053589, -0.028252361342310905, -0.09143850207328796, 0.1242997869849205, -0.1000499352812767, -0.1143868938088417, -0.09502407908439636, -0.03193537890911102, 0.04088715836405754, -0.008426858112215996]

Nombre del Parámetro: module.0.module.0.2.weight
Pesos:
